tree
version=v4
num_class=3
num_tree_per_iteration=3
label_index=0
max_feature_idx=97
objective=multiclass num_class:3
feature_names=Column_0 Column_1 Column_2 Column_3 Column_4 Column_5 Column_6 Column_7 Column_8 Column_9 Column_10 Column_11 Column_12 Column_13 Column_14 Column_15 Column_16 Column_17 Column_18 Column_19 Column_20 Column_21 Column_22 Column_23 Column_24 Column_25 Column_26 Column_27 Column_28 Column_29 Column_30 Column_31 Column_32 Column_33 Column_34 Column_35 Column_36 Column_37 Column_38 Column_39 Column_40 Column_41 Column_42 Column_43 Column_44 Column_45 Column_46 Column_47 Column_48 Column_49 Column_50 Column_51 Column_52 Column_53 Column_54 Column_55 Column_56 Column_57 Column_58 Column_59 Column_60 Column_61 Column_62 Column_63 Column_64 Column_65 Column_66 Column_67 Column_68 Column_69 Column_70 Column_71 Column_72 Column_73 Column_74 Column_75 Column_76 Column_77 Column_78 Column_79 Column_80 Column_81 Column_82 Column_83 Column_84 Column_85 Column_86 Column_87 Column_88 Column_89 Column_90 Column_91 Column_92 Column_93 Column_94 Column_95 Column_96 Column_97
feature_infos=[-0.98513424396514893:0.99637222290039062] [0:1] [0:1] [0:1] [1:22] [-0.99606835842132568:0.49196404218673706] [0:0.5] [0:1] [0:1] [1:47] [-0.99465656280517578:0.97886776924133301] [0:1] [0:1] [0:1] [1:20] [-0.99606835842132568:0.49887034296989441] [0:0.5] [0:1] [0:1] [0:62] [0:1] [0:10] [-0.99606835842132568:0.49887034296989441] [-0.99606835842132568:0.49887034296989441] [-0.99606835842132568:0.49887034296989441] [-0.48645013570785522:0.16696842014789581] [-0.24897055327892303:0.072203166782855988] [0:0.43076425790786743] [0:226] [0:134] [11.859999656677246:52.330001831054688] [-0.35753870010375977:0.74039065837860107] [-0.4833453893661499:1.4037666320800781] [-2.3986294269561768:2.4474601745605469] [-3.1182084083557129:4.8756499290466309] [11.859999656677246:52.330001831054688] [11.859999656677246:52.330001831054688] [11.859999656677246:52.330001831054688] [11.859999656677246:52.330001831054688] [114.177001953125:130.04130554199219] [-0.013113552704453468:0.011120045557618141] [-0.027071729302406311:0.027545707300305367] [-2.4297442436218262:2.4443871974945068] [-3.9001622200012207:3.5369713306427002] [114.177001953125:130.04130554199219] [114.177001953125:130.04130554199219] [114.177001953125:130.04130554199219] [114.177001953125:130.04130554199219] [-94.763969421386719:56.95343017578125] none [-4.7008504867553711:2889.839599609375] [-2.4494898319244385:2.4494898319244385] [-5.385164737701416:5.385164737701416] [-94.763969421386719:56.95343017578125] [-94.763969421386719:56.95343017578125] [-94.763969421386719:56.95343017578125] [-94.763969421386719:56.95343017578125] [-0.42247745394706726:0.32531437277793884] [-0.56836295127868652:0.48166260123252869] [-0.60487806797027588:0.85038167238235474] [-0.65203249454498291:1.4312938451766968] [0.0091559551656246185:0.25387746095657349] [0.013004169799387455:0.18035377562046051] [0.025345722213387489:0.13045030832290649] [20.974861145019531:88.248680114746094] [-19.833511352539062:21.002689361572266] [-17.828790664672852:18.639242172241211] [-6.367365837097168:7.2521390914916992] [10.232856750488281:252.96427917480469] [11.482999801635742:239.77900695800781] [12.732600212097168:221.83120727539062] [10.762374877929688:239.87899780273438] [11.907796859741211:229.03732299804688] [13.771121025085449:283.17727661132812] [1.9613064527511597:221.95574951171875] [0.096126057207584381:1.7927289009094238] [0.8197827935218811:22.224498748779297] [-0.71228951215744019:7.7115626335144043] [-2.4479606151580811:16.301849365234375] [-0.67940378189086914:0] [-0.42247745394706726:0.32531437277793884] [0.0022689178586006165:0.10487604141235352] [0.011734694242477417:0.49261689186096191] [620087.375:34965020] [1.0120105743408203:2.0349369049072266] [-0.11271713674068451:0.13094706833362579] [0:1] [-0.15379838645458221:0.14485582709312439] [-0.2383464127779007:0.20691065490245819] [-0.33259490132331848:0.35951325297355652] [0.0031643849797546864:0.085850544273853302] [0.0087705496698617935:0.050428587943315506] [18.635524749755859:89.3983154296875] [-5907.96484375:7019.05517578125] [0:1] [0:1] [-2.3075559139251709:15.573112487792969] [-0.40345379710197449:0]
tree_sizes=3308 3376 3305 3440 3436 3439 3420 3458 3434 3434 3463 3460 3226 3469 3417 3440 3461 3448 3450 3451 3445 3464 3435 3450 3447 3456 3441 3449 3474 3429

Tree=0
num_leaves=31
num_cat=0
split_feature=47 9 48 38 54 89 15 96 52 68 43 59 35 37 70 67 72 56 43 35 47 36 5 37 87 68 5 88 81 96
split_gain=18.0733 12.8418 8.07356 12.1407 9.28183 8.0251 7.14293 6.92046 6.74248 13.5255 6.68374 7.15101 5.92258 7.71258 6.43759 6.16386 5.86592 5.84168 5.11484 5.09166 4.63991 8.39074 4.41721 4.38537 3.06792 2.58746 3.25088 3.82557 2.29435 1.57761
threshold=118.94640350341798 19.500000000000004 7.0048747062683114 30.110000610351566 -55.577751159667962 -0.032596588134765618 -0.0003007843042723834 -1.2022660970687864 -0.36278280615806574 117.26142501831056 -1.9267246127128599 -0.11707542091608046 15.434999942779543 19.765000343322757 150.4060974121094 0.18684124201536181 204.84548187255862 47.350072860717781 0.58501121401786815 24.360000610351566 124.88185119628908 22.399999618530277 0.00031493586720898753 20.505000114440922 -0.0012824203586205838 21.644285202026371 0.0011547695612534883 0.0046522631309926519 0.01863800268620253 0.17820727825164798
decision_type=2 10 2 2 2 2 2 2 10 2 2 2 2 2 10 10 2 2 2 2 2 2 8 2 2 2 8 2 2 2
left_child=8 2 4 10 5 -2 -6 -8 17 19 -4 -12 18 14 -14 -15 20 28 24 -10 21 22 -9 -7 -13 -24 29 -28 -1 -27
right_child=1 -3 3 -5 6 23 7 16 9 -11 11 12 13 15 -16 -17 -18 -19 -20 -21 -22 -23 25 -25 -26 26 27 -29 -30 -31
leaf_value=-1.1580509375621175 -1.2167604722870704 -1.1756104798720308 -1.2255297607115188 -1.1705889808809598 -1.2227957350839695 -1.1727840772476623 -1.1895804355077986 -1.1994446376688248 -1.2237948304331878 -1.1698396280566938 -1.2179592333314799 -1.2258304505931501 -1.2004692010168476 -1.2202737048355712 -1.1703773406658957 -1.190720182132684 -1.1917880804259386 -1.1955500013310936 -1.1931069085535668 -1.1961870011090565 -1.2275997148185327 -1.188204569204951 -1.2265200366177929 -1.1995249888254405 -1.2050229946332636 -1.212517449104052 -1.2159902967567064 -1.1931813853583288 -1.1823390862385903 -1.2286529974032379
leaf_weight=10.089188575744634 9.4586142897605914 11.980911433696745 9.7739014327526075 10.404475718736647 42.879051446914673 11.350337147712709 14.187921434640883 15.133782863616949 11.350337147712709 9.7739014327526075 17.340792864561081 10.40447571873665 9.773901432752611 10.089188575744631 18.28665429353714 13.872634291648863 11.980911433696745 11.665624290704725 16.394931435585022 11.035050004720686 16.394931435585022 12.296198576688765 18.917228579521179 10.404475718736647 15.133782863616942 13.55734714865685 12.926772862672804 11.665624290704725 9.4586142897605878 11.350337147712706
leaf_count=32 30 38 31 33 136 36 45 48 36 31 55 33 31 32 58 44 38 37 52 35 52 39 60 33 48 43 41 37 30 36
internal_value=-1.20228 -1.20492 -1.20601 -1.20018 -1.20962 -1.19469 -1.21221 -1.20881 -1.18765 -1.19754 -1.20296 -1.20079 -1.19749 -1.19082 -1.18043 -1.20338 -1.21109 -1.17793 -1.20585 -1.2105 -1.21323 -1.21054 -1.21395 -1.18489 -1.21406 -1.21716 -1.21317 -1.20523 -1.16826 -1.2206
internal_weight=419.332 355.959 343.978 131.475 212.504 31.2134 181.29 138.411 63.3727 32.1593 121.07 111.296 93.9556 52.0224 28.0606 23.9618 124.223 31.2134 41.9332 22.3854 112.242 95.8473 83.5511 21.7548 25.5383 68.4173 49.5001 24.5924 19.5478 24.9077
internal_count=1330 1129 1091 417 674 99 575 439 201 102 384 353 298 165 89 76 394 99 133 71 356 304 265 69 81 217 157 78 62 79
is_linear=0
shrinkage=1


Tree=1
num_leaves=31
num_cat=0
split_feature=55 51 84 76 10 91 55 82 85 5 33 52 87 67 78 64 5 36 65 68 22 92 93 63 67 5 58 85 52 97
split_gain=13.408 8.63154 8.59697 6.72983 6.02942 7.91088 7.08914 5.62128 8.86223 7.33986 7.09296 6.44876 5.50401 7.51649 5.27551 5.113 7.00438 5.75322 5.023 4.28943 3.70195 3.48185 4.1715 3.31453 3.06473 2.96443 2.79211 5.11867 2.69614 2.64755
threshold=24.619791030883793 -1.3679196834564207 1.6067199707031252 1.9694496393203738 0.00034329525078646844 0.02125501818954945 -32.908664703369134 0.078030969947576537 -0.011935962364077566 -2.1357885088946201e-05 -0.21458021551370618 -0.62883818149566639 0.013577878475189211 -0.04494009725749492 0.64579522609710704 38.833909988403327 0.0010573747567832472 16.750000000000004 0.9173344373703004 20.612142562866214 -7.3574075940996395e-05 46.672794342041023 1025.710632324219 0.04298080503940583 0.77595031261444103 0.00012104122288292275 0.047755539417266853 -0.0023775276495143767 -0.22647828608751294 -0.026026308536529538
decision_type=2 8 2 2 8 2 2 2 2 8 2 8 2 10 2 2 8 2 2 2 2 2 2 2 8 10 2 2 10 2
left_child=1 -1 4 14 -3 6 -6 9 -9 -7 -10 -11 15 -14 19 -5 17 23 -19 -4 -2 -13 -23 -17 25 -22 27 -8 -21 -15
right_child=20 2 3 12 5 7 26 8 10 11 -12 21 13 29 -16 16 -18 18 -20 28 24 22 -24 -25 -26 -27 -28 -29 -30 -31
leaf_value=-0.89175880705673904 -0.91609904835501033 -0.89821386124246139 -0.91937637610863299 -0.94249524690640174 -0.9047078996044472 -0.88859069569110194 -0.92078451206380174 -0.89796928538427701 -0.90980943805830827 -0.92493411077868926 -0.9373774844416437 -0.88997637409493158 -0.90007274751752697 -0.93642577400370264 -0.92681502044717512 -0.90032652819916847 -0.93772973483147493 -0.93712049393595254 -0.91317324485174656 -0.91098336132419322 -0.93385264304643056 -0.92370456766394793 -0.89826215498443851 -0.92082271146945038 -0.94691134558178447 -0.91675078279432287 -0.91573817163284577 -0.94283494425965908 -0.88991738477827442 -0.9160718438600951
leaf_weight=11.510756492614744 13.309312194585798 21.94237956404686 14.748156756162642 18.345268160104752 13.669023334980009 17.985557019710541 18.345268160104748 12.949601054191588 13.309312194585798 17.985557019710541 19.784112721681595 11.151045352220534 15.827290177345274 10.791334211826323 15.827290177345274 14.748156756162645 26.6186243891716 19.424401581287388 12.230178773403166 10.791334211826323 35.611402899026871 10.791334211826326 10.791334211826323 12.589889913797377 11.510756492614744 11.870467633008955 11.510756492614744 19.064690440893177 12.58988991379738 10.791334211826326
leaf_count=32 37 61 41 51 38 50 51 36 37 50 55 31 44 30 44 41 74 54 34 30 99 30 30 35 32 33 32 53 35 30
internal_value=-0.918422 -0.916296 -0.917078 -0.921544 -0.912708 -0.914606 -0.92314 -0.909953 -0.918101 -0.90458 -0.926355 -0.910722 -0.924974 -0.915175 -0.912606 -0.9285 -0.925261 -0.919411 -0.927983 -0.906651 -0.930234 -0.90296 -0.910642 -0.909508 -0.933412 -0.929625 -0.928467 -0.932358 -0.898925 -0.926584
internal_weight=478.416 406.114 394.603 195.323 199.28 177.338 62.5897 114.748 46.043 68.7048 33.0934 50.7193 141.366 37.41 53.9567 103.957 85.6113 58.9926 31.6546 38.1294 72.3019 32.7337 21.5827 27.338 58.9926 47.4819 48.9207 37.41 23.3812 21.5827
internal_count=1330 1129 1097 543 554 493 174 319 128 191 92 141 393 104 150 289 238 164 88 106 201 91 60 76 164 132 136 104 65 60
is_linear=0
shrinkage=1


Tree=2
num_leaves=31
num_cat=0
split_feature=83 62 35 30 96 61 61 64 38 0 78 61 36 86 79 26 36 61 46 33 63 5 55 25 61 28 42 33 91 67
split_gain=9.38059 6.57777 6.30978 7.6325 6.38946 5.46525 10.997 9.3072 8.17934 9.20378 6.63833 6.54312 4.96556 5.34714 4.72837 5.86442 3.989 3.72213 3.98802 8.68406 3.62203 3.58973 3.27067 4.31409 2.8477 2.71555 1.78841 1.06695 1.01119 0.878245
threshold=4650807.0000000009 0.046691412106156356 15.654999732971193 17.615000724792484 -0.067948512732982622 0.056424561887979514 0.047676967456936843 38.833909988403327 26.715000152587894 0.00032631779322400695 -0.45226036012172693 0.051083911210298545 16.355000495910648 0.58333334326744091 -0.055078221485018723 0.0001743924731272273 20.900000572204593 0.034801142290234573 121.40804672241212 -0.48359200358390803 0.039151970297098167 0.00056141530512832116 6.0061194896698007 0.00037805931060574954 0.066354703158140196 5.5000000000000009 0.91842713952064525 -0.36509421467781061 0.018369638361036781 0.0084904234390705841
decision_type=2 2 2 2 2 2 2 2 2 8 2 2 2 2 2 2 2 2 2 2 2 8 2 2 2 2 2 2 2 10
left_child=5 2 4 -4 -2 6 7 10 9 -9 -1 -8 22 16 17 -16 -14 18 25 -20 -6 -7 -3 -24 -18 26 -11 -23 -27 -19
right_child=1 12 3 -5 20 21 11 8 -10 14 -12 -13 13 -15 15 -17 24 29 19 -21 -22 27 23 -25 -26 28 -28 -29 -30 -31
leaf_value=-1.1793097860475805 -1.1995497792628305 -1.2236069121082265 -1.2168675450859761 -1.1867650128542344 -1.1852075350759637 -1.2033435093930156 -1.1737784048591147 -1.1915090041167415 -1.1891059929438661 -1.1995497792628305 -1.2064023846504677 -1.2004306624799497 -1.1742829638073664 -1.2094101530695505 -1.1913822682403186 -1.2186214737447409 -1.1852075350759637 -1.2275485073619774 -1.2183916212709485 -1.1888950460335319 -1.1565230467022303 -1.213892023449697 -1.1905149900526151 -1.2171762408132951 -1.2062548411391243 -1.213892023449697 -1.2171762408132951 -1.2290039694534787 -1.2279789541503696 -1.2164631626695221
leaf_weight=16.394931435585026 9.4586142897605914 11.03505000472069 11.665624290704729 17.97136715054512 9.4586142897605914 11.980911433696745 14.187921434640883 17.97136715054512 15.449070006608961 9.4586142897605914 14.818495720624922 18.60194143652916 10.089188575744631 17.025505721569061 16.394931435585026 11.035050004720686 9.4586142897605914 24.907684296369553 17.97136715054512 16.079644292593002 9.4586142897605878 9.4586142897605896 10.089188575744631 9.7739014327526075 12.296198576688765 9.4586142897605914 9.7739014327526075 13.557347148656845 18.60194143652916 15.449070006608961
leaf_count=52 30 35 37 57 30 38 45 57 49 30 47 59 32 54 52 35 30 79 57 51 30 30 32 31 39 30 31 43 59 49
internal_value=-1.20278 -1.19639 -1.1888 -1.1987 -1.17893 -1.20592 -1.20431 -1.20681 -1.2094 -1.21135 -1.1919 -1.18839 -1.20201 -1.19611 -1.21379 -1.20253 -1.18899 -1.21631 -1.2124 -1.20448 -1.16928 -1.21684 -1.21126 -1.20371 -1.19675 -1.21795 -1.2088 -1.22353 -1.22379 -1.22375
internal_weight=419.332 137.78 58.0128 29.637 28.3758 281.551 246.555 213.765 182.551 167.102 31.2134 32.7899 79.7676 48.8695 149.131 27.43 31.844 121.701 81.3441 34.051 18.9172 34.9969 30.8981 19.8631 21.7548 47.2931 19.2325 23.016 28.0606 40.3568
internal_count=1330 437 184 94 90 893 782 678 579 530 99 104 253 155 473 87 101 386 258 108 60 111 98 63 69 150 61 73 89 128
is_linear=0
shrinkage=1


Tree=3
num_leaves=31
num_cat=0
split_feature=47 19 48 30 43 27 54 89 15 96 75 52 68 62 43 35 82 22 27 60 32 73 27 61 47 33 54 67 27 63
split_gain=17.1225 11.4529 7.02594 13.2596 9.25281 9.60914 8.65971 7.68952 7.00851 7.32844 6.55636 6.32134 12.8397 6.88588 5.29654 4.89742 4.81921 4.79061 8.00478 4.74043 4.15728 3.95787 3.90259 4.88138 3.88803 2.60528 2.38786 2.30414 1.85027 1.58055
threshold=118.94640350341798 25.500000000000004 7.0048747062683114 15.434999942779543 1.4610914587974551 0.026276263408362869 -55.577751159667962 -0.032596588134765618 -0.0003007843042723834 -1.2022660970687864 0.43309441208839422 -0.36278280615806574 117.26142501831056 0.054511496797204025 0.58501121401786815 24.360000610351566 0.069851923733949675 0.00069779844488948594 0.0010090499999932947 -0.035757610574364655 -0.025852865539491173 171.65319824218753 0.088479071855545058 0.051991092041134841 120.95920181274415 -1.0997991561889646 -22.080080032348629 0.019236232154071334 0.00056318455608561646 0.040441837161779411
decision_type=2 2 2 2 2 2 2 2 2 2 2 10 2 2 2 2 2 2 2 2 2 2 2 2 2 2 2 8 2 2
left_child=11 2 6 14 5 10 7 -2 -8 -10 24 13 15 -1 25 -13 -7 22 -19 -16 -9 -6 23 26 -5 -4 27 -11 29 -28
right_child=1 -3 3 4 21 16 8 20 9 17 -12 12 -14 -15 19 -17 -18 18 -20 -21 -22 -23 -24 -25 -26 -27 28 -29 -30 -31
leaf_value=0.035644939780099652 -0.01417537777096687 0.024714266583243962 -0.0034012853626275994 0.016643073527189696 -0.020458883273635851 0.013262517116009736 -0.019719677846320612 0.0035110966707813471 0.013503787576451451 -0.017110531801968844 0.0045555862261704308 -0.021160686348168353 0.031436805762123717 0.0071463008137808738 -0.011603890645051794 0.0059503481697487865 -0.012157633437182191 0.02272882466386425 -0.010302409082579071 0.016945068397990187 0.029452414805214506 0.0056453263483583387 0.0038111364366353769 0.001218827244327824 0.04384327847381244 -0.022231576994871726 -0.0027092188642850634 0.0030981700021364949 -0.024872538294058881 -0.020006119396419931
leaf_weight=17.575995951890949 9.397003501653673 12.4257815182209 9.7127648293971998 9.5394686460495013 9.8050384521484393 13.279872328042986 43.739085078239441 11.076223313808443 14.596249639987944 9.4127169251441867 9.7994679510593397 11.237790673971178 9.9174000322818738 13.994047999382017 9.4819435477256793 11.08587461709976 11.675304919481276 10.081847220659258 15.390912145376204 9.4932311177253705 10.823323279619215 9.4669259786605817 12.876082003116606 16.067350566387177 14.276697397232054 22.863428145647049 9.4134736359119504 9.4041201472282427 31.964538663625717 9.4170851409435254
leaf_count=55 30 39 31 30 31 42 140 35 46 30 31 36 31 44 30 35 37 32 49 30 34 30 41 51 45 73 30 30 102 30
internal_value=9.52495e-05 -0.00248379 -0.00353791 0.00197035 0.00973714 0.0156062 -0.00686738 0.0075316 -0.00936608 -0.00598146 0.0258377 0.0142793 0.0046979 0.0236196 -0.00971966 -0.00801953 0.00135947 -0.00836424 0.00313573 0.00281235 0.0170583 -0.00798984 -0.0113382 -0.0136326 0.034058 -0.0168857 -0.0170292 -0.00736411 -0.0203983 -0.011932
internal_weight=419.291 355.48 343.054 129.394 77.8428 58.5708 213.66 31.2966 182.363 138.624 33.6156 63.8111 32.2411 31.57 51.5514 22.3237 24.9552 124.028 25.4728 18.9752 21.8995 19.272 98.5554 85.6793 23.8162 32.5762 69.6119 18.8168 50.7951 18.8306
internal_count=1330 1129 1090 410 246 185 680 99 581 441 106 201 102 99 164 71 79 395 81 60 69 61 314 273 75 104 222 60 162 60
is_linear=0
shrinkage=0.03


Tree=4
num_leaves=31
num_cat=0
split_feature=55 51 84 79 52 67 97 79 91 14 91 32 23 41 63 56 84 34 92 32 67 38 75 91 66 29 42 30 35 85
split_gain=12.7374 8.19531 8.22347 8.02668 5.99403 6.25353 6.84097 6.26438 5.75055 8.22058 6.49902 5.79182 5.30685 5.16625 5.76792 4.9018 4.83672 4.71585 4.6511 4.46125 3.89714 3.89465 3.84772 3.47887 3.74113 3.46075 3.34941 3.28256 2.81684 5.34227
threshold=24.619791030883793 -1.3679196834564207 1.6067199707031252 -0.21126086264848706 -2.7747548818588252 0.0467270314693451 -0.053419530391693108 -0.10000915080308913 0.019226542674005035 11.500000000000002 0.014363140799105169 0.18257864564657214 0.00032305788772646343 -0.001024987024720758 0.045632015913724906 -16.145400524139401 1.3807630538940432 0.40011045336723333 50.33952713012696 0.042379647493362434 -0.30891990661621088 15.164999961853029 0.32393456995487219 0.027821601368486885 -8.4537315368652326 14.500000000000002 -0.36008772253990168 15.954999923706056 22.85000038146973 0.0024816419463604693
decision_type=2 8 2 2 10 10 2 2 2 8 2 2 2 2 2 2 2 2 2 2 10 2 2 2 8 2 2 2 2 2
left_child=1 -1 8 28 -5 6 20 -8 10 -10 -3 13 15 14 -11 -7 -16 18 -15 26 -6 -14 -20 -2 -25 -23 -12 -18 29 -4
right_child=23 2 3 4 5 12 7 -9 9 11 19 -13 21 17 16 -17 27 -19 22 -21 -22 25 -24 24 -26 -27 -28 -29 -30 -31
leaf_value=0.026166001366789596 -0.0010980188716687726 0.014065993067658137 -0.017069986829435672 -0.018968121766038796 0.0086725630765682581 0.0027405382515791879 -0.014601473470755274 0.01235611273736517 0.030992477654503373 -0.010459063632697984 -0.023680334543155785 -0.013208592052639219 -0.0079979982359231674 0.035057643818098692 0.021789546403019087 -0.017765893787102666 0.011100482451553479 0.0032142049592938835 0.0020189817730493394 0.0066429762999369443 0.031457290245713053 0.0013101178323454176 0.025278834320542988 -0.00089987637029046526 -0.020005552194825152 0.023702257637516794 -0.0038240376764008925 -0.010927224085303099 -0.023713915725994988 0.0079229764110806383
leaf_weight=11.584446936845778 21.545666247606277 15.497703909873961 19.735961139202121 11.857658505439757 14.770872861146929 16.557813555002213 13.65836548805237 15.481638342142103 12.999324798583983 20.148953408002846 15.088455677032469 11.141999453306196 12.215537935495375 13.02142065763474 14.795955568552015 26.551652312278748 11.18588298559189 21.242414116859436 14.387894541025164 12.595418632030485 13.360073477029799 12.956000804901125 10.812647163867949 12.175752669572828 38.343965321779251 11.157664358615873 15.446327894926073 11.168540090322493 15.408021003007887 11.48888725042343
leaf_count=32 60 43 55 33 41 46 38 43 36 56 42 31 34 36 41 74 31 59 40 35 37 36 30 34 107 31 43 31 43 32
internal_value=0.00026095 0.0023294 0.0015655 -0.00280576 0.000625945 0.00245086 0.00992121 -0.00034455 0.00583451 0.00910124 -0.00203765 0.00665322 -0.00299124 0.00864457 0.00214907 -0.0100061 0.00908215 0.0147645 0.0209382 -0.00801169 0.020202 0.00537783 0.0125829 -0.0112736 -0.0155077 0.0122024 -0.0140756 9.85174e-05 -0.0135224 -0.00791356
internal_weight=478.383 406.318 394.733 195.2 148.567 136.71 57.271 29.14 199.533 140.905 58.6279 127.906 79.4387 116.764 57.2993 43.1095 37.1504 59.4644 38.222 43.1302 28.1309 36.3292 25.2005 72.0654 50.5197 24.1137 30.5348 22.3544 46.6329 31.2248
internal_count=1330 1129 1097 543 413 380 159 81 554 391 163 355 221 324 159 120 103 165 106 120 78 101 70 201 141 67 85 62 130 87
is_linear=0
shrinkage=0.03


Tree=5
num_leaves=31
num_cat=0
split_feature=83 37 41 37 45 38 97 45 38 91 45 37 61 79 89 60 76 57 15 83 47 83 66 89 97 78 55 33 61 25
split_gain=8.85424 6.44872 11.298 8.04364 6.4038 7.83423 6.39035 7.21619 5.88144 5.82581 11.3543 6.21626 7.68538 8.83238 6.32418 6.98814 5.45259 5.37365 5.18516 4.90971 4.14489 3.79645 6.12467 5.09944 5.61932 3.40977 3.38661 2.84151 1.94275 1.05174
threshold=4650807.0000000009 14.275000095367433 -0.0013651905464939771 13.194999694824221 119.06900024414064 15.464999675750734 -0.10453459620475768 120.22454833984376 17.105000495910648 0.016343017108738426 120.33320236206056 23.140000343322757 0.051317524164915092 -0.12096024677157401 0.074026905000209822 -0.17918138951063153 1.7636884450912478 -0.0088710533455014211 0.00061484618345275532 2944221.3750000005 119.39215087890626 2834719.8750000005 2.6958804130554204 -0.0070184131618589154 -0.057769302278757088 0.76032578945159923 8.4234158992767352 -0.5677824318408965 0.042145216837525375 9.3162441771710305e-05
decision_type=2 2 2 2 2 2 2 2 2 2 2 2 2 2 2 2 2 2 2 2 2 2 10 2 2 2 2 2 2 2
left_child=1 2 -1 -4 -2 6 -6 -8 -7 10 -3 14 13 28 15 -11 -10 25 -9 -5 -17 23 -23 -22 -25 -18 29 -14 -13 -19
right_child=4 9 3 19 5 8 7 18 16 11 -12 12 27 -15 -16 20 17 26 -20 -21 21 22 -24 24 -26 -27 -28 -29 -30 -31
leaf_value=0.033131835889305919 -0.013608535726320784 -0.01378995096534436 -0.016434692974895113 -0.0035469412289323514 0.036185326633349661 -0.015710759871269797 0.029065451948094744 -0.010649014714566892 0.024888689608763111 0.0078390378879580266 0.022031213378236828 0.011606831603450636 -0.0012271267968496141 -0.0066181649971135161 0.010065210405158577 -0.025252983501426195 0.021350148832119695 -0.020378290759137226 0.016868634689330527 0.025726454388211712 -0.017788843933302573 -0.023044927863539875 0.00143293948877015 0.019837651061853961 -0.0076008663672443777 -0.0007297677548506492 0.0059039551670669382 -0.021873192127401971 0.031119158670682056 -0.0057927447722977221
leaf_weight=10.138111710548399 12.923027247190474 13.179100692272188 16.306786805391312 9.7463462650775927 11.448303222656248 12.901792794466017 11.431188613176344 13.915068447589876 10.162204951047896 12.946843951940535 17.341492116451263 11.65621054172516 11.019636124372484 18.009265959262848 11.369120895862578 26.622491806745529 13.953141838312144 9.7761212587356692 9.5045162141323072 9.4648094773292524 15.683263838291166 37.325064539909363 11.957710564136503 10.110688686370848 16.080018222332004 10.760052114725111 11.994786530733107 12.507333815097807 9.508267790079115 9.4610484242439252
leaf_count=32 41 42 52 31 36 41 36 44 32 41 55 37 35 57 36 85 44 31 30 30 50 119 38 32 51 34 38 40 30 30
internal_value=-0.00039297 -0.0034485 0.00676654 -0.00146027 0.00579795 0.00789124 0.0175507 0.0105907 0.00208224 -0.00545067 0.00661651 -0.00727245 0.000595007 0.00866488 -0.0107239 -0.0125946 0.00573716 0.00188239 0.000752104 0.0114346 -0.0148879 -0.0116195 -0.0171954 -0.00480919 0.00333154 0.0120821 -0.00631288 -0.0126472 0.0213814 -0.0138457
internal_weight=419.204 280.973 45.6561 35.5179 138.231 125.308 46.2991 34.8508 79.0091 235.317 30.5206 204.796 62.7007 39.1737 142.095 130.726 66.1074 55.9452 23.4196 19.2112 117.779 91.1567 49.2828 41.874 26.1907 24.7132 31.232 23.527 21.1645 19.2372
internal_count=1330 893 145 113 437 396 146 110 250 748 97 651 199 124 452 416 209 177 74 61 375 290 157 133 83 78 99 75 67 61
is_linear=0
shrinkage=0.03


Tree=6
num_leaves=31
num_cat=0
split_feature=47 9 48 30 43 27 54 89 15 96 52 54 62 47 72 63 58 43 60 47 36 5 37 69 33 68 5 88 96 34
split_gain=16.178 11.6994 7.39329 12.7506 9.31724 9.34287 8.57438 7.33691 6.76533 6.32216 5.98814 12.2024 6.43561 5.83318 5.70346 5.21332 5.09268 5.07718 4.5706 4.54325 7.98603 4.30366 4.01578 3.95934 2.55768 2.54946 3.13327 3.64872 1.54477 1.52314
threshold=118.94640350341798 19.500000000000004 7.0048747062683114 15.434999942779543 1.4610914587974551 0.026153691112995151 -55.577751159667962 -0.032596588134765618 -0.0003007843042723834 -1.2022660970687864 -0.36278280615806574 39.809385299682624 0.054511496797204025 120.75984954833986 204.84548187255862 0.04892381094396115 -0.045993953943252557 0.58501121401786815 -0.035757610574364655 124.88185119628908 22.399999618530277 0.00031493586720898753 20.505000114440922 150.29250335693362 -1.0997991561889646 21.644285202026371 0.0011547695612534883 0.0046522631309926519 0.17820727825164798 -0.9807763099670409
decision_type=2 10 2 2 2 2 2 2 2 2 10 2 2 2 2 2 2 2 2 2 2 8 2 2 2 2 8 2 2 2
left_child=10 2 6 17 5 13 7 -2 29 -10 12 -12 -1 -5 19 -7 -15 24 -19 20 21 -11 -9 -6 -4 -23 28 -28 -27 -8
right_child=1 -3 3 4 23 15 8 22 9 14 11 -13 -14 16 -16 -17 -18 18 -20 -21 -22 25 -24 -25 -26 26 27 -29 -30 -31
leaf_value=0.034361584173439756 -0.013971987714649903 0.025269946481246842 -0.0032180267044919155 0.0063773999097557418 -0.0204940022961453 0.015028137725249462 -0.007995235863859057 0.027984939913107073 0.012088839381612312 0.0031116713621097262 -0.015142148965552417 0.020786803924071909 0.0069254954293535721 0.014958473654188771 0.010649366082040701 -0.010625807098860698 0.045090912615473946 -0.011474546014178568 0.016539938154138713 -0.024842982000338236 0.013869807575130164 -0.023765486284110158 0.0025695654024249868 0.0054669763745195527 -0.021917629789196483 -0.0098134794561249485 -0.0132555924391947 0.0090586233901215705 -0.025854287486367613 -0.022921171964910479
leaf_weight=17.847501069307331 9.3357767462730425 12.232539415359495 9.669568330049513 10.87063220143318 10.045734226703646 12.683279246091844 9.2913786768913251 11.598746299743654 14.357357680797575 15.077391147613531 14.69240492582321 17.653505921363831 14.050150334835051 9.913540244102478 11.966569513082502 13.903328508138655 13.542100340127945 9.4467524886131304 9.5558746159076673 16.118080258369446 12.356978595256804 18.6175297498703 10.46427747607231 9.4995817542076093 22.581181913614273 13.43567112088204 12.786810815334318 11.693330258131025 11.121853917837141 32.778365433216095
leaf_count=55 30 38 31 34 32 40 30 36 45 48 47 55 44 31 38 44 42 30 30 52 39 60 33 30 73 43 41 37 36 106
internal_value=9.20996e-05 -0.00242535 -0.00348454 0.0020836 0.00948921 0.015214 -0.00695374 0.00733428 -0.00947842 -0.006174 0.013825 0.0045022 0.0228545 0.0253259 -0.00838295 0.00171367 0.0334878 -0.00950095 0.00273573 -0.0105076 -0.00784443 -0.0112146 0.0165648 -0.00822428 -0.0165764 -0.0144061 -0.0104488 -0.00265965 -0.0178056 -0.0198869
internal_weight=419.188 354.944 342.712 131.712 80.4582 60.9129 211 31.3988 179.601 137.532 64.2436 32.3459 31.8977 34.3263 123.174 26.5866 23.4556 51.2534 19.0026 111.208 95.0896 82.7326 22.063 19.5453 32.2508 67.6552 49.0377 24.4801 24.5575 42.0697
internal_count=1330 1129 1091 417 253 191 674 99 575 439 201 102 99 107 394 84 73 164 60 356 304 265 69 62 104 217 157 78 79 136
is_linear=0
shrinkage=0.03


Tree=7
num_leaves=31
num_cat=0
split_feature=55 51 84 79 52 38 10 91 55 34 41 43 84 92 85 43 27 85 81 60 75 22 25 25 33 67 5 35 85 58
split_gain=12.1169 7.74838 7.86317 7.65407 5.78365 5.97434 5.53917 7.27943 6.78105 5.99998 7.74151 5.47063 6.27557 5.28413 5.1571 5.14526 4.91844 4.65197 4.33046 3.79041 3.66367 3.5649 3.18713 3.14855 2.99523 2.96564 2.854 2.71576 5.11714 2.70615
threshold=24.619791030883793 -1.3679196834564207 1.6067199707031252 -0.21126086264848706 -2.7747548818588252 13.444999694824221 0.00034329525078646844 0.02125501818954945 -32.908664703369134 0.40011045336723333 -0.001024987024720758 -0.47439776360988611 1.8736362457275393 50.33952713012696 -0.0064475794788449994 0.17405945062637332 0.00069985285517759632 0.0098900711163878458 0.014923444017767908 0.0047049841377884158 0.32393456995487219 -7.3574075940996395e-05 -0.0006906843336764722 0.00064441922586411249 -0.37816996872425074 0.77595031261444103 0.00012104122288292275 22.85000038146973 0.0024816419463604693 0.047755539417266853
decision_type=2 8 2 2 10 2 8 2 2 2 2 2 2 2 2 2 2 2 2 2 2 2 2 2 2 8 10 2 2 2
left_child=1 -1 6 27 -5 -6 -3 8 -8 10 17 16 15 -12 -11 -13 -7 22 -16 -17 -15 -2 -9 24 -18 26 -23 28 -4 -10
right_child=21 2 3 4 5 11 7 9 29 14 13 12 -14 20 18 19 23 -19 -20 -21 -22 25 -24 -25 -26 -27 -28 -29 -30 -31
leaf_value=0.025377271707366818 0.0028477361659038176 0.019528587810924342 -0.016737933303584768 -0.018693982548172814 -0.014037288123994809 0.014932664283364268 0.013663586778297052 0.022303383785830116 -0.013398696229028619 0.014693666384097595 0.038013728573740593 0.02098870238947112 0.02414565863816549 0.0021017492564469609 0.0042462260034176937 0.0083022103680393707 -0.0030004929168911646 -0.011596267014040857 -0.019201512346900259 -0.010929485408685709 0.025327211991804714 -0.014605801478606089 0.0020619629754153311 0.0064844960711102576 -0.021243147918327869 -0.027498952131672087 0.0021871192609966973 -0.023288498971352257 0.0077291778123078489 0.0029678925687148649
leaf_weight=11.655998528003691 13.270697832107542 22.113597422838211 19.644973635673527 11.811546206474302 16.490142226219177 10.830433428287504 13.707614690065382 10.851234912872316 37.277855187654495 11.534904092550276 12.754521191120146 11.179369181394575 19.855489045381546 12.611485272645952 12.618609577417375 16.979155421257019 17.962007433176037 11.529962152242659 14.343114763498304 17.968642979860306 11.235378682613371 35.353656738996506 17.669644683599472 11.149198114871977 14.360006511211397 11.371153265237806 11.836576372385023 15.305236488580702 11.511119216680525 11.50656822323799
leaf_count=32 37 61 55 33 46 30 38 30 104 32 35 31 55 35 35 47 50 32 40 50 31 99 49 31 40 32 33 43 32 32
internal_value=0.000253257 0.00226732 0.00152264 -0.00275542 0.000590871 0.00237987 0.0056928 0.00387077 -0.00432805 0.00831928 0.013121 0.00472773 0.0104676 0.0229076 -0.00133175 0.00419245 -0.00231004 0.00383714 -0.00846812 -0.00161486 0.0136233 -0.0110179 0.0102578 -0.00684508 -0.0114996 -0.014155 -0.0104357 -0.013244 -0.00773892 -0.00955631
internal_weight=478.29 406.458 394.802 195.047 148.586 136.774 199.754 177.641 62.492 115.149 76.6522 120.284 65.9827 36.6014 38.4966 46.1272 54.3016 40.0508 26.9617 34.9478 23.8469 71.8321 28.5209 43.4712 32.322 58.5614 47.1902 46.4613 31.1561 48.7844
internal_count=1330 1129 1097 543 413 380 554 493 174 319 212 334 183 101 107 128 151 111 75 97 66 201 79 121 90 164 132 130 87 136
is_linear=0
shrinkage=0.03


Tree=8
num_leaves=31
num_cat=0
split_feature=83 62 37 41 37 55 22 91 45 37 89 60 60 74 37 47 56 66 90 33 56 83 66 89 97 81 81 85 93 22
split_gain=8.41948 6.19148 6.149 10.6012 7.73304 5.888 6.54359 5.65687 10.8244 5.9393 6.05712 6.73651 5.10363 4.78508 4.46284 4.0478 4.00873 3.92573 6.12632 3.91986 3.74833 3.68485 5.9796 4.94537 5.37306 3.29773 5.39836 2.47834 2.39734 0.517442
threshold=4650807.0000000009 0.046691412106156356 14.275000095367433 -0.0013651905464939771 13.194999694824221 8.4234158992767352 0.000692104280460626 0.016343017108738426 120.33320236206056 23.140000343322757 0.074026905000209822 -0.17918138951063153 0.02938229683786631 83.292266845703139 26.095000267028812 119.39215087890626 10.519655704498293 -0.84006738662719715 0.037450920790433891 -0.074302133172750459 -18.375928878784176 2834719.8750000005 2.6958804130554204 -0.0070184131618589154 -0.057769302278757088 0.027109670452773574 0.03876237943768502 0.0012540210154838862 1129.018249511719 0.00068827785435132693
decision_type=2 2 2 2 2 2 2 2 2 2 2 2 2 2 2 2 2 10 2 2 2 2 10 2 2 2 2 2 2 2
left_child=2 5 3 -1 -5 6 19 8 -4 10 11 -9 25 -6 27 -13 -7 18 -16 -2 -14 23 29 -17 -25 -3 -27 -11 -22 -23
right_child=1 12 7 4 13 16 -8 9 -10 14 -12 15 20 -15 17 21 -18 -19 -20 -21 28 22 -24 24 -26 26 -28 -29 -30 -31
leaf_value=0.0318938419632427 0.0012579289636368682 -0.0021107557725846071 -0.013520930690202508 -0.016205684357140485 -0.0036379113897324344 0.036891628838524343 -0.013415597896867663 0.0076514284925771666 0.021474937814959186 0.0013446239529953546 0.0097645678763118252 -0.024955058417914941 0.0038340255740216909 0.02518728027520523 0.014299011690392412 -0.017553600323903126 0.0098196469372283674 -0.018149051072789826 -0.013277010881446685 0.023971706311999956 -0.021174712868520955 -0.025180453199626293 0.0014493407081893012 0.019340379918388578 -0.0074527648670120582 0.028754570746013196 -0.00092121970412569257 0.020986638081681084 -0.0024352666104640627 -0.013858600396682363
leaf_weight=10.302233904600142 12.977936834096909 15.85641500353813 13.069800496101381 16.184993594884872 9.766307860612871 11.264898687601091 10.735277205705641 12.990832924842833 17.48201659321785 11.977626293897631 11.429996907711027 26.270485997200012 17.409142524003983 9.5381520688533765 14.295731186866762 15.556056112051008 9.8494458198547346 13.235613763332365 12.792803674936293 13.733952879905701 15.089118063449861 27.614524841308594 11.953326940536497 10.188863128423689 16.019453644752506 11.478370249271395 9.7811179757118207 10.447072416543959 10.407185405492781 9.2994703948497754
leaf_count=32 41 50 42 52 31 35 34 41 55 38 36 85 55 30 45 50 31 42 41 43 48 89 38 32 51 36 31 33 33 30
internal_value=-0.00038115 0.00564377 -0.00336817 0.00658744 -0.00143148 0.0129674 0.00554906 -0.00533093 0.00654997 -0.0071329 -0.010523 -0.0123692 0.000190293 0.0111434 0.000547607 -0.01464 0.0252782 -0.00539095 0.00126695 0.0133799 -0.0067846 -0.0114104 -0.0169347 -0.00470166 0.00329145 0.00821963 0.0156732 0.0110006 -0.0139062 -0.022769
internal_weight=418.998 138.583 280.415 45.7917 35.4895 58.5615 37.4472 234.624 30.5518 204.072 141.323 129.893 80.0213 19.3045 62.7488 116.902 21.1143 40.3241 27.0885 26.7119 42.9054 90.6317 48.8673 41.7644 26.2083 37.1159 21.2595 22.4247 25.4963 36.914
internal_count=1330 437 893 145 113 184 118 748 97 651 452 416 253 61 199 375 66 128 86 84 136 290 157 133 83 117 67 71 81 119
is_linear=0
shrinkage=0.03


Tree=9
num_leaves=31
num_cat=0
split_feature=47 9 48 47 54 89 15 43 96 59 56 39 47 27 72 5 75 65 92 47 36 5 84 22 37 84 74 35 85 34
split_gain=15.2519 11.118 7.10196 11.2302 8.28547 7.02171 6.5899 6.4738 6.08353 5.76063 8.04278 10.8613 5.66637 5.84371 5.52955 5.39789 5.36223 4.50355 8.44705 4.4464 7.67631 4.76503 3.86545 3.81818 3.76107 2.75306 2.49306 1.99997 3.17499 1.49435
threshold=118.94640350341798 19.500000000000004 7.0048747062683114 124.18070220947267 -55.577751159667962 -0.032596588134765618 -0.0003007843042723834 -1.9267246127128599 -1.2022660970687864 -0.11707542091608046 17.376023292541507 121.83020019531251 115.29664993286134 0.00060720689361915003 204.84548187255862 0.00080322875874117028 0.31154060363769537 -2.3467664718627925 42.659267425537116 124.88185119628908 21.884999275207523 0.00031493586720898753 1.6715708374977114 0.00051189391524530958 20.505000114440922 1.8450836539268496 126.50222015380861 14.954999923706056 0.0046320282854139814 -0.9807763099670409
decision_type=2 10 2 2 2 2 2 2 2 2 2 2 2 2 2 8 2 2 2 2 2 8 2 2 2 2 2 2 2 2
left_child=12 2 4 7 5 -2 29 -4 -8 -9 15 -12 -1 -14 19 22 -17 -15 -19 20 21 -10 26 -24 -7 27 -11 28 -23 -6
right_child=1 -3 3 -5 6 24 8 9 14 10 11 -13 13 17 -16 16 -18 18 -20 -21 -22 25 23 -25 -26 -27 -28 -29 -30 -31
leaf_value=-0.0021244001417155319 -0.01374468507106923 0.024493887539483526 -0.022772612413642136 0.030224839169590931 -0.007853125408039837 0.027138862727024721 0.011817169274762812 -0.013325975582444928 0.0036799502978561464 -0.025867848632255174 0.034110086875899288 -0.0027474416109016893 0.035002420803107497 0.025145372304688454 0.010473468882868575 0.021201907572313061 -0.0066642280545498494 -0.017399178854724674 0.017910597760807317 -0.024601476993530037 0.011055946485020297 -0.020517392278781674 0.013869604625548626 -0.011375256708736042 0.0025850900929908853 -0.0022624331030273422 -0.0051306142842528655 -0.022722217050600967 0.0025956363529414327 -0.022666186927865189
leaf_weight=15.852512300014494 9.266266345977785 12.36250180006027 9.8521431386470777 10.615329712629316 9.2538190782070142 11.729003548622133 14.421221047639845 18.572514981031418 14.780326604843149 10.847223579883577 15.125803679227831 12.743103533983229 12.985517114400862 12.730834871530528 12.003454864025114 13.975650012493135 9.9755739867687208 9.4928877353668266 13.603976279497145 15.933438986539839 15.548728287219999 10.500606745481479 10.200782448053362 9.4150754213333112 10.459965497255324 12.747605949640272 10.42312517762184 31.532486706972122 9.6254979074001294 32.422451466321945
leaf_count=50 30 38 32 33 30 36 45 59 47 35 47 40 40 39 38 44 32 30 42 52 49 34 32 30 33 41 33 102 31 106
internal_value=8.79462e-05 -0.00236694 -0.00340656 0.0020459 -0.00681709 0.00720898 -0.00931141 -0.00065082 -0.0060526 0.00149313 0.00457247 0.0177455 0.0133706 0.0183444 -0.00823192 -0.00127321 0.00979385 0.0115203 0.00327836 -0.0103364 -0.00770524 -0.011481 -0.00783536 0.00178873 0.0161747 -0.0149633 -0.0163926 -0.017995 -0.00986375 -0.0196382
internal_weight=418.999 354.334 341.971 131.746 210.225 31.4552 178.77 121.131 137.093 111.279 92.7063 27.8689 64.6657 48.8132 122.672 64.8374 23.9512 35.8277 23.0969 110.669 94.7353 79.1865 40.8862 19.6159 22.189 64.4062 21.2703 51.6586 20.1261 41.6763
internal_count=1330 1129 1091 417 674 99 575 384 439 352 293 87 201 151 394 206 76 111 72 356 304 255 130 62 69 208 68 167 65 136
is_linear=0
shrinkage=0.03


Tree=10
num_leaves=31
num_cat=0
split_feature=55 51 84 79 52 67 22 97 24 79 24 91 14 91 32 41 56 85 32 60 24 67 34 92 75 22 33 42 42 35
split_gain=11.538 7.33964 7.53249 7.2856 5.57635 5.78705 6.62676 6.30146 6.08691 5.89238 5.59822 5.29976 7.64534 6.24355 5.37909 4.66672 6.23257 5.19287 4.22962 4.0717 4.05005 3.64538 3.64052 3.50562 3.48373 3.41275 3.22458 3.19254 2.93481 2.62039
threshold=24.619791030883793 -1.3679196834564207 1.6067199707031252 -0.21126086264848706 -2.7747548818588252 0.0467270314693451 0.0010668131872080269 -0.053419530391693108 0.00073745200643315922 -0.10000915080308913 0.00015821878332644704 0.019226542674005035 11.500000000000002 0.014363140799105169 0.18257864564657214 -0.0011821392690762875 11.530790328979494 -0.0029440417420119043 0.042379647493362434 0.16299074143171313 -0.00033190750400535757 -0.30891990661621088 0.40011045336723333 50.33952713012696 0.32393456995487219 -7.3574075940996395e-05 -0.71255725622177113 -0.36008772253990168 1.0792614817619326 22.85000038146973
decision_type=2 8 2 2 10 10 2 2 2 2 2 2 8 2 2 2 2 2 2 2 2 10 2 2 2 2 2 2 2 2
left_child=1 -1 11 29 -5 7 8 21 10 -9 19 13 -13 -3 15 16 17 -14 27 20 -7 -6 23 -17 -25 -2 -19 -15 -27 -4
right_child=25 2 3 4 5 6 -8 9 -10 -11 -12 12 14 18 -16 22 -18 26 -20 -21 -22 -23 -24 24 -26 28 -28 -29 -30 -31
leaf_value=0.024645437825612834 0.0027838107612741967 0.013752635252228579 -0.0075607570241465194 -0.018423061997504937 0.0081732266616637347 0.012752790310452499 0.017186340655962348 -0.014275999454210576 -0.021429337367597803 0.011875218177803194 0.013102567548631304 0.029697179192204937 0.019667821149514025 -0.023224017448948545 -0.012864571350566418 0.031340365962099666 -0.016534745741352667 0.0095312989199278289 0.0063708885313737878 -0.020298553579658454 -0.012152464715509336 0.03010811578526397 0.0038419230652949605 0.0018995921648543336 0.023966631994418029 -0.018173400194568461 -0.010259713169368814 -0.0037973929391098946 -0.0033093674738875665 -0.022871590731990667
leaf_weight=11.717263311147688 13.279191970825194 15.537235617637633 31.080657869577408 11.763322144746779 14.835704743862154 10.789736628532404 11.522009104490278 13.595012009143831 17.217160880565643 15.545762240886686 15.84649673104286 13.124255448579786 17.023457795381546 14.982864052057264 11.086521804332731 13.568566232919698 11.835505753755568 12.998225390911102 12.625777959823607 13.270760059356688 10.717370063066488 13.491208195686339 21.622008353471756 14.403250306844713 10.927146792411802 40.857698440551758 14.751968652009957 15.433967947959902 17.457805097103119 15.196127176284788
leaf_count=32 37 43 87 33 41 30 32 38 48 43 44 36 47 42 31 37 33 36 35 37 30 37 60 40 30 115 41 43 49 43
internal_value=0.000246804 0.00220921 0.00148273 -0.00270804 0.000551878 0.00230497 -0.00293865 0.00947289 -0.00655662 -0.000393946 -0.00118135 0.0055608 0.00868783 -0.00200326 0.00632413 0.00823389 0.00197991 0.0071284 -0.00787383 -0.0078741 0.000353538 0.0192905 0.0139564 0.0193413 0.0119677 -0.0107725 -0.000980495 -0.0138013 -0.0138544 -0.0129659
internal_weight=478.104 406.509 394.792 194.871 148.595 136.831 79.3635 57.4677 67.8415 29.1408 50.6244 199.921 141.341 58.5798 128.217 117.13 56.6092 44.7737 43.0426 34.7779 21.5071 28.3269 60.521 38.899 25.3304 71.5947 27.7502 30.4168 58.3155 46.2768
internal_count=1330 1129 1097 543 413 380 221 159 189 81 141 554 391 163 355 324 157 124 120 97 60 78 167 107 70 201 77 85 164 130
is_linear=0
shrinkage=0.03


Tree=11
num_leaves=31
num_cat=0
split_feature=47 92 91 61 90 79 36 26 43 92 60 34 61 90 79 5 85 33 33 46 85 62 22 67 5 96 56 79 42 5
split_gain=7.61679 14.1912 11.266 13.3664 7.40206 7.75144 6.77204 6.38024 7.68901 6.44015 6.32147 6.31737 5.90709 5.80918 8.40275 5.25779 4.79736 4.91371 4.59775 4.42847 4.06184 3.72609 3.66571 3.32657 3.31348 3.05022 2.88602 2.24044 2.12601 1.34901
threshold=119.36740112304689 38.656803131103523 0.027667119167745117 0.055490363389253623 0.012837635818868877 -0.051340950652956956 12.694999694824221 5.3967794883647009e-05 2.0228978395462041 71.625045776367202 -0.2157206982374191 0.75387355685234081 0.031412294134497649 0.0204502372071147 -0.1120854653418064 0.00040057646401692187 -0.0091220908798277361 1.0007984936237337 -0.71255725622177113 115.98874664306642 -0.0088896928355097753 0.040590863674879081 1.7937028133019343e-05 -0.36398717761039728 0.00052736079669557523 -0.13923861086368558 6.0061194896698007 -0.13107459992170331 -0.19082046300172803 0.00093251621001400064
decision_type=2 2 2 2 2 2 2 2 2 2 2 2 2 2 2 8 2 2 2 2 2 2 2 10 10 2 2 2 2 8
left_child=2 10 23 19 5 20 -6 8 9 12 -2 25 13 14 -8 -12 18 21 -14 -4 -3 -18 -22 -1 -7 -9 27 -23 -27 -28
right_child=1 4 3 -5 6 24 7 11 -10 -11 15 -13 16 -15 -16 -17 17 -19 -20 -21 22 26 -24 -25 -26 28 29 -29 -30 -31
leaf_value=-0.007268481292015452 -0.00033021149161759463 0.017159272191298272 0.0019597519859346304 -0.017935919812063286 0.016076956575241708 0.035809290168763913 0.034243046288524773 -0.023292895454944073 0.023417011831652561 0.015736949290553092 0.039454916451691087 0.0054088762233177497 0.014586297632222939 -0.011460103344144721 -0.0037115874338278176 0.011108471608944714 -0.025794934851147713 0.0020341409556630724 -0.0082072927911397819 0.026744813848408853 0.0034622558341192728 0.0083039668969772783 -0.018035079413735118 -0.024987666925068753 0.010129673397839524 0.0026417745478395571 -0.025761340107478482 -0.010797183802228941 -0.016125953861184688 -0.0086638891697154424
leaf_weight=15.933259308338164 10.52278697490692 9.4544412493705732 11.691570162773134 16.168607145547867 14.987370342016218 9.6288189888000506 9.9062521755695361 28.826835870742798 9.882023483514784 14.412847876548765 13.451586663722992 13.917185217142103 13.550994634628298 9.439536124467848 9.7813677191734332 11.750197231769562 21.242429971694946 17.589480459690094 16.638321280479431 14.069229394197462 18.595227867364887 9.4995572268962842 10.338700532913206 27.61649551987648 9.7900173068046552 9.4894534945487994 9.4029375016689283 10.708378940820696 10.984046310186384 9.4575954377651232
leaf_count=51 33 30 37 52 47 30 31 93 31 45 42 44 43 30 31 37 68 56 53 44 59 30 33 90 31 30 30 34 35 30
internal_value=-0.000369722 0.00168436 -0.00830463 0.00279439 -0.000485795 0.00905756 -0.00281522 -0.0041408 -0.000954318 -0.00268567 0.0192791 -0.0121402 -0.00472058 0.00709689 0.0161182 0.0271669 -0.00794092 -0.0118346 0.00216363 0.0159897 0.00108509 -0.0158466 -0.00456508 -0.0188135 0.023993 -0.0171032 -0.00992867 -0.00184976 -0.0077092 -0.0180558
internal_weight=418.728 333.248 85.4792 41.9294 297.524 57.8072 239.717 224.729 161.512 151.63 35.7246 63.2175 137.217 29.1272 19.6876 25.2018 108.09 77.9004 30.1893 25.7608 38.3884 60.3109 28.9339 43.5498 19.4188 49.3003 39.0685 20.2079 20.4735 18.8605
internal_count=1330 1056 274 133 944 183 761 714 512 481 112 202 436 92 62 79 344 248 96 81 122 192 92 141 61 158 124 64 65 60
is_linear=0
shrinkage=0.03


Tree=12
num_leaves=29
num_cat=0
split_feature=47 9 72 61 56 27 54 60 89 30 63 63 96 5 37 44 41 38 38 91 79 41 63 78 63 93 74 65
split_gain=14.3538 10.6003 6.90937 6.73523 5.95967 6.91038 5.75399 5.79099 5.69565 8.99869 5.46386 9.2222 4.7337 5.74865 4.72497 4.60257 4.50165 3.73782 3.81688 4.62636 3.22489 4.56598 5.56293 3.98141 2.42621 2.36359 1.95515 0.636166
threshold=118.94640350341798 19.500000000000004 221.50576782226565 0.082615911960601821 17.376023292541507 0.17430371791124347 -55.577751159667962 -0.055359762161970132 0.0085548595525324362 14.324999809265138 0.048718148842453964 0.057389207184314735 -1.2022660970687864 0.00042911997297778731 17.445000648498539 121.56620025634767 -0.0059141817037016145 12.994999885559084 22.310000419616703 0.02272360306233168 -0.027585631236433979 -0.0021632967982441183 0.039295634254813201 0.84312304854393016 0.033457281067967422 -534.88021850585926 80.38910293579103 -1.8395566940307615
decision_type=2 10 2 2 2 2 2 2 2 2 2 2 2 8 2 2 2 2 2 2 2 2 2 2 2 2 2 2
left_child=10 2 3 4 5 6 7 -2 15 -10 14 26 13 -8 -1 -6 27 -18 20 -20 21 22 -19 -22 -23 -17 -12 -14
right_child=1 -3 -4 -5 8 -7 12 -9 9 -11 11 -13 16 -15 -16 25 17 18 19 -21 23 24 -24 -25 -26 -27 -28 -29
leaf_value=0.0087144293278854628 -0.0077763531125827198 0.023802650121151066 0.018409551180117213 0.013512398842822628 0.0086842163358378764 0.010014252179331466 -0.014831516826037465 0.018714176155828471 -0.0088002203619042558 0.026686409885901954 -0.016152806103871112 0.020549172807253196 -0.013892345726273393 0.013586912457602176 0.034765363151395723 -0.020199076219133062 0.0043080435949681903 0.011546541932237121 0.0090047116436674061 -0.014716113060427879 0.0053938215977826385 -0.010592262166373918 -0.018413051005730444 -0.016253988154079611 -0.025329368390067459 -0.00099190633738330779 0.0018203294555506368 -0.026502873838410945
leaf_weight=12.355701982975008 16.12545204162598 12.477590978145598 11.705177843570707 17.41914314031601 14.094083636999128 18.448363602161407 9.9538585245609266 12.179121345281599 9.6524665057659167 16.159912109375 10.992918670177461 18.221450537443161 9.2986940443515795 14.455389916896822 13.865415543317793 13.418596386909483 14.460962563753126 9.4290136396884865 15.71095532178879 12.294175773859022 14.938713699579241 15.999551653862005 11.103614091873167 13.907591164112089 41.503665655851364 9.7887578606605548 9.6446493566036207 19.153061151504517
leaf_count=38 51 38 37 55 44 59 32 38 31 50 35 56 30 45 42 43 46 30 50 40 48 52 36 45 135 31 30 63
internal_value=8.41417e-05 -0.00230776 -0.00332938 -0.00415501 -0.00518116 -0.00726281 -0.0086828 0.00387185 0.0030154 0.013583 0.0129211 0.00553557 -0.0104506 0.00187053 0.0232609 -0.00446102 -0.0121431 -0.00993688 -0.0114845 -0.00155701 -0.0140472 -0.017196 -0.00475768 -0.00523808 -0.0214801 -0.0124732 -0.0080574 -0.0229931
internal_weight=418.758 353.678 341.2 329.495 312.076 248.962 230.514 28.3046 63.1138 25.8124 65.0801 38.859 202.209 24.4092 26.2211 37.3014 177.8 149.348 134.887 28.0051 106.882 78.0358 20.5326 28.8463 57.5032 23.2074 20.6376 28.4518
internal_count=1330 1129 1091 1054 999 800 741 89 199 81 201 121 652 77 80 118 575 482 436 90 346 253 66 93 187 74 65 93
is_linear=0
shrinkage=0.03


Tree=13
num_leaves=31
num_cat=0
split_feature=55 51 84 79 52 67 22 97 24 79 24 10 42 95 34 73 43 34 63 60 24 77 47 33 67 22 23 63 67 5
split_gain=10.9183 6.98067 7.18261 6.9449 5.34884 5.51895 6.33393 5.96669 5.89194 5.6448 5.36107 5.15448 6.79312 6.63796 6.79883 8.20744 5.28899 4.74694 4.23677 3.91858 3.87694 3.57047 3.53467 3.86341 3.42579 3.3015 2.95516 3.77028 2.88565 2.77925
threshold=24.619791030883793 -1.3679196834564207 1.6067199707031252 -0.21126086264848706 -2.7747548818588252 0.0467270314693451 0.0010668131872080269 -0.053419530391693108 0.00073745200643315922 -0.10000915080308913 0.00015821878332644704 0.00034329525078646844 -0.81507432460784901 1.0000000180025095e-35 0.40011045336723333 100.89799880981447 -1.1074734926223753 -0.56350690126419056 0.040929656475782401 0.16299074143171313 -0.00033190750400535757 -0.012293143663555382 121.07915115356447 -0.72278261184692372 -0.30891990661621088 -7.3574075940996395e-05 0.0006697622302453966 0.050281677395105369 0.77595031261444103 0.00012104122288292275
decision_type=2 8 2 2 10 10 2 2 2 2 2 8 2 10 2 2 2 2 2 2 2 2 2 2 10 2 2 2 8 10
left_child=1 -1 11 -4 -5 7 8 24 10 -9 19 -3 16 14 17 -16 21 -14 22 20 -7 -13 -15 -24 -6 -2 27 -20 29 -27
right_child=25 2 3 4 5 6 -8 9 -10 -11 -12 12 13 18 15 -17 -18 -19 26 -21 -22 -23 23 -25 -26 28 -28 -29 -30 -31
leaf_value=0.023981106732725379 0.0028250812705329816 0.018721218212076833 -0.012698907287774439 -0.01811088533462217 0.0079673017885384858 0.012434355581798433 0.016738277579952214 -0.014019725968653685 -0.02111426406916939 0.011586012519060562 0.012790426367630567 -0.0064611720056536809 0.011799985043874103 0.0071914158219983102 0.018910020058452846 -0.014936910639690411 -0.016083897743881075 0.037843079245432606 0.02310229443878593 -0.019954285708602405 -0.011933971653448824 0.013243836247079647 -0.00022417114075645676 -0.025096901670034394 0.029197006117360487 -0.014023050331541578 -0.0040928046526523725 0.0014936254933770024 -0.026781856171961882 0.0025650397182032459
leaf_weight=11.768665641546248 13.271604925394056 22.239486545324326 46.096167415380478 11.705791085958479 14.862837463617327 10.821251899003977 11.567298591136931 13.544360190629961 17.136882126331329 15.584108740091322 15.890225440263746 16.923070400953296 13.440733641386034 10.833062529563902 13.355412095785143 10.745833635330198 22.186863005161285 13.531347662210463 14.854988336563112 13.203290551900862 10.684184074401861 14.440276741981505 10.818075597286223 10.738934010267259 13.572632759809492 35.062409222126007 12.28606730699539 13.688710004091261 11.209570705890654 11.783748745918272
leaf_count=32 37 61 130 33 41 30 32 38 48 43 44 47 37 30 37 30 62 37 41 37 30 40 30 30 37 99 34 38 32 33
internal_value=0.00024003 0.00214597 0.00143606 -0.00266016 0.00051854 0.00223166 -0.00289434 0.00922235 -0.00644175 -0.00039047 -0.00115957 0.00541484 0.00365549 0.00748653 0.0156765 0.0038251 -0.00521081 0.0257511 0.00163952 -0.00772544 0.000335516 0.00274027 -0.00635409 -0.0131782 0.0187482 -0.0105021 0.00798113 0.0131407 -0.013545 -0.00988406
internal_weight=477.848 406.521 394.752 194.669 148.573 136.867 79.3031 57.5639 67.7358 29.1285 50.599 200.083 177.843 124.293 51.0733 24.1012 53.5502 26.9721 73.2198 34.7087 21.5054 31.3633 32.3901 21.557 28.4355 71.3273 40.8298 28.5437 58.0557 46.8462
internal_count=1330 1129 1097 543 413 380 221 159 189 81 141 554 493 344 141 67 149 74 203 97 60 87 90 60 78 201 113 79 164 132
is_linear=0
shrinkage=0.03


Tree=14
num_leaves=31
num_cat=0
split_feature=83 62 37 42 35 30 96 91 65 37 89 26 43 64 24 36 86 62 63 38 64 38 36 79 82 37 63 39 78 79
split_gain=7.67792 5.85726 5.7076 9.915 5.57671 6.77143 5.65233 5.42261 9.41775 5.50452 5.72444 5.51091 5.40925 5.50941 4.9897 4.61917 4.90765 4.358 8.10542 5.15514 4.19383 4.52491 3.64752 3.5112 3.44818 3.16066 3.15437 2.58983 2.19595 1.5252
threshold=4650807.0000000009 0.046691412106156356 14.275000095367433 0.896702140569687 15.654999732971193 17.615000724792484 -0.067948512732982622 0.016343017108738426 0.70549529790878307 23.140000343322757 0.074026905000209822 -0.0091752638109028322 -0.65827199816703785 52.005950927734382 0.0011303976061753931 16.355000495910648 0.58333334326744091 0.06178592890501023 0.048718148842453964 26.715000152587894 38.833909988403327 16.125000000000004 20.900000572204593 -0.12096024677157401 0.11176076903939249 13.114999771118166 0.039151970297098167 121.76760101318361 -0.95866867899894703 -0.084302213042974458
decision_type=2 2 2 2 2 2 2 2 2 2 2 2 2 2 2 2 2 2 2 2 2 2 2 2 2 2 2 2 2 2
left_child=2 4 3 12 6 -6 -2 8 -4 10 11 20 -1 -14 28 25 22 18 23 -20 -9 -22 -17 -11 -24 -3 -8 -23 -13 -27
right_child=1 15 7 -5 5 -7 26 9 -10 17 -12 14 13 -15 -16 16 -18 -19 19 -21 21 27 24 -25 -26 29 -28 -29 -30 -31
leaf_value=0.030432218000324043 0.0022826001321561559 0.0039584699520059368 0.023196374464892838 -0.014302584938155302 -0.014131120233289086 0.014197126724690064 0.01577881536808232 0.010557423969903452 -0.0091829844217503412 0.0034084816580291816 0.009469232105573681 -0.0098320427386726066 0.019040301681680773 -0.011024241144922104 0.002827819837262793 0.02634654968386229 -0.0070408113612904326 -0.01328559834848333 0.0041600533132983659 0.031953888651538524 0.006186889032060299 -0.022891629964550651 0.017290667136261321 -0.018767599666218934 -0.0056394077862208323 -0.006029438163976321 0.042080212447064336 -0.0046205874919494948 -0.023278766411663494 -0.023138536388254922
leaf_weight=12.03326568007469 9.5562282204628008 10.841722756624224 14.565455526113512 13.747730582952498 11.524397790431978 18.37064915895462 9.6674762666225451 11.977511227130888 15.991074711084364 12.97150272130966 11.487413525581358 16.762166798114777 10.859740853309633 9.3102768361568433 9.5648573935031873 10.332015991210936 17.019436329603195 14.706248223781584 13.580824673175814 10.290865540504454 11.921127945184706 16.206918925046924 9.9763827323913592 11.253146082162859 11.989687651395796 9.5104566216468829 9.8680422306060773 12.795019030570982 49.252148061990738 10.498689919710158
leaf_count=37 30 34 46 44 37 57 30 38 51 41 36 54 34 30 31 32 54 47 43 32 38 53 31 36 38 30 30 41 161 34
internal_value=-0.000358238 0.0053757 -0.00322427 0.00634386 0.0124656 0.0031728 0.0215921 -0.00512763 0.00649734 -0.00690276 -0.0101939 -0.0120116 0.0153232 0.00529759 -0.0171662 6.97686e-05 0.00572808 0.000477044 0.00487009 0.0169447 -0.00446535 -0.00900922 0.012466 -0.00722866 0.00507422 -0.00887134 0.0304667 -0.0152535 -0.0200621 -0.0156806
internal_weight=418.432 139.155 279.277 45.951 58.9868 29.895 29.0917 233.326 30.5565 202.77 139.967 128.48 32.2033 20.17 75.5792 80.1684 49.3175 62.8026 48.0963 23.8717 52.9006 40.9231 32.2981 24.2246 21.9661 30.8509 19.5355 29.0019 66.0143 20.0091
internal_count=1330 437 893 145 184 94 90 748 97 651 452 416 101 64 246 253 155 199 152 75 170 132 101 77 69 98 60 94 215 64
is_linear=0
shrinkage=0.03


Tree=15
num_leaves=31
num_cat=0
split_feature=54 67 72 66 97 85 91 33 63 79 9 70 55 65 61 43 77 59 43 66 74 62 47 42 23 47 62 43 77 75
split_gain=13.2828 9.64904 8.16235 8.12656 8.20361 7.60868 13.8768 11.281 6.91338 6.18729 5.45342 7.23214 6.2171 5.23044 5.73103 4.9868 4.72291 4.08052 3.5424 3.38266 2.96815 3.85948 4.94076 3.03822 2.83893 2.50938 2.34778 2.32642 1.45795 2.61241
threshold=24.619791030883793 0.82827392220497142 221.50576782226565 -8.4537315368652326 -0.14220552146434781 -0.0064475794788449994 0.034564837813377387 -0.24092680960893628 0.048718148842453964 -0.22968792915344236 18.500000000000004 32.325899124145515 -45.10609054565429 1.0822668671607973 0.065969776362180724 1.3776904344558718 0.50420668721199047 0.043453255668282516 -0.42547418177127833 6.2877056598663339 33.779138565063484 0.040733320638537414 122.32044982910158 -0.41769097745418543 0.0006697622302453966 122.41805267333986 0.050136854872107513 0.43409879505634313 -0.08514064177870749 0.22706592828035357
decision_type=2 8 2 10 2 2 2 2 2 2 8 10 2 2 2 2 2 2 2 10 2 2 2 2 2 2 2 2 2 2
left_child=2 8 3 4 -1 20 9 -8 -2 -7 12 17 -11 14 26 16 19 27 -13 24 23 22 -22 -5 28 -17 -10 -12 29 -14
right_child=1 -3 -4 5 -6 6 7 -9 13 10 11 18 15 -15 -16 25 -18 -19 -20 -21 21 -23 -24 -25 -26 -27 -28 -29 -30 -31
leaf_value=-0.0043410803965324265 0.027215169154234144 0.038241353779146101 0.02158192885262996 0.0046509879352111712 0.032679181962559693 -0.018514048929575085 0.0005605580852087661 0.037289771079664302 -0.0030498805012224902 0.016308154967339998 0.014040827650461499 0.0056255689930550237 -0.0022684687239350686 0.019077126448284212 0.010831981411508717 0.014817886134794149 0.0040677052790710081 -0.01822976437992866 0.029171839095115022 0.00046129423208314166 -0.017682622594817756 -0.023977476228401833 0.0080675270200315959 -0.012837183832591959 -0.0051129932956069596 -0.0054950785838594933 -0.02369810681433521 -0.0059589149457006697 -0.025644410871287968 -0.022089082164787107
leaf_weight=10.066028416156771 11.032245963811873 9.990401089191435 11.464558482170103 16.059511035680771 10.099125772714613 23.266798943281174 16.401424735784534 12.95671486854553 9.4706605374813098 9.5676337480545026 9.4805799126625114 11.906422495841982 10.481077402830119 10.223447412252424 12.393542081117628 10.709093928337099 15.570670008659361 10.591189980506895 11.311213433742521 12.458932608366011 15.805696666240694 27.105740636587143 10.390598088502882 18.101703077554703 15.770011454820631 9.5228546261787397 10.236815243959425 9.624362647533415 23.801825344562538 13.779813557863234
leaf_count=32 33 30 36 51 31 75 52 40 30 30 30 37 34 32 38 34 50 34 35 40 51 88 33 58 51 31 32 31 78 45
internal_value=4.84493e-05 0.012568 -0.00227132 -0.00314989 0.0148674 -0.00434797 -0.00143492 0.0174647 0.00714583 -0.0043132 -0.00232589 0.00564398 -0.00580994 0.00140715 -0.00462665 -0.0078253 -0.0107759 -0.00415226 0.0178278 -0.0138188 -0.0118134 -0.0161905 -0.0075479 -0.00471737 -0.0165702 0.0054484 -0.0144018 0.00417043 -0.0201486 -0.013955
internal_weight=409.641 63.3471 346.294 334.829 20.1652 314.664 227.201 29.3581 53.3567 197.842 174.576 52.9138 121.662 42.3245 32.101 112.094 91.8623 29.6961 23.2176 76.2917 87.4632 53.302 26.1963 34.1612 63.8327 20.2319 19.7075 19.1049 48.0627 24.2609
internal_count=1302 195 1107 1071 63 1008 727 92 165 635 560 167 393 132 100 363 298 95 72 248 281 172 84 109 208 65 62 61 157 79
is_linear=0
shrinkage=0.03


Tree=16
num_leaves=31
num_cat=0
split_feature=48 5 51 22 90 24 60 36 27 40 43 5 42 42 23 64 57 5 25 83 65 63 47 32 61 23 57 87 77 47
split_gain=12.9459 8.03376 7.86251 7.0675 7.95694 6.87523 5.63145 5.29107 4.94248 4.43176 6.78787 5.84363 5.03692 4.70554 4.48257 4.40523 6.36278 4.95621 7.01802 5.18795 4.45609 3.49168 3.41782 3.40633 3.34725 2.54667 2.17899 2.1987 2.57471 1.14697
threshold=6.0061194896698007 -0.13708616793155667 -1.0103629529476164 -0.00018259178614243862 0.032968642190098769 -0.022482026368379589 0.037719555199146278 24.130000114440922 0.031283577904105193 0.0013596889330074193 0.070947183296084418 -0.00027087403577752406 1.6657596230506899 0.10903179645538331 0.00020665096235461536 45.472301483154304 -0.051158940419554703 0.00079669806291349243 0.00043248067959211772 4432391.0000000009 -8.0130181312561017 0.049856783822178848 121.40804672241212 -0.052015760913491242 0.030660393647849563 1.0000000180025095e-35 -0.039129769429564469 0.014758403878659012 -0.24225029349327085 121.86620330810548
decision_type=2 10 8 2 2 2 2 2 2 2 2 8 2 2 2 2 2 10 2 2 2 2 2 2 2 2 2 2 2 2
left_child=2 26 -1 6 5 -5 8 9 29 10 11 -7 -11 -12 22 16 -3 18 19 -17 -18 -19 -13 -22 -15 -6 -2 28 -28 -4
right_child=1 15 3 4 25 7 -8 -9 -10 12 13 14 -14 24 -16 17 20 21 -20 -21 23 -23 -24 -25 -26 -27 27 -29 -30 -31
leaf_value=0.023282625182386843 -0.0044306762562508805 -0.014002757859284006 -0.012389871960379994 -0.01249726710547276 -0.020133335693570835 0.030127395556570971 0.007039972792202376 0.028680335878571477 -0.001208751762337473 0.027533572510957779 -0.014664987927262499 0.0089069789066341196 0.0023254310082000524 0.015937828822049638 0.018345840619350871 0.0047967527903802201 -0.0043279191111006334 -0.022562414878115833 0.017067509593582691 -0.017481722861268121 0.027212277876346159 -0.0033197523183733854 -0.012366979418001555 0.0072185422381302114 -0.0054510664597176312 -6.143656400196457e-05 -0.01036930621533598 -0.0080259975592602804 -0.028098837349726988 -0.027973362972146646
leaf_weight=17.161977708339691 17.329560667276382 12.060739934444426 10.732792973518373 12.177922189235685 11.049364835023882 11.641596555709837 20.532841950654984 11.973105132579802 21.271786332130432 18.5181357562542 18.631932228803635 13.065078854560854 11.55613988637924 11.632594555616381 16.289324134588242 17.22602653503418 13.873781412839888 19.630198389291763 14.439021617174147 18.858281999826431 12.72651800513267 15.094428658485411 12.168510884046553 19.756709903478626 12.97609433531761 10.789253145456312 13.878089785575865 18.509085953235626 20.503091484308243 11.451139271259306
leaf_count=47 49 34 30 34 31 32 57 33 59 51 52 36 32 32 45 48 39 55 40 53 35 42 34 55 36 30 39 52 58 32
internal_value=-0.000326679 -0.00574863 0.00425045 0.00277687 0.00592836 0.00838687 -0.0056779 0.0103002 -0.0117103 0.00834896 0.00510977 0.0121937 0.0182338 -0.00367876 0.00657551 -0.00165221 0.00464683 -0.00597257 7.32563e-05 -0.0070038 0.00969213 -0.0145249 -0.00143241 0.0156306 0.00488707 -0.0106538 -0.0139888 -0.0169802 -0.0214376 -0.0212935
internal_weight=467.505 213.886 253.62 236.458 172.469 150.63 63.9886 138.453 43.4557 126.479 96.4051 53.1645 30.0743 43.2406 41.5229 143.666 58.4177 85.248 50.5233 36.0843 46.357 34.7246 25.2336 32.4832 24.6087 21.8386 70.2198 52.8903 34.3812 22.1839
internal_count=1302 599 703 656 478 417 178 383 121 350 267 147 83 120 115 401 163 238 141 101 129 97 70 90 68 61 198 149 97 62
is_linear=0
shrinkage=0.03


Tree=17
num_leaves=31
num_cat=0
split_feature=75 37 63 66 81 58 23 27 85 15 35 61 36 26 19 47 87 4 24 32 30 9 57 52 36 70 97 75 85 74
split_gain=9.56759 9.58954 9.33074 8.13781 6.8332 6.80106 6.34651 5.96548 5.50594 6.11493 5.40832 5.35034 6.21955 5.19837 5.0472 5.13352 4.91531 4.98873 6.05645 5.26082 4.73265 4.35081 4.24918 3.71537 3.31766 4.25349 3.0455 2.921 2.84136 0.565083
threshold=0.4242533296346665 14.365000247955324 0.040737288072705276 1.0665253400802615 0.026261710561811927 0.11551069095730783 0.00077386392513290058 0.0010090499999932947 -0.0081787058152258379 -0.028081589378416535 13.034999847412111 0.056840632110834129 19.195000648498539 -0.0038232021033763881 4.5000000000000009 118.58115005493165 -0.0063136124517768613 8.5000000000000018 0.00035929204022977507 0.10167779400944711 23.409999847412113 8.5000000000000018 -0.0086096050217747671 0.57734999060630809 20.505000114440922 37.414598464965827 -0.079869851469993577 0.24773637205362323 0.0061555372085422286 19.205610275268558
decision_type=2 2 2 10 2 2 2 2 2 2 2 2 2 2 2 2 2 8 2 2 2 10 2 10 2 10 2 2 2 2
left_child=1 3 -2 7 14 20 22 -1 11 26 -9 12 13 -3 15 -4 28 18 -18 21 -6 24 -5 -17 29 -26 -10 -14 -11 -19
right_child=2 8 4 6 5 -7 -8 10 9 16 -12 -13 27 -15 -16 23 17 19 -20 -21 -22 -23 -24 -25 25 -27 -28 -29 -30 -31
leaf_value=-0.00094705095842680554 0.034481082290239502 0.010379555681353299 -0.010530815519598313 0.020032659618840386 0.037568416472832364 -0.0033949798608843029 -0.02089540583457121 0.007222982191409379 0.019155204592984965 -0.024749199759554096 0.036759638392879344 -0.015792001362691654 0.026543861454115639 -0.014130223913567143 -0.018606912428350539 0.0014992834973283711 0.015207035610274502 -0.013877936223434381 -0.011131463484140607 0.0049477040753916545 0.0083679373970451509 0.0025952388218238422 -0.0040053942759340393 0.02448500874900399 -0.021282203636823958 0.0019949480492531184 -0.0036860825670673504 0.0053955665255056781 -0.0081079121590185866 -0.025692076939265042
leaf_weight=10.800500273704527 10.208862751722334 13.562493890523911 14.171086668968199 9.9691346585750598 11.580131709575658 10.77705869078636 10.646060943603514 9.6815156936645526 9.5732367336750048 24.644687861204147 14.38152953982353 10.855041474103926 13.055536061525347 15.801761537790298 11.176394134759901 14.850429803133013 17.40274199843407 9.2854530513286573 12.782044261693953 16.888910263776779 9.4856645166873914 12.483830004930494 16.024454414844513 10.214511036872862 11.725170195102693 15.537418007850645 9.9057468473911268 11.188767582178114 16.577990978956223 24.113218367099762
leaf_count=34 31 43 46 31 36 34 34 30 30 80 44 35 41 51 36 47 55 30 41 54 30 40 51 32 38 49 32 35 53 79
internal_value=0.000324491 -0.00215717 0.00876157 0.00744241 0.00519365 0.0158444 -0.00243886 0.0176055 -0.00497327 -0.00764463 0.0256382 0.00252626 0.00645674 -0.00284085 -0.00171121 0.00344437 -0.00956065 -0.00640033 0.00405444 -0.00991143 0.0253949 -0.0133628 0.00561434 0.0114465 -0.0166357 -0.00841495 0.00792681 0.0173843 -0.0184073 -0.0229065
internal_weight=409.351 316.887 92.4641 71.5032 82.2553 31.8429 36.6397 34.8635 245.384 180.92 24.063 64.4636 53.6086 29.3643 50.4124 39.236 161.441 120.219 30.1848 90.034 21.0658 73.1451 25.9936 25.0649 60.6613 27.2626 19.479 24.2443 41.2227 33.3987
internal_count=1302 1010 292 224 261 100 116 108 786 581 74 205 170 94 161 125 519 386 96 290 66 236 82 79 196 87 62 76 133 109
is_linear=0
shrinkage=0.03


Tree=18
num_leaves=31
num_cat=0
split_feature=54 67 72 66 59 97 26 90 9 44 32 61 63 93 38 43 65 61 36 41 31 15 24 77 62 26 34 60 46 48
split_gain=12.5637 9.07018 7.78783 7.88926 9.67038 7.25587 6.64156 6.58437 7.26035 8.00241 9.56367 6.70377 6.55625 5.9816 5.9083 7.20867 4.99025 5.52626 4.78075 4.39229 4.45951 5.77606 4.66314 3.84283 2.30619 2.12137 2.11201 1.60613 1.53744 1.48161
threshold=24.619791030883793 0.82827392220497142 221.50576782226565 -5.127943515777587 -0.12359365820884703 -0.11963174864649771 -0.00033942701702471817 0.034005686640739448 18.500000000000004 119.92214965820314 0.040285123512148864 0.029196078889071945 0.048718148842453964 1744.2879638671877 13.34500026702881 0.60675841569900524 1.0822668671607973 0.065969776362180724 20.630000114440922 0.0085677527822554129 -0.0069697124417871228 8.6710340838180868e-05 2.9302202165126804e-05 -0.0081469570286571962 0.050136854872107513 0.0001743924731272273 -1.2488732933998106 0.18951417505741122 122.13659667968751 -24.396840095520016
decision_type=2 8 2 10 2 2 2 2 8 2 2 2 2 2 2 2 2 2 2 2 2 2 2 2 2 2 2 2 2 2
left_child=2 12 3 4 -1 -6 -7 8 14 25 11 -11 -2 23 15 -5 17 24 -13 20 21 28 -23 -9 -14 -10 -22 29 -16 -28
right_child=1 -3 -4 7 5 6 -8 13 9 10 -12 18 16 -15 19 -17 -18 -19 -20 -21 26 22 -24 -25 -26 -27 27 -29 -30 -31
leaf_value=-0.017453490054193551 0.026350886211809935 0.036888372013663434 0.020987651891060454 -0.010601223441860631 -0.0015806693052385034 0.0062718126049912991 0.038039881478124836 0.024474480338484622 -0.0053882203422148641 0.036081525420198969 -0.010396912753741471 0.017520606220431584 -0.0030009151994281058 -0.012232859092277393 -0.025533240437645866 0.02253897634624092 0.01848738891893675 0.010524072752514137 -0.0087112655639284293 0.0059409365519559479 -0.0057242506879651113 0.017135278977551408 -0.0070974061641593637 0.002383648332267051 -0.023502588861626046 -0.0228979065295352 -0.011217932681729114 -0.0081668103993519977 -0.0079720034070516789 -0.023974364009325649
leaf_weight=9.9140784442424756 11.147413700819014 10.140264213085173 11.562987208366392 12.582066714763643 15.504905462265009 10.981384515762327 13.164820730686193 13.517815262079239 17.118772357702259 10.00590857863426 16.993100702762604 15.053186357021334 9.4573588073253649 10.331897705793379 10.918873071670534 9.4982175230979902 10.315108835697172 12.454390138387678 9.4527329802513105 10.292144626379011 12.144151300191877 10.742536425590517 17.325903505086899 14.314930766820908 10.159183353185652 9.6391421556472761 12.95830011367797 10.982737094163893 9.2665037810802442 51.415645241737373
leaf_count=32 33 30 36 41 49 35 40 42 55 31 54 47 30 34 36 30 32 38 30 33 39 34 56 45 32 31 42 36 30 169
internal_value=4.82765e-05 0.0121869 -0.00221632 -0.00307958 0.00785907 0.0144617 0.0244161 -0.00500578 -0.00680151 0.000744362 0.00762295 0.0165386 0.00691732 0.00646501 -0.0102977 0.00401349 0.00131679 -0.00459789 0.00745729 -0.012474 -0.0139033 -0.00639599 0.00244751 0.0135895 -0.0142435 -0.0122935 -0.0179243 -0.0197897 -0.0182282 -0.0216174
internal_weight=409.356 63.6737 345.683 334.12 49.5652 39.6511 24.1462 284.555 246.39 78.2628 51.5049 34.5118 53.5335 38.1646 168.127 22.0803 42.386 32.0709 24.5059 146.047 135.755 48.2538 28.0684 27.8327 19.6165 26.7579 87.5008 75.3567 20.1854 64.3739
internal_count=1302 195 1107 1071 156 124 75 915 794 248 162 108 165 121 546 71 132 100 77 475 442 156 90 87 62 86 286 247 66 211
is_linear=0
shrinkage=0.03


Tree=19
num_leaves=31
num_cat=0
split_feature=48 5 51 22 90 24 60 36 84 27 64 80 5 25 83 65 40 43 5 33 42 42 25 77 58 93 76 72 23 66
split_gain=12.3108 7.68681 7.60152 6.74386 7.64873 6.51978 5.40202 5.02553 4.97807 4.78458 4.23252 6.10788 4.75036 6.68246 4.99331 4.22968 4.19548 6.49207 5.58313 5.4445 5.33796 4.7633 4.40725 4.77199 3.23679 2.96415 2.92692 4.7641 2.43987 1.2005
threshold=6.0061194896698007 -0.13708616793155667 -1.0103629529476164 -0.00018259178614243862 0.032968642190098769 -0.022482026368379589 0.037719555199146278 24.130000114440922 1.6907740235328677 0.031283577904105193 45.472301483154304 -0.051248081028461449 0.00079669806291349243 0.00043248067959211772 4432391.0000000009 -8.0130181312561017 0.0013596889330074193 0.070947183296084418 -0.00027087403577752406 -0.8519836664199828 0.20947879552841189 1.6657596230506899 3.7406038245535462e-05 -0.026794156059622761 0.026167397387325767 -1055.828918457031 8.0927047729492205 47.802757263183601 1.0000000180025095e-35 -0.55803635716438282
decision_type=2 10 8 2 2 2 2 2 2 2 2 2 10 2 2 2 2 2 8 2 2 2 2 2 2 2 2 2 2 8
left_child=2 8 -1 6 5 -5 9 16 26 -4 11 -3 13 14 -12 -13 17 18 -7 -19 -21 -18 -20 -24 -14 -17 27 -2 -6 -10
right_child=1 10 3 4 28 7 -8 -9 29 -11 12 15 24 -15 -16 25 21 19 22 20 -22 -23 23 -25 -26 -27 -28 -29 -30 -31
leaf_value=0.022826472182137503 -0.011983470425430957 -0.01375358583304871 -0.020963834275044078 -0.012209511995903869 -0.019826288009869093 0.029363507593981916 0.0068624191416134014 0.027888490357970842 -0.029704554767968974 -0.0011773492692773663 0.0046949567607753604 -0.0041913147239880846 -0.023745720502674712 0.016603246540994907 -0.017179564695005829 0.026819790031410228 0.026726747465091592 -0.01951863126684204 -0.0065042274199914266 -0.010345030294362031 0.014065214928809789 0.0022437025389359824 -0.0015509863342276931 0.023649091865838027 -0.0052600625449025504 0.0078431149225028102 -0.015870178421553357 0.013225379360629322 -0.0001537271877714456 -0.014111293000022713
leaf_weight=17.211790204048157 13.790553897619249 12.013670265674589 22.072895973920822 12.129425674676893 10.993479639291765 11.702761948108671 20.563157767057419 12.042134672403334 14.997187554836271 21.259161472320557 17.241612523794174 13.846032232046126 16.01543402671814 14.493900030851362 18.770880311727524 11.70779731869697 18.62254631519318 12.513445675373076 14.745483517646788 13.60981532931328 17.077177613973618 11.563499271869658 11.198614805936808 15.637415707111364 18.573587834835052 20.859177827835087 19.105548679828644 11.408063530921934 10.798224985599516 10.615895181894304
leaf_count=47 39 34 62 34 31 32 57 33 43 59 48 39 45 40 53 32 51 35 41 38 47 32 31 43 52 58 54 32 30 30
internal_value=-0.000318918 -0.0056148 0.00414037 0.00269024 0.00576465 0.00816992 -0.00557711 0.0100266 -0.0136966 -0.0115019 -0.0016102 0.00456117 -0.00585124 6.28564e-05 -0.00686286 0.00949191 0.00812337 0.00496982 0.0118842 -0.00363443 0.00325434 0.0177206 0.00639075 0.0134552 -0.014246 0.015261 -0.00733309 -0.000501584 -0.0105126 -0.0240147
internal_weight=467.18 213.439 253.741 236.529 172.634 150.842 63.8952 138.713 69.9172 43.3321 143.522 58.4267 85.0954 50.5064 36.0125 46.413 126.671 96.4847 53.2843 43.2004 30.687 30.186 41.5815 26.836 34.589 32.567 44.3042 25.1986 21.7917 25.6131
internal_count=1302 599 703 656 478 417 178 383 198 121 401 163 238 141 101 129 350 267 147 120 85 83 115 74 97 90 125 71 61 73
is_linear=0
shrinkage=0.03


Tree=20
num_leaves=31
num_cat=0
split_feature=81 51 63 23 37 42 91 83 46 47 26 61 79 33 27 69 24 73 97 90 45 33 35 61 34 78 79 52 85 89
split_gain=8.06137 8.41521 6.58546 6.35114 8.2815 8.39257 7.1475 6.1235 7.50511 6.47542 5.93408 5.88672 5.72892 5.51961 4.29245 6.91382 9.93686 6.56223 5.01733 4.016 5.57289 3.97275 3.53304 3.25112 2.9438 2.84397 2.80289 2.12492 1.7382 1.0435
threshold=0.033182272687554366 2.0153143405914311 0.052171219140291221 0.00018399932014290246 14.420000076293947 0.81836649775505077 0.016249374486505989 4306960.7500000009 121.089900970459 115.75539779663087 -0.0038232021033763881 0.03166326321661473 -0.13201285153627393 -1.5208454728126524 0.00074761491850949835 149.21075439453128 0.00038543062692042446 202.1824645996094 -0.082443337887525545 0.018090126104652885 121.75514984130861 -0.34027567505836481 19.765000343322757 0.049154395237565048 0.31595209240913397 -0.77975043654441822 -0.21916503459215161 0.30029729008674627 -0.0032392027787864204 0.025881898589432243
decision_type=2 8 2 2 2 2 2 2 2 2 2 2 2 2 2 2 2 2 2 2 2 2 2 2 2 2 2 10 2 2
left_child=1 19 -2 4 5 12 -6 9 22 -8 11 -11 -3 -5 24 16 23 -17 -19 20 -1 -10 -9 -16 29 -13 -21 -12 -28 -15
right_child=2 3 -4 13 6 -7 7 8 21 10 27 25 -14 14 15 17 -18 18 -20 26 -22 -23 -24 -25 -26 -27 28 -29 -30 -31
leaf_value=-0.012487745810885468 0.027571301921803949 0.041607579231796317 0.0016226474172568275 -0.022003276713725869 0.019579350272136607 -0.0032243826153178739 0.016467621603962583 0.0057298691659466673 0.006371067822126323 0.014624431202246248 -0.023049973932770144 0.0037758345733412721 0.011815730693812216 -0.02524015574568518 0.0073016731029516384 -0.02021410940351134 0.029155305814251398 0.019372161101405022 -0.0070558472400874712 -0.0030229887126225962 0.014411751412884723 0.031434503286436238 -0.017294230073607125 -0.014301109480277087 0.0011059397786252138 -0.015649064891318683 -0.009935425021182635 -0.0065562014129752601 -0.026647167060212324 -0.0099458965155422574
leaf_weight=15.872094362974169 15.854304522275923 11.585939168930052 18.704593002796173 12.779316663742064 16.274512708187103 11.947392076253889 9.5502009689807874 12.901091873645784 11.753098428249361 13.531086623668669 22.383475452661514 10.062439084053038 12.876648187637331 9.1451255381107384 14.797780483961107 17.347157508134842 14.888532906770704 9.5327192842960375 15.838813424110411 10.673765778541563 10.773568600416182 11.339235126972197 9.6621213853359205 9.4056812822818738 11.031932443380354 17.919105738401417 10.27106434106827 11.535468578338621 18.671807080507278 10.27457210421562
leaf_count=51 49 35 59 41 51 38 30 41 37 43 73 32 40 30 47 56 46 30 51 34 34 35 31 30 35 58 33 38 61 33
internal_value=0.000315712 -0.000977484 0.0139675 0.00111622 0.0046618 0.0172651 0.00144266 -0.000948344 0.00781015 -0.00568986 -0.00867392 -0.000982943 0.0270056 -0.00407765 -0.00186084 0.00174048 0.0107197 -0.00653364 0.00323187 -0.0105927 -0.00148366 0.0194721 -0.00444514 -0.0013277 -0.0112838 -0.00877442 -0.0165319 -0.017789 -0.0212465 -0.0180316
internal_weight=409.185 374.626 34.5589 308.363 183.322 36.41 146.912 130.637 45.6555 84.9818 75.4316 41.5126 24.4626 125.042 112.262 81.8107 39.092 42.7187 25.3715 66.2623 26.6457 23.0923 22.5632 24.2035 30.4516 27.9815 39.6166 33.9189 28.9429 19.4197
internal_count=1302 1194 108 981 582 113 469 418 144 274 244 133 75 399 358 260 123 137 81 213 85 72 72 77 98 90 128 111 94 63
is_linear=0
shrinkage=0.03


Tree=21
num_leaves=31
num_cat=0
split_feature=54 67 72 66 97 85 91 33 81 33 75 63 91 47 91 31 27 62 64 33 74 34 62 71 78 68 38 22 89 88
split_gain=11.8025 8.57554 7.45047 7.65431 7.56659 7.30591 12.9122 10.4367 6.42505 5.83223 5.75175 6.43149 5.19454 4.88744 4.87143 4.96357 4.67738 4.43631 4.40519 5.0065 2.90833 5.49166 3.79316 4.79481 2.32072 2.10619 1.96939 1.60241 0.982156 1.39882
threshold=24.619791030883793 0.82827392220497142 221.50576782226565 -8.4537315368652326 -0.14220552146434781 -0.0064475794788449994 0.034564837813377387 -0.24092680960893628 0.015613731928169729 1.0922734141349795 0.30506312847137457 0.044921617954969413 0.021516514942049984 117.02280044555665 0.015928543172776703 -0.0013213088968768714 0.0014664996997453275 0.044296234846115119 64.263767242431655 -0.074302133172750459 33.779138565063484 -1.0968507528305051 0.040733320638537414 145.31682586669925 -0.66908338665962208 24.097857475280765 17.795000076293949 0.00091911214985884737 -0.01122373156249523 0.0091030192561447638
decision_type=2 8 2 10 2 2 2 2 2 2 2 2 2 2 2 2 2 2 2 2 2 2 2 2 2 2 2 2 2 2
left_child=2 8 3 4 -1 20 10 -8 -2 13 11 12 14 -10 -7 -16 -17 -13 27 -20 21 -5 23 -22 -14 -23 -18 28 -12 -30
right_child=1 -3 -4 5 -6 6 7 -9 9 -11 18 17 24 -15 15 16 26 -19 19 -21 22 25 -24 -25 -26 -27 -28 -29 29 -31
leaf_value=-0.0041547655173772326 0.024309499110852759 0.035628321473122761 0.020457800587520704 0.013931344613819589 0.031319007996618201 -0.013093480484983169 0.00049374396264566603 0.035647021859342994 0.0088997438123141984 0.018575632451787179 -0.026053741579326519 0.020657388377197244 -0.0021498584370353291 -0.015279611977084493 0.017467172866277976 0.014309685011408141 -0.018357153686736724 -0.0007338608792972726 0.0077870739555609483 -0.017547869853369591 -0.022591114289641771 -0.018702430131716428 -0.023676484229755643 0.0029793448400387717 -0.020552203832465331 -0.00085565503374447442 1.8498068600930412e-05 -0.0052256381646389296 -0.0049125772692104634 -0.021827216216856463
leaf_weight=10.016833722591402 12.846098423004149 10.27723979949951 11.649688869714735 9.4897750616073591 10.264287710189818 16.639752626419067 16.417995750904087 13.199744641780851 11.31661692261696 10.81469666957855 14.813539266586302 17.722833573818207 9.2613019645214099 18.75900787115097 17.639759689569473 9.4376281499862689 10.857884973287584 16.216856062412262 18.011803984642032 10.139511257410048 9.9919518232345599 14.727893412113191 26.713597744703293 16.020838052034378 19.116964995861053 9.7347967624664289 9.4148242175579053 9.3040280938148481 9.236476272344591 8.9512299895286542
leaf_count=32 39 30 36 30 31 54 52 40 34 33 49 56 30 59 55 30 35 52 58 33 33 48 88 51 63 31 30 30 30 30
internal_value=4.75706e-05 0.0117752 -0.00215626 -0.0030054 0.0144266 -0.00417704 -0.00132322 0.0168131 0.0066457 0.000648604 -0.00412438 -0.000274023 -0.00438067 -0.00618798 0.000407648 0.00532489 -0.00221831 0.0107079 -0.0109265 -0.00162697 -0.0115304 -0.00449749 -0.0158911 -0.0073154 -0.0148242 -0.0119129 -0.0102236 -0.0169342 -0.0199845 -0.013941
internal_weight=409.005 64.0137 344.992 333.342 20.2811 313.061 226.382 29.6177 53.7364 40.8903 196.764 126.308 92.3681 30.0756 63.9898 47.3501 29.7103 33.9397 70.4566 28.1513 86.6789 33.9525 52.7264 26.0128 28.3783 24.4627 20.2727 42.3053 33.0012 18.1877
internal_count=1302 195 1107 1071 63 1008 727 92 165 126 635 405 297 93 204 150 95 108 230 91 281 109 172 84 93 79 65 139 109 60
is_linear=0
shrinkage=0.03


Tree=22
num_leaves=31
num_cat=0
split_feature=48 5 51 34 64 42 42 84 52 78 84 81 66 97 87 82 64 58 92 46 79 87 57 39 35 38 38 32 76 72
split_gain=11.7137 7.37197 7.24252 6.47648 6.53039 5.93265 5.31302 4.84275 4.4413 4.97667 4.86104 5.40474 8.51756 4.39561 4.14834 5.40343 6.07163 5.17378 4.93805 4.79054 5.01051 3.98432 3.92631 3.79663 3.01169 4.72977 6.63733 4.40826 2.8164 4.60916
threshold=6.0061194896698007 -0.13708616793155667 -1.0103629529476164 1.1960729956626894 44.817344665527351 -1.9321300983428953 0.94691848754882824 1.6907740235328677 -1.4708693623542783 1.5696341395378115 1.4161731004714968 0.011041179299354555 -0.55803635716438282 -0.054674487560987466 0.014023981522768738 0.078030969947576537 43.96022033691407 -0.036307372152805321 58.679300308227546 120.83499908447267 -0.17376761138439176 0.023550490848720077 -0.00073750875890254964 122.32044982910158 13.75500011444092 17.105000495910648 19.619999885559086 -0.069413542747497545 8.0927047729492205 47.802757263183601
decision_type=2 10 8 2 2 2 2 2 10 2 2 2 10 2 2 2 2 2 2 2 2 2 2 2 2 2 2 2 2 2
left_child=2 7 -1 5 -5 -4 -6 28 23 10 13 12 -12 -10 15 16 17 -3 -18 20 -17 -16 -15 -7 -13 -26 -27 -28 29 -2
right_child=1 14 3 4 6 8 -8 -9 9 -11 11 24 -14 22 21 19 18 -19 -20 -21 -22 -23 -24 -25 25 26 27 -29 -30 -31
leaf_value=0.022243512380411883 -0.011778933176166365 -0.00058834717526918753 -0.015450593757104857 -0.021379896315279766 -0.0098929884359366827 -0.011052041743742009 0.016291420444965628 -0.023642705628224056 0.029248582743129733 0.026365077441856691 -0.0031187320515145434 0.011973841370310358 0.026655722248226238 -0.0055062483501085143 0.01744889798011948 0.0091090001761140304 -0.013581930407237531 0.026700646989733071 0.0092594635918726645 -0.022485977826687268 -0.016535083983149804 -0.002120715815964513 0.018005374335581213 0.0092906281308129789 -0.016522642166090624 0.019093523303259915 0.0054508633572127691 -0.019343553080156891 -0.015550114020764026 0.013022364234167855
leaf_weight=17.269969493150711 13.746274799108507 12.639958053827288 11.082136034965513 17.44231379032135 14.647976249456407 21.053072392940521 11.597739666700361 25.422384530305862 13.132477700710295 11.97288542985916 15.833838462829588 10.849374711513518 17.564170926809311 10.813559591770172 16.614448994398117 13.467950671911241 25.093953877687454 11.293031215667723 11.806832849979399 20.77045813202858 12.089567005634306 19.580633461475372 13.431452959775925 12.272987246513365 18.688500165939331 11.981332093477247 11.970819562673563 12.181166648864751 19.007935523986816 11.428565680980681
leaf_count=47 39 35 31 49 41 59 32 73 36 33 44 30 48 30 46 38 70 31 33 59 34 55 37 34 52 33 33 34 54 32
internal_value=-0.000311353 -0.00548581 0.00403523 0.00261764 -0.00769479 0.00498173 0.00185093 -0.0134221 0.00630534 0.00851756 0.00677105 0.00322286 0.0128595 0.0158465 -0.00156616 -0.00452834 0.00136471 0.0128427 -0.00622208 -0.0121319 -0.00318737 0.00708984 0.00771619 -0.00350804 -0.00179737 -0.0046884 0.0017125 -0.0073262 -0.00714812 -0.000452575
internal_weight=466.748 212.962 253.786 236.516 43.688 192.828 26.2457 69.6052 181.746 148.42 136.447 99.0692 33.398 37.3775 143.357 107.162 60.8338 23.933 36.9008 46.328 25.5575 36.1951 24.245 33.3261 65.6712 54.8218 36.1333 24.152 44.1828 25.1748
internal_count=1302 599 703 656 122 534 73 198 503 410 377 274 92 103 401 300 169 66 103 131 72 101 67 93 182 152 100 67 125 71
is_linear=0
shrinkage=0.03


Tree=23
num_leaves=31
num_cat=0
split_feature=37 77 81 92 97 60 93 58 52 51 36 27 92 58 9 42 67 39 41 5 42 38 30 93 23 85 41 27 23 91
split_gain=7.70433 9.39936 7.93424 7.67464 5.92346 5.51428 6.79598 5.50259 6.56438 5.28657 5.66512 5.07296 6.97428 6.80632 5.12436 5.03573 5.86566 4.67774 4.59651 4.25034 4.15084 4.35344 3.66998 3.14812 3.14414 2.21202 2.15064 1.83371 1.44831 1.16864
threshold=14.570000171661379 0.17239611595869067 0.026261710561811927 74.309474945068374 -0.098806902766227708 0.099251680076122298 1292.1159667968752 0.13956522941589358 -0.36278280615806574 2.0153143405914311 20.375000000000004 0.02332590147852898 39.579023361206062 0.014921288937330248 8.5000000000000018 -0.34922093152999872 0.1770792827010155 120.95920181274415 -0.001512048707809299 0.0011850062874145808 1.2585052847862246 16.144999504089359 23.409999847412113 -350.95175170898432 1.7937028133019343e-05 -0.016957004554569718 -0.0063731833361089221 0.00045262162166181957 0.00033412832999601966 0.018982196226716045
decision_type=2 2 2 2 2 2 2 2 8 8 2 2 2 2 8 2 10 2 2 8 2 2 2 2 2 2 2 2 2 2
left_child=1 4 3 9 -1 19 -7 8 23 10 28 13 -13 25 24 16 -14 -3 -16 -6 21 -17 -10 -4 -15 -11 -27 -28 -2 -29
right_child=2 17 7 -5 5 6 -8 -9 22 11 -12 12 15 14 18 20 -18 -19 -20 -21 -22 -23 -24 -25 -26 26 27 29 -30 -31
leaf_value=0.021171999591705681 -0.026533928733882259 0.033594501053222196 0.010528674451470432 0.017302081000184006 -0.020405925950136048 0.02236389665504113 -0.0082381094429247563 -0.010823881692218361 0.029886807552494794 0.0003695157032122044 -0.00054322930518009658 0.022097784024337579 0.020052795010445129 0.0018706261598850273 -0.002587772340088054 0.0028985603386912869 -0.0048871013604652918 0.0089982044567205339 0.025447222786648953 0.0027992214502528482 0.007303638166268527 -0.02123568398973294 0.0076116947827410669 -0.012374667446546422 -0.019822620651437403 -0.0027099236669680606 -0.0065607602874564594 -0.011436460528747536 -0.010485874826838243 -0.024623100695277917
leaf_weight=10.188836514949797 20.542410850524906 14.142002552747728 9.5900688767433184 13.193011790513991 17.462962627410892 12.324460566043856 12.035731524229048 10.706382304430006 16.648967593908313 9.3420689105987531 17.174493879079819 12.465367019176481 15.538713544607161 13.624113082885744 9.3624304234981555 9.4164638221263903 16.792797446250916 14.735545694828032 10.547588944435118 11.193802833557127 10.669329494237898 20.778058528900146 12.112252235412596 10.034877479076384 9.5491720736026746 10.591073423624037 11.373733282089232 11.404360979795454 9.1444933414459211 26.295284986495972
leaf_count=31 68 43 30 41 56 38 38 34 51 30 55 39 49 43 30 30 54 46 33 35 34 68 38 32 31 34 37 37 30 87
internal_value=0.00030765 0.00789772 -0.00191576 -0.00419053 0.00132179 -0.00281437 0.0075156 0.00791306 0.0121942 -0.00541545 -0.0143717 -0.00323143 0.00225242 -0.00740513 0.00193458 -0.00137958 0.00734117 0.0217648 0.0127708 -0.0115529 -0.00828998 -0.0138575 0.021077 -0.00121472 -0.00751888 -0.0131806 -0.0152733 -0.0178765 -0.0220934 -0.0210327
internal_weight=408.981 92.0833 316.898 257.805 63.2058 53.017 24.3602 59.0925 48.3862 244.612 46.8614 197.751 85.6607 112.09 43.0833 73.1954 32.3315 28.8775 19.91 28.6568 40.8639 30.1945 28.7612 19.6249 23.1733 69.0065 59.6645 49.0734 29.6869 37.6996
internal_count=1302 287 1015 830 198 167 76 185 151 789 153 636 274 362 137 235 103 89 63 91 132 98 89 62 74 225 195 161 98 124
is_linear=0
shrinkage=0.03


Tree=24
num_leaves=31
num_cat=0
split_feature=48 72 90 19 35 52 5 52 67 63 66 97 5 88 22 67 56 72 93 80 64 41 61 56 58 43 36 70 46 91
split_gain=10.6178 7.06034 7.44013 7.74671 6.8179 6.37931 5.79349 6.05969 5.18251 6.62139 4.91338 12.6672 5.2951 5.34041 4.7785 5.5457 4.87158 6.37318 4.34513 4.01774 4.42621 3.76714 3.22315 4.77647 2.85388 4.29534 2.87342 2.64152 0.449613 0.350603
threshold=24.619791030883793 221.50576782226565 0.040172224864363677 21.500000000000004 21.280000686645511 0.7886912226676942 -7.0673100708518164e-05 2.7747548818588261 0.82827392220497142 0.048718148842453964 -5.127943515777587 -0.1182524301111698 0.00037490010436158633 0.046589761972427375 0.0006697622302453966 -0.40629848837852472 -17.764347076416012 21.215489387512211 -388.85714721679682 0.023862103931605819 46.304779052734382 -0.001024987024720758 0.043833604082465179 2.8315673172473912 -0.059780158102512353 1.4426506757736208 21.664999961853031 150.4060974121094 121.12854766845705 0.019948264583945278
decision_type=2 2 2 2 2 8 8 8 8 2 10 2 10 2 2 10 2 2 2 2 2 2 2 2 2 2 2 10 2 2
left_child=1 2 3 6 -4 -5 24 10 9 -2 11 -8 13 14 15 -12 17 -17 -6 20 -11 -18 27 -24 -1 26 29 28 -14 -26
right_child=8 -3 4 5 18 -7 7 -9 -10 19 12 -13 22 -15 -16 16 21 -19 -20 -21 -22 -23 23 -25 25 -27 -28 -29 -30 -31
leaf_value=-0.0019764835737264034 0.026866051027652771 0.019898522752043679 -0.0079638696684276519 0.025780010433742156 0.0057548828853167039 -0.0051888301835979842 -0.017127252244981437 0.012957934391133361 0.029773124151109907 -0.01343127775174262 -0.020331592339114607 0.026873927080138232 -0.016085174985912245 -0.020337754804641315 0.020424481370662981 -0.020193660041192468 0.021745068095554761 0.0072864747190191891 0.033559724432613687 0.015155222112168616 0.0096760763308738132 0.00018977194604179054 0.005928854875860032 -0.018309672858609845 -0.01648242596199585 0.0017992345135333628 -0.0054833254083845239 -0.0065609112161031423 -0.026087675118489508 -0.026505558632711212
leaf_weight=17.21493011713028 10.936474353075026 11.743046849966047 10.753609687089922 12.487583667039869 10.050123602151873 10.253996551036836 9.3857305645942706 18.336594074964523 10.324308127164839 18.203410625457767 10.605695098638526 12.781582891941069 16.441737622022629 10.615227490663527 9.3825667798519117 13.825301080942149 13.716500610113146 14.785782635211943 10.314075529575346 12.409808516502379 11.301447302103041 14.508856773376477 17.327961474657062 11.249333769083021 12.037048101425169 9.9022365510463697 10.762059211730955 16.916693061590195 15.922502636909483 24.166531503200531
leaf_count=56 32 36 35 38 31 32 30 58 30 57 35 39 54 35 30 45 43 47 31 38 35 46 56 37 40 32 35 55 53 81
internal_value=4.45673e-05 -0.00203159 -0.00286036 -0.0043052 0.0108876 0.012186 -0.00568378 -0.00306415 0.0112532 0.00714967 -0.00469176 0.00830853 -0.00647464 -0.00137417 0.00147378 -0.00142255 0.00239641 -0.00622586 0.0207492 0.00149907 -0.00455326 0.0110505 -0.0121127 -0.00390899 -0.0128234 -0.016016 -0.0197314 -0.0166976 -0.0216406 -0.0237057
internal_weight=408.663 345.487 333.744 302.626 31.1178 22.7416 279.885 205.802 63.1754 52.8511 187.465 22.1673 165.298 87.4399 76.8247 67.4421 56.8364 28.6111 20.3642 41.9147 29.5049 28.2254 77.8582 28.5773 74.0828 56.8679 46.9656 49.2809 32.3642 36.2036
internal_count=1302 1110 1074 977 97 70 907 663 192 162 605 69 536 281 246 216 181 92 62 130 92 89 255 93 244 188 156 162 107 121
is_linear=0
shrinkage=0.03


Tree=25
num_leaves=31
num_cat=0
split_feature=48 5 51 22 90 24 60 84 36 27 87 82 64 93 46 79 5 87 63 42 82 62 43 35 43 59 75 21 23 5
split_gain=11.1023 7.05426 6.98532 6.3322 7.17946 6.18537 5.0296 4.73183 4.72205 4.60927 3.98408 5.12761 5.79456 6.63874 4.67036 4.86171 3.90557 3.77182 3.51881 3.36916 5.84521 3.95105 4.44326 5.15449 3.61489 3.50168 2.73498 3.6497 2.28541 2.14753
threshold=6.0061194896698007 -0.13708616793155667 -1.0103629529476164 -0.00018259178614243862 0.032968642190098769 -0.022482026368379589 0.037719555199146278 1.6907740235328677 24.130000114440922 0.031283577904105193 0.014023981522768738 0.078030969947576537 43.96022033691407 883.88867187500011 120.83499908447267 -0.17376761138439176 0.00040612419252283877 0.023550490848720077 0.031668061390519149 0.96891587972641002 0.067686017602682128 0.031206700950860981 -1.0893169045448301 18.345000267028812 -1.7890591621398924 0.044525686651468284 0.28042478859424597 1.5000000000000002 1.0000000180025095e-35 0.00083401205483824026
decision_type=2 10 8 2 2 2 2 2 2 2 2 2 2 2 2 2 10 2 2 2 2 2 2 2 2 2 2 2 2 10
left_child=2 7 -1 6 5 -5 9 26 18 -4 11 12 16 29 15 -13 -3 -12 -7 21 -21 -20 24 25 -23 -24 -2 -28 -6 -14
right_child=1 10 3 4 28 8 -8 -9 -10 -11 17 14 13 -15 -16 -17 -18 -19 19 20 -22 22 23 -25 -26 -27 27 -29 -30 -31
leaf_value=0.021786616033625798 -0.018370299793345923 -0.00025563809789443722 -0.020559062957825971 -0.012047182760706951 -0.01936429638037333 -0.003900862242239591 0.0064889308734491372 -0.023280260340553464 0.026895654540224939 -0.0011007499200370995 0.017011512913212599 0.0090622393606385084 -0.0058787448777599307 0.0093749911550180757 -0.022119320665835152 -0.016224505767611575 0.023511572301071735 -0.0020208102729576409 -0.0090603107909142493 0.030417232047576719 0.0023493211723731437 0.0042477441894169981 0.01822595069859842 -0.011901998594052018 0.026581755645026323 -0.0030742203741968236 0.0077656042819553945 -0.011979758494912212 -0.00027988475629397823 -0.024773235652196308
leaf_weight=17.313273847103119 12.290419965982435 11.55964243412018 21.921034336090088 12.09002101421356 10.900553703308107 19.131602436304092 20.620213627815247 25.226867109537125 12.114732295274733 21.217969626188278 16.673042416572571 13.473125576972963 11.126167982816698 14.421343475580214 20.628799885511398 12.029827088117598 12.424054324626921 19.550796151161194 11.484120547771452 15.437821924686434 11.549015402793883 10.863479584455492 17.155586987733852 13.242391228675841 17.163617789745324 10.839021295309065 16.023391932249073 15.72231203317642 10.804381310939787 11.298737496137617
leaf_count=47 35 32 62 34 31 53 57 73 33 59 46 38 31 40 59 34 34 55 32 42 32 30 47 37 47 30 45 45 30 32
internal_value=-0.000300588 -0.0053473 0.00392746 0.00253404 0.00550894 0.00783233 -0.00548801 -0.0131342 0.00963536 -0.0112302 -0.00151557 -0.00442415 0.00131035 -0.00611398 -0.0118531 -0.00302772 0.0125046 0.00696102 0.00778969 0.00988249 0.0189187 0.00666801 0.00936763 0.00295935 0.0183695 0.0101573 -0.00693402 -0.00208065 -0.0102951 -0.0160498
internal_weight=466.297 212.449 253.849 236.536 172.776 151.071 63.7592 69.263 138.981 43.139 143.186 106.962 60.8299 36.8462 46.1318 25.503 23.9837 36.2238 126.867 107.735 26.9868 80.7482 69.2641 41.237 28.0271 27.9946 44.0361 31.7457 21.7049 22.4249
internal_count=1302 599 703 656 478 417 178 198 383 121 401 300 169 103 131 72 66 101 350 297 74 223 191 114 77 77 125 90 61 63
is_linear=0
shrinkage=0.03


Tree=26
num_leaves=31
num_cat=0
split_feature=37 77 92 47 92 26 85 42 63 90 33 33 90 61 78 30 89 47 31 40 67 39 63 5 78 97 36 74 70 25
split_gain=7.31525 8.89624 7.45064 8.33882 7.88981 5.98432 5.87941 5.74546 5.70501 5.30016 4.69407 4.5723 6.18071 4.5297 5.8529 5.21907 4.76305 4.45827 4.64503 4.51772 4.35171 4.35063 4.16509 3.7904 2.59548 2.4997 2.4546 2.12097 2.26848 2.09376
threshold=14.570000171661379 0.17239611595869067 38.884256362915046 119.01200103759767 74.309474945068374 -0.0087990132160484773 -0.0088896928355097753 0.896702140569687 0.04467099346220494 0.018473498523235325 -0.27013657987117762 0.56958925724029552 0.029543329961597923 0.031774498522281654 -0.37075245380401606 17.494999885559086 0.0090948911383748072 116.01359939575197 0.0027989834779873495 0.0017708108061924579 -0.72208985686302174 120.95920181274415 0.048278884962201125 0.00049070618115365516 -0.891321301460266 -0.051857275888323777 19.224999427795414 17.409076690673832 158.45780181884768 -8.661494121042777e-06
decision_type=2 2 2 2 2 2 2 2 2 2 2 2 2 2 2 2 2 2 2 2 10 2 2 8 2 2 2 2 10 2
left_child=1 7 3 22 6 -5 9 8 -1 -4 -10 12 26 14 16 -16 24 -15 27 23 -7 -3 -2 -20 -8 -9 -11 -19 -29 -30
right_child=2 21 4 5 -6 20 13 25 10 11 -12 -13 -14 17 15 -17 -18 18 19 -21 -22 -23 -24 -25 -26 -27 -28 28 29 -31
leaf_value=0.019592046604857926 -0.019460025486768912 0.032411126495235323 0.015814800373222006 0.033904843004157227 0.014527290943603759 -0.0050758983705032458 -0.0043448629110311989 -5.1379327633968747e-05 -0.014934559627899805 -0.017811690607071697 0.010311980056073559 -0.020130914792154647 0.016783636913986374 0.006146935739475487 -0.0033488686727734924 0.025724988662137949 0.003622145205505124 -0.0041567599456181744 -0.0075793382369192192 -0.017281042553359733 0.021176122657610257 0.0087744493975932501 0.0046827519549049266 0.017075595922710154 -0.02563888096081305 -0.020764735218214685 0.002597239099817131 -0.024165794425130969 -0.01816005863795795 -0.00081382368739242952
leaf_weight=18.422008574008942 9.8118852674961108 14.335191786289217 17.761132717132568 11.658180654048918 18.135481089353561 11.486426144838331 9.0793836414814013 9.4412277340888995 11.963287562131883 10.43803906440735 12.590303629636763 9.8716979920864087 14.042422682046888 11.01166260242462 10.890096276998522 9.9313530623912794 16.753668010234833 9.9991976618766767 10.498108118772508 12.790158897638319 9.6853257417678851 14.789735615253447 15.146814584732054 10.0983589887619 12.568944603204725 10.807754039764403 9.4726426899433118 38.738837033510208 16.66416293382645 9.8535454273223859
leaf_count=56 33 43 56 35 56 36 30 30 38 34 39 32 44 35 35 31 54 32 34 42 30 46 48 32 42 35 30 128 54 32
internal_value=0.000298256 0.0076799 -0.00187376 0.00777837 -0.00405236 0.0175013 -0.00550797 0.00126645 0.00743728 0.00245713 -0.002092 -0.00318845 0.0021725 -0.0082487 -0.00142784 0.0110621 -0.00830871 -0.0115849 -0.0134218 -0.00395343 0.00734691 0.021098 -0.0051924 0.00473981 -0.0172943 -0.0115639 -0.00844214 -0.0175155 -0.0194688 -0.0119783
internal_weight=408.737 92.3495 316.388 57.7886 258.599 32.8299 240.463 63.2246 42.9756 61.5859 24.5536 43.8248 33.9531 178.877 59.2234 20.8214 38.402 119.654 108.642 33.3866 21.1718 29.1249 24.9587 20.5965 21.6483 20.249 19.9107 75.2557 65.2565 26.5177
internal_count=1302 287 1015 182 833 101 777 198 133 196 77 140 108 581 192 66 126 389 354 108 66 89 81 66 72 65 64 246 214 86
is_linear=0
shrinkage=0.03


Tree=27
num_leaves=31
num_cat=0
split_feature=54 72 66 85 91 33 97 63 89 79 19 47 5 44 39 90 87 45 62 34 81 96 74 34 62 47 25 76 40 44
split_gain=10.7341 6.84736 7.11239 7.06984 12.019 9.50719 6.96598 5.98168 8.27501 5.79361 5.29044 5.11079 4.56486 5.60502 4.32894 7.449 4.13862 4.99646 5.72298 4.1823 3.65188 3.08588 2.85933 5.18929 3.73448 4.69492 2.60763 2.01435 1.72616 1.25263
threshold=24.619791030883793 221.50576782226565 -8.4537315368652326 -0.0064475794788449994 0.034564837813377387 -0.24092680960893628 -0.14220552146434781 0.048035312443971641 0.0048808953724801549 -0.22968792915344236 22.500000000000004 118.94640350341798 0.0004850545665249229 120.95920181274415 124.02919769287111 0.021821993403136734 0.001953113707713783 120.14720153808595 0.039672654122114188 -0.23467422276735303 0.014571351930499079 -0.50181534886360157 33.779138565063484 -1.0968507528305051 0.040733320638537414 122.32044982910158 -0.0011975819361396132 1.9181398153305056 0.0024408465251326565 123.67839813232423
decision_type=2 2 10 2 2 2 2 2 2 2 2 2 8 2 2 2 2 2 2 2 2 2 2 2 2 2 2 2 2 2
left_child=1 2 6 22 9 -6 -1 -2 12 29 11 -11 -9 -14 16 -16 17 -13 19 -19 -20 26 23 -4 25 -24 -18 -25 -23 -5
right_child=7 -3 3 4 5 -7 -8 8 -10 10 -12 14 13 -15 15 -17 21 18 20 -21 -22 28 24 27 -26 -27 -28 -29 -30 -31
leaf_value=-0.0040796596933774651 0.030915472710785714 0.019462365258522282 0.013502996046767874 -0.023595753662955236 0.00052703813187715814 0.033938240150331672 0.029849213147590949 -0.017985483585794066 0.022241107039963025 0.014751835777787815 0.016462621422070937 -0.014014308921683065 0.015925862184338401 -0.012166815733696107 0.020445085044044482 -0.012120087146136643 -0.013792872591789773 0.02565876066287321 -0.019686323636574798 -0.00033682142699421094 0.0054934030893871453 -0.019618624859863976 -0.017159458547743686 -0.018324608834228095 -0.023430376414851746 0.0080453615696579849 0.0064480700126941055 -0.00081745616240937158 -0.0044488969007978373 -0.0081392183093287798
leaf_weight=9.9883254170417803 10.495337337255476 11.81336787343025 9.5515285730361921 13.385221034288408 16.396280139684681 13.44693002104759 10.441585391759871 10.067171633243563 19.004985094070435 11.796610206365584 11.91963681578636 18.363371938467026 15.29910823702812 9.600191116333006 13.579250007867815 10.280940711498259 9.4092525541782397 12.120196610689165 9.4779659807682055 9.6347945034503919 9.5857548713684064 35.912018448114402 15.489769548177721 14.485743075609209 26.3713119328022 10.366295218467711 11.825319230556479 9.7274066209793073 9.1140580177307111 9.298010587692259
leaf_count=32 30 36 30 45 52 40 31 32 57 36 36 61 46 30 43 34 31 38 31 31 31 120 51 48 88 33 38 31 30 30
internal_value=4.30999e-05 -0.00207157 -0.00289402 -0.0040325 -0.00122455 0.0161939 0.0138448 0.0111793 0.00684885 -0.00394956 -0.0020322 -0.00349373 -0.00190293 0.00504287 -0.00502389 0.00649022 -0.00724797 -0.00143596 0.00442255 0.0146371 -0.00738252 -0.0123406 -0.0112986 -0.00431651 -0.0156466 -0.00713096 -0.00273785 -0.0116027 -0.0167114 -0.0178712
