tree
version=v4
num_class=3
num_tree_per_iteration=3
label_index=0
max_feature_idx=97
objective=multiclass num_class:3
feature_names=Column_0 Column_1 Column_2 Column_3 Column_4 Column_5 Column_6 Column_7 Column_8 Column_9 Column_10 Column_11 Column_12 Column_13 Column_14 Column_15 Column_16 Column_17 Column_18 Column_19 Column_20 Column_21 Column_22 Column_23 Column_24 Column_25 Column_26 Column_27 Column_28 Column_29 Column_30 Column_31 Column_32 Column_33 Column_34 Column_35 Column_36 Column_37 Column_38 Column_39 Column_40 Column_41 Column_42 Column_43 Column_44 Column_45 Column_46 Column_47 Column_48 Column_49 Column_50 Column_51 Column_52 Column_53 Column_54 Column_55 Column_56 Column_57 Column_58 Column_59 Column_60 Column_61 Column_62 Column_63 Column_64 Column_65 Column_66 Column_67 Column_68 Column_69 Column_70 Column_71 Column_72 Column_73 Column_74 Column_75 Column_76 Column_77 Column_78 Column_79 Column_80 Column_81 Column_82 Column_83 Column_84 Column_85 Column_86 Column_87 Column_88 Column_89 Column_90 Column_91 Column_92 Column_93 Column_94 Column_95 Column_96 Column_97
feature_infos=[-0.98511189222335815:0.33295056223869324] [0:0.3333333432674408] [0:1] [0:1] [1:9] [-0.9984290599822998:0.27453136444091797] [0:0.5] [0:1] [0:1] [1:20] [-0.99852657318115234:0.99938100576400757] [0:1] [0:1] [0:1] [1:25] [-0.9984290599822998:0.99774706363677979] [0:1] [0:1] [0:1] [0:27] [0:1] [0:4] [-0.9984290599822998:0.99774706363677979] [-0.9984290599822998:0.99774706363677979] [-0.9984290599822998:0.99774706363677979] [-0.66487926244735718:0.39975672960281372] [-0.42749553918838501:0.15241703391075134] [0:0.55516493320465088] [1:139] [0:63] [11.859999656677246:52.330001831054688] [-0.35753870010375977:0.74039065837860107] [-0.4833453893661499:1.4037666320800781] [-2.3986294269561768:2.4474601745605469] [-3.1182084083557129:4.8756499290466309] [11.859999656677246:52.330001831054688] [11.859999656677246:52.330001831054688] [11.859999656677246:52.330001831054688] [11.859999656677246:52.330001831054688] [114.177001953125:130.04130554199219] [-0.013113552704453468:0.011120045557618141] [-0.027071729302406311:0.027545707300305367] [-2.4297442436218262:2.4443871974945068] [-3.9001622200012207:3.5369713306427002] [114.177001953125:130.04130554199219] [114.177001953125:130.04130554199219] [114.177001953125:130.04130554199219] [114.177001953125:130.04130554199219] [-94.763969421386719:56.95343017578125] none [-4.7008504867553711:2889.839599609375] [-2.4494898319244385:2.4494898319244385] [-5.385164737701416:5.385164737701416] [-94.763969421386719:56.95343017578125] [-94.763969421386719:56.95343017578125] [-94.763969421386719:56.95343017578125] [-94.763969421386719:56.95343017578125] [-0.24422907829284668:0.72152280807495117] [-0.29933810234069824:0.75941711664199829] [-0.42270451784133911:0.87925219535827637] [-0.43868595361709595:1.2880593538284302] [0.0029678323771804571:0.25608676671981812] [0.01169243361800909:0.18201543390750885] [0.012363418936729431:0.12673491239547729] [19.921501159667969:89.570709228515625] [-0.10459879040718079:0.16677574813365936] [-0.091673590242862701:0.15779155492782593] [-0.043208431452512741:0.04289017990231514] [0.24494285881519318:1.3928571939468384] [0.24777500331401825:1.3456499576568604] [0.25143599510192871:1.3398599624633789] [0.24703364074230194:1.3701492547988892] [0.25076964497566223:1.3760017156600952] [0.2544805109500885:1.5467902421951294] [0.18518215417861938:1.1767235994338989] [0.04789237305521965:1.312518835067749] [0.0067449393682181835:0.1414472907781601] [-0.78824108839035034:13.355371475219727] [-1.9873548746109009:17.427165985107422] [-0.51406568288803101:0] [-0.24416248500347137:0.72152280807495117] [0.0010105491383001208:0.11313270032405853] [0.010613207705318928:0.76414376497268677] [18121236:1462027392] [1.0803320407867432:2.0399065017700195] [-0.18891085684299469:0.12234850227832794] [0:1] [-0.15379838645458221:0.14485582709312439] [-0.2383464127779007:0.20691065490245819] [-0.33259490132331848:0.35951325297355652] [0.0031643849797546864:0.085850544273853302] [0.0087705496698617935:0.050428587943315506] [18.635524749755859:89.3983154296875] [-5907.96484375:7019.05517578125] [0:1] [0:1] [-2.3075559139251709:15.573112487792969] [-0.40345379710197449:0]
tree_sizes=3116 3388 3216 3326 3432 3346 3115 3454 3226 3328 3460 3455 3335 3458 3027

Tree=0
num_leaves=29
num_cat=0
split_feature=74 68 60 54 67 48 68 67 46 26 68 56 64 37 61 96 65 35 63 72 90 52 91 57 63 74 36 61
split_gain=63.0968 31.8378 20.4355 14.9017 17.4121 15.1117 33.6567 17.283 13.6182 14.1385 11.6582 15.811 12.8186 11.0831 9.82314 9.77407 9.20449 8.41447 7.6756 7.15054 7.04109 4.65316 4.15953 2.36701 2.04607 0.527084 0.271549 0.200653
threshold=0.30465719103813177 0.89229285717010509 -0.17925749719142911 -17.764347076416012 -0.0061712360475212327 17.376023292541507 0.52647143602371227 -0.0099394535645842535 121.26165008544923 -0.0028500645421445365 0.35539999604225164 20.955858230590824 37.64763259887696 20.590000152587894 0.040008552372455604 -0.26147800683975214 0.031423931941390044 19.085000038146976 0.033986710011959083 0.98176428675651561 0.035241434350609786 0.419722929596901 0.013931371737271549 0.003333634696900845 0.027488836087286476 0.2997716516256333 13.605000019073488 0.039249829947948463
decision_type=2 2 2 2 10 2 2 10 2 2 2 2 2 2 2 2 2 2 2 2 2 10 2 2 2 2 2 2
left_child=22 3 -3 4 -2 8 15 -8 16 10 -10 12 -12 17 -4 -7 24 18 -6 -16 -9 -14 -1 -11 -5 26 -24 -26
right_child=1 2 14 5 13 6 7 20 9 23 11 -13 21 -15 19 -17 -18 -19 -20 -21 -22 -23 25 -25 27 -27 -28 -29
leaf_value=-1.206747016297864 -1.2175362610979827 -1.213892023449697 -1.1461248512239177 -1.2116072275478125 -1.1651283932143504 -1.1973697411832362 -1.2074166273557534 -1.151711583789617 -1.2205693582396082 -1.2257810601218473 -1.2017422731555811 -1.2165075799781127 -1.1479177001901102 -1.2008058197580391 -1.1970749120979125 -1.2268462685590968 -1.1938128815880837 -1.1498477413448329 -1.2024182281002036 -1.1661381355157425 -1.18370692146727 -1.1784060059852777 -1.2202737048355712 -1.2083958190166952 -1.2300890482166014 -1.2186214737447409 -1.230431956974315 -1.2199607474460363
leaf_weight=10.089188575744627 12.296198576688765 9.4586142897605878 14.187921434640883 9.7739014327526075 9.4586142897605949 18.60194143652916 10.404475718736647 18.286654293537143 10.404475718736647 16.079644292593006 12.296198576688765 11.350337147712706 9.4586142897605914 13.872634291648863 11.350337147712709 20.493664294481277 9.4586142897605878 12.296198576688765 9.4586142897605878 17.025505721569061 11.665624290704725 13.242060005664824 10.089188575744627 13.557347148656843 31.528714299201965 11.035050004720686 52.337665736675262 9.7739014327526075
leaf_count=32 39 30 45 31 30 59 33 58 33 51 39 36 30 44 36 65 30 39 30 54 37 42 32 43 100 35 166 31
internal_value=-1.20214 -1.19632 -1.17498 -1.20032 -1.1868 -1.20379 -1.19332 -1.17442 -1.20948 -1.2018 -1.19307 -1.18664 -1.17684 -1.17827 -1.16627 -1.21305 -1.22027 -1.16862 -1.18284 -1.17791 -1.16317 -1.16394 -1.22531 -1.21828 -1.22523 -1.22776 -1.2291 -1.22816
internal_weight=419.332 335.781 52.0224 283.758 57.3823 226.376 79.4524 40.3568 146.924 86.3887 56.7517 46.3472 34.9969 45.0861 42.5638 39.0956 60.5351 31.2134 18.9172 28.3758 29.9523 22.7007 83.5511 29.637 51.0765 73.4619 62.4269 41.3026
internal_count=1330 1065 165 900 182 718 252 128 466 274 180 147 111 143 135 124 192 99 60 90 95 72 265 94 162 233 198 131
is_linear=0
shrinkage=1


Tree=1
num_leaves=31
num_cat=0
split_feature=68 97 90 37 36 33 33 55 83 93 78 67 62 66 61 66 46 76 64 78 27 55 55 65 97 37 5 10 28 60
split_gain=27.2787 14.7741 11.3817 12.3993 11.3075 10.442 10.7044 10.2305 9.41345 10.9869 8.55188 9.53648 17.3299 10.8859 9.11663 7.46058 7.90636 6.93228 6.75918 8.35703 5.20955 5.13013 5.09174 7.61846 4.00222 3.50765 0.708784 0.687528 0.600856 0.340748
threshold=0.49846428632736212 -0.070879444479942308 0.013794373720884325 14.420000076293947 14.465000152587892 -0.14538755267858502 -0.54007381200790394 6.0061194896698007 171202632.00000003 -332.62683105468744 -0.8434716761112212 -0.0032547609880566593 0.048321232199668891 0.00078871558071114134 0.066325128078460707 0.042167790234088905 121.12854766845705 0.050518568605184562 59.719705581665046 -0.059253346174955361 0.010477854870259764 -11.534248828887938 11.409516334533693 -0.019214361906051632 -0.10221387073397635 21.280000686645511 0.0010968151036649945 -0.21778529137372968 40.500000000000007 -0.07089605554938315
decision_type=2 2 2 2 2 2 2 2 2 2 2 10 2 10 2 10 2 2 2 2 2 2 2 2 2 2 8 10 2 2
left_child=1 2 -1 -4 7 6 18 -3 9 22 24 12 17 21 -14 16 -15 -12 19 -6 -7 -13 -5 -24 -2 -18 -22 -19 -26 -23
right_child=10 4 3 8 5 20 -8 -9 -10 -11 11 13 14 15 -16 -17 25 27 -20 -21 26 29 23 -25 28 -27 -28 -29 -30 -31
leaf_value=-0.87962420919780349 -0.92293198100567775 -0.8910738153831832 -0.93539812333320993 -0.87964107874050468 -0.92617265334665255 -0.92035946248724387 -0.88997637409493158 -0.92262203547248256 -0.92444379682784716 -0.91802568781275096 -0.91337744193547576 -0.9238693099808778 -0.88445210492719306 -0.89759117327842131 -0.91697865482278207 -0.93536599478820259 -0.93492166329373116 -0.93133729146780075 -0.93719612631539972 -0.89775489802040209 -0.94642602059558378 -0.9496436366040879 -0.88812192045704785 -0.91908170036168368 -0.94850506313943084 -0.91219668388120301 -0.9340678514799543 -0.94429268690581714 -0.93627537481503831 -0.93974294162404348
leaf_weight=14.388445615768431 11.510756492614744 21.222957283258438 11.870467633008955 19.784112721681588 21.222957283258435 16.187001317739487 11.151045352220534 15.467579036951063 15.467579036951063 19.424401581287391 16.187001317739487 17.266134738922119 17.266134738922123 17.266134738922119 13.669023334980009 17.266134738922119 11.510756492614748 10.791334211826326 15.467579036951063 15.107867896556856 15.827290177345274 13.309312194585798 16.906423598527905 11.870467633008962 17.266134738922123 11.151045352220534 12.58988991379738 11.151045352220534 12.589889913797377 26.25891324877739
leaf_count=40 32 59 33 55 59 45 31 43 43 54 45 48 48 48 38 48 32 30 43 42 44 37 47 33 48 31 35 31 35 73
internal_value=-0.918672 -0.91195 -0.903706 -0.907709 -0.918279 -0.923198 -0.915327 -0.904125 -0.90362 -0.898867 -0.926274 -0.923433 -0.914671 -0.928729 -0.898321 -0.919436 -0.912307 -0.928118 -0.921225 -0.914111 -0.934136 -0.937907 -0.891372 -0.900477 -0.938438 -0.923938 -0.94166 -0.93875 -0.944085 -0.943754
internal_weight=478.416 253.956 109.712 95.3235 144.244 107.554 62.9494 36.6905 83.453 67.9854 224.46 183.093 69.0645 114.028 30.9352 57.1941 39.9279 38.1294 51.7984 36.3308 44.6042 56.8344 48.561 28.7769 41.3668 22.6618 28.4172 21.9424 29.856 39.5682
internal_count=1330 706 305 265 401 299 175 102 232 189 624 509 192 317 86 159 111 106 144 101 124 158 135 80 115 63 79 61 83 110
is_linear=0
shrinkage=1


Tree=2
num_leaves=30
num_cat=0
split_feature=74 32 64 63 62 73 47 25 81 90 48 26 69 57 33 88 73 74 64 67 52 66 64 84 52 42 61 27 42
split_gain=45.367 22.4629 11.96 13.4618 19.0803 14.1368 13.8346 19.0842 10.0672 9.37508 15.0579 9.0878 9.06305 8.11851 7.97419 7.20394 5.22479 7.76243 4.8713 5.08397 3.85476 8.63995 3.35552 2.78552 3.43835 2.31277 2.21288 1.68537 0.687104
threshold=0.24061898142099383 -0.22335263341665265 36.765766143798835 0.039125714451074607 0.029031105339527134 0.40915623307228094 121.98154830932619 -0.00097167081548832346 0.013201702851802112 0.01349242450669408 -24.396840095520016 0.00022082579380366954 0.40778999030590063 -0.0043597519397735587 0.18001446872949603 0.013686514459550382 0.48162867128849035 0.39993041753768926 39.365974426269538 -0.014504494611173866 -1.034522473812103 0.0022080020280554895 34.600217819213874 1.6069644689559939 0.68088021874427807 0.19386138767004016 0.031023266725242141 0.06570035964250566 -1.0676929950714109
decision_type=2 2 2 2 2 2 2 2 2 2 2 2 2 2 2 2 2 2 2 8 10 10 2 2 8 2 2 2 2
left_child=14 -2 11 4 8 13 7 -7 23 10 -5 12 -3 -6 -1 -9 -11 -18 -19 -20 21 27 -14 24 -4 -8 -22 -21 -28
right_child=1 2 3 9 5 6 25 15 -10 16 -12 -13 22 -15 -16 -17 17 18 19 20 26 -23 -24 -25 -26 -27 28 -29 -30
leaf_value=-1.1819233714633988 -1.1654968267925871 -1.1826817968033332 -1.2004692010168476 -1.2229790425431126 -1.1536545978648569 -1.1621371889767853 -1.2081551257749503 -1.2218321957403386 -1.1935309431699697 -1.2288114427857684 -1.17629956913639 -1.1733619632741636 -1.2191899922604092 -1.1888950460335319 -1.1481776818757994 -1.1897876616428373 -1.1893311744858825 -1.1968944426486696 -1.2018726721491721 -1.2110235746123237 -1.212517449104052 -1.1901317591296074 -1.1976846943841064 -1.2296938591220354 -1.2239733930042702 -1.2286529974032379 -1.2189599674836782 -1.228867489448729 -1.2295403897942274
leaf_weight=16.710218578577045 11.350337147712706 14.503208577632902 9.773901432752611 10.089188575744631 9.4586142897605914 12.926772862672804 9.4586142897605914 11.980911433696749 14.187921434640883 26.168832868337631 13.242060005664824 13.557347148656843 16.710218578577045 16.079644292593002 11.665624290704725 11.350337147712706 9.7739014327526075 10.404475718736647 15.449070006608961 9.4586142897605914 13.557347148656843 10.719762861728666 9.7739014327526075 21.439525723457336 11.665624290704725 11.350337147712706 13.872634291648856 12.611485719680784 40.041467159986503
leaf_count=53 36 46 31 32 30 41 30 38 45 83 42 43 53 51 37 36 31 33 49 30 43 34 31 68 37 36 44 40 127
internal_value=-1.20264 -1.20533 -1.20662 -1.2088 -1.20176 -1.19259 -1.20103 -1.18994 -1.21498 -1.21408 -1.1965 -1.19373 -1.20099 -1.1745 -1.16668 -1.20637 -1.21663 -1.2141 -1.21611 -1.21787 -1.22032 -1.21148 -1.21137 -1.22211 -1.21365 -1.22003 -1.22442 -1.22193 -1.22717
internal_weight=419.332 390.956 379.606 325.061 139.672 82.6052 57.067 36.258 57.067 185.389 23.3312 54.5447 40.9873 25.5383 28.3758 23.3312 162.058 135.889 126.115 115.71 100.261 32.7899 26.4841 42.8791 21.4395 20.809 67.4714 22.0701 53.9141
internal_count=1330 1240 1204 1031 443 262 181 115 181 588 74 173 130 81 90 74 514 431 400 367 318 104 84 136 68 66 214 70 171
is_linear=0
shrinkage=1


Tree=3
num_leaves=30
num_cat=0
split_feature=74 68 60 54 67 53 68 56 67 69 47 37 61 62 62 63 74 66 45 75 64 91 55 70 10 22 61 74 36
split_gain=60.2011 29.8301 18.9522 14.1351 16.4892 14.4328 14.4236 19.4319 20.4389 17.1591 13.2356 10.345 8.95235 8.68888 8.36082 8.89111 8.58168 7.75252 7.71817 6.75919 6.71865 4.07684 3.72103 2.85206 1.90452 1.09151 0.77154 0.52334 0.287787
threshold=0.30465719103813177 0.89229285717010509 -0.17925749719142911 -17.764347076416012 -0.0061712360475212327 7.0048747062683114 0.52647143602371227 14.281797409057619 -0.0028577117482200261 0.71015751361846935 123.992000579834 20.590000152587894 0.040008552372455604 0.019925111904740337 0.024516354314982895 0.040781566873192794 0.40976335108280187 0.029138875193893913 119.78974914550783 0.38346143066883093 52.631361007690437 0.013931371737271549 -16.145400524139401 0.35420800745487219 0.00060270485118962835 -0.00136653461959213 0.037719715386629112 0.2997716516256333 13.605000019073488
decision_type=2 2 2 2 10 2 2 2 10 2 2 2 2 2 2 2 2 10 2 2 2 2 2 10 10 2 2 2 2
left_child=21 3 -3 4 -2 13 10 9 -9 -8 14 18 -4 -5 -7 25 -17 22 -6 20 -14 -1 -15 -24 -20 -16 -25 28 -23
right_child=1 2 12 5 11 6 7 8 -10 -11 -12 -13 19 17 15 16 -18 -19 24 -21 -22 27 23 26 -26 -27 -28 -29 -30
leaf_value=-0.0041960958530025136 -0.01495570864853483 -0.011285800226657402 0.053571764536108089 0.012664741760526593 0.010188602909447984 0.016960792417296686 0.022394252142306923 0.003326402427355496 0.051404920294026074 -0.024605891271832259 0.027870912982616458 0.0014979241591965885 0.013456816099135894 -0.0015095217922136933 -0.013159821198030408 0.013696709101187135 -0.016913435814281775 0.009033225876668622 0.051996093263156982 0.0024366335235517268 0.050066038072816489 -0.017521863145142969 -0.0057578593915144551 -0.026826709617493141 0.027501127642957909 -0.027171682006132167 -0.014247731102335107 -0.01594860714738917 -0.027725640997834117
leaf_weight=10.046643882989882 12.217787951231001 9.3957729935646039 14.573160439729689 11.334448635578154 10.507022202014925 9.4896740019321424 11.838422089815142 13.942441880702974 18.006490975618362 14.372669160366057 9.5597347915172559 13.893345355987547 9.5946878194809013 10.052818357944487 10.655533224344252 16.7025360763073 14.427020102739332 10.111347317695616 11.574757248163225 9.5347602665424329 9.6156316697597486 9.957835525274275 9.4501335918903333 35.940383762121201 9.6092728078365308 20.994388103485111 9.4172188341617566 10.928041309118269 51.513476997613907
leaf_count=32 39 30 45 36 33 30 37 44 56 46 30 44 30 32 34 53 46 32 36 30 30 32 30 115 30 67 30 35 166
internal_value=0.000234732 0.00587075 0.0263745 0.00198714 0.0150925 -0.00141202 0.0045304 0.0158212 0.0311613 -0.00333509 -0.00358865 0.0232944 0.0346134 -0.0109921 -0.0080737 -0.0120645 -0.000574469 -0.0146882 0.0325118 0.023524 0.0333519 -0.0225842 -0.0184673 -0.0214949 0.0426255 -0.0230019 -0.0245787 -0.0250439 -0.0263797
internal_weight=419.257 336.811 52.714 284.097 57.8022 226.295 139.989 58.16 31.9489 26.2111 81.8289 45.5844 43.3182 86.3064 72.2692 62.7795 31.1296 74.9719 31.6911 28.7451 19.2103 82.446 64.8606 54.8077 21.184 31.6499 45.3576 72.3994 61.4713
internal_count=1330 1065 165 900 182 718 443 183 100 83 260 143 135 275 230 200 99 239 99 90 60 265 207 175 66 101 145 233 198
is_linear=0
shrinkage=0.03


Tree=4
num_leaves=31
num_cat=0
split_feature=68 97 90 36 33 34 54 36 83 93 62 67 64 41 52 62 52 38 93 81 24 84 14 61 61 64 52 64 73 5
split_gain=25.7135 13.897 10.7814 10.6867 9.93233 10.3915 9.80653 9.52417 8.51763 9.41347 7.81599 18.1146 10.718 9.90003 8.10241 7.59006 6.75949 6.5955 5.8486 5.79717 5.28046 5.25196 6.85337 4.3433 3.87827 3.12185 2.70552 1.50472 0.780699 0.539205
threshold=0.49846428632736212 -0.070879444479942308 0.013794373720884325 14.465000152587892 -0.14538755267858502 0.5315854847431184 6.0061194896698007 13.484999656677248 171202632.00000003 -332.62683105468744 0.045837655663490302 -0.0032547609880566593 65.490501403808608 -0.00041485886322334403 -2.7747548818588252 0.038316892459988601 1.1062943339347842 15.034999847412111 -1069.5622558593748 0.019815113395452503 5.1866489229723818e-05 1.825941860675812 4.5000000000000009 0.027384671382606033 0.04280036315321923 54.150934219360359 0.68088021874427807 40.33281326293946 0.4233949482440949 -0.0018340123351663349
decision_type=2 2 2 2 2 2 2 2 2 2 2 8 2 2 10 2 8 2 2 2 2 2 8 2 2 2 8 2 2 10
left_child=1 2 -1 6 5 15 -3 -4 9 23 12 13 14 -12 -2 16 -5 -15 -13 26 29 25 -23 28 -25 27 -20 -16 -9 -6
right_child=10 3 7 4 20 -7 -8 8 -10 -11 11 18 -14 17 21 -17 -18 -19 19 -21 -22 22 -24 24 -26 -27 -28 -29 -30 -31
leaf_value=0.037825871884143263 0.0078482202587400202 0.027316291484928638 -0.014988971787729287 -0.020912245654718505 -0.028670870020433382 0.02816666659949716 -0.0033686299006992645 0.024704536335256093 -0.0058342371747410497 0.00062575992107867214 0.032294800090874529 -0.02742983204697148 0.010626128392990038 -0.011101559906025585 -0.017164638893054234 0.012281647461265983 0.0066899169020810329 0.014750129681491541 0.012346856679574239 -0.018197819634867034 -0.0028848486781657716 0.0079819558835230887 -0.021926609123238405 0.0055101368963010929 0.028003035772804424 -0.011579472659590398 -0.0072500128934233797 -0.031177124448442839 0.042400676617132628 -0.016381995609755298
leaf_weight=14.521573781967161 10.774694591760634 20.657213777303696 10.760989367961882 21.199114263057709 13.603865802288057 11.201427370309828 16.177649319171906 10.864221334457392 15.481202006340025 19.431270539760597 14.084923446178435 16.078607141971588 14.761403679847716 15.441470235586165 14.327623903751372 18.751565247774124 11.858334958553312 18.378755629062653 12.919156610965727 19.36189991235733 18.992571383714676 12.925443291664125 12.879890412092207 15.184108436107637 12.66848963499069 17.227627396583557 10.749606817960741 34.004731684923172 11.243590474128721 11.816361576318739
leaf_count=40 30 57 30 59 38 31 45 30 43 54 39 45 41 43 40 52 33 51 36 54 53 36 36 42 35 48 30 95 31 33
internal_value=1.33807e-05 0.00652694 0.0144989 0.000381625 -0.00441137 0.00325014 0.0141068 0.0106021 0.0139835 0.0184249 -0.00738345 -0.00149845 -0.0127123 0.0120739 -0.0161555 -0.00256832 -0.0111051 0.00296705 -0.0125161 -0.00644708 -0.0151133 -0.0190406 -0.00720702 0.0251994 0.0163568 -0.0235202 0.00351347 -0.0274554 0.0351499 -0.0237948
internal_weight=478.329 254.414 110.155 144.258 107.423 63.0104 36.8349 95.6339 84.8729 69.3917 223.916 107.014 116.901 47.9051 102.14 51.809 33.0574 33.8202 59.1093 43.0307 44.4128 91.3653 25.8053 49.9604 27.8526 65.56 23.6688 48.3324 22.1078 25.4202
internal_count=1330 706 305 401 299 175 102 265 235 192 624 298 326 133 285 144 92 94 165 120 124 255 72 138 77 183 66 135 61 71
is_linear=0
shrinkage=0.03


Tree=5
num_leaves=30
num_cat=0
split_feature=74 32 63 82 65 43 25 90 53 60 30 69 27 92 52 34 26 29 33 41 27 59 36 52 18 77 47 75 63
split_gain=42.2794 21.1559 11.3899 19.7728 12.2171 13.1826 10.8689 9.15234 13.6017 9.39456 8.29625 10.6743 7.77359 7.63975 6.93918 5.95579 5.8789 6.13691 5.18306 4.96983 4.89352 7.89513 7.34601 4.9888 2.85863 2.20085 2.17447 1.01376 0.979421
threshold=0.24061898142099383 -0.22335263341665265 0.038807902485132224 0.046493878588080413 -0.039015090093016618 -0.47439776360988611 -0.0035694676917046304 0.014938896521925928 -25.751519203186032 0.3217171728610993 13.949999809265138 0.35617749392986303 0.056906083598732955 73.824241638183608 0.73399633169174205 1.2876504063606264 -0.01982561498880386 5.5000000000000009 -0.62756681442260731 0.0030643610516563062 0.064399428665637984 -0.012994166929274796 15.694999694824221 -0.62883818149566639 0.15476191043853763 0.096519857645034804 121.86620330810548 0.23052173852920535 0.030349148437380794
decision_type=2 2 2 2 2 2 2 2 2 2 2 2 2 2 8 2 2 2 2 2 2 2 2 10 8 2 2 2 2
left_child=13 -2 3 15 5 -4 18 8 -6 20 -8 -12 -10 -1 -7 16 17 -3 -5 25 24 22 -22 -24 27 -13 -23 -9 -18
right_child=1 2 4 6 7 14 10 9 12 -11 11 19 -14 -15 -16 -17 28 -19 -20 -21 21 26 23 -25 -26 -27 -28 -29 -30
leaf_value=0.018500965321225294 0.035456210172711201 -0.016664408675858024 0.035019281572436708 0.0088464804203183395 -0.023317251403800733 -0.014561142695755024 0.027654255356255344 -0.015678368595283623 0.033890533389261172 0.011115713329916828 0.021012299481894394 -0.0072861402619555961 -0.0019629590441184765 0.050849214459269834 0.015500665217658589 0.0093164332678200915 -0.025684400051685739 0.01272311048678902 0.036825735358706341 0.0050881499829128268 0.017584566793479455 -0.027029918564599541 0.0056775724138525214 -0.022094903465017923 -0.0075636102341823533 -0.026261125470625521 -0.0084257988977561558 -0.026680261558903972 -0.013711055740089783
leaf_weight=16.036470472812656 11.552636951208113 11.588430792093279 9.8110082149505597 10.14551690220833 10.595863521099092 18.227508515119553 10.150230467319487 15.334831833839415 10.474983900785448 11.045593917369841 13.409033983945845 11.634790599346163 10.155788272619246 12.877427101135252 9.8269787430763262 11.637209057807921 20.327744096517563 12.014541000127791 16.823250561952591 13.220884948968886 11.968045294284819 19.977745532989506 9.4600678980350494 12.855679094791412 11.875768154859541 11.623569011688231 9.4007590115070325 50.013927787542343 15.089847475290297
leaf_count=50 36 37 31 32 34 58 32 49 33 35 42 37 32 40 31 37 65 38 53 42 38 64 30 41 38 37 30 160 48
internal_value=-0.000250054 -0.00287778 -0.00413753 0.00201684 -0.00851699 0.00685556 0.0115316 -0.011715 0.00299787 -0.0147388 0.0042581 -0.000951949 0.0169663 0.0341262 -0.00385996 -0.00969691 -0.0135386 -0.00179626 0.0269927 -0.00937079 -0.0168298 -0.0104137 -0.000530403 -0.0105831 -0.0219184 -0.0174607 -0.0215502 -0.0243738 -0.0210997
internal_weight=419.156 390.242 378.69 157.665 221.025 37.8655 87.0073 183.159 31.2266 151.932 60.0385 49.8883 20.6308 28.9139 28.0545 70.6578 59.0206 23.603 26.9688 36.4792 140.887 63.6623 34.2838 22.3157 77.2245 23.2584 29.3785 65.3488 35.4176
internal_count=1330 1240 1204 500 704 120 275 584 99 485 190 158 65 90 89 225 188 75 85 116 450 203 109 71 247 74 94 209 113
is_linear=0
shrinkage=0.03


Tree=6
num_leaves=28
num_cat=0
split_feature=74 68 60 54 67 48 68 48 59 47 34 37 62 78 62 63 90 74 65 37 91 91 69 71 28 74 36
split_gain=57.5002 28.0515 17.6838 13.3164 15.4775 13.7312 13.4143 18.5824 15.2036 12.7661 9.78641 10.7934 8.41581 8.38049 8.1452 8.4199 7.60729 7.29661 6.66406 5.92839 4.04178 4.01276 2.6651 1.39173 1.29972 0.510884 0.296122
threshold=0.30465719103813177 0.89229285717010509 -0.17925749719142911 -17.764347076416012 -0.0061712360475212327 7.0048747062683114 0.52647143602371227 17.376023292541507 -0.095755394548177705 124.02919769287111 0.17945415526628497 18.640000343322757 0.019925111904740337 -0.49646362662315363 0.024516354314982895 0.040781566873192794 0.037450920790433891 0.40976335108280187 0.031423931941390044 17.615000724792484 0.030183833092451099 0.013931371737271549 0.36661501228809362 0.6759546995162965 21.500000000000004 0.2997716516256333 13.605000019073488
decision_type=2 2 2 2 10 2 2 2 2 2 2 2 2 2 2 2 2 2 2 2 2 2 2 2 2 2 2
left_child=21 3 -3 4 -2 12 9 -8 -9 14 11 -6 -5 -4 -7 24 -10 -17 20 -15 22 -1 -14 -24 -16 26 -23
right_child=1 2 13 5 10 6 7 8 16 -11 -12 -13 18 19 15 17 -18 -19 -20 -21 -22 25 23 -25 -26 -27 -28
leaf_value=-0.0039968270114969741 -0.014700631661756206 -0.01108626494298675 0.048127134370373699 0.012441285554353016 0.032392603417243891 0.016505806687806202 -0.0098466843741892764 -0.0018792966409667395 0.048354773239145526 0.02711392405403041 0.041624122657419244 -0.0026784329487635921 -0.0056058731743047242 0.0034153239918250063 -0.027006467038938369 0.012445360828499485 0.014362136842664559 -0.016232144683682441 0.00831113005968033 0.032803107507497577 0.00035057079347912141 -0.017197545620374649 -0.026642205310766644 -0.012022316650694703 -0.011915232512680727 -0.015710029912344166 -0.027409815393048098
leaf_weight=9.9973879754543287 12.117986559867857 9.3406751155853254 19.061718970537186 11.377454310655592 12.622111409902574 9.5598507821559888 18.189849227666855 12.364071905612944 19.017335325479511 9.6594488620758039 15.02829736471176 18.464299887418747 9.4124224781990034 10.960267633199694 21.40734970569611 16.466786116361622 10.009867697954176 13.711744278669356 9.5026735663413984 13.962120354175566 9.3741252422332746 9.8409858942031843 36.194855183362961 9.9472906887531263 9.9151096343994123 10.839591562747954 50.674113780260086
leaf_count=32 39 30 58 36 39 30 58 39 58 30 46 58 30 34 69 52 31 44 30 43 30 32 117 32 32 35 166
internal_value=0.000228235 0.00569477 0.0254493 0.00191387 0.0145771 -0.00139727 0.00437847 0.015054 0.025971 -0.00358912 0.0224194 0.0121273 -0.0107825 0.0332821 -0.00808099 -0.0121058 0.0375013 -0.000687098 -0.0144503 0.0205094 -0.0178572 -0.0222553 -0.0208813 -0.0238123 -0.0227458 -0.0247229 -0.0260557
internal_weight=419.02 337.668 53.3248 284.343 58.2327 226.11 140.301 59.5811 41.3913 80.7203 46.1147 31.0864 85.8088 43.9841 71.0608 61.501 29.0272 30.1785 74.4314 24.9224 64.9287 81.3521 55.5546 46.1421 31.3225 71.3547 60.5151
internal_count=1330 1065 165 900 182 718 443 186 128 257 143 97 275 135 227 197 89 96 239 77 209 265 179 149 101 233 198
is_linear=0
shrinkage=0.03


Tree=7
num_leaves=31
num_cat=0
split_feature=71 93 37 82 15 35 48 62 63 78 67 62 66 52 82 66 46 55 76 55 23 74 24 82 97 66 91 27 79 34
split_gain=25.1661 14.3072 15.2064 10.5139 10.193 9.95867 9.70037 9.96963 12.025 8.38374 8.93837 18.4827 9.64627 8.19194 7.59853 7.27538 8.50487 5.52796 5.40633 5.14379 4.03204 4.66738 3.45269 3.28672 2.72624 1.99879 1.76485 0.940542 0.90927 0.662339
threshold=0.49740156531333929 -169.02073669433591 15.905000209808351 0.059892524033784873 -0.0022964869858697052 14.870000362396242 11.409516334533693 0.034581167623400695 0.035157905891537673 -0.84844249486923207 -0.0028577117482200261 0.046407176181674011 0.00078871558071114134 1.1062943339347842 0.081820800900459303 0.042167790234088905 121.12854766845705 -11.534248828887938 0.050518568605184562 6.0061194896698007 -0.001602095318958163 0.38519352674484258 0.00059284953749738644 0.07073011621832849 -0.10221387073397635 0.0097836540080606955 0.022176286205649379 0.12513681501150134 -0.27578325569629664 -0.44729378819465632
decision_type=2 2 2 2 2 2 2 2 2 2 10 2 10 10 2 10 2 2 2 2 2 2 2 2 2 10 2 2 2 2
left_child=1 3 4 5 -3 -1 7 13 -9 24 11 18 17 27 -13 16 -14 -12 -11 26 -7 -22 -16 -5 -2 -18 -6 -4 -19 -26
right_child=9 2 6 23 19 20 -8 8 -10 10 12 14 15 -15 22 -17 25 28 -20 -21 21 -23 -24 -25 29 -27 -28 -29 -30 -31
leaf_value=0.0041554121641105071 -0.00640946595907516 -0.01042505678476777 -0.01881164381503754 -0.01076179744925795 0.019053072953577138 0.013167517654580227 0.016809556158592247 0.023935679989060817 -0.013853612935427662 0.00090734747663270224 -0.0035839136855009956 0.032286000572311131 0.021506073792996093 -0.0012055343269113642 -0.0052702280948329749 -0.01703452074545438 0.0028656835870884299 -0.014714416729771975 -0.021437700395686037 0.0069678277639446621 0.042217638586501689 0.017686920152907598 0.017277646790827775 0.0082064688344796483 -0.016429342088495238 -0.014815359644207498 0.039326824966536895 -0.030998084802825836 -0.027514033777483179 -0.028950770380708958
leaf_weight=21.308205217123032 11.474738121032713 10.826219737529753 20.395642101764679 12.28283980488777 10.914264976978304 13.072440922260283 13.360627591609953 13.695884078741075 14.708817213773726 17.585723906755447 16.456567466259003 16.708265274763107 17.001719146966934 19.744486749172211 11.896333217620851 16.391056299209595 10.759022235870363 10.988443821668623 20.641158670186996 14.011881560087202 22.966241210699081 13.047598242759703 10.846807062625883 20.595109879970551 12.101351082324983 10.733818650245665 11.29274073243141 17.127438724040985 28.811836212873459 16.342710882425308
leaf_count=59 32 30 57 34 30 36 37 38 41 49 46 46 47 55 33 46 30 31 58 39 63 36 30 57 34 30 31 48 81 46
internal_value=1.25771e-05 0.00659233 0.000529417 0.015081 0.0143979 0.0215459 -0.00613682 -0.00986797 0.00456159 -0.00715753 -0.00446253 0.00332207 -0.00988434 -0.0169805 0.0175135 -0.000881177 0.00625411 -0.0184993 -0.0113971 0.0218985 0.0288613 0.0340483 0.00575822 0.00101164 -0.0194846 -0.00623056 0.0306131 -0.0250344 -0.0244275 -0.0243625
internal_weight=478.09 249.35 146.078 103.272 47.0451 70.3945 99.0329 85.6723 28.4047 228.74 188.821 77.6783 111.142 57.2676 39.4514 54.8856 38.4946 56.2568 38.2269 36.2189 49.0863 36.0138 22.7431 32.8779 39.9188 21.4928 22.207 37.5231 39.8003 28.4441
internal_count=1330 691 406 285 130 194 276 239 79 639 527 216 311 160 109 153 107 158 107 100 135 99 63 91 112 60 61 105 112 80
is_linear=0
shrinkage=0.03


Tree=8
num_leaves=29
num_cat=0
split_feature=74 32 50 32 64 92 27 27 10 33 25 70 91 29 35 84 90 37 38 34 28 84 33 93 62 62 78 32
split_gain=39.5766 20.0127 16.1758 22.3106 12.3027 11.7038 9.28674 7.80382 10.5028 7.02703 6.77148 7.0836 11.1088 6.64653 6.36256 5.14316 5.62884 4.34353 4.16137 3.96044 3.78878 3.66441 2.13078 2.86124 2.1252 4.25818 2.00438 0.93083
threshold=0.24061898142099383 -0.22335263341665265 -0.38981042802333826 -0.04162823595106601 36.765766143798835 68.545524597167983 0.0342316571623087 0.20496716350317004 0.0030772677855566148 0.18001446872949603 -0.00052371239871717979 0.3675720095634461 0.025689811445772651 4.5000000000000009 13.684999942779543 1.5723350644111636 0.015852222219109539 24.57499980926514 27.684999465942386 0.39156946539878851 9.5000000000000018 1.9584234952926638 0.78766229748725902 -245.32588958740232 0.048168506473302848 0.031570065766572959 -0.56984367966651905 -0.10571549087762831
decision_type=2 2 2 2 2 2 2 2 8 2 2 10 2 2 2 2 2 2 2 2 2 2 2 2 2 2 2 2
left_child=9 -2 3 -3 7 10 -7 8 -4 -1 14 12 19 -10 -6 16 -16 21 -19 -12 -18 22 27 -24 25 -17 -22 -13
right_child=1 2 4 -5 5 6 -8 -9 13 -11 11 17 -14 -15 15 24 20 18 -20 -21 26 -23 23 -25 -26 -27 -28 -29
leaf_value=0.018625991839875008 0.034204979619247657 -0.017554419145902719 -0.0059498354650311955 0.036450752043882213 0.01316118433947978 -0.009887994328749674 0.022118192204406327 -0.015279163521793118 0.0078191065417704229 0.049642591855664941 -0.022433773839206771 -0.015283606619846287 0.023892589959948449 0.038032278130431307 0.019562338286309593 -0.018654591801973871 0.0081961979346898608 -0.01489584095324473 0.0085305215310443883 0.0020198910821868491 -0.0033953421802564551 -0.0026663076132270869 0.00037226750422773267 -0.021403703792702209 -0.024130115756124063 0.0035676197652070667 -0.022778965513991431 -0.025819557547501936
leaf_weight=17.164522141218189 11.730144828557966 9.9651485681533831 16.116264820098881 18.245991498231888 15.471846491098402 13.28808778524399 18.425166130065918 10.111564338207243 12.947565883398054 12.222961604595183 13.749474465847017 14.947499364614485 9.8100482821464521 13.764488011598585 9.5250698328018171 17.422171622514728 10.380841106176378 16.586556881666187 10.318057417869566 9.7459230124950391 9.7078436911106127 10.602361947298048 9.3695268929004687 11.807896345853804 13.040188163518904 12.93282228708267 9.3716826438903791 60.108853280544281
leaf_count=53 36 32 51 57 49 42 58 32 41 37 44 48 31 43 30 56 33 53 33 31 31 34 30 38 42 41 30 194
internal_value=-0.000242661 -0.00280835 -0.00404495 0.0174264 -0.0058226 -0.0081989 0.00881505 0.00739657 0.0129767 0.0327357 -0.0102613 -0.0139192 -0.00148375 0.0241983 -0.00393912 -0.00727004 0.000664282 -0.016982 -0.00592797 -0.012622 -0.00588743 -0.019685 -0.0215133 -0.012187 -0.0142525 -0.00937494 -0.0135767 -0.0239499
internal_weight=418.881 389.493 377.763 28.2111 349.552 296.612 31.7133 52.9399 42.8283 29.3875 264.899 167.046 33.3054 26.7121 97.8525 82.3806 38.9854 133.741 26.9046 23.4954 29.4604 106.836 96.2338 21.1774 43.3952 30.355 19.0795 75.0564
internal_count=1330 1240 1204 89 1115 948 100 167 135 90 848 536 106 84 312 263 124 430 86 75 94 344 310 68 139 97 61 242
is_linear=0
shrinkage=0.03


Tree=9
num_leaves=30
num_cat=0
split_feature=74 68 60 90 72 76 76 72 67 36 32 68 61 55 75 58 72 10 71 91 59 91 29 78 47 85 5 74 36
split_gain=55.0621 26.2699 16.4796 12.7935 13.0501 18.8645 11.9004 17.1524 15.6513 14.3942 10.1568 9.23453 7.88687 7.48181 15.4888 10.6887 6.10903 5.65811 5.59291 4.20505 5.30125 3.92718 3.87278 2.81547 1.73926 1.4438 0.535495 0.516295 0.301592
threshold=0.30465719103813177 0.89229285717010509 -0.17925749719142911 0.01349242450669408 0.35840934514999395 0.021517872810363773 0.038742722943425185 0.45554412901401525 -0.010310372803360222 29.000000000000004 -0.0039779150392860166 0.39100000262260443 0.040008552372455604 13.820091724395754 0.28861446678638464 -0.042923260480165475 0.98176428675651561 0.0015142019838094713 0.77680763602256786 0.028247282840311531 0.0045911492779850968 0.013931371737271549 3.5000000000000004 -0.21685684472322461 120.42550277709962 0.0026214403333142404 -0.0012654687743633983 0.2997716516256333 13.605000019073488
decision_type=2 2 2 2 2 2 2 2 10 2 2 2 2 2 2 2 2 10 2 2 2 2 2 2 2 2 8 2 2
left_child=21 3 -3 18 25 10 7 11 23 13 -6 -7 -4 14 -10 -15 -14 -16 22 -9 -21 -1 -2 -8 -17 -5 -24 28 -23
right_child=1 2 12 4 5 6 8 19 9 -11 -12 -13 16 15 17 24 -18 -19 -20 20 -22 27 26 -25 -26 -27 -28 -29 -30
leaf_value=-0.0038849842000425335 -0.0010638599327069036 -0.010889978077563612 0.049370170520783359 -0.025671668350294195 0.041643113318301214 -0.0080844590756046671 -0.025629260357643936 -0.026753408366056081 0.029928447809002341 -0.01072473997496047 0.0074294724152356977 0.025063461802612607 0.0041636885425715212 0.0080856103327290457 -0.023085922586216383 0.028258044450489732 0.0322404192002766 0.0080455593602293575 0.007349367263109312 -0.02053370845933521 0.0050245894737069889 -0.016914167005632762 -0.014554932241787614 -0.0026304786759674226 0.051542884117584897 -0.0083550007858458151 -0.026633899867459204 -0.015413096760336205 -0.02712609144613053
leaf_weight=9.9685102105140668 9.7874925732612592 9.2851854860782606 15.179276525974272 10.194274425506594 18.457327485084534 12.020366430282595 9.3505846858024615 20.547757536172867 17.753721058368683 15.721464216709135 13.909046262502669 17.771581470966339 11.597878098487856 13.496737360954283 9.7360619902610797 10.422753661870958 17.85589987039566 9.537453740835188 9.7862785756587964 14.495497882366182 13.212842673063276 9.7358438670635206 9.6844254434108716 9.3926712572574598 11.90377429127693 9.3765424191951734 17.856141120195392 10.727434605360029 49.87598991394043
leaf_count=32 31 30 45 33 57 38 30 67 55 50 44 55 36 42 31 32 54 30 31 47 42 32 31 30 36 30 58 35 166
internal_value=0.000220363 0.0055329 0.02453 0.00185818 0.00470113 0.00683196 0.00307637 -0.00579425 0.00952171 0.014781 0.0276035 0.0118608 0.0319757 0.0203559 0.0104714 0.0300108 0.0216845 -0.00804361 -0.012261 -0.0167135 -0.00859563 -0.0219539 -0.0174598 -0.014821 0.0423502 -0.0181846 -0.0230452 -0.0244243 -0.0257648
internal_weight=418.641 338.333 53.9182 284.415 237.3 217.73 185.363 78.048 107.315 88.572 32.3664 29.7919 44.6331 72.8505 37.0272 35.8233 29.4538 19.2735 47.1143 48.2561 27.7083 80.3078 37.3281 18.7433 22.3265 19.5708 27.5406 70.3393 59.6118
internal_count=1330 1065 165 900 749 686 585 249 336 276 101 93 135 226 116 110 90 61 151 156 89 265 120 60 68 63 89 233 198
is_linear=0
shrinkage=0.03


Tree=10
num_leaves=31
num_cat=0
split_feature=71 63 73 56 30 52 60 83 78 67 62 66 24 25 66 46 46 75 56 67 97 93 33 70 78 34 60 97 62 66
split_gain=23.8432 13.9304 13.4159 11.659 16.5273 11.8219 12.5731 8.2645 8.04856 8.88103 17.052 9.27462 8.37745 7.02139 6.97556 8.06532 6.84397 7.45851 5.81467 5.766 5.76176 5.01345 4.87752 4.61155 4.44928 3.82733 3.74918 3.41357 1.97007 1.90345
threshold=0.49740156531333929 0.044740997254848487 0.46561706066131597 8.4234158992767352 20.900000572204593 -0.62883818149566639 0.064728237688541426 141769216.00000003 -0.8434716761112212 -0.0028577117482200261 0.048321232199668891 0.00078871558071114134 0.0007914584712125362 0.00054130368516780447 0.042167790234088905 121.12854766845705 121.83020019531251 0.17769075930118564 -25.751519203186032 -0.013386865612119435 -0.097647890448570238 -425.26803588867182 0.041336543858051307 0.48537699878215795 0.12719399482011798 0.71981728076934826 -0.051900096237659447 -0.10221387073397635 0.032769493758678443 0.0097836540080606955
decision_type=2 2 2 2 2 8 2 2 2 10 2 10 2 2 10 2 2 2 2 10 2 2 2 10 2 2 2 2 2 10
left_child=1 2 3 4 5 28 25 -3 27 10 19 18 24 -8 15 -13 -4 -18 -11 -10 -5 -21 -6 -19 -12 26 -7 -2 -1 -17
right_child=8 7 16 20 22 6 13 -9 9 11 12 14 -14 -15 -16 29 17 23 -20 21 -22 -23 -24 -25 -26 -27 -28 -29 -30 -31
leaf_value=-0.017720779298949062 -0.0047196705177473116 0.034515760561567285 0.034307282164758937 2.8301898065413863e-05 -0.0029665074185191531 0.012571551910750184 -0.019776523905575716 0.0034523295145339563 -0.02719377817072666 -0.00039829956808450941 0.019192236182899683 0.020914578986004878 0.037398243898452352 0.012579719044062507 -0.016720381786389498 0.0027875693758094558 -0.0096039554423552054 0.032077039574916887 -0.02333892898197297 -0.015617050474966521 -0.023355811493919805 0.0084129297323510387 -0.026696511470326489 0.0057344718828123992 -0.0061920847730854199 0.0083148683339755187 0.034120657050118054 -0.024205790291598323 2.4203551866645611e-05 -0.014482740727162356
leaf_weight=10.779166400432588 11.816213518381117 21.993041515350342 13.882095098495482 15.161484241485594 15.846676856279375 11.964761555194853 10.706750988960268 11.959189414978026 10.980254977941511 12.887004643678663 12.005551606416704 17.080946117639542 12.416501224040983 11.500816643238066 16.312191426753998 10.766796886920931 11.576822102069853 11.280637711286547 43.067563354969025 13.178566277027132 24.310239404439926 16.456780582666397 14.900967538356779 12.703617811203001 11.187591791152952 12.643473535776137 27.626596689224243 29.280225664377213 10.782478392124174 10.681728243827818
leaf_count=30 33 60 38 42 44 33 30 33 31 36 33 47 34 32 46 30 32 31 122 37 68 46 42 35 31 35 76 83 30 30
internal_value=1.3252e-05 0.006408 0.00354278 -0.000566211 0.00388253 0.0100045 0.0156269 0.0239859 -0.00698165 -0.00428768 0.003568 -0.00967577 0.0184621 -0.00319991 -0.000854089 0.00611626 0.0170942 0.00962013 -0.0181552 -0.00962026 -0.014595 -0.00243394 -0.0149452 0.0189123 0.00719787 0.0235408 0.0280785 -0.0188483 -0.00923917 -0.00607535
internal_weight=477.737 249.619 215.667 166.223 126.752 96.004 74.4424 33.9522 228.118 187.021 76.2252 110.796 35.6096 22.2076 54.8417 38.5295 49.4432 35.5611 55.9546 40.6156 39.4717 29.6353 30.7476 23.9843 23.1931 52.2348 39.5914 41.0964 21.5616 21.4485
internal_count=1330 691 598 462 352 266 206 93 639 523 212 311 98 62 153 107 136 98 158 114 110 83 86 66 64 144 109 116 60 60
is_linear=0
shrinkage=0.03


Tree=11
num_leaves=31
num_cat=0
split_feature=92 32 50 64 32 69 27 73 26 46 70 91 75 95 47 55 48 76 93 37 62 79 32 25 68 93 68 43 32 15
split_gain=28.5596 18.6418 17.7579 16.7858 15.9255 12.2333 10.2725 11.3137 10.8276 7.61126 7.03337 9.99924 10.6662 16.1172 9.65181 8.3795 7.58304 15.0552 8.18004 15.1541 7.22409 6.79088 4.39033 4.15358 5.35165 3.42791 2.69982 2.37991 1.41051 0.657005
threshold=73.017147064208999 -0.22335263341665265 -0.38981042802333826 36.765766143798835 -0.037427544593811028 0.5245099961757661 0.20496716350317004 0.46189598739147192 0.00022082579380366954 122.10480117797853 0.37130999565124517 0.027312710881233219 0.16661512106657031 1.0000000180025095e-35 122.3930015563965 -13.097381591796873 0.27078697062097495 0.045450726523995406 -388.85714721679682 14.954999923706056 0.036335352808237083 -0.2685121744871139 -0.026325390674173828 -0.0035694676917046304 0.49846428632736212 -969.59982299804676 0.80247855186462413 -0.37545560300350184 -0.075319793075323091 0.00092181394575163733
decision_type=2 2 2 2 2 2 2 2 2 2 10 2 2 10 2 2 2 2 2 2 2 2 2 2 2 2 2 2 2 2
left_child=1 -1 4 6 -3 27 7 -4 25 -6 11 12 13 -5 -14 26 17 -17 19 -18 -21 -22 -19 24 -20 -9 29 -2 -25 -12
right_child=5 2 3 10 9 -7 -8 8 -10 -11 15 -13 14 -15 -16 16 18 22 23 20 21 -23 -24 28 -26 -27 -28 -29 -30 -31
leaf_value=0.033040829878964284 0.025625483176480331 -0.013701324018970503 0.03696993164111835 -0.020817523549432376 0.048514951591693022 0.00046945786782072522 -0.014904842776033298 -0.019923291513602399 0.02806593247871356 0.011503225730822571 -0.027205323123397372 0.022179514357824417 -0.027075157755893274 0.023428745116040275 0.0076702140510280167 0.034087092421094908 0.028354368201323876 0.0046117246943133076 -0.022805333636843443 0.0095350185268106725 0.0026744544433930251 -0.024714694005057842 -0.022721477778960865 -0.010845230436393674 0.0055817710249064841 0.0033651296623386988 -0.0067459762929217978 0.051700534296006039 -0.025727909988700955 -0.015532139976445033
leaf_weight=11.894353508949278 9.8537128865718877 9.2496371269226092 13.935109704732893 10.842269867658617 10.883157432079317 10.194120794534681 11.99526274204254 9.3848554193973488 11.021449595689772 10.028573989868162 32.79306823015213 13.072914659976957 23.810951739549637 18.976767003536224 9.6107119321823102 9.9237370789051074 10.516262501478193 9.7857419252395665 9.6257039308547991 12.312518328428267 11.51402279734611 25.439577549695972 9.8329567909240687 9.2690013349056226 12.967826277017592 12.043479979038244 10.146826297044752 10.008512437343597 36.810553699731827 10.770839214324949
leaf_count=36 30 30 43 35 33 32 38 30 34 31 107 41 77 59 30 31 33 31 31 39 37 83 32 30 41 38 33 30 120 35
internal_value=-0.000235552 -0.00244275 -0.0036481 -0.00558526 0.0180654 0.0274512 0.00897342 0.0153326 0.00521336 0.0321004 -0.00855704 -0.000733891 -0.005742 0.00718724 -0.0171512 -0.0113603 -0.00779294 0.00576112 -0.0109306 -0.00273939 -0.00980865 -0.0163352 -0.00952533 -0.0179196 -0.00696621 -0.00726793 -0.02152 0.040613 -0.0230282 -0.0247325
internal_weight=418.514 388.458 376.564 346.402 30.1614 30.0563 58.3802 46.3849 32.4498 20.9117 288.022 76.3136 63.2407 29.819 33.4217 211.709 157.998 29.5424 128.455 59.7824 49.2661 36.9536 19.6187 68.6731 22.5935 21.4283 53.7107 19.8622 46.0796 43.5639
internal_count=1330 1238 1202 1108 94 92 183 145 102 64 925 242 201 94 107 683 508 94 414 192 159 120 63 222 72 68 175 60 150 142
is_linear=0
shrinkage=0.03


Tree=12
num_leaves=30
num_cat=0
split_feature=74 68 60 90 72 76 76 73 59 55 55 63 32 32 15 47 96 71 67 91 91 29 63 85 79 97 5 28 80
split_gain=52.715 24.7831 15.4579 12.3703 12.2681 17.8126 11.2151 20.2566 14.9176 14.3376 20.5224 10.652 9.35869 7.5671 7.26739 5.8235 5.7392 5.4553 4.90718 4.01452 3.6637 3.60974 2.7798 2.77964 2.11828 1.40338 0.528543 0.263313 0.242147
threshold=0.30372728407382971 0.89229285717010509 -0.17925749719142911 0.01349242450669408 0.35840934514999395 0.021517872810363773 0.038742722943425185 0.46561706066131597 -0.074865736067295061 13.820091724395754 -12.167432785034178 0.038537962362170226 -0.0039779150392860166 -0.070187699049711214 -0.0020443317480385299 123.05229949951173 0.14306351542472842 0.77680763602256786 -0.0028577117482200261 0.013931371737271549 0.03254449553787709 3.5000000000000004 0.04452017322182656 0.0017122665303759279 -0.23691064864397046 -0.026967670768499371 -0.0012654687743633983 18.500000000000004 0.020628257654607299
decision_type=2 2 2 2 2 2 2 2 2 2 2 2 2 2 2 2 2 2 10 2 2 2 2 2 2 2 8 2 2
left_child=19 3 -3 17 25 12 7 11 14 10 -10 -7 -6 -4 -8 20 -15 21 -11 -1 28 -2 -12 -16 -20 -5 -23 -21 -9
right_child=1 2 13 4 5 6 8 15 9 18 22 -13 -14 16 23 -17 -18 -19 24 27 -22 26 -24 -25 -26 -27 -28 -29 -30
leaf_value=-0.0036647063839540675 -0.001684105583321433 -0.010746783916857343 0.0072814815906890084 -0.025245986481859949 0.039998870819361577 -0.0065946168286003604 0.013176513764749971 -0.026811630652491061 0.029047367611483261 0.013706838742000781 -0.023503525093395351 0.033170281118614912 0.0072799940421809858 0.046413484718989761 -0.024279451867863604 0.0051366933984221238 0.018849952078738325 0.0071915514111112241 0.02562924194321262 -0.025906068584823465 -0.0034332852274272011 -0.014356584192007414 -0.0027468809465107636 -0.0043637139656898449 0.050342007398965938 -0.0086757935349640655 -0.026379322334357403 -0.017405909396981837 -0.016342187713725611
leaf_weight=9.9126750230789167 10.058049142360685 9.2441467940807325 10.279710829257963 9.4409033358097094 18.7896409034729 9.7910391390323657 11.11597156524658 25.773746877908707 16.928492605686188 10.775021493434908 11.178212493658068 13.79448342323303 13.94343242049217 22.372295260429382 12.842858105897905 9.5371809899806959 12.558486968278883 9.8133279383182508 9.8460178971290606 54.362192362546921 9.7068476974964124 9.6191259622573835 11.673497349023817 12.565912336111067 10.861604481935499 11.155330300331114 17.614432036876682 13.461268872022627 9.1498509943485242
leaf_count=32 32 30 31 31 57 31 35 85 52 33 36 42 44 66 41 30 38 31 30 183 31 31 37 40 32 36 58 45 30
internal_value=0.000208173 0.00531055 0.0236663 0.001745 0.00452378 0.00663174 0.00296888 -0.00567314 0.00919769 0.0171076 0.00489777 0.0170659 0.0266905 0.030783 -0.00627982 -0.015704 0.0373041 -0.0121474 0.0319097 -0.0219203 -0.0201725 -0.0172913 -0.01346 -0.0149683 0.0403136 -0.0170885 -0.0227917 -0.0244964 -0.0245999
internal_weight=418.166 340.43 54.4546 285.975 238.87 218.274 185.541 77.7531 107.788 71.2628 39.7802 23.5855 32.7331 45.2105 36.5247 54.1676 34.9308 47.1049 31.4826 77.7361 44.6304 37.2916 22.8517 25.4088 20.7076 20.5962 27.2336 67.8235 34.9236
internal_count=1330 1070 165 905 753 686 585 249 336 220 125 73 101 135 116 176 104 152 95 260 146 121 73 81 62 67 89 228 115
is_linear=0
shrinkage=0.03


Tree=13
num_leaves=31
num_cat=0
split_feature=71 59 46 93 82 52 35 48 59 30 66 78 59 45 25 75 23 96 90 41 33 33 79 76 5 62 52 26 62 58
split_gain=22.6203 12.8771 13.6094 12.8873 13.1107 11.1139 9.07274 10.391 8.44012 7.11573 10.0845 7.89983 7.49358 7.37041 6.58936 6.41312 6.22633 5.57821 5.99602 5.69056 4.53653 9.03431 4.50129 3.69017 3.68611 3.634 3.53452 3.08817 2.39682 1.75646
threshold=0.50330296158790599 -0.11686069145798682 119.17079925537111 -174.87349700927732 0.046493878588080413 -0.57734999060630787 15.364999771118166 12.541369915008547 -0.01238447008654475 31.079999923706058 -0.014757205732166765 -0.87031677365303028 -0.077875535935163484 126.58895111083986 0.00036592411925084894 0.41495704650878912 -0.001602095318958163 1.1110683679580691 0.018564767204225067 -0.0013651905464939771 -0.09995711967349051 -0.95550736784934986 -0.12604483962059018 0.021418634802103046 0.0012990779359824958 0.032314710319042213 -0.73399633169174183 0.0061817336827516564 0.045837655663490302 0.0026402891380712394
decision_type=2 2 2 2 2 8 2 2 2 2 10 2 2 2 2 2 2 2 2 2 2 2 2 2 8 2 10 2 2 2
left_child=1 -1 22 4 16 23 -7 14 26 10 15 28 27 17 20 25 -4 18 19 -14 21 -8 -3 -5 -20 -2 -6 -13 -12 -18
right_child=9 2 3 5 8 6 7 -9 -10 -11 11 12 13 -15 -16 -17 29 -19 24 -21 -22 -23 -24 -25 -26 -27 -28 -29 -30 -31
leaf_value=0.029652764142169653 -0.0059738184009617635 0.036199624471214262 0.0029616925784949565 -0.029064726858240814 -0.023241956613895644 0.018007018974422334 -0.023516199282162482 0.020656280774881016 0.013951970618707137 0.014387808549083092 -0.025797100248555048 0.0043930883007398955 -0.018364490172396886 -0.023634192742253025 0.0045268265441369719 -0.0020467740637939887 0.036679578921927081 -0.016985498162875298 0.0040960255504982387 0.008698568820568197 -0.027309603385844854 0.012545205481664629 0.0094003014855980442 -0.0083835661980271124 0.026440204715335688 -0.025265760251632696 -0.0019309240662765601 0.025701129252340325 -0.006381129769289777 0.019415426686056749
leaf_weight=18.245032906532288 11.636510252952574 13.285098552703859 11.243839830160139 16.360702782869339 11.157002031803133 20.339440733194351 12.449511140584944 11.647878527641295 20.324150949716568 12.237080574035643 14.02171963453293 13.321051210165026 13.573978781700136 13.0835665166378 20.481399536132812 20.36825767159462 15.785493880510332 12.458655536174772 15.079941809177404 12.590485364198683 17.325687438249588 10.808878779411318 10.85269773006439 16.10548135638237 11.538264781236643 47.495371073484421 17.001076459884644 11.180422097444533 10.614181548357008 14.610672533512114
leaf_count=50 33 36 31 46 31 56 35 32 56 34 40 37 38 37 57 57 43 35 42 35 49 30 30 45 32 135 47 31 30 40
internal_value=1.54663e-05 0.00602495 0.0041114 0.00166822 0.0102636 -0.00453554 0.000788457 -0.00420688 -0.000400089 -0.00705366 -0.00838452 -0.00310728 0.000601589 -0.00395214 -0.00920578 -0.0167018 0.0223976 0.000292118 0.00461026 -0.00550079 -0.0160784 -0.00693107 0.0250035 -0.0193625 0.0143883 -0.0216318 -0.0108824 0.0147428 -0.0180071 0.0292639
internal_weight=477.224 258.024 239.779 215.641 90.1222 125.519 93.0528 72.7134 48.4822 219.199 206.962 127.462 102.826 78.3249 61.0655 79.5001 41.64 65.2413 52.7827 26.1645 40.5841 23.2584 24.1378 32.4662 26.6182 59.1319 28.1581 24.5015 24.6359 30.3962
internal_count=1330 714 664 598 248 350 259 203 134 616 582 357 287 219 171 225 114 182 147 73 114 65 66 91 74 168 78 68 70 83
is_linear=0
shrinkage=0.03


Tree=14
num_leaves=27
num_cat=0
split_feature=74 32 50 32 64 92 27 27 10 42 91 25 42 97 44 84 73 93 56 22 89 40 76 25 65 37
split_gain=35.0381 17.8539 14.6315 19.8565 11.2064 10.6906 8.58226 7.13925 9.51234 7.61833 6.45019 6.32842 7.48758 7.966 6.24792 8.14414 4.75658 13.6274 4.1085 3.1602 3.02815 2.70968 3.74062 2.9219 2.17969 1.47431
threshold=0.24061898142099383 -0.22335263341665265 -0.38981042802333826 -0.04162823595106601 36.765766143798835 68.545524597167983 0.0342316571623087 0.20496716350317004 0.0030772677855566148 0.23172381520271304 0.017789607867598537 -0.00052371239871717979 -0.3731407225131988 -0.038364095613360398 121.112850189209 1.5883561968803408 0.40915623307228094 224.43128967285159 37.264793395996101 -0.0007180534885264932 -0.012732161208987234 -0.0017346809036098418 0.088234923779964461 0.0011615046532824638 -0.013928866013884543 24.710000038146976
decision_type=2 2 2 2 2 2 2 2 8 2 2 2 2 2 2 2 2 2 2 2 2 2 2 2 2 2
left_child=10 -2 3 -3 7 11 -7 8 -4 -10 -1 12 13 20 15 -14 17 -13 19 -18 -6 23 25 -21 -16 -23
right_child=1 2 4 -5 5 6 -8 -9 9 -11 -12 16 14 -15 24 -17 18 -19 -20 21 -22 22 -24 -25 -26 -27
leaf_value=0.012958480290634695 0.031809682582146892 -0.017095803801029985 -0.0058553823979845534 0.03384469797066926 0.0074255872579359998 -0.0097663812823872969 0.020933478710733703 -0.014878350199214581 0.038393641596220433 0.0066416773592670808 0.04207480427855595 -0.01979054371643562 0.014084483628393298 0.025336589955436049 -0.0064824996820544824 -0.014793369860977837 -0.0017270829675605649 0.019508232432242714 -0.001993646334780495 -0.019428950579494217 -0.014931495220063535 -0.025612399161970442 -0.0039345359974935446 0.0034978020942789956 -0.024210350229972824 -0.012601113668103032
leaf_weight=12.964763313531877 12.067105442285536 9.7976890206336993 16.067991435527805 18.798729747533798 9.7720161378383619 13.231190949678423 18.723430424928665 9.9804319441318494 13.115229040384291 14.106204986572264 17.203584671020508 17.078488349914554 16.468336790800095 12.786431849002836 9.9207204282283801 16.691542625427246 10.225759297609327 13.176293164491652 17.118308901786804 9.1972529292106646 10.176546305418016 65.974865108728409 10.112701237201689 9.3143509626388532 21.528002113103867 12.344056934118269
leaf_count=39 36 32 51 57 31 42 58 32 40 44 51 56 52 40 32 54 33 41 55 30 33 218 33 30 70 40
internal_value=-0.000225939 -0.00267901 -0.00386824 0.0164036 -0.00558064 -0.0078742 0.00831121 0.00698279 0.012245 0.0227581 0.0303794 -0.00987321 -0.00375705 0.00777849 -0.0096312 -0.000459165 -0.013447 -0.00259892 -0.0158538 -0.0178447 -0.00414797 -0.0193556 -0.0215501 -0.00830503 -0.0189901 -0.0237464
internal_weight=417.942 387.774 375.707 28.5964 347.11 293.84 31.9546 53.2699 43.2894 27.2214 30.1683 261.886 97.3436 32.735 64.6086 33.1599 164.542 30.2548 134.287 117.169 19.9486 106.943 88.4316 18.5116 31.4487 78.3189
internal_count=1330 1240 1204 89 1115 948 100 167 135 84 90 848 312 104 208 106 536 97 439 384 64 351 291 60 102 258
is_linear=0
shrinkage=0.03


end of trees

feature_importances:
Column_62=17
Column_74=17
Column_32=14
Column_68=14
Column_67=13
Column_52=12
Column_64=12
Column_91=12
Column_63=11
Column_66=11
Column_27=10
Column_33=10
Column_37=10
Column_55=10
Column_90=10
Column_93=10
Column_36=9
Column_60=9
Column_61=9
Column_76=9
Column_78=9
Column_25=8
Column_97=8
Column_46=7
Column_47=7
Column_48=7
Column_59=7
Column_73=7
Column_34=6
Column_71=6
Column_75=6
Column_5=5
Column_10=5
Column_26=5
Column_56=5
Column_65=5
Column_69=5
Column_72=5
Column_82=5
Column_84=5
Column_28=4
Column_29=4
Column_35=4
Column_42=4
Column_54=4
Column_70=4
Column_79=4
Column_92=4
Column_15=3
Column_24=3
Column_30=3
Column_41=3
Column_50=3
Column_83=3
Column_96=3
Column_22=2
Column_23=2
Column_38=2
Column_43=2
Column_45=2
Column_53=2
Column_57=2
Column_58=2
Column_81=2
Column_85=2
Column_14=1
Column_18=1
Column_40=1
Column_44=1
Column_77=1
Column_80=1
Column_88=1
Column_89=1
Column_95=1

parameters:
[boosting: gbdt]
[objective: multiclass]
[metric: multi_logloss]
[tree_learner: serial]
[device_type: cpu]
[data_sample_strategy: bagging]
[data: ]
[valid: ]
[num_iterations: 600]
[learning_rate: 0.03]
[num_leaves: 31]
[num_threads: 0]
[seed: 0]
[deterministic: 0]
[force_col_wise: 0]
[force_row_wise: 0]
[histogram_pool_size: -1]
[max_depth: -1]
[min_data_in_leaf: 30]
[min_sum_hessian_in_leaf: 0.001]
[bagging_fraction: 0.9]
[pos_bagging_fraction: 1]
[neg_bagging_fraction: 1]
[bagging_freq: 5]
[bagging_seed: 3]
[bagging_by_query: 0]
[feature_fraction: 0.9]
[feature_fraction_bynode: 1]
[feature_fraction_seed: 2]
[extra_trees: 0]
[extra_seed: 6]
[early_stopping_round: 0]
[early_stopping_min_delta: 0]
[first_metric_only: 0]
[max_delta_step: 0]
[lambda_l1: 0]
[lambda_l2: 1]
[linear_lambda: 0]
[min_gain_to_split: 0]
[drop_rate: 0.1]
[max_drop: 50]
[skip_drop: 0.5]
[xgboost_dart_mode: 0]
[uniform_drop: 0]
[drop_seed: 4]
[top_rate: 0.2]
[other_rate: 0.1]
[min_data_per_group: 100]
[max_cat_threshold: 32]
[cat_l2: 10]
[cat_smooth: 10]
[max_cat_to_onehot: 4]
[top_k: 20]
[monotone_constraints: ]
[monotone_constraints_method: basic]
[monotone_penalty: 0]
[feature_contri: ]
[forcedsplits_filename: ]
[refit_decay_rate: 0.9]
[cegb_tradeoff: 1]
[cegb_penalty_split: 0]
[cegb_penalty_feature_lazy: ]
[cegb_penalty_feature_coupled: ]
[path_smooth: 0]
[interaction_constraints: ]
[verbosity: -1]
[saved_feature_importance_type: 0]
[use_quantized_grad: 0]
[num_grad_quant_bins: 4]
[quant_train_renew_leaf: 0]
[stochastic_rounding: 1]
[linear_tree: 0]
[max_bin: 255]
[max_bin_by_feature: ]
[min_data_in_bin: 3]
[bin_construct_sample_cnt: 200000]
[data_random_seed: 1]
[is_enable_sparse: 1]
[enable_bundle: 1]
[use_missing: 1]
[zero_as_missing: 0]
[feature_pre_filter: 1]
[pre_partition: 0]
[two_round: 0]
[header: 0]
[label_column: ]
[weight_column: ]
[group_column: ]
[ignore_column: ]
[categorical_feature: ]
[forcedbins_filename: ]
[precise_float_parser: 0]
[parser_config_file: ]
[objective_seed: 5]
[num_class: 3]
[is_unbalance: 0]
[scale_pos_weight: 1]
[sigmoid: 1]
[boost_from_average: 1]
[reg_sqrt: 0]
[alpha: 0.9]
[fair_c: 1]
[poisson_max_delta_step: 0.7]
[tweedie_variance_power: 1.5]
[lambdarank_truncation_level: 30]
[lambdarank_norm: 1]
[label_gain: ]
[lambdarank_position_bias_regularization: 0]
[eval_at: ]
[multi_error_top_k: 1]
[auc_mu_weights: ]
[num_machines: 1]
[local_listen_port: 12400]
[time_out: 120]
[machine_list_filename: ]
[machines: ]
[gpu_platform_id: -1]
[gpu_device_id: -1]
[gpu_use_dp: 0]
[num_gpu: 1]

end of parameters

pandas_categorical:null
