tree
version=v4
num_class=3
num_tree_per_iteration=3
label_index=0
max_feature_idx=97
objective=multiclass num_class:3
feature_names=Column_0 Column_1 Column_2 Column_3 Column_4 Column_5 Column_6 Column_7 Column_8 Column_9 Column_10 Column_11 Column_12 Column_13 Column_14 Column_15 Column_16 Column_17 Column_18 Column_19 Column_20 Column_21 Column_22 Column_23 Column_24 Column_25 Column_26 Column_27 Column_28 Column_29 Column_30 Column_31 Column_32 Column_33 Column_34 Column_35 Column_36 Column_37 Column_38 Column_39 Column_40 Column_41 Column_42 Column_43 Column_44 Column_45 Column_46 Column_47 Column_48 Column_49 Column_50 Column_51 Column_52 Column_53 Column_54 Column_55 Column_56 Column_57 Column_58 Column_59 Column_60 Column_61 Column_62 Column_63 Column_64 Column_65 Column_66 Column_67 Column_68 Column_69 Column_70 Column_71 Column_72 Column_73 Column_74 Column_75 Column_76 Column_77 Column_78 Column_79 Column_80 Column_81 Column_82 Column_83 Column_84 Column_85 Column_86 Column_87 Column_88 Column_89 Column_90 Column_91 Column_92 Column_93 Column_94 Column_95 Column_96 Column_97
feature_infos=[-0.95214909315109253:0.62070178985595703] [0:1] [0:1] [0:1] [1:4] [-0.9984290599822998:0.088011324405670166] [0:0.1666666716337204] [0:1] [0:1] [1:170] [-0.51089578866958618:0.33240798115730286] [0:0.40000000596046448] [0.40000000596046448:1] [0:0.5] [1:21] [-0.9984290599822998:0.20169371366500854] [0:0.1666666716337204] [0:1] [0:1] [0:179] [0:1] [0:10] [-0.9984290599822998:0.20169371366500854] [-0.9984290599822998:0.20169371366500854] [-0.9984290599822998:0.20169371366500854] [-0.60376179218292236:0.084891565144062042] [-0.38555008172988892:0.046790797263383865] [0:0.48708206415176392] [0:925] [0:487] [11.859999656677246:52.330001831054688] [-0.35753870010375977:0.74039065837860107] [-0.4833453893661499:1.4037666320800781] [-2.3986294269561768:2.4474601745605469] [-3.1182084083557129:4.8756499290466309] [11.859999656677246:52.330001831054688] [11.859999656677246:52.330001831054688] [11.859999656677246:52.330001831054688] [11.859999656677246:52.330001831054688] [114.177001953125:130.04130554199219] [-0.013113552704453468:0.011120045557618141] [-0.027071729302406311:0.027545707300305367] [-2.4297442436218262:2.4443871974945068] [-3.9001622200012207:3.5369713306427002] [114.177001953125:130.04130554199219] [114.177001953125:130.04130554199219] [114.177001953125:130.04130554199219] [114.177001953125:130.04130554199219] [-94.763969421386719:56.95343017578125] none [-4.7008504867553711:2889.839599609375] [-2.4494898319244385:2.4494898319244385] [-5.385164737701416:5.385164737701416] [-94.763969421386719:56.95343017578125] [-94.763969421386719:56.95343017578125] [-94.763969421386719:56.95343017578125] [-94.763969421386719:56.95343017578125] [-0.18788270652294159:0.73099786043167114] [-0.2926311194896698:0.70564854145050049] [-0.35529175400733948:1.0041122436523438] [-0.40012446045875549:1.6595629453659058] [0.0047560385428369045:0.22094714641571045] [0.0095606492832303047:0.15728901326656342] [0.015892580151557922:0.10758519917726517] [21.504817962646484:94.974662780761719] [-0.15371130406856537:0.43875172734260559] [-0.12889130413532257:0.3928375244140625] [-0.11205442994832993:0.11772836744785309] [0.32035714387893677:3.4367141723632812] [0.33007499575614929:3.1954300403594971] [0.34015598893165588:3.0941760540008545] [0.32739457488059998:3.1937198638916016] [0.33671122789382935:3.0875694751739502] [0.35104194283485413:3.8643267154693604] [0.20991608500480652:2.8406264781951904] [0.053389482200145721:1.5111978054046631] [0.014512204565107822:0.29303669929504395] [-0.78293991088867188:10.328964233398438] [-2.3011901378631592:16.761091232299805] [-0.50928992033004761:0] [-0.1878550797700882:0.73099786043167114] [0.0012843391159549356:0.14675383269786835] [0.0067340065725147724:0.99469214677810669] [26597238:2543716608] [0.95970481634140015:2.0386159420013428] [-0.12912794947624207:0.11780386418104172] [0:1] [-0.15379838645458221:0.14485582709312439] [-0.2383464127779007:0.20691065490245819] [-0.33259490132331848:0.35951325297355652] [0.0031643849797546864:0.085850544273853302] [0.0087705496698617935:0.050428587943315506] [18.635524749755859:89.3983154296875] [-5907.96484375:7019.05517578125] [0:1] [0:1] [-2.3075559139251709:15.573112487792969] [-0.40345379710197449:0]
tree_sizes=3106 3365 2909 3108 3440 3320 3111 3434 3012 3231 3441 3121 3131 3436 3430 3121 3324 3218 2897 3437 3235 3205 3435 2908 3014 3444 3227 3111 3453 3114 3017 3446 3332 3437 3445 2901 3316 3445 3022 3439 3453 3110 3220 3437 3116 3118 3440 3223 3118 3424 3106 3018 3441 3305 3229 3449 3104 3223 3452 3119 3130 3453 3016 3437 3446 3112 3136 3447 3022 3134 3439 3218 3228 3442 3329 3006 3448 3226 3012 3457 3143 2920 3457 3236 3338 3456 3233 3219 3468 3131 3232 3457 3446 3033 3449 3448 3119 3452 3341 3448 3466 3331 3125 3454 3127 3451 3452 3454 3342 3466 3347 3350 3454 3238 3430 3467 3348 3346 3444 3356 3447 3451 3231 3449 3468 3448 3244 3467 3456 3445 3452 3116 3333 3455 3446

Tree=0
num_leaves=29
num_cat=0
split_feature=71 26 64 70 55 56 52 35 65 48 64 64 54 72 64 63 61 43 66 59 79 48 35 66 97 26 64 37
split_gain=46.2084 20.8076 20.2708 21.7995 27.0374 16.886 15.0045 20.0296 16.2608 14.0185 18.346 11.6953 9.69246 10.2578 17.2928 9.06946 6.93812 9.38999 6.75176 5.3962 5.24941 4.75089 4.21509 3.89229 6.74115 1.57321 3.13676 1.55168
threshold=0.57814946770668041 -0.085866950452327714 52.099554061889656 2.3030670881271367 1.0000000180025095e-35 8.4234158992767352 1.2695012092590334 23.944999694824222 0.017502602189779285 22.196431159973148 40.958774566650398 44.411117553710945 -45.10609054565429 2.2230509519577031 44.320686340332038 0.069136627018451705 0.017843108624219898 0.19614519923925403 -0.023754224181175228 -0.018642692826688286 -0.049705030396580689 9.2868566513061541 16.110000610351566 0.0031627619173377757 -0.017796411179006096 -0.05955849960446357 46.220340728759773 17.469999313354496
decision_type=2 2 2 10 2 2 10 2 2 2 2 2 2 2 2 2 2 2 10 2 2 2 2 10 2 2 2 2
left_child=6 5 9 4 15 -2 8 11 16 12 -11 -8 -3 -14 -15 27 17 -1 -18 -16 -6 -19 -5 25 -25 26 -20 -4
right_child=1 2 3 22 20 -7 7 -9 -10 10 -12 -13 13 14 19 -17 18 21 23 -21 -22 -23 -24 24 -26 -27 -28 -29
leaf_value=-1.1837417117648146 -1.1939701137109469 -1.1908421484658693 -1.228817681056841 -1.1766021885638436 -1.1865466678531413 -1.147610447893332 -1.2253675255398662 -1.160756275269659 -1.1847253165319402 -1.2077884003937032 -1.1605428392854249 -1.1851043146375322 -1.228929711477466 -1.2250138029628332 -1.2024182281002036 -1.188075983913337 -1.2015768113230405 -1.2257810601218473 -1.2290855121295088 -1.1715776260998247 -1.1542948565441868 -1.1995497792628305 -1.1442835191132501 -1.2243889283766378 -1.1938128815880837 -1.2304729268748489 -1.2079656809798462 -1.2116072275478125
leaf_weight=10.404475718736647 13.557347148656847 17.656080007553101 12.296198576688772 9.4586142897605914 9.773901432752611 14.818495720624922 14.818495720624925 10.089188575744627 13.242060005664824 15.764357149600984 12.611485719680784 10.089188575744627 27.745268583297729 18.917228579521179 9.4586142897605914 9.4586142897605878 13.242060005664824 16.079644292593006 14.187921434640886 10.089188575744627 10.719762861728666 9.4586142897605878 10.404475718736647 17.025505721569065 9.4586142897605878 56.751685738563538 11.980911433696745 9.7739014327526075
leaf_count=33 43 56 39 30 31 47 47 32 42 50 40 32 88 60 30 30 42 51 45 32 34 30 33 54 30 180 38 31
internal_value=-1.20199 -1.19219 -1.19597 -1.18365 -1.19422 -1.16872 -1.21206 -1.19434 -1.2157 -1.20396 -1.18608 -1.20902 -1.21013 -1.21537 -1.20516 -1.21164 -1.21838 -1.20664 -1.22176 -1.18578 -1.16822 -1.21633 -1.1577 -1.22419 -1.21355 -1.22741 -1.21998 -1.22193
internal_weight=419.332 212.504 184.128 71.8855 52.0224 28.3758 206.828 34.9969 171.831 112.242 28.3758 24.9077 83.8664 66.2103 38.465 31.5287 158.589 35.9427 122.647 19.5478 20.4937 25.5383 19.8631 109.405 26.4841 82.9205 26.1688 22.0701
internal_count=1330 674 584 228 165 90 656 111 545 356 90 79 266 210 122 100 503 114 389 62 65 81 63 347 84 263 83 70
is_linear=0
shrinkage=1


Tree=1
num_leaves=31
num_cat=0
split_feature=73 64 52 62 68 30 32 38 67 74 27 91 58 96 91 76 76 84 57 68 35 93 39 45 74 35 25 88 43 74
split_gain=22.0726 19.686 16.4728 21.2719 19.862 15.2863 12.2561 11.5947 11.3515 11.1691 11.5428 9.26484 9.12319 8.79343 8.79113 8.20195 7.77998 7.63077 6.98756 6.83099 7.46823 5.36209 5.30317 6.1578 4.67456 3.17034 3.16334 4.64224 2.41357 1.5022
threshold=0.74457851052284252 55.696702957153327 0.90494450926780712 0.023349680937826637 0.47468571364879614 22.85000038146973 0.061979686841368682 21.775000572204593 -0.0091482582502067072 0.36528709530830389 0.043056519702076919 0.027620919048786167 -0.028832081705331799 0.067536484450101866 0.027020628564059738 0.023549233563244346 0.060988083481788642 1.5605598092079165 -0.0036863978020846839 2.0900213718414311 19.085000038146976 -1372.625549316406 121.76760101318361 120.54724884033205 2.6911807060241704 16.444999694824222 9.3324873887468143e-05 0.0043906657956540593 -0.43887116014957422 2.000943779945374
decision_type=2 2 10 2 2 2 2 2 8 2 2 2 2 2 2 2 2 2 2 2 2 2 2 2 2 2 2 2 2 2
left_child=1 2 3 6 -4 26 14 12 -9 10 -3 15 18 -7 17 -6 -10 -1 21 -14 24 -2 23 -11 29 -23 27 -5 -29 -21
right_child=7 9 4 5 11 13 -8 8 16 22 -12 -13 19 -15 -16 -17 -18 -19 -20 20 -22 25 -24 -25 -26 -27 -28 28 -30 -31
leaf_value=-0.93271126964525808 -0.91098336132419322 -0.93022827149010101 -0.94495854657299572 -0.87277545955734759 -0.91813610809045643 -0.89864135144365231 -0.93593407429911524 -0.89270658903538269 -0.93977409074470297 -0.94038376070621688 -0.89151748816311216 -0.93133729146780075 -0.94867771344395102 -0.93022827149010101 -0.89030512271839746 -0.88425664090722245 -0.91139610187613107 -0.90334222949690546 -0.90464991624576574 -0.93306720576584912 -0.91458144496591609 -0.9245109597911092 -0.94528831421271764 -0.91265444862441114 -0.9225135299784657 -0.94676161021540284 -0.9006176478650022 -0.88456499768390695 -0.90589487878829134 -0.9488155995195654
leaf_weight=14.748156756162645 10.791334211826323 12.949601054191591 20.863246142864227 25.179779827594757 11.510756492614748 17.625845879316334 19.784112721681595 14.748156756162642 14.02873447537422 12.23017877340317 12.949601054191588 10.791334211826323 27.338046669960022 12.949601054191588 15.107867896556852 13.669023334980009 19.784112721681595 15.107867896556852 16.187001317739487 11.870467633008959 18.345268160104752 12.23017877340317 21.94237956404686 15.107867896556852 14.388445615768431 11.151045352220534 13.669023334980009 11.510756492614748 10.791334211826323 19.064690440893173
leaf_count=41 30 36 58 70 32 49 55 41 39 34 36 30 76 36 42 38 55 42 45 33 51 34 61 42 40 31 38 32 30 53
internal_value=-0.918422 -0.9132 -0.908559 -0.90356 -0.922345 -0.894345 -0.916785 -0.92634 -0.913768 -0.926329 -0.910582 -0.908874 -0.930663 -0.911961 -0.908168 -0.899132 -0.923437 -0.917834 -0.920363 -0.936283 -0.930579 -0.927994 -0.934601 -0.925387 -0.937003 -0.935839 -0.885787 -0.881979 -0.893894 -0.943412
internal_weight=478.416 288.488 213.309 156.474 56.8344 91.7263 64.748 189.927 48.561 75.1796 25.8992 35.9711 141.366 30.5754 44.9639 25.1798 33.8128 29.856 50.3596 91.0069 63.6689 34.1726 49.2804 27.338 45.3236 23.3812 61.1509 47.4819 22.3021 30.9352
internal_count=1330 802 593 435 158 255 180 528 135 209 72 100 393 85 125 70 94 83 140 253 177 95 137 76 126 65 170 132 62 86
is_linear=0
shrinkage=1


Tree=2
num_leaves=27
num_cat=0
split_feature=46 47 63 36 27 25 79 48 93 67 66 73 73 62 62 63 48 53 78 66 43 47 96 76 65 62
split_gain=31.7007 29.5556 21.8026 25.7217 23.132 18.9059 22.3262 17.8913 16.5317 14.4936 13.9395 9.55874 9.12591 8.67549 10.0268 7.35973 5.91762 11.9262 5.53703 4.2674 4.10763 2.49741 3.01381 1.88087 1.74265 0.0669771
threshold=123.28400039672853 123.10824966430665 0.027463783510029319 24.130000114440922 0.11859688907861711 0.00011207851639483125 -0.22423218190670011 9.2868566513061541 1057.532165527344 -0.020124268718063828 -0.015835363417863842 2.5414588451385502 0.83723118901252758 0.025823622010648254 0.019482214935123924 0.041910894215106971 -16.145400524139401 -1.0000000180025095e-35 0.84307539463043224 -0.0046353561338037244 0.25748538970947271 123.37094879150392 -1.3366230130195615 0.023549233563244346 -0.061192847788333886 0.050081981346011169
decision_type=2 2 2 2 2 2 2 2 2 8 10 2 2 2 2 2 2 2 2 10 2 2 2 2 2 2
left_child=2 7 4 9 8 6 -3 -2 13 -4 15 -7 -12 14 -1 -5 -6 -18 21 -16 -8 22 -11 -24 -25 -26
right_child=1 5 3 10 16 11 20 -9 -10 18 12 -13 -14 -15 19 -17 17 -19 -20 -21 -22 -23 23 24 25 -27
leaf_value=-1.1946458286128874 -1.1432266476384749 -1.1708652908890969 -1.1898484836235903 -1.1893311744858825 -1.2291605537177459 -1.1633309638130047 -1.2284283005455188 -1.1913991329075624 -1.2120779519992981 -1.2081551257749503 -1.1574362499971051 -1.2003708741540133 -1.1968944426486696 -1.1975851853473454 -1.149506961982272 -1.2215744973619864 -1.1809776545876589 -1.2217580655265798 -1.2047033377856671 -1.1784806194112727 -1.2082162915083636 -1.2123752936375227 -1.2131697679345206 -1.213892023449697 -1.2301974491675323 -1.2218321957403386
leaf_weight=11.350337147712706 16.079644292593006 9.4586142897605878 13.557347148656843 9.773901432752611 14.818495720624922 14.503208577632906 22.070100009441376 12.611485719680784 16.394931435585022 9.4586142897605878 10.40447571873665 10.719762861728666 10.404475718736647 15.133782863616942 14.818495720624922 14.818495720624922 9.7739014327526093 15.133782863616943 16.079644292593002 10.40447571873665 16.079644292593002 18.28665429353714 10.719762861728666 9.4586142897605878 75.038340032100677 11.980911433696745
leaf_count=36 51 30 43 31 47 46 70 40 52 30 33 34 33 48 47 47 31 48 51 33 51 58 34 30 238 38
internal_value=-1.20306 -1.18855 -1.20773 -1.21334 -1.1968 -1.19889 -1.21001 -1.16332 -1.18627 -1.21884 -1.1935 -1.1784 -1.17601 -1.17806 -1.17032 -1.20875 -1.2148 -1.20555 -1.2215 -1.16009 -1.22028 -1.22348 -1.22512 -1.22654 -1.2279 -1.22928
internal_weight=419.332 101.522 317.809 209.981 107.828 72.8313 47.6084 28.6911 68.102 164.58 45.4013 25.223 20.809 51.7071 36.5733 24.5924 39.7262 24.9077 151.023 25.223 38.1497 134.943 116.656 107.198 96.4779 87.0193
internal_count=1330 322 1008 666 342 231 151 91 216 522 144 80 66 164 116 78 126 79 479 80 121 428 370 340 306 276
is_linear=0
shrinkage=1


Tree=3
num_leaves=28
num_cat=0
split_feature=71 26 64 70 55 56 52 30 65 48 64 64 54 70 64 63 75 27 27 35 61 63 64 67 37 65 32
split_gain=43.7128 19.4493 18.9964 20.2 25.5429 15.5185 14.265 18.8073 15.5532 13.3005 17.0708 10.5376 9.27372 9.4543 16.9007 8.74331 8.4063 10.8736 5.18375 3.91709 2.46384 3.39832 2.17844 5.62225 1.53494 1.3929 0.774382
threshold=0.57814946770668041 -0.085866950452327714 52.099554061889656 2.3030670881271367 1.0000000180025095e-35 8.4234158992767352 1.2695012092590334 23.944999694824222 0.017502602189779285 22.196431159973148 40.958774566650398 44.411117553710945 -45.10609054565429 2.2773249149322514 44.320686340332038 0.069136627018451705 0.087012495845556273 0.00061619639745913457 0.079808317124843611 16.110000610351566 0.017666212283074859 0.027722300030291084 47.90205383300782 0.000566983420867473 17.469999313354496 -0.0025204785633832212 0.024318268522620205
decision_type=2 2 2 10 2 2 10 2 2 2 2 2 2 10 2 2 2 2 2 2 2 2 2 10 2 2 2
left_child=6 5 9 4 15 -2 8 11 16 12 -11 -8 -3 26 -15 24 -1 -18 -6 -5 21 -19 -22 -24 -4 -25 -14
right_child=1 2 3 19 18 -7 7 -9 -10 10 -12 -13 13 14 -16 -17 17 20 -20 -21 22 -23 23 25 -26 -27 -28
leaf_value=0.0089497610964472882 0.0081164348486164588 0.011178461759427875 -0.026257015263932572 0.024664233954785973 0.046513069384273707 0.052261486061371216 -0.022631912225221096 0.039894624844394662 0.017105042937848137 -0.0053233749767413532 0.04002981441476601 0.015421691325561527 -0.027180541530096636 -0.02175124815021489 0.019904482793556843 0.013815780153592572 0.0069605556687974378 -0.018944536976014253 0.014895902920568183 0.055440604780185365 -0.026758117157905398 0.0028306426198146111 0.00026700649100392385 -0.011097714963693743 -0.0091090047930898494 -0.026325387734584486 -0.014044357685604978
leaf_weight=10.979107975959776 13.628745496273043 17.763072460889816 12.19112572073937 9.6114550232887286 10.907048195600511 15.198499262332914 14.361450284719469 10.297944039106367 13.355992853641508 15.730666488409044 12.879138499498366 10.504610836505888 23.365744411945343 16.854994118213654 16.223984062671661 9.5370739698410016 14.162625491619108 17.824347257614139 9.9251508116722089 10.685837984085081 55.110396653413773 9.4572874307632429 12.526104807853697 9.3434900641441327 9.7416984736919385 27.74321722984314 9.3570905923843366
leaf_count=35 43 56 39 30 34 47 46 32 42 50 40 33 75 54 51 30 45 57 31 33 177 30 40 30 31 89 30
internal_value=0.00037676 0.00985931 0.00619317 0.0180374 0.00784107 0.0323627 -0.00947169 0.00775602 -0.0130492 -0.00156403 0.0157554 -0.00658154 -0.00760983 -0.0127731 -0.00133613 -0.00919707 -0.015704 -0.017604 0.0328219 0.0427093 -0.020272 -0.0115629 -0.0224101 -0.0171469 -0.0193699 -0.0228811 -0.0239521
internal_weight=419.268 213.601 184.774 72.5994 52.3021 28.8272 205.667 35.164 170.503 112.175 28.6098 24.8661 83.5649 65.8018 33.079 31.4699 157.147 146.167 20.8322 20.2973 132.005 27.2816 104.723 49.6128 21.9328 37.0867 32.7228
internal_count=1330 674 584 228 165 90 656 111 545 356 90 79 266 210 105 100 503 468 65 63 423 87 336 159 70 119 105
is_linear=0
shrinkage=0.03


Tree=4
num_leaves=31
num_cat=0
split_feature=72 79 52 68 27 41 38 32 65 52 70 56 27 26 46 47 93 34 97 67 93 52 92 36 26 84 66 7 65 92
split_gain=22.4341 24.7776 17.7816 20.7952 14.2887 11.7608 11.5511 11.4674 11.3062 9.91246 8.57135 8.12323 7.68142 10.3036 7.38488 7.32436 7.11129 7.06485 6.59499 6.39699 6.22849 5.84712 5.07736 4.45787 4.4449 3.97962 6.58895 2.94896 2.01254 1.53235
threshold=0.6324543058872224 -0.073127377778291688 0.90494450926780712 0.47468571364879614 0.12116786092519762 0.0049684571567922839 22.270000457763675 0.044422650709748275 -0.018247602507472035 1.3642355203628542 0.79628601670265209 22.196431159973148 0.029866067692637447 0.00022120380890555683 121.3910484313965 120.02904891967775 -126.54690170288085 -0.81224650144577015 -0.088251784443855272 -0.0004188378516118973 1223.2402343750002 -1.034522473812103 56.346143722534187 22.310000419616703 -0.016257236711680886 1.4201378226280215 -0.029337488114833828 0.98875126242637645 0.014181871898472311 57.421848297119148
decision_type=2 2 10 2 2 2 2 2 2 10 8 2 2 2 2 2 2 2 2 10 2 10 2 2 2 2 10 10 2 2
left_child=1 2 4 -4 7 9 10 15 -8 -5 -2 14 13 18 20 -1 -10 -14 -12 -6 24 -9 -16 29 -3 -19 -27 -28 -24 -17
right_child=6 11 3 5 19 -7 8 21 16 -11 12 -13 17 -15 22 23 -18 25 -20 -21 -22 -23 28 -25 -26 26 27 -29 -30 -31
leaf_value=0.003314641841289019 -0.027258822261099783 -0.017677146215365237 -0.024556656133859031 -0.020116905663589618 0.039171008319770932 0.035873821372970349 0.029344725704092054 -0.020867910005015009 -0.022582937522843089 0.018490158274276088 -0.0016652103552078352 0.011162212676040817 -0.027793746026274973 -0.022605968715739718 -0.0045007014964067015 0.042597376869478079 0.006560383260409911 -0.022912035662198182 0.024834749243055638 0.012698856148551752 0.015921813626436014 0.007472562213616799 -0.030007734359666374 0.010867807889322907 0.0055325495116123223 0.011520905029768101 -0.023145994410900227 -0.0028407025645922931 -0.012202396917588827 0.022363324752355383
leaf_weight=19.47808849811554 25.768220752477646 16.537174433469772 21.07208850979805 10.765478640794756 31.91218027472496 11.567787438631056 11.925046086311339 11.482889682054521 10.750115066766741 11.18391168117523 19.051486492156979 20.568848371505737 22.563154131174088 10.755363672971724 19.015856295824051 11.604814380407335 20.149004250764847 11.113003134727476 14.026937514543535 12.661165624856947 13.679747462272642 12.990345805883406 20.051390796899799 12.617806673049925 12.226447612047197 15.819898575544356 11.461702108383179 13.983040004968643 10.726347595453261 10.847481042146681
leaf_count=54 72 46 59 30 88 32 33 32 30 31 53 57 63 30 53 32 56 31 39 35 38 36 56 35 34 44 32 39 30 30
internal_value=0.000254719 0.00546149 0.0124002 -0.00184504 0.0186564 0.0127314 -0.00781771 0.0107697 0.00576566 -0.000496857 -0.0118541 -0.00551137 -0.00831231 0.00165185 -0.00930942 0.018322 -0.00396897 -0.0140855 0.00997113 0.0320952 -7.14267e-05 -0.00612204 -0.0170273 0.0263342 -0.00795707 -0.00777018 -0.00324669 -0.0125167 -0.0243817 0.034192
internal_weight=478.357 290.99 178.184 54.5893 123.595 33.5172 187.367 79.0214 42.8242 21.9494 144.543 112.806 118.775 43.8338 92.237 54.5482 30.8991 74.9408 33.0784 44.5733 42.4434 24.4732 49.7936 35.0701 28.7636 52.3776 41.2646 25.4447 30.7777 22.4523
internal_count=1330 808 494 152 342 93 522 219 119 61 403 314 331 122 257 151 86 209 92 123 118 68 139 97 80 146 115 71 86 62
is_linear=0
shrinkage=0.03


Tree=5
num_leaves=30
num_cat=0
split_feature=46 56 63 37 56 66 56 65 67 73 69 73 89 66 78 68 46 52 55 75 81 28 47 59 36 93 75 61 42
split_gain=30.0987 39.6822 20.7628 29.4709 24.3597 20.3528 18.5504 16.6653 15.6439 13.7285 13.5101 19.4628 19.7043 12.3181 6.69081 6.56471 5.63254 5.04168 4.71884 4.28138 3.36958 3.10228 2.95386 2.73054 2.26655 1.91056 1.87742 1.89919 1.12256
threshold=123.28400039672853 9.2868566513061541 0.027463783510029319 24.835000038146976 -16.145400524139401 -0.015835363417863842 11.409516334533693 -0.0093212728388607485 -0.02747267950326204 0.50519540905952465 0.50595498085021984 2.5598627328872685 -0.032596588134765618 -0.0039839614182710639 0.93523097038269054 0.5339857041835786 119.66029739379884 -0.57734999060630787 0.27078697062097495 0.19766553491353991 0.012011676095426084 689.50000000000011 123.37094879150392 -0.042300008237361901 15.905000209808351 666.87481689453136 0.13487256318330768 0.05633609555661679 -0.08761232346296309
decision_type=2 2 2 2 2 10 2 2 8 2 2 2 2 8 2 2 2 8 2 2 2 2 2 2 2 2 2 2 2
left_child=2 10 4 8 9 16 23 -8 -4 13 20 25 -13 -1 21 -11 -5 -3 -9 -7 -2 22 26 -6 -24 -12 -10 -28 -14
right_child=1 17 3 5 6 19 7 18 14 15 11 12 28 -15 -16 -17 -18 -19 -20 -21 -22 -23 24 -25 -26 -27 27 -29 -30
leaf_value=0.057311138013040767 -0.026473587385354803 0.058523796973872805 0.019630389672807072 0.0085740677639355375 -0.005721684558043668 0.047377873448279442 0.039151573530072967 0.0080677884721104785 -0.013598098705633726 -0.012281395357042795 0.041341262293134305 0.029338224825558437 -0.026113961983465758 0.01126178556925584 -0.00083530441607002146 0.020762061011681834 -0.021408185755895016 0.028691916220001095 -0.019965185297243952 0.016793564634230686 -0.0029111976213251449 -0.0066706751702438217 0.00033238677715798206 -0.025182403749151285 -0.019968182384607052 0.01929093732318056 -0.027301484294526474 -0.011296665731227413 -0.011120357761245932
leaf_weight=12.538515627384184 12.883733987808229 12.321722239255903 9.5191719532012922 9.4556853175163287 9.4434219896793348 9.6006453335285205 10.880507111549379 10.41145169734955 17.160406887531281 9.845182418823244 10.923810899257662 9.8295083343982679 11.544837564229965 9.4866424202919024 17.330128490924835 9.8689781129360181 11.580030798912047 14.633614122867586 9.4022934734821302 9.5159957706928235 9.4568805992603284 14.085257709026335 9.3798597753047961 26.272038906812668 9.4048060774803144 9.5675582289695722 82.317981094121933 9.3974539935588819 10.990474820137024
leaf_count=39 41 38 30 30 30 30 34 33 55 31 34 31 37 30 55 31 37 46 30 30 30 45 30 84 30 30 264 30 35
internal_value=-0.00066764 0.013415 -0.00523514 -0.0107448 0.00540057 0.0121298 -0.00588947 0.0110279 -0.016232 0.0230812 0.002042 0.010279 -0.0042924 0.0388274 -0.0184873 0.00446402 -0.00815349 0.0439342 -0.00555491 0.0337451 -0.0170516 -0.0206244 -0.0221002 -0.0203328 -0.0103269 0.0324225 -0.024019 -0.0258011 -0.0195848
internal_weight=419.049 102.152 316.896 208.747 108.149 40.1524 66.4097 30.6943 168.595 41.7393 75.1968 52.8562 32.3648 22.0252 159.076 19.7142 21.0357 26.9553 19.8137 19.1166 22.3406 141.746 127.661 35.7155 18.7847 20.4914 108.876 91.7154 22.5353
internal_count=1330 322 1008 666 342 127 211 97 539 131 238 167 103 69 509 62 67 84 63 60 71 454 409 114 60 64 349 294 72
is_linear=0
shrinkage=0.03


Tree=6
num_leaves=28
num_cat=0
split_feature=71 26 64 70 55 61 38 74 67 48 64 54 72 64 63 61 75 62 61 90 52 27 79 35 59 37 29
split_gain=41.5746 18.1814 17.9966 18.6064 24.2546 14.5631 13.7449 36.9007 18.541 12.572 15.9913 8.81564 9.74807 16.0108 8.40658 7.02964 6.87751 5.67572 8.48691 5.30886 5.02746 4.73544 3.92779 3.64877 2.02823 1.51368 0.620886
threshold=0.57814946770668041 -0.085866950452327714 52.099554061889656 2.3030670881271367 1.0000000180025095e-35 0.034043142572045333 22.399999618530277 0.34092003107070928 -0.0040270213503390542 22.196431159973148 40.958774566650398 -45.10609054565429 2.2230509519577031 44.320686340332038 0.069136627018451705 0.01134189870208502 0.13083233684301379 0.027191456407308582 0.028212671168148521 0.019220065325498584 1.5929188132286074 0.079808317124843611 -0.059160670265555375 16.110000610351566 0.068877339363098158 17.469999313354496 13.500000000000002
decision_type=2 2 2 10 2 2 2 2 10 2 2 2 2 2 2 2 2 2 2 2 10 2 2 2 2 2 2
left_child=6 5 9 4 14 -2 15 24 -9 11 -11 -3 -13 -14 25 -1 -10 20 -19 -15 26 -6 -20 -5 -8 -4 -17
right_child=1 2 3 23 21 -7 7 8 16 10 -12 12 13 19 -16 17 -18 18 22 -21 -22 -23 -24 -25 -26 -27 -28
leaf_value=0.0084564478251606262 0.04756407565691987 0.010766978894250641 -0.026010579105828803 0.023632874156688598 0.044712212800650381 0.0043145485184343212 -0.025844896915572131 -0.011650270583579102 0.052041900259686635 -0.005303455652879074 0.038387783125979291 -0.025995732003574062 -0.022098845318587718 -0.00061267571884524778 0.013387386391661838 -0.02569446637159321 0.018996544773031244 0.011713753024123027 -0.024115250118141491 0.029727790658493829 -0.0014942774695588679 0.014586253922691026 -0.0035661651404034619 0.053005978038034578 -0.00812630189841697 -0.008939556514341555 -0.014563611605373811
leaf_weight=10.333383142948149 17.675368160009388 17.885465711355209 12.044553637504583 9.7528899312019366 11.1233426630497 11.560829341411589 22.682188361883163 9.6639643311500532 11.925049126148226 15.72162574529648 13.12308883666992 27.029163539409637 18.512656211853027 9.5742207765579241 9.6060969531536085 59.504527390003204 13.387417703866957 13.149638950824736 20.175363332033154 10.234210819005964 10.043361723423002 9.9744889140129072 14.505414575338365 10.945674926042555 9.322420269250868 9.6957818269729596 9.8836229443550092
leaf_count=33 54 56 39 30 34 36 73 31 37 50 40 88 60 30 30 193 42 42 65 32 32 31 46 33 30 31 32
internal_value=0.000369558 0.00957699 0.00601956 0.0174869 0.00765684 0.0311703 -0.00928232 0.00185008 0.0228404 -0.00155239 0.0151944 -0.00746734 -0.0125449 -0.00263771 -0.00905584 -0.0146758 0.0359508 -0.0166054 -0.00819568 0.0157383 -0.0215045 0.0317741 -0.0158613 0.0408927 -0.0210864 -0.0191251 -0.0243384
internal_weight=419.036 214.459 185.223 73.1428 52.4443 29.2362 204.576 66.981 34.9764 112.08 28.8447 83.2357 65.3503 38.3211 31.3464 137.595 25.3125 127.262 47.8304 19.8084 79.4315 21.0978 34.6808 20.6986 32.0046 21.7403 69.3882
internal_count=1330 674 584 228 165 90 656 213 110 356 90 266 210 122 100 443 79 410 153 62 257 65 111 63 103 70 225
is_linear=0
shrinkage=0.03


Tree=7
num_leaves=31
num_cat=0
split_feature=72 79 52 71 27 91 69 26 32 89 39 90 26 47 32 62 37 66 72 68 67 62 76 47 36 28 70 76 92 92
split_gain=21.1611 23.4912 16.5588 19.9261 13.416 11.1791 11.073 11.041 10.8769 7.64562 7.04172 11.1278 8.91468 6.87835 6.80567 6.50793 12.0336 9.61805 6.33542 7.07865 6.0224 5.56952 4.74653 4.535 4.18609 3.29241 2.56215 2.35579 1.45389 1.43014
threshold=0.6324543058872224 -0.073127377778291688 0.90494450926780712 0.47833374142646795 0.12116786092519762 0.027454706840217117 0.76101249456405651 0.00031000391754787421 0.044422650709748275 -0.060292089357972138 123.48139953613283 0.029347317293286327 -0.070101156830787645 120.02904891967775 0.13312200456857684 0.026939099654555324 22.399999618530277 0.0038951043970882897 0.56586626172065746 0.47760713100433355 -0.0004188378516118973 0.024375209584832195 0.2309224680066109 120.95920181274415 22.310000419616703 713.00000000000011 2.2635320425033574 0.025623109191656116 44.093526840209968 57.421848297119148
decision_type=2 2 10 2 2 2 2 2 2 2 2 2 2 2 2 2 2 8 2 2 10 2 2 2 2 2 10 2 2 2
left_child=1 2 4 -4 8 -5 28 9 13 -8 11 12 -3 -1 15 17 22 -11 19 -14 -6 -10 25 -13 29 -17 -9 -12 -2 -15
right_child=6 10 3 5 20 -7 7 26 21 14 27 23 18 24 -16 16 -18 -19 -20 -21 -22 -23 -24 -25 -26 -27 -28 -29 -30 -31
leaf_value=0.0031800435389758796 -0.014754891777957241 -0.024101525468871031 -0.024097459676032478 0.025111102958644545 0.037828767771247135 -0.0099788378746512429 0.016694477081078626 -0.026643435361383971 -0.020522218113978852 0.025586896952987489 -0.029703969586971558 0.0023285868259289803 -0.0077839677786381394 0.04110429815787784 0.013374199927745441 -0.027043269428424624 0.012902148323193259 -0.012525938313980795 -0.019996202825576206 0.01723569007404992 0.012225283476388744 0.0071598562073549952 0.0004375755143660227 0.029403980993159152 0.010487114137892797 -0.0087186751078333607 -0.0077845024013829056 -0.0090514854110741571 -0.030530424298630843 0.021627568570404338
leaf_weight=19.501536756753922 12.478567391633989 19.67203351855278 20.910772055387497 21.406515449285507 32.191369771957397 12.168416559696196 18.77095827460289 19.55743965506554 11.421251296997072 11.208960771560667 10.984440118074419 10.819367676973345 19.073870092630386 11.721295416355135 16.968367278575897 31.011584281921387 14.01781117916107 10.77170303463936 10.743161052465437 19.808845162391663 12.712094634771345 13.026378393173216 10.744740396738051 10.893056035041807 12.660935461521147 13.955073297023771 11.071248918771742 10.638851702213286 16.295078188180923 10.912042319774626
leaf_count=54 35 55 59 59 88 34 52 55 32 31 31 30 53 32 47 87 39 30 30 55 35 36 30 30 35 39 31 30 46 30
internal_value=0.000241622 0.00529047 0.01203 -0.00174364 0.0180406 0.0124728 -0.00761484 -0.00442273 0.0103996 -0.000481661 -0.00540997 -0.00166742 -0.00754853 0.0177251 -0.0035735 -0.00681963 -0.0112709 0.00717724 -0.000640348 0.00507489 0.0310047 -0.00607069 -0.0174735 0.0166088 0.0254528 -0.0216698 -0.0202882 -0.020392 -0.0244142 0.0330266
internal_weight=478.118 291.266 178.633 54.4857 124.147 33.5749 186.852 158.078 79.2434 127.449 112.634 91.0103 69.2979 54.7958 108.678 91.7099 69.7292 21.9807 49.6259 38.8827 44.9035 24.4476 55.7114 21.7124 35.2943 44.9667 30.6287 21.6233 28.7736 22.6333
internal_count=1330 808 494 152 342 93 522 441 219 355 314 253 193 151 303 256 195 61 138 108 123 68 156 60 97 126 86 61 81 62
is_linear=0
shrinkage=0.03


Tree=8
num_leaves=27
num_cat=0
split_feature=46 56 73 62 54 55 36 44 10 71 73 89 26 60 70 83 23 92 52 81 41 34 81 26 90 47
split_gain=28.6552 36.9076 17.4976 14.6786 26.1401 32.2717 16.1118 17.5425 16.842 13.3899 18.9076 18.8698 13.076 12.4591 14.1163 8.30413 6.13748 4.96663 4.46028 3.34722 3.09378 4.12616 2.23445 1.78974 0.785716 0.590659
threshold=123.28400039672853 9.2868566513061541 0.39132554829120642 0.022908794693648819 0.27078697062097495 -16.145400524139401 27.640000343322757 117.98020172119142 -0.063596626743674264 0.49697799980640417 2.5598627328872685 -0.032596588134765618 -0.041087578982114785 -0.081547033041715608 2.2729910612106328 626538144.00000012 0.00029516832728404557 53.023525238037116 -0.57734999060630787 0.012011676095426084 -0.006988674169406294 1.8779214620590212 0.009670270141214134 -0.017635029740631577 0.024089382030069832 123.21364974975587
decision_type=2 2 2 2 2 2 2 2 10 2 2 2 2 2 10 2 2 2 10 2 2 2 2 2 2 2
left_child=2 9 -1 4 5 12 8 -8 15 19 22 -12 -4 -10 -15 20 -7 -6 -3 -2 -5 25 -11 -16 -13 -22
right_child=1 18 3 6 17 16 7 -9 13 10 11 24 -14 14 23 -17 -18 -19 -20 -21 21 -23 -24 -25 -26 -27
leaf_value=0.022798659050648696 -0.026243909391268978 0.054466801078235268 -0.023090777034651986 -0.0094088383336593875 0.00028103600304795097 0.05219509691801965 0.039383276684498807 -0.011167304674441964 0.025627863041188872 0.042609883117230345 0.028460569423649953 -0.01239889398645028 0.015601241216206839 0.019566085346255504 -0.0088514840191473328 0.0020303344316215965 0.018917655590473492 -0.025643506121175684 0.026574641510759903 -0.002799802560468885 -0.026785153702751446 -0.0052233886364207545 0.019523124435694761 -0.026559254180534616 -0.025675369252773111 -0.017611693300534973
leaf_weight=18.042736440896988 13.022591322660448 13.935931056737902 15.872130393981935 17.990450501441956 9.3842814564704913 15.204899579286577 10.358267873525621 12.816547960042952 12.746813058853148 9.8117550611495989 9.9477911293506605 12.10984328389168 13.779703587293623 10.773229986429213 9.6708850860595685 14.700580060482023 9.6217201352119428 21.656055301427841 13.530737131834028 9.4310187399387342 81.966090083122253 10.593963295221327 10.678211271762846 14.937792509794237 10.201216608285902 15.790826410055159
leaf_count=56 42 42 51 58 30 47 32 41 40 30 31 39 43 34 31 47 30 70 42 30 265 34 33 48 33 51
internal_value=-0.000645873 0.013047 -0.00512315 -0.0068851 0.00357937 0.0160016 -0.0110965 0.0121214 -0.0139897 0.0020066 0.010235 -0.00416619 -0.00518758 0.00132119 -0.00789934 -0.0191868 0.0405301 -0.0180417 0.0421427 -0.0169361 -0.0216521 -0.0235804 0.0320467 -0.0202177 -0.0193103 -0.0254967
internal_weight=418.576 102.669 315.907 297.864 85.5188 54.4785 212.345 23.1748 189.171 75.2024 52.7488 32.2589 29.6518 48.1287 35.3819 141.042 24.8266 31.0403 27.4667 22.4536 126.341 108.351 20.49 24.6087 22.3111 97.7569
internal_count=1330 322 1008 952 271 171 681 73 608 238 166 103 94 153 113 455 77 100 84 72 408 350 63 79 72 316
is_linear=0
shrinkage=0.03


Tree=9
num_leaves=29
num_cat=0
split_feature=71 89 56 64 54 75 65 38 74 67 79 61 25 90 66 51 75 59 75 61 48 61 67 27 58 76 15 32
split_gain=39.4231 17.1318 27.6352 22.6669 19.4422 16.6318 14.3995 13.1713 35.1253 17.2644 7.68911 8.85675 7.56104 7.46007 6.90515 10.4921 6.27308 5.8179 7.6381 3.80695 6.53799 3.33461 2.70535 2.1033 2.03301 1.8292 1.28738 0.932963
threshold=0.57814946770668041 -0.070255406200885759 9.2868566513061541 56.939325332641609 -45.10609054565429 0.39284135401248937 -0.057953830808401101 22.399999618530277 0.34092003107070928 -0.0040270213503390542 -0.12644623965024945 0.026135513558983806 -0.00026495187194086606 0.013578189071267845 0.010697116144001486 0.52035191655159008 0.13083233684301379 0.16426493227481845 0.25081567466259008 0.017292920500040058 0.27078697062097495 0.031851066276431091 -0.010418932884931563 0.18338318914175036 0.037285767495632179 0.035565583035349853 0.00056405196664854895 -0.0076273868326097718
decision_type=2 2 2 2 2 2 2 2 2 10 2 2 2 2 10 10 2 2 2 2 2 2 8 2 2 2 2 2
left_child=7 22 3 4 -3 6 -4 14 24 -10 26 -12 -13 -5 15 19 -11 18 -15 20 27 -8 -2 25 -9 -21 -6 -1
right_child=1 2 5 13 10 -7 21 8 9 16 11 12 -14 17 -16 -17 -18 -19 -20 23 -22 -23 -24 -25 -26 -27 -28 -29
leaf_value=-0.010595322193814465 -0.024025710618883245 0.023158057656221618 0.0087209598432027805 0.040284070450238844 -0.026857439016167779 -0.0010448510277899737 0.054559773900110048 -0.025598764673031498 -0.011419770078006441 0.049679132348182754 -0.018724526576398202 0.020759893826602548 -0.011701538479879972 0.003188249497220005 0.0052706902131334291 0.011687457198895064 0.018339214021441393 -0.0050090333140152604 0.039732619991337065 -0.02692970728357387 0.0094812414672298239 0.029540979465573974 -0.0027258826358008644 -0.011333916123625897 -0.0078301228103693429 -0.010875459654384035 -0.011694278993248161 -0.025513959315726132
leaf_weight=9.1963855922222173 12.460672110319136 17.856480687856674 12.483113855123518 13.14625361561775 20.054816663265232 12.987465590238569 22.385056763887405 22.412616014480594 9.5956732928752881 12.213362723588945 17.225742220878601 15.80046057701111 9.6640574038028699 10.181205809116369 13.95276042819023 10.111174821853636 13.517641127109526 10.225118219852446 9.8191867470741254 58.430607527494431 10.026204526424406 11.70857924222946 9.3992346525192279 15.024282246828077 9.2438774704933149 9.277618467807768 9.837160259485243 10.385805249214172
leaf_count=30 40 55 39 40 65 41 67 73 31 37 55 49 31 32 44 32 42 32 30 192 32 36 30 49 30 30 32 34
internal_value=0.000361878 0.0092903 0.0121448 0.00449783 -0.00407716 0.0289656 0.0371798 -0.00908581 0.00179641 0.0220684 -0.0110012 -0.00268432 0.00846378 0.0220673 -0.0144038 -0.0166702 0.0345169 0.0131077 0.0221674 -0.0193031 -0.00960484 0.0470543 -0.0153872 -0.0226177 -0.0208089 -0.0249202 -0.0224075 -0.0193629
internal_weight=418.623 215.235 193.375 133.81 90.4387 59.5642 46.5767 203.388 66.9832 35.3267 72.5822 42.6903 25.4645 43.3718 136.405 122.452 25.731 30.2255 20.0004 112.341 29.6084 34.0936 21.8599 82.7325 31.6565 67.7082 29.892 19.5822
internal_count=1330 674 604 421 287 183 142 656 213 110 232 135 80 134 443 399 79 94 62 367 96 103 70 271 103 222 97 64
is_linear=0
shrinkage=0.03


Tree=10
num_leaves=31
num_cat=0
split_feature=72 79 56 27 38 52 55 65 70 56 27 26 63 28 70 26 42 62 93 34 97 28 75 74 84 66 37 60 60 66
split_gain=19.9607 22.1678 16.3885 13.7967 10.8067 10.5744 11.1688 10.2969 8.06653 7.25458 7.24216 9.52426 7.20537 8.03006 10.5998 6.77677 6.9828 7.85961 6.70957 6.7047 6.29683 5.24726 4.02105 3.92479 3.84925 6.05577 3.62537 2.90094 1.33129 0.201182
threshold=0.6324543058872224 -0.073127377778291688 9.2868566513061541 0.001130804652348161 22.270000457763675 0.7886912226676942 20.955858230590824 -0.018247602507472035 0.79628601670265209 22.196431159973148 0.029866067692637447 0.00022120380890555683 0.028375560417771343 6.5000000000000009 0.50969600677490245 -8.605876064393668e-05 -0.9459906518459319 0.026122893206775192 -126.54690170288085 -0.81224650144577015 -0.088251784443855272 7.5000000000000009 0.10922040045261384 0.36919392645359045 1.4201378226280215 -0.029337488114833828 22.189999580383304 0.019155246205627922 -0.08092224225401877 0.013228416908532383
decision_type=2 2 2 2 2 10 2 2 8 2 2 2 2 2 10 2 2 2 2 2 2 2 2 2 2 10 2 2 2 10
left_child=1 2 3 -1 8 6 -4 -6 -2 15 11 20 13 -5 -15 16 17 -3 -9 -12 -10 -8 -18 -24 -21 -26 28 -27 -14 -25
right_child=4 9 5 12 7 -7 21 18 10 -11 19 -13 26 14 -16 -17 22 -19 -20 24 -22 -23 23 29 25 27 -28 -29 -30 -31
leaf_value=-0.0073533032741337819 -0.026407582057764657 -0.014713649128196452 -0.01320014107770281 0.032729308585017332 0.028074915767322628 -0.01878728417614782 0.0066418920120761438 -0.02186801620786932 -0.0016856121533260571 0.010410377037722487 -0.027006408236701251 -0.021763698287384631 0.023024667972762435 -0.014360459881347622 0.019466516873699973 0.01258063884018408 -0.0036983936050772963 0.019756663095930532 0.0065425185422963222 -0.022363632148559388 0.02417092509191773 0.030968136050314794 -0.0073514067602193983 -0.03077904295948403 0.011141453242596133 -0.021413454449177107 0.013975639464915401 -0.0013219778975708054 0.039145885293578701 -0.01976446737748121
leaf_weight=15.381772816181181 25.381259739398956 10.983869194984438 15.469198822975157 12.821879237890242 12.037181705236433 18.516781002283096 19.900013506412506 10.617093354463579 19.0472217798233 20.694310486316681 22.256198048591614 10.605742603540419 12.498321294784541 13.588573813438414 18.579811632633209 10.803559899330137 15.417191028594969 10.850477099418638 20.140871435403824 11.009412765502928 14.101997971534731 13.193153977394102 13.206446200609205 19.447453171014789 15.870750308036802 12.765805512666704 11.59715762734413 12.464285403490065 27.461927086114887 10.99164506793022
leaf_count=43 72 31 43 35 33 52 55 30 53 57 63 30 34 38 51 30 43 30 56 31 39 36 37 55 44 36 32 35 75 31
internal_value=0.000230896 0.00512819 0.0116599 0.0186363 -0.00741584 -8.39009e-05 0.00728285 0.00571501 -0.0113442 -0.00528572 -0.00791289 0.00175743 0.0228098 0.0135688 0.00517517 -0.00890199 -0.0118895 0.00253125 -0.00364407 -0.0135504 0.00969971 0.0169638 -0.017174 -0.0217446 -0.00740313 -0.00295976 0.0304622 -0.0119166 0.0347889 -0.0275568
internal_weight=477.701 291.404 179.009 111.929 186.298 67.0791 48.5624 42.7951 143.503 112.395 118.121 43.755 96.5477 44.9903 32.1684 91.7006 80.8971 21.8343 30.758 74.3665 33.1492 33.0932 59.0627 43.6455 52.1103 41.1008 51.5574 25.2301 39.9602 30.4391
internal_count=1330 808 494 308 522 186 134 119 403 314 331 122 265 124 89 257 227 61 86 209 92 91 166 123 146 115 141 71 109 86
is_linear=0
shrinkage=0.03


Tree=11
num_leaves=28
num_cat=0
split_feature=46 56 73 62 54 55 36 39 10 26 69 75 89 60 70 28 61 23 92 52 78 81 26 41 34 93 35
split_gain=27.2317 34.2955 16.5411 14.0432 24.7597 30.1931 15.3844 17.0938 16.2687 12.5061 12.3221 17.2682 12.5047 11.8233 13.4576 10.2079 8.48293 5.55885 4.87386 4.03282 3.81145 3.20707 1.74091 1.47681 1.10734 1.0005 0.464659
threshold=123.28400039672853 9.2868566513061541 0.39132554829120642 0.022908794693648819 0.27078697062097495 -16.145400524139401 27.640000343322757 118.58115005493165 -0.063596626743674264 -0.041087578982114785 0.50595498085021984 0.28335236012935644 -0.003611288382671773 -0.081547033041715608 2.2729910612106328 46.500000000000007 0.064055029302835478 0.00029516832728404557 53.023525238037116 -0.57734999060630787 1.4013039469718935 0.012011676095426084 -0.017635029740631577 -0.006988674169406294 1.5722339153289797 1960.0883789062502 13.34500026702881
decision_type=2 2 2 2 2 2 2 2 10 2 2 2 2 2 10 2 2 2 2 10 2 2 2 2 2 2 2
left_child=2 10 -1 4 5 9 8 -8 16 -4 21 15 -13 -10 -15 -12 20 -7 -6 -3 23 -2 -16 -5 25 26 -25
right_child=1 19 3 6 18 17 7 -9 13 -11 11 12 -14 14 22 -17 -18 -19 -20 -21 -22 -23 -24 24 -26 -27 -28
leaf_value=0.021983234509785787 -0.025884102521542197 0.052017704342460037 -0.022838767558147906 -0.013139057491852844 0.00039540548378447243 0.049826386391770339 0.037023749466133342 -0.012534384013461061 0.024793625955656873 0.015008071146070714 0.039449689410346656 0.018060041641533051 -0.023097188210683548 0.018843958039301157 -0.0087245583777816639 0.0014018500082861919 0.0056200082702592569 0.018313905375804802 -0.025350881844498272 0.025638816590944715 -0.0039741253895796552 -0.0027524220308354991 -0.026255535203810663 -0.016502153401208825 -0.013024710885405365 -0.013461153048417098 -0.027563238539964903
leaf_weight=18.24296310544014 12.50702676177025 14.255692839622499 15.699142485857012 16.911133259534836 9.357757508754732 15.565591007471086 11.153341531753542 12.157541632652281 12.894170582294462 13.905968636274336 17.191167324781421 9.8532712757587451 16.346235364675522 10.890505284070967 9.6362805068492872 9.8630653917789441 11.274712502956389 9.7093522548675519 21.349235057830811 13.698236793279646 11.224266260862349 9.4191136360168439 14.70795112848282 9.3975710570812208 10.778162539005278 9.1767106056213361 70.783569157123566
leaf_count=56 41 42 51 55 30 47 34 39 40 43 52 31 53 34 31 31 36 30 70 42 36 30 48 31 35 30 232
internal_value=-0.000626286 0.0126793 -0.00501154 -0.00674035 0.00348064 0.0154591 -0.0108834 0.0117248 -0.0137388 -0.00515202 0.00196811 0.00973621 -0.00752362 0.00128913 -0.00775922 0.0261231 -0.0188941 0.0388786 -0.0177399 0.0404232 -0.0210757 -0.0165006 -0.0199342 -0.0226681 -0.0241315 -0.0253122 -0.0264861
internal_weight=417.95 103.134 314.816 296.573 85.587 54.8801 210.986 23.3109 187.675 29.6051 75.1799 53.2537 26.1995 48.1289 35.2347 27.0542 139.546 25.2749 30.707 27.9539 128.271 21.9261 24.3442 117.047 100.136 89.3579 80.1811
internal_count=1330 322 1008 952 271 171 681 73 608 94 238 167 84 153 113 83 455 77 100 84 419 71 79 383 328 293 263
is_linear=0
shrinkage=0.03


Tree=12
num_leaves=28
num_cat=0
split_feature=71 89 56 36 47 75 75 65 38 74 67 43 67 46 61 90 75 62 61 79 91 59 61 43 67 59 61
split_gain=37.3918 16.3464 25.7848 21.3133 16.6072 19.9387 15.4462 13.166 12.6973 33.5511 16.1878 9.50859 7.18284 8.65605 6.74137 6.48162 5.79489 5.43824 8.12245 3.79636 3.63613 3.628 3.06878 3.0356 2.63181 2.04993 1.76705
threshold=0.57814946770668041 -0.070255406200885759 9.2868566513061541 22.399999618530277 120.16875076293947 0.31526635587215429 0.39284135401248937 -0.057953830808401101 22.399999618530277 0.34092003107070928 -0.0040270213503390542 -0.74299696087837208 -0.00024683804076630617 122.41805267333986 0.01134189870208502 0.016070322133600715 0.13083233684301379 0.027191456407308582 0.028212671168148521 -0.059160670265555375 0.016082330606877807 -0.020295007154345509 0.031851066276431091 -0.13098128885030744 -0.010418932884931563 0.068877339363098158 0.015703505836427215
decision_type=2 2 2 2 2 2 2 2 2 2 10 2 10 2 2 2 2 2 2 2 2 2 2 2 8 2 2
left_child=8 24 3 4 21 12 7 -4 14 25 -11 -7 13 23 -1 -14 -12 20 -19 -20 -16 -3 -9 -6 -2 -10 -22
right_child=1 2 6 -5 5 11 -8 22 9 10 16 -13 15 -15 17 -17 -18 18 19 -21 26 -23 -24 -25 -26 -27 -28
leaf_value=0.0084853678626197176 -0.023773845224637036 0.017589636847851871 0.0084921382007677928 -0.023913569370918666 -0.026732749754711092 0.046574154677758155 -0.0010590317773031723 0.052137050621108454 -0.025364710650044787 -0.011193758960260678 0.047727441955741176 0.0097241559002414369 -0.0087452314759831722 0.0080956365627601282 -0.0035136991955515874 0.021476998809056215 0.017776848105850483 0.011582911669083457 -0.023657550956300843 -0.003351332853658481 -0.011123549228627721 0.044866927298384249 0.028350944058907684 -0.0056375718649311797 -0.0027132416521275324 -0.0074961125569950413 -0.025616961859319255
leaf_weight=10.321114063262938 12.318987965583799 10.44624972343445 12.528681755065916 19.437237083911896 21.078651070594788 10.347185999155046 12.98300990462303 22.871951729059219 22.144034475088123 9.5290853381156904 12.450094103813173 15.749126225709913 10.842793285846712 12.862405925989149 9.8576507866382581 13.186800271272658 13.62699109315872 13.174160003662108 19.751560449600216 14.422676831483843 11.312676608562468 10.626469165086744 11.88262167572975 9.3898401856422442 9.3937526345253008 9.1566653847694379 56.426094442605972
leaf_count=33 40 32 39 63 69 31 41 67 73 31 37 48 34 41 32 41 42 42 65 46 37 32 36 30 30 30 188
internal_value=0.000352157 0.00901258 0.0117812 0.00437263 0.00933862 0.00376794 0.0279098 0.0357212 -0.00889709 0.00178072 0.0214199 0.0255148 -0.00490707 -0.0121038 -0.014153 0.00803537 0.0333108 -0.0160756 -0.00782734 -0.0154266 -0.0209449 0.0327544 0.0450249 -0.0206173 -0.0151829 -0.0205314 -0.0233935
internal_weight=418.119 215.946 194.233 133.967 114.53 93.4568 60.2663 47.2833 202.173 66.9069 35.6062 26.0963 67.3605 43.3309 135.266 24.0296 26.0771 124.945 47.3484 34.1742 77.5964 21.0727 34.7546 30.4685 21.7127 31.3007 67.7388
internal_count=1330 674 604 421 358 294 183 142 656 213 110 79 215 140 443 75 79 410 153 111 257 64 103 99 70 103 225
is_linear=0
shrinkage=0.03


Tree=13
num_leaves=31
num_cat=0
split_feature=64 69 52 71 62 30 32 43 89 51 96 5 84 91 34 76 44 74 56 91 84 23 76 37 37 59 41 58 43 97
split_gain=17.7677 17.6492 13.3378 17.097 15.4828 12.9682 11.1707 9.32642 9.71191 8.83559 8.75521 8.24008 7.92901 7.74532 7.20449 7.19919 5.20451 8.79213 4.5908 4.34544 4.1829 3.84267 3.06196 3.03871 4.32383 2.34026 2.19609 1.44488 1.07044 0.937274
threshold=55.696702957153327 0.64276748895645153 0.90494450926780712 0.47833374142646795 0.023349680937826637 22.85000038146973 0.061979686841368682 1.1351780891418459 -0.020362026058137413 1.3679196834564211 0.067536484450101866 -0.018219274468719956 1.5696470737457278 0.027620919048786167 0.31595209240913397 0.023549233563244346 119.7484474182129 0.41839694976806646 7.0048747062683114 0.023663729429244999 1.6364685297012331 0.0004987221327610315 0.063936531543731703 13.525000095367433 22.310000419616703 -0.014055022969841955 -0.00052354595391079773 0.0065304609015584001 -1.0667679905891416 -0.05028832703828811
decision_type=2 2 10 2 2 2 2 2 2 8 2 10 2 2 2 2 2 2 2 2 2 2 2 2 2 2 2 2 2 2
left_child=1 2 4 -4 6 21 12 8 11 -2 -7 26 18 15 19 -5 17 -11 -1 20 -10 25 -9 -18 27 -6 -3 -25 -21 -27
right_child=9 7 3 13 5 10 -8 22 14 16 -12 -13 -14 -15 -16 -17 23 -19 -20 28 -22 -23 -24 24 -26 29 -28 -29 -30 -31
leaf_value=0.011376093245877163 0.010756505063343042 0.01194121316668517 -0.024807933845537783 -9.2233126835334156e-05 0.039345451578901097 0.018859229038947944 -0.016423887144836901 -0.027968717806957363 -0.017153118794841625 0.018383805997630422 -0.011569053714854267 -0.0036442636449422355 0.022882855274987863 -0.011826063872696494 0.010023935985856941 0.031421759134041542 -0.001743663242937406 -0.015369491203480459 -0.01448744000764688 -0.013978364609880582 0.0053423119788572658 0.012140431432891988 -0.0084718598824795668 -0.013685078577224495 -0.0058726925299892449 0.030325502737308007 0.03204747213472494 -0.02636353272267997 -0.029773680767052859 0.015677534179008086
leaf_weight=10.910819411277773 16.124688655138016 11.562639951705934 20.343618780374527 11.566637814044954 26.608536928892136 18.238381773233414 19.531822890043259 15.688162922859194 12.765211701393129 11.18394508957863 14.364481270313261 19.363445222377777 21.522249341011047 10.663887381553648 15.040110945701597 13.947645872831343 11.487455457448958 15.158033549785612 11.858342021703718 10.578244864940645 15.423483818769453 11.763060361146925 15.008469313383101 15.195361852645872 18.958106219768524 11.809119969606401 10.876490592956541 36.496979713439941 10.988072216510771 12.104802817106245
leaf_count=30 45 32 58 32 72 50 55 45 36 31 40 54 59 30 42 38 32 43 33 30 43 32 42 43 53 32 30 104 31 33
internal_value=0.000223809 0.00366685 0.00901179 -0.00345794 0.0134465 0.0210681 0.00196496 -0.00471689 -0.000464238 -0.00946877 0.00550752 0.0106633 0.0102577 0.00889189 -0.0076961 0.0176706 -0.0125459 -0.000890699 -0.00213663 -0.0131445 -0.00508337 0.0289974 -0.0190042 -0.0162281 -0.018526 0.0326103 0.0226384 -0.0229671 -0.0229889 0.0238378
internal_weight=477.132 352.528 215.233 56.5218 158.712 94.8884 63.8232 137.294 106.598 124.605 32.6029 41.8026 44.2914 36.1782 64.7951 25.5143 108.48 26.342 22.7692 49.755 28.1887 62.2855 30.6966 82.1379 70.6504 50.5225 22.4391 51.6923 21.5663 23.9139
internal_count=1330 979 594 158 436 259 177 385 298 351 90 116 122 100 182 70 306 74 63 140 79 169 87 232 200 137 62 147 61 65
is_linear=0
shrinkage=0.03


Tree=14
num_leaves=31
num_cat=0
split_feature=54 56 26 62 55 95 67 67 34 96 38 78 52 52 34 64 48 75 39 55 43 91 36 36 38 53 37 34 16 68
split_gain=26.0138 36.9908 26.9163 21.3802 20.7369 18.7258 13.0288 12.6064 11.3511 11.3225 9.15139 8.25019 7.16885 5.8345 13.3407 5.11313 9.43642 4.82286 3.87938 3.82465 3.24139 2.03423 2.01094 2.12054 1.77763 6.85984 1.69915 1.65467 0.866883 0.307665
threshold=0.27078697062097495 12.541369915008547 -0.0039906357415020457 0.023627252317965034 -25.751519203186032 1.0000000180025095e-35 -0.00075827760156244029 -0.026303485967218872 -0.56350690126419056 0.12991645187139514 18.500000000000004 -0.22389640659093854 0.7886912226676942 1.0345224738121035 -0.36089721322059626 41.497409820556648 24.619791030883793 0.20893638581037524 122.42455291748048 -11.534248828887938 1.2656866908073428 0.021403889171779159 20.630000114440922 23.409999847412113 19.659999847412113 12.541369915008547 23.539999961853031 0.66300892829895031 0.011237374041229488 2.4284285306930546
decision_type=2 2 2 2 2 8 10 10 2 2 2 2 8 8 2 2 2 2 2 2 2 2 2 2 2 2 2 2 8 2
left_child=1 2 3 4 21 9 10 -5 -6 13 -4 -11 20 15 -15 16 -2 -8 24 22 -13 -1 29 -24 28 -26 -17 -3 -7 -9
right_child=5 27 6 7 8 18 17 19 -10 11 -12 12 -14 14 -16 26 -18 -19 -20 -21 -22 -23 23 -25 25 -27 -28 -29 -30 -31
leaf_value=-0.02258335219611644 0.018162832475055662 0.048664035570964138 0.022797055540561505 0.016287643992453221 0.004054625126098577 -0.026458454525855192 0.041215071118883076 -0.027006601910572744 0.041487104939956256 0.035072651419125828 -0.014514732409265726 0.0052586792251316274 0.022085386994732406 -0.017560343537981409 0.028715283987570929 -0.025200816424781568 -0.020362255197735837 0.013517925267510777 -0.0053472118592786059 -0.0029553311817566499 -0.017700676784155198 -0.003012333490993556 -0.004125726879578696 -0.022650170063528489 0.0063141976733001306 -0.025847970613690055 -0.0085965582153753398 0.027135000825012547 -0.013683755636987151 -0.01628277839880116
leaf_weight=9.2860246896743792 10.466154217720034 13.699021905660631 9.8551178872585314 10.236649096012114 12.651555538177492 41.472620517015457 20.029183328151706 31.826845079660416 17.004329979419708 9.7003384232521039 12.02441221475601 10.431783676147463 11.876349896192549 10.142240673303606 10.352548778057097 20.372654020786289 10.425898373126982 9.5660823881626111 18.22169503569603 13.071107447147368 9.9992035329341871 9.5941189825534803 12.62298369407654 9.7943030297756177 9.3211364746093768 14.116037696599959 9.4277162253856641 11.035078436136244 9.4111097753047925 9.1313150227069837
leaf_count=30 33 40 30 32 40 137 60 105 51 30 39 33 37 33 32 67 34 30 58 42 32 31 41 32 30 47 30 33 31 30
internal_value=-0.000608864 0.00676548 0.00210604 -0.0049382 0.0108627 -0.00818324 0.020352 -0.0138085 0.0261711 2.42674e-05 0.00255332 0.0122092 0.00449756 -0.00723563 0.00606333 -0.0126256 -0.00111452 0.032997 -0.0181153 -0.0179968 -0.00627956 -0.0132899 -0.021005 -0.0128408 -0.0211332 -0.0133219 -0.0203975 0.0404866 -0.024405 -0.0250609
internal_weight=417.166 211.428 186.694 135.219 48.536 205.737 51.4748 86.6832 29.6559 113.195 21.8795 42.0077 32.3073 71.1872 20.4948 50.6924 20.8921 29.5953 92.5426 76.4466 20.431 18.8801 63.3754 22.4173 74.3209 23.4372 29.8004 24.7341 50.8837 40.9582
internal_count=1330 666 593 434 152 664 159 282 91 361 69 132 102 229 65 164 67 90 303 250 65 61 208 73 245 77 97 73 168 135
is_linear=0
shrinkage=0.03


Tree=15
num_leaves=28
num_cat=0
split_feature=68 64 53 69 28 64 75 27 65 75 44 62 30 56 67 79 47 92 26 48 51 32 37 87 59 46 23
split_gain=35.6001 17.4914 21.0468 15.1233 16.9848 14.4991 11.9868 15.3311 10.6258 10.4026 10.1203 9.31291 8.58976 12.8074 13.47 7.01876 6.74371 7.33416 5.80404 5.58356 3.19479 2.11578 1.77381 1.7497 1.67964 0.446411 0.316152
threshold=0.57466429471969616 51.956430435180671 22.196431159973148 2.3842600584030156 34.500000000000007 40.958774566650398 0.087012495845556273 0.00064737178036011766 0.017502602189779285 0.32912240922451025 120.00584793090822 0.024604270234704021 22.310000419616703 -45.10609054565429 -0.00015873299707891417 -0.10582244023680686 123.14375305175783 46.945587158203132 -3.9456850572605611e-05 -12.167432785034178 -0.52035191655158985 0.083986416459083571 12.765000343322756 0.01189946895465255 0.019486613571643833 120.75984954833986 -0.10975517705082892
decision_type=2 2 2 2 2 2 2 2 2 2 2 2 2 2 10 2 2 2 2 2 10 2 2 2 2 2 2
left_child=6 2 12 4 9 18 -1 10 16 11 -8 -3 13 -2 15 21 20 -18 -4 -6 22 -15 -9 26 -25 -5 -24
right_child=1 3 5 25 19 -7 7 8 -10 -11 -12 -13 -14 14 -16 -17 17 -19 -20 -21 -22 -23 23 24 -26 -27 -28
leaf_value=0.01576316690307529 0.028001239255930638 0.030231917738408443 0.017167119735603364 0.029021525091920873 0.0083620878523122857 0.039522453112646141 0.032626897454481864 -0.0078012521532063294 0.0094898567109340977 0.041753011899645621 -0.0078021762475177737 -0.0025936301014954414 -0.024729338413753261 -0.025806666264506447 0.018100003324697408 0.0064113474698828726 -0.015457960590868224 0.015854950156847854 -0.014223871451959415 -0.020436878888248002 -0.0029763279537353138 -0.0081162649141210286 -0.015937650946903692 -0.021876130750369548 -0.0064906663967951757 0.047150146887230654 -0.026172604160058986
leaf_weight=15.131116330623625 9.8993371129035932 12.379452109336855 9.8249728083610552 10.549893677234651 9.346693694591524 16.850402534008026 10.089297890663149 9.3752801418304426 14.491008728742598 14.809518426656721 10.578454762697218 18.240820646286011 18.072081863880157 25.596498042345047 13.428326010704039 10.061268925666807 15.744872927665712 10.282323718070982 9.4013104736804944 14.196044892072676 9.5822751224040967 9.459725469350813 9.009254574775694 14.335589438676836 12.971797525882719 10.927707135677336 63.656396508216858
leaf_count=48 30 37 30 31 29 49 31 31 45 44 34 57 60 84 41 32 52 32 30 46 31 31 30 48 43 32 214
internal_value=6.94116e-05 0.00853081 0.00111448 0.0184606 0.0112993 0.0200498 -0.00915965 -0.0113288 -0.0144801 0.021854 0.0125289 0.0112138 -0.00692019 -0.00192952 -0.00737567 -0.0151861 -0.0169249 -0.00295853 0.00187314 -0.00912856 -0.0199312 -0.0213905 -0.0213765 -0.0225597 -0.0150551 0.0399326 -0.0251372
internal_weight=408.292 213.044 122.594 90.4501 68.9725 36.0767 195.248 180.117 159.449 45.4298 20.6678 30.6203 86.5172 68.4452 58.5458 45.1175 144.958 26.0272 19.2263 23.5427 118.931 35.0562 109.348 99.973 27.3074 21.4776 72.6657
internal_count=1302 663 387 276 213 109 639 591 526 138 65 94 278 218 188 147 481 84 60 75 397 115 366 335 91 63 244
is_linear=0
shrinkage=0.03


Tree=16
num_leaves=30
num_cat=0
split_feature=72 79 52 68 62 69 38 67 73 58 62 56 42 77 65 68 30 55 5 75 74 26 47 68 30 91 52 53 87
split_gain=20.8883 19.622 14.8567 17.9414 10.3448 10.4284 9.68088 10.5618 8.60767 7.89465 7.71656 7.65324 8.31253 7.11568 6.11069 5.5608 6.11088 4.95692 4.56657 4.30223 4.17516 4.04568 3.19819 2.99608 5.50562 2.48229 1.94044 1.80857 1.16612
threshold=0.6324543058872224 -0.073127377778291688 0.7886912226676942 0.47468571364879614 0.0235195541754365 0.35846999287605291 21.775000572204593 -0.0091482582502067072 0.64716386795043956 -0.02785428054630756 0.019261668436229232 22.196431159973148 -0.9134191870689391 -0.23037043213844297 0.011086795479059221 2.0900213718414311 20.375000000000004 6.0061194896698007 -0.012308029923588036 0.19287206232547763 2.6911807060241704 -0.001950024510733783 121.90570068359376 0.50851428508758556 20.630000114440922 0.022972995415329937 -0.78869125247001637 0.27078697062097495 0.013809640426188709
decision_type=2 2 8 2 2 2 2 8 2 2 2 2 2 2 2 2 2 2 8 2 2 2 2 2 2 2 8 2 2
left_child=1 2 4 25 10 -6 9 -8 22 13 -1 12 14 -2 -3 -11 20 -12 -15 -9 26 28 -5 24 -14 -4 -17 -25 -7
right_child=6 11 3 8 5 21 7 19 -10 15 17 -13 23 18 -16 16 -18 -19 -20 -21 -22 -23 -24 27 -26 -27 -28 -29 -30
leaf_value=0.022708507647566132 0.014985537576255863 -0.0087780613195453626 -0.027566143033085487 0.01181616971825908 -0.002837937713680154 0.036943456690295133 0.024143677725173424 -0.01807442874801975 -0.0049392438140165073 -0.029087726620230885 -0.018820120667509922 0.010590835518470156 0.0056076115267654639 0.0040633499675674697 0.018909752083348594 -0.011947937990118665 0.0076776768884229728 0.0080021615068282155 -0.018281850360708556 0.0033831218474715103 -0.0024968614770913642 0.015457461169974261 0.033291178039008704 -0.028357557130691134 -0.021000789819174515 -0.0084766377957519023 -0.027737121580809085 -0.01288740225020539 0.021433282511805447
leaf_weight=12.084752857685087 13.986479490995405 14.190779179334642 13.61888498067856 15.745334625244142 10.816874504089354 33.778013408184052 14.301338672637938 13.783553153276442 16.885866224765778 25.954777181148529 11.799327999353411 21.107403725385666 13.668988615274431 12.843904197216032 12.685302615165709 13.794581681489943 10.773661613464354 11.208558976650236 20.479334503412247 18.909000396728516 13.898631036281584 18.025941967964172 11.757095903158186 16.758132517337799 12.666663080453871 12.746920496225355 21.347333043813705 15.9196180999279 11.091294467449186
leaf_count=33 39 40 39 43 30 91 39 39 47 75 33 58 38 36 35 39 30 31 58 53 39 49 32 48 36 36 61 45 30
internal_value=-0.000135491 0.00489082 0.0109282 0.000204976 0.017836 0.0241532 -0.00811687 0.00353338 0.01177 -0.0122266 0.00426528 -0.00524834 -0.00921791 -0.00231525 0.00449992 -0.0176039 -0.0122245 -0.00596429 -0.0098018 -0.00593157 -0.0166628 0.0287669 0.0218425 -0.0154362 -0.00749032 -0.0189841 -0.0220413 -0.0214274 0.0336603
internal_weight=466.628 286.556 179.559 70.7541 108.805 73.7121 180.073 46.9939 44.3883 133.079 35.0926 106.997 85.8895 47.3097 26.8761 85.769 59.8142 23.0079 33.3232 32.6926 49.0405 62.8952 27.5024 59.0134 26.3357 26.3658 35.1419 32.6778 44.8693
internal_count=1302 794 494 197 297 200 508 131 122 377 97 300 242 133 75 244 169 64 94 92 139 170 75 167 74 75 100 93 121
is_linear=0
shrinkage=0.03


Tree=17
num_leaves=29
num_cat=0
split_feature=26 48 76 93 46 59 50 67 97 64 30 46 70 95 66 55 37 55 7 47 67 87 92 59 92 84 33 22
split_gain=23.8571 24.4968 13.8438 18.0707 20.6308 14.0271 15.2992 12.9552 18.7765 12.3352 9.98841 9.91954 9.28492 8.8432 8.70184 7.98897 7.70031 7.04488 7.00637 11.1975 4.91537 2.97296 2.69605 2.57278 1.949 0.938117 0.760726 0.393883
threshold=-0.0025110926944762464 12.541369915008547 0.024762829765677456 -303.85601806640619 123.10824966430665 -0.14861538261175153 0.95200389623641979 0.00019209690071875232 -0.081697601824998842 73.663997650146499 20.590000152587894 121.21214675903322 0.48163300752639776 1.0000000180025095e-35 0.011667808983474972 -2.7309087514877315 26.935000419616703 7.0048747062683114 0.96128869056701671 123.5993003845215 -0.024686127901077267 -0.031398467719554894 53.928894042968757 0.094201568514108672 61.29028511047364 1.3136994242668154 -0.8438943326473235 0.0012079545413143935
decision_type=2 2 2 2 2 2 2 10 2 2 2 2 10 8 10 2 2 2 10 2 10 2 2 2 2 2 2 2
left_child=2 7 3 17 11 -4 9 8 -2 10 20 12 -5 16 18 26 -3 -1 -12 -20 -7 -22 -10 25 -13 -23 -9 -27
right_child=1 13 5 4 -6 6 -8 15 22 -11 14 24 -14 -15 -16 -17 -18 -19 19 -21 21 23 -24 -25 -26 27 -28 -29
leaf_value=0.041826562089342156 0.034094226921130816 0.015790106411941063 0.022338379337001522 -0.012469005707942104 0.029352197824852287 7.5832824216604501e-05 0.022744791564639592 0.02967711304047194 -0.020071624431944827 0.017422898259911893 -0.012524378138323418 -0.025519775891100722 0.024915728259685094 -0.025467866988611532 -0.022366535685749242 0.01116933374240218 -0.013769667520802154 0.0074064660683213863 0.033609431818938836 -0.0085748696255747003 -0.0045170015667781848 -0.013095460853919339 0.00060195078361901437 -0.0084458347404345133 -0.00818177998062696 -0.026813482921801239 0.048773086349000065 -0.016095709072665051
leaf_weight=12.704570591449739 14.492170214653013 17.106175571680073 11.229511320590971 12.2685743868351 13.502472162246702 10.41989693045616 10.550204038619993 10.019057661294939 9.4000923037529009 10.430079728364943 12.091847062110899 23.627134621143341 9.931584030389784 13.54582643508911 13.914230912923811 10.885021239519117 13.143878579139708 9.6214917004108411 11.785566866397859 9.5718075633048993 9.1330828666686994 9.0561040043830854 12.377911657094954 11.233799666166304 9.2978635728359205 70.82471376657486 16.350366830825806 9.0492847859859449
leaf_count=38 44 54 35 40 40 33 33 30 30 32 39 78 30 46 45 34 42 30 36 31 30 30 40 37 30 237 48 30
internal_value=8.55435e-05 0.011445 -0.00452965 0.00513031 -0.00258708 -0.00894195 -0.010918 0.0219188 0.00878718 -0.013035 -0.0150287 -0.0107939 0.00460869 -0.00623515 -0.00327692 0.0341396 0.00291654 0.0279465 0.00508274 0.0151656 -0.0196123 -0.021473 -0.00881086 -0.0229591 -0.0210091 -0.0246782 0.042867 -0.0258133
internal_weight=407.564 117.321 290.244 90.9537 68.6276 199.29 188.061 73.5246 36.2702 177.51 167.08 55.1252 22.2002 43.7959 47.3635 37.2544 30.2501 22.3261 33.4492 21.3574 119.717 109.297 21.778 100.164 32.925 88.9301 26.3694 79.874
internal_count=1302 368 934 286 218 648 613 226 114 580 548 178 70 142 151 112 96 68 106 67 397 364 70 334 108 297 78 267
is_linear=0
shrinkage=0.03


Tree=18
num_leaves=26
num_cat=0
split_feature=71 60 47 37 71 69 70 79 67 26 48 70 72 58 91 47 29 88 67 96 69 77 44 61 33
split_gain=34.8061 15.7628 21.8986 29.9906 17.8112 22.3446 16.1985 11.8217 25.9703 12.7975 9.99602 8.34467 8.16253 6.96042 6.88049 5.47366 5.07083 3.82418 3.43179 2.05836 3.75001 1.29654 1.26153 0.891421 0.63173
threshold=0.57814946770668041 -0.13175527006387708 120.22454833984376 25.57499980926514 2.3428587913513188 0.62190499901771557 2.9431890249252324 -0.059744624421000474 0.00011735175576177427 -0.0001869345942395739 -17.764347076416012 2.2729910612106328 0.73265314102172863 -0.02360649965703487 0.017247272655367855 122.92789840698244 6.5000000000000009 0.044662563130259521 -0.011214757803827522 -0.22383899986743924 2.1374050378799443 -0.19293510168790814 124.1103973388672 0.014811727218329908 -0.5677824318408965
decision_type=2 2 2 2 2 2 10 2 10 2 2 10 2 2 2 2 2 2 8 2 2 2 2 2 2
left_child=7 12 3 18 5 16 13 9 -9 14 -10 19 -2 -6 -1 -12 -4 22 -3 20 -7 -20 23 -16 -15
right_child=1 2 4 -5 6 11 -8 8 10 -11 15 -13 -14 24 17 -17 -18 -19 21 -21 -22 -23 -24 -25 -26
leaf_value=6.5431172365084883e-05 0.009459457116891128 0.019644746720805305 0.0041248632059684587 -0.017786356758220889 0.010154234325219925 -0.0039345159021681756 -0.012214630954665698 0.038594647096658989 0.010882428360975591 0.009278390253452928 -0.025102852899194551 0.007823640855723131 -0.023465954575591155 0.048540857492146039 -0.013501856087258362 1.6145490376700616e-05 0.031493628242093022 -0.0066445488877110853 0.029295239362824365 -0.026380806842968632 -0.025531384824254339 0.048434004634675343 -0.01137635230001087 -0.026033199966814101 0.029421583153594239
leaf_weight=16.899560809135437 9.7553082406520861 9.8789536058902723 10.624801725149156 10.004883199930189 11.08215221762657 18.371122896671299 9.776859521865843 12.575148969888685 16.360560327768326 17.774005621671677 23.118645340204239 13.493508845567701 18.301901608705521 10.304009377956389 9.3493092358112317 11.54289874434471 14.446475297212599 15.926331102848051 11.384741455316538 18.133528828620911 11.439830601215361 22.359738409519199 9.8853433430194837 63.654694080352783 11.043591588735582
leaf_count=55 30 30 33 32 34 59 31 38 52 56 78 42 60 30 31 37 43 53 33 60 38 65 33 216 33
internal_value=6.8767e-05 0.00853506 0.0117567 0.0276816 0.0049595 -0.00286566 0.0206935 -0.00896696 0.00166584 -0.0140074 -0.00800274 -0.0125755 -0.0120864 0.0306832 -0.017633 -0.0169719 0.0204983 -0.0206301 0.0382744 -0.0183592 -0.0127819 0.043006 -0.023206 -0.0246325 0.0404092
internal_weight=407.488 210.401 182.344 53.6283 128.716 86.5093 42.2066 197.086 63.5973 133.489 51.0221 61.438 28.0572 32.4298 115.715 34.6615 25.0713 98.8157 43.6234 47.9445 29.811 33.7445 82.8893 73.004 21.3476
internal_count=1302 653 563 160 403 275 128 649 205 444 167 199 90 97 388 115 76 333 128 157 97 98 280 247 63
is_linear=0
shrinkage=0.03


Tree=19
num_leaves=31
num_cat=0
split_feature=72 79 52 68 52 51 38 67 73 83 74 91 78 61 34 87 87 9 43 24 84 27 39 10 47 93 91 91 27 87
split_gain=19.7669 18.619 14.0127 17.1047 9.74763 11.7032 9.21486 9.96578 8.18403 7.64459 7.6415 7.21216 7.91623 6.92003 6.55724 5.79048 5.5448 5.12666 5.03859 5.33093 4.8487 4.77545 3.62058 3.19077 3.01146 2.99382 2.41622 2.38512 1.93393 1.37944
threshold=0.6324543058872224 -0.073127377778291688 0.7886912226676942 0.47468571364879614 -0.96770718693733204 -0.52035191655158985 21.775000572204593 -0.0091482582502067072 0.64716386795043956 332748672.00000006 0.6027275323867799 0.026812439784407619 1.0719426274299624 0.025369413197040561 -0.75166884064674366 0.01044986490160227 -0.020207475870847699 1.5000000000000002 0.15103598684072497 -0.024725138209760186 1.7169358134269717 0.043378166854381568 122.98590087890626 -0.012284032534807919 121.90570068359376 135.59901428222659 0.022972995415329937 0.021185948513448242 0.033595314249396331 0.005535535281524063
decision_type=2 2 8 2 10 8 2 8 2 2 2 2 2 2 2 2 2 8 2 2 2 2 2 10 2 2 2 2 2 2
left_child=1 2 4 26 5 -1 10 -8 24 -7 -2 17 13 -13 28 16 -6 27 21 -20 -9 22 -16 -21 -5 -19 -4 -3 -12 -27
right_child=6 11 3 8 15 9 7 20 -10 -11 14 12 -14 -15 18 -17 -18 25 19 23 -22 -23 -24 -25 -26 29 -28 -29 -30 -31
leaf_value=0.025232741057620234 -0.028347042231023398 -0.0084256954228183502 -0.027142427521943974 0.011512780773425739 0.010607696481915814 -0.020983515907279048 0.023401654649005468 -0.01383392181869251 -0.0048631444426875271 0.011219373987676437 -0.010278988926387114 -0.0057169529348742873 -0.01634823276349081 0.023847777087265189 0.022260163413852993 0.00913392505879718 0.035000692154931602 -0.0028595489436438054 0.0061351947817006001 -0.026471389788092371 0.0098361320147200022 -0.0077994027259615057 -0.0011242937492593088 -0.0067316145358036223 0.032321832379059515 -0.014475292081779122 -0.0082649476036010267 0.010449552813344636 -0.027682228257921954 -0.028203358414880499
leaf_weight=15.414948284626005 20.650146245956421 11.397235035896303 13.487690985202791 15.77365228533745 12.124577879905699 14.245402187108995 14.365082710981367 21.596107363700867 16.861878573894501 10.895094305276869 11.298600196838381 10.830458879470827 10.506097972393034 18.142242163419724 12.35831478238106 18.438356578350067 37.885047435760498 11.062623441219328 10.653695702552794 16.699976503849033 11.021161049604414 19.782237827777863 10.591941356658934 14.166104853153227 11.819732904434202 19.342050284147263 12.700204610824583 10.72843351960182 16.211779683828354 14.737111210823057
leaf_count=42 60 32 39 43 33 40 39 61 47 30 32 30 30 50 34 50 102 31 30 48 31 56 30 40 32 55 36 30 47 42
internal_value=-0.000133988 0.00475215 0.0106266 0.000197383 0.0173224 0.00548057 -0.0079175 0.00344329 0.0114531 -0.00713248 -0.0119441 -0.00514103 0.00495967 0.012974 -0.00868886 0.0241587 0.0294106 -0.0110549 -0.00442101 -0.011739 -0.00578129 0.0027951 0.0118715 -0.0179073 0.0212451 -0.0167482 -0.0186282 0.000782747 -0.0211459 -0.0210466
internal_weight=465.788 286.393 179.647 70.6432 109.003 40.5554 179.395 46.9824 44.4553 25.1405 132.413 106.746 39.4788 28.9727 111.763 68.448 50.0096 67.2675 84.2523 41.5198 32.6173 42.7325 22.9503 30.8661 27.5934 45.1418 26.1879 22.1257 27.5104 34.0792
internal_count=1302 794 494 197 297 112 508 131 122 70 377 300 110 80 317 185 135 190 238 118 92 120 64 88 75 128 75 62 79 97
is_linear=0
shrinkage=0.03


Tree=20
num_leaves=29
num_cat=0
split_feature=46 56 63 37 27 66 64 27 64 93 67 97 63 28 55 61 64 48 54 27 87 52 97 80 87 97 35 81
split_gain=22.6464 22.1115 18.5279 20.386 19.9588 16.0945 13.6666 13.6371 13.943 12.7564 8.02676 8.96939 6.94489 6.82735 6.09686 5.78852 7.38134 5.3255 10.2512 4.57144 4.35043 3.7599 3.05832 2.19072 1.80733 1.15366 0.90527 0.816848
threshold=123.28400039672853 12.541369915008547 0.027463783510029319 24.835000038146976 0.11859688907861711 -0.013101931661367415 33.561353683471687 0.0086643737740814703 39.111139297485359 1194.1130981445315 -0.00056848253007046867 -0.065557371824979768 0.028182432986795906 30.500000000000004 55.260124206542976 0.040342217311263091 42.529403686523445 -16.145400524139401 1.0000000180025095e-35 0.046486800536513335 -0.0011912063928321002 -1.269501209259033 -0.084060654044151292 -0.039619289338588708 0.010042373090982439 -0.033008174970746033 13.194999694824221 0.020130879245698455
decision_type=2 2 2 2 2 8 2 2 2 2 10 2 2 2 2 2 2 2 2 2 2 10 2 2 2 2 2 2
left_child=2 7 4 6 9 14 -4 22 -9 10 11 -1 -10 23 -5 16 -15 -6 -19 -18 -12 -14 -2 -8 -23 -17 -25 -28
right_child=1 -3 3 5 17 -7 13 8 12 -11 20 -13 21 15 -16 25 19 18 -20 -21 -22 24 -24 26 -26 -27 27 -29
leaf_value=0.028031821328205701 0.03501388047597212 0.041259063493669368 0.014568983539725402 -0.021305844032890736 -0.025591120456516812 0.029805832939214207 -0.0068959016540609611 0.028362328700510423 0.012859468228275878 -0.0097761645371744598 0.015252561006580848 -0.0077980921759980958 -0.00024841180432641681 0.018962890072078922 0.0092643498850182061 -0.025774249558170485 0.0052868830388434675 0.020140795494701071 -0.018106429401614686 -0.021203133818505769 0.040252118932829435 -0.024955530984415605 0.011560868685967715 -0.012083097272264797 -0.0077297088774835702 -0.010117178614422493 -0.02600519300219295 -0.01369525954905542
leaf_weight=10.326131194829943 11.927033334970476 18.248492032289505 12.848774194717405 11.978413045406343 13.625305235385893 18.003824412822723 8.9859108924865705 10.302875429391859 10.206686019897459 13.685178995132445 11.594489008188249 13.399354994297026 12.738289743661875 10.857213884592054 9.9245140552520734 12.678524345159532 9.6271199882030505 9.6970392465591448 14.392217963933943 12.791982203721998 19.690886557102203 19.03054943680764 10.523180842399595 8.7338010370731336 9.2011888325214368 9.0566605627536756 63.53185448050499 9.2017268836498243
leaf_count=31 36 52 41 39 46 54 30 31 31 45 35 43 41 34 31 42 31 29 48 43 58 63 32 30 30 30 216 30
internal_value=8.44843e-05 0.0122368 -0.00401829 -0.00942261 0.0060428 0.00956119 -0.0142379 0.00551507 -0.00187982 0.0155904 0.0219628 0.00829931 -0.00839505 -0.0168645 -0.00765437 -0.00831437 -0.000332645 -0.0113014 -0.00252105 -0.0100879 0.0317466 -0.0138703 0.0249824 -0.0219167 -0.0197978 -0.0199822 -0.0234698 -0.0246547
internal_weight=406.809 102.178 304.631 198.22 106.411 39.9068 158.314 83.9298 61.4796 68.696 55.0109 23.7255 51.1767 145.465 21.9029 55.0115 33.2763 37.7146 24.0893 22.4191 31.2854 40.97 22.4502 90.4533 28.2317 21.7352 81.4674 72.7336
internal_count=1302 316 986 651 335 124 527 264 196 212 167 74 165 486 70 180 108 123 77 74 93 134 68 306 93 72 276 246
is_linear=0
shrinkage=0.03


Tree=21
num_leaves=29
num_cat=0
split_feature=71 64 53 43 64 75 27 64 27 93 69 28 44 28 27 30 56 56 30 48 47 74 33 76 61 61 42 81
split_gain=32.9343 17.1626 19.4168 14.162 12.8738 11.2064 13.0932 10.3575 10.6786 10.591 9.52792 15.0603 8.83078 8.30301 9.39516 8.11649 10.8172 12.4862 5.33411 4.99146 2.7626 2.46788 2.01118 1.54708 1.94855 1.40686 0.140669 0.139006
threshold=0.57814946770668041 51.956430435180671 22.196431159973148 1.3127632141113283 40.958774566650398 0.087012495845556273 0.00064737178036011766 46.953105926513679 0.16945461183786395 855.22503662109386 2.3309825658798222 35.500000000000007 120.00584793090822 14.500000000000002 0.11433143168687822 22.310000419616703 -45.10609054565429 10.519655704498293 21.460000038146976 9.2868566513061541 120.63254928588869 2.0923537015914921 0.026205522939562801 0.032641483470797546 0.016813905909657482 0.013840412721037866 -0.9134191870689391 0.014747041743248703
decision_type=2 2 2 2 2 2 2 2 2 2 2 2 2 2 2 2 2 2 2 2 2 2 2 2 2 2 2 2
left_child=5 2 15 10 18 -1 12 23 19 -10 11 13 -7 14 -3 16 -2 20 -4 22 -18 -22 27 24 25 -8 -12 -9
right_child=1 3 4 -5 -6 6 7 8 9 -11 26 -13 -14 -15 -16 -17 17 -19 -20 -21 21 -23 -24 -25 -26 -27 -28 -29
leaf_value=0.015252101130928571 0.024762468393297841 0.030906676136590077 -0.012678290808437657 -0.0097471853524624293 0.037072344406056855 0.0302652799725565 -0.021612924865987315 -0.026118395708203773 0.025301204514817949 -0.013842833697425786 0.045993367988887229 -0.009547233860295044 -0.0076534554553247458 0.041541642396044715 -0.0078890360966772134 -0.024345924688547422 -0.00092372392484757471 0.015865035335186586 0.016936490905551761 0.00063608579405243166 -0.026091337920020642 -0.0088597815692694291 -0.0080811901840670084 -0.01068474932223149 -0.026518536818932802 -0.0046788694836082832 0.030003379705715476 -0.016101165091373135
leaf_weight=15.223846346139906 10.420037060976027 10.609089761972429 10.069057047367098 13.166775286197661 17.234972029924393 9.9359750151634234 8.8581317067146319 17.834084391593937 14.956615358591081 9.3747000396251661 10.918617188930513 14.693744391202925 10.529897421598433 15.877880066633223 10.255765020847319 17.674780160188675 9.5941279232501966 14.841573387384413 9.8470207750797254 16.587440371513367 19.213091611862183 14.24338325858116 12.582745254039763 13.059529453516005 48.506441712379456 9.2807489931583387 12.162221878767012 9.0157315135002118
leaf_count=48 31 31 32 42 49 30 30 60 47 31 31 47 34 46 32 60 30 46 30 54 65 46 42 44 168 31 35 30
internal_value=6.68216e-05 0.00827547 0.00102001 0.0183382 0.0188563 -0.00877118 -0.01087 -0.0137584 -0.00604357 0.0102682 0.0233641 0.0156628 0.011308 0.0257304 0.0123486 -0.00681441 -0.00199258 -0.00714694 0.0020737 -0.0131841 -0.0152603 -0.0192254 -0.0188696 -0.0213646 -0.0232685 -0.0136458 0.0391634 -0.0234537
internal_weight=406.568 210.822 123.138 87.6841 37.151 195.746 180.522 160.056 80.3513 24.3313 74.5173 51.4365 20.4659 36.7427 20.8649 85.987 68.3122 57.8922 19.9161 56.02 43.0506 33.4565 39.4326 79.7049 66.6453 18.1389 23.0808 26.8498
internal_count=1302 653 389 264 111 649 601 537 264 78 222 156 64 109 63 278 218 187 62 186 141 111 132 273 229 61 66 90
is_linear=0
shrinkage=0.03


Tree=22
num_leaves=31
num_cat=0
split_feature=72 79 52 68 62 38 67 35 73 58 32 34 78 77 85 68 35 84 5 45 5 23 62 35 27 47 34 74 75 5
split_gain=18.6449 17.5028 13.2897 16.3334 9.27906 8.87758 9.43158 8.63167 7.7602 7.52309 7.15326 6.94461 6.96473 6.68957 5.4586 5.3166 6.80125 4.65687 4.63043 4.47631 4.42303 3.47552 3.41237 3.28534 3.03771 2.86654 2.43688 1.72376 1.39749 0.795506
threshold=0.6324543058872224 -0.073127377778291688 0.7886912226676942 0.47468571364879614 0.0235195541754365 21.775000572204593 -0.0091482582502067072 22.785000801086429 0.64716386795043956 -0.02785428054630756 0.044422650709748275 -0.87373018264770497 1.0000000180025095e-35 -0.23037043213844297 -0.0055852809455245725 2.0900213718414311 20.375000000000004 1.7169358134269717 0.00068096842733211826 121.54950332641603 -0.012308029923588036 0.0004432224232004956 0.019620609469711784 15.295000076293947 0.089335165917873396 121.90570068359376 -0.40505887567996973 0.3764661848545075 0.10146573185920717 -0.027763124555349347
decision_type=2 2 8 2 2 2 8 2 2 2 2 2 2 2 2 2 2 2 10 2 8 2 2 2 2 2 2 2 2 10
left_child=1 2 4 27 10 9 -7 21 25 13 22 12 -3 -2 24 -11 23 29 28 -9 -15 -6 -1 -17 -13 -5 -25 -4 -16 -8
right_child=5 11 3 8 7 6 17 19 -10 15 -12 14 -14 20 18 16 -18 -19 -20 -21 -22 -23 -24 26 -26 -27 -28 -29 -30 -31
leaf_value=0.024463706105350865 0.014740157220017669 0.017043997191250382 -0.0088216655576146517 0.011131364244574568 0.034275990351914545 0.022809486622510488 -0.006852310047466466 0.019978581111285611 -0.0048049442698534289 -0.028323501742099393 -0.014074112717889664 -0.0088937500736427939 -0.0086225516162252974 0.0043248335330076347 -0.010351114075995838 -0.002873951699672383 0.0088092214209884358 0.0097117451933709381 0.0015271391176810564 -0.0048795000247285553 -0.017717494518251276 0.013730836077676362 0.0016950118277788446 -0.029433063486430933 0.012777336617511174 0.031387897302330277 -0.012730505449361442 -0.025235030607163769 -0.02445741127302942 -0.01916834609236338
leaf_weight=11.456566482782366 14.004946351051329 19.995310574769974 11.892281323671343 15.803361982107164 38.0907002389431 14.410227686166762 10.912454992532728 12.139025747776033 16.841763377189636 25.426779359579086 12.033943891525267 10.576592952013018 16.551533073186874 12.79416650533676 11.060285478830336 12.312107324600218 11.138111114501951 11.032507956027983 10.566445410251616 12.316016733646391 20.262365639209747 11.520795375108717 11.601644217967985 16.546301692724224 10.746548801660536 11.869548857212065 19.273690879344944 14.13868474960327 26.94978329539299 10.570848792791368
leaf_count=31 39 55 34 43 102 39 31 33 47 75 34 30 47 36 31 35 31 31 30 34 58 31 32 48 30 32 55 41 77 30
internal_value=-0.000130853 0.00461207 0.0103012 0.000132883 0.0168118 -0.00770971 0.00344143 0.0227707 0.0111011 -0.0116772 0.00395245 -0.00499893 0.00549993 -0.00199501 -0.0104884 -0.016971 -0.0117117 -0.00556648 -0.0159502 0.0077597 -0.00930977 0.0298706 0.0135544 -0.016543 0.00211127 0.0206115 -0.0210357 -0.0183403 -0.0207233 -0.0134954
internal_weight=464.835 286.151 179.704 70.5456 109.159 178.685 46.926 74.0665 44.5147 131.758 35.0922 106.446 36.5468 47.0615 69.8997 84.697 59.2702 32.5158 48.5765 24.455 33.0565 49.6115 23.0582 48.1321 21.3231 27.6729 35.82 26.031 38.0101 21.4833
internal_count=1302 794 494 197 297 508 131 200 122 377 97 300 102 133 198 244 169 92 138 67 94 133 63 138 60 75 103 75 108 61
is_linear=0
shrinkage=0.03


Tree=23
num_leaves=26
num_cat=0
split_feature=54 27 63 95 56 89 48 52 34 56 64 28 63 67 72 90 87 74 69 46 5 47 91 63 87
split_gain=21.8224 28.2119 22.3143 22.0699 13.6071 12.4017 12.2863 9.82062 10.8252 9.4003 9.7618 17.0985 8.83878 9.57354 11.1243 6.58257 5.43142 5.20159 5.09857 4.39137 3.05652 3.02245 3.1664 2.69212 0.405606
threshold=0.27078697062097495 0.11752477660775186 0.025085248053073887 1.0000000180025095e-35 12.541369915008547 -0.033212780952453606 -14.420029163360594 0.7886912226676942 -0.51020425558090199 47.350072860717781 42.529403686523445 30.500000000000004 0.073580253869295134 -0.00066699838498607267 2.2533121109008794 0.019069673493504528 0.0026270318776369099 2.0229946374893193 0.48080749809741979 123.37094879150392 -0.0063579827547073356 123.37094879150392 0.038943165913224227 0.024265630170702938 -0.017440932802855965
decision_type=2 2 2 8 2 2 2 10 2 2 2 2 2 10 2 2 2 2 2 2 10 2 2 2 2
left_child=1 2 16 7 5 -4 23 9 -9 10 11 18 13 17 15 -15 -1 -7 -2 21 -10 22 24 -3 -5
right_child=3 6 4 19 -6 12 -8 8 20 -11 -12 -13 -14 14 -16 -17 -18 -19 -20 -21 -22 -23 -24 -25 -26
leaf_value=0.019213432108287288 0.0031162999320473016 -0.005221691157220259 0.024103955893387104 -0.015301424623358028 0.03408152529594078 -0.021066354306321179 0.01265858012839551 -0.0065648245886326872 0.014959670248605544 0.015234248941389406 -0.024858098083683108 0.026976824366196216 -0.022370908029045344 0.036291631925585176 -0.011551280783363064 0.0065287655074887218 0.04398461408834977 0.003910510851185137 -0.024206047752012377 0.0011046682207124291 0.03946874986891951 -0.0047496444673398941 -0.0055184238278521988 -0.024345341401000788 -0.026163999175126226
leaf_weight=17.11222517490387 9.3578147292137164 9.2342703044414503 19.029222935438156 8.7792271971702487 13.439838647842405 16.28858453035355 13.064514160156248 12.514956474304197 11.183897048234938 17.019195944070816 22.030318856239319 12.76375576853752 14.841295838356016 13.783065885305406 11.758947610855101 13.186465889215468 20.052596867084503 12.784059882164 15.82884633541107 9.7316140532493574 10.126380026340486 10.721568137407301 9.4543153047561628 30.150330483913422 51.677180528640754
leaf_count=51 30 30 58 30 38 54 40 40 35 52 75 39 49 41 39 41 58 41 53 30 30 36 31 104 177
internal_value=8.28711e-05 0.00696164 0.0134786 -0.00691661 0.00682074 0.00292032 -0.0118574 0.00206508 0.015296 -0.00386873 -0.00945002 -9.70305e-05 -0.00218728 0.00249174 0.0121258 0.0224931 0.0333812 -0.0103185 -0.0143234 -0.0178341 0.0278531 -0.0201054 -0.0223601 -0.0201019 -0.0248612
internal_weight=405.914 204.725 152.276 201.189 115.111 101.672 52.4491 110.825 33.8252 76.9999 59.9807 37.9504 82.6424 67.8011 38.7285 26.9695 37.1648 29.0726 25.1867 90.3639 21.3103 80.6323 69.9107 39.3846 60.4564
internal_count=1302 644 470 658 361 323 174 354 105 249 197 122 265 216 121 82 109 95 83 304 65 274 238 134 207
is_linear=0
shrinkage=0.03


Tree=24
num_leaves=27
num_cat=0
split_feature=71 64 53 43 26 39 52 65 59 90 70 28 30 67 47 90 27 47 73 32 36 37 73 41 61 47
split_gain=31.2122 16.2068 18.3796 13.3501 12.5252 11.9716 10.8824 16.4038 10.8797 9.51929 8.92058 12.2834 7.86376 10.4125 9.38784 6.25071 6.12787 7.36359 13.5065 5.67928 3.81403 2.81339 0.914757 0.907342 0.6485 0.867252
threshold=0.57814946770668041 51.956430435180671 22.196431159973148 1.3127632141113283 -0.035802356898784631 119.83569717407228 1.4708693623542788 0.017502602189779285 -0.042300008237361901 0.016901271417737011 2.3384749889373784 40.500000000000007 22.310000419616703 -0.00015873299707891417 120.06429672241212 0.027943784371018413 0.00061619639745913457 123.14375305175783 0.41702499985694891 0.093893349170684828 18.035000801086429 12.925000190734865 0.62299075722694408 0.0002770287537714467 0.012952841352671387 119.36740112304689
decision_type=2 2 2 2 2 2 8 2 2 2 10 2 2 10 2 2 2 2 2 2 2 2 2 2 2 2
left_child=6 2 12 10 -4 -6 7 16 -8 -10 11 15 13 14 -2 20 -1 21 -19 23 -3 -18 24 -16 -23 -26
right_child=1 3 4 -5 5 -7 8 -9 9 -11 -12 -13 -14 -15 19 -17 17 18 -20 -21 -22 22 -24 -25 25 -27
leaf_value=0.0030334241884167113 0.01605332456540208 0.03865355090870836 0.042563450114273947 -0.0095784210191605778 -0.010821309245826888 0.029401135734026328 -0.02171797051103419 0.020053217840887913 -0.0090613504174170186 0.026382303330565689 0.039367411127913178 -0.0075287020775159684 -0.024098863946157765 0.017680207576437595 -0.02600620906331896 0.0031978836686422014 -0.0039641940483726504 0.024250595325905087 -0.019858940359057994 0.0043353159425998334 0.014580387563038767 -0.012875775051305808 -0.011557362341242858 -0.013575037521970175 -0.014986534818889289 -0.025642092797124035
leaf_weight=15.037650793790815 10.101270854473112 19.459874868392948 11.75904521346092 13.102408498525618 15.283968925476076 10.327539891004561 8.8930080533027631 12.309024035930632 9.6611639857292193 19.254636824131012 20.258200436830521 14.452307194471357 17.422269314527512 17.071951448917389 17.717961907386783 10.014047384262083 9.1223917007446271 9.5883499383926409 14.250499457120894 9.9183928966522199 10.857274204492567 9.124192923307417 10.256288439035414 13.340760737657545 13.560059100389479 63.402103453874588
leaf_count=48 31 56 33 42 48 30 30 38 31 59 57 46 60 51 60 31 31 30 48 32 32 31 35 44 47 221
internal_value=6.42795e-05 0.00803425 0.000964516 0.0177737 0.0182405 0.00589327 -0.00858404 -0.0120566 0.00574363 0.0146331 0.0226125 0.0158222 -0.00670365 -0.00197247 -0.00875435 0.0241694 -0.014914 -0.0170085 -0.00185536 -0.0151064 0.0307733 -0.020384 -0.0218821 -0.0212566 -0.0229653 -0.023981
internal_weight=405.547 211.087 122.943 88.1441 37.3706 25.6115 194.459 156.651 37.8088 28.9158 75.0417 54.7835 85.5726 68.1503 51.0784 40.3312 144.342 129.304 23.8388 40.9771 30.3171 105.465 96.3426 31.0587 86.0864 76.9622
internal_count=1302 653 389 264 111 78 649 529 120 90 222 165 278 218 167 119 491 443 78 136 88 365 334 104 299 268
is_linear=0
shrinkage=0.03


Tree=25
num_leaves=31
num_cat=0
split_feature=72 79 26 63 91 38 67 68 73 36 74 91 82 97 34 62 83 92 93 43 24 27 84 73 39 67 10 27 96 89
split_gain=17.5557 16.427 8.89696 11.2146 9.00429 8.49547 9.00103 7.94705 7.65947 11.4744 7.26473 6.73556 7.24556 6.30877 6.23069 6.21189 6.17611 4.89527 5.22682 4.78265 5.17603 4.55279 4.501 3.54732 3.38624 3.19426 3.13961 1.87491 1.64965 1.5369
threshold=0.6324543058872224 -0.073127377778291688 -0.0025110926944762464 0.028375560417771343 0.036582926288247115 21.775000572204593 -0.0091482582502067072 0.39416427910327917 0.51490357518196117 13.835000038146974 0.6027275323867799 0.026812439784407619 0.085069265216588988 -0.26980388164520258 -0.75166884064674366 0.03225319832563401 182073152.00000003 78.843246459960952 121.05717849731447 0.15103598684072497 -0.024725138209760186 0.043378166854381568 1.7169358134269717 0.54554820060729992 122.98590087890626 -4.5468132157111534e-05 -0.012284032534807919 0.033595314249396331 0.030402125790715221 0.01435000589117408
decision_type=2 2 2 2 2 2 8 2 2 2 2 2 2 2 2 2 2 2 2 2 2 2 2 2 2 10 10 2 2 2
left_child=1 2 3 7 25 10 -7 -1 -9 -10 -2 17 15 -4 27 -13 -15 18 -3 21 -21 24 -8 -18 -16 28 -22 -12 -5 -20
right_child=5 11 13 4 -6 6 22 8 9 -11 14 12 -14 16 19 -17 23 -19 29 20 26 -23 -24 -25 -26 -27 -28 -29 -30 -31
leaf_value=0.024730882443477212 -0.027569483144296979 -0.0013216239570814905 0.018590380958414941 0.038870563482485784 0.0036817348837487485 0.022290130635989495 -0.013243401295239508 -0.022547563961290512 0.023176464431709343 -0.013560763818605952 -0.0097889679038315365 0.00022162176791279786 -0.015645496889879994 0.012634513061991206 0.021815375655832095 0.027684789259257991 -0.020168690630273583 0.0055034305293415872 -0.010925437368088401 0.0063578834504920533 -0.025926194963775698 -0.0074414642691929111 0.0095772263496456123 0.00056555737299411721 -0.00083730837451273835 0.016058801786674067 -0.0062940712229279279 -0.026973860964995433 0.022593666295486429 -0.025575530416087833
leaf_weight=11.095294654369352 20.206212937831879 18.132499933242798 11.377319127321242 21.638129889965057 19.235393732786179 14.446246355772017 21.394942998886108 11.540524393320082 14.726236015558245 13.983254760503767 11.198009073734285 16.562797993421558 10.365050822496412 11.182005226612089 12.392166376113893 12.441181898117064 19.17631417512894 13.111611247062681 11.897718846797941 10.619534999132155 16.478779524564747 19.657536119222641 11.047044754028319 11.667130321264265 10.543500721454619 18.461067199707031 14.06217500567436 15.899173408746718 15.572108387947081 23.623809695243835
leaf_count=30 60 51 31 58 53 39 61 33 40 39 32 46 30 31 34 34 55 37 34 30 48 56 31 32 30 50 40 47 42 68
internal_value=-0.000126751 0.00447439 0.0099821 0.014295 0.021624 -0.00750013 0.00340566 0.00339406 -0.00294458 0.00542905 -0.0113981 -0.0048547 0.00490962 -0.000289564 -0.00823024 0.012532 -0.00571411 -0.0105998 -0.0145637 -0.00407437 -0.0112448 0.00295384 -0.00541858 -0.0125541 0.011802 0.027649 -0.017373 -0.0204733 0.0328284 -0.0211021
internal_weight=463.735 285.789 179.655 126.252 74.9067 177.945 46.8882 51.3453 40.25 28.7095 131.057 106.135 39.369 53.4028 110.851 29.004 42.0254 66.7656 53.654 83.7537 41.1605 42.5932 32.442 30.8434 22.9357 55.6713 30.541 27.0972 37.2102 35.5215
internal_count=1302 794 494 345 203 508 131 142 112 79 377 300 110 149 317 80 118 190 153 238 118 120 92 87 64 150 88 79 100 102
is_linear=0
shrinkage=0.03


Tree=26
num_leaves=29
num_cat=0
split_feature=26 55 67 39 56 52 27 27 42 95 97 27 46 67 76 93 38 37 45 78 53 37 37 83 90 56 93 15
split_gain=21.0929 20.3658 14.5559 12.4949 14.3674 13.0335 12.8724 12.0253 10.2398 9.92758 9.8108 9.21348 8.94685 8.43366 10.0193 16.4498 15.6875 10.4045 5.26497 4.26415 3.39789 2.81379 4.25719 2.64654 2.40564 1.86667 1.03503 0.151856
threshold=-0.0025110926944762464 -2.7309087514877315 -0.00070291574229486276 122.42455291748048 11.409516334533693 -0.68088021874427784 0.077340021729469313 0.10752749443054201 0.093401882797479643 1.0000000180025095e-35 -0.060731971636414521 0.00028443413611967122 120.17264938354494 -0.021666591987013813 0.024762829765677456 -303.85601806640619 15.00500011444092 24.130000114440922 122.45634841918947 1.4013039469718935 12.541369915008547 18.57499980926514 15.22499990463257 100392360.00000001 0.034671368077397353 -18.375928878784176 121.05717849731447 -0.22331238538026807
decision_type=2 2 10 2 2 8 2 2 2 8 2 2 2 10 2 2 2 2 2 2 2 2 2 2 2 2 2 2
left_child=3 2 10 13 6 -6 21 -8 -9 11 -2 -3 -13 -1 15 -15 -17 19 -14 23 -11 22 -5 -16 27 -18 -4 -25
right_child=1 9 26 4 5 -7 7 8 -10 20 -12 12 18 14 17 16 25 -19 -20 -21 -22 -23 -24 24 -26 -27 -28 -29
leaf_value=0.014519613521409368 0.024826929419264971 -0.013558186136262971 0.028611562622383988 -0.019244742485300156 0.040833985558582697 -0.001728377810661466 0.030517076003080883 0.016697961512824187 -0.021078842908635226 -0.0031486552843897979 -0.01487751472424007 0.037969227688965226 -0.011138698669704921 0.032157471801415038 -0.0068366217005744303 0.020966990338318767 -0.0069816880538670816 0.0071417413587995596 0.017877797158585423 0.00030902174441100076 -0.024760073549284348 -0.024095451311560132 0.0050364782146788134 -0.017057832708340458 -0.0076750750880685299 -0.023541983978343343 0.046214709661169646 -0.02573227892841452
leaf_weight=11.962521433830259 10.394401967525484 11.282319039106367 14.351938188076021 12.265170753002169 14.489532858133314 10.99185359477997 14.383187770843504 11.258425086736681 12.681086003780363 13.208704501390459 10.087041169404982 10.802607595920565 9.3177218437194842 10.416043311357496 11.722475707530974 11.28535011410713 9.8202978074550575 15.285206675529478 11.51917043328285 9.3495777547359449 12.67070749402046 15.180439829826353 12.094439864158629 10.650067061185828 9.5865660309791547 22.221726179122928 14.348989218473433 61.278993964195259
leaf_count=37 31 37 41 40 41 35 44 35 43 43 33 32 30 31 39 34 31 47 35 30 45 51 38 37 33 76 41 212
internal_value=8.07405e-05 0.0107057 0.0252386 -0.00431029 0.00400906 0.023102 -0.00245301 0.00981009 -0.00335575 0.000104197 0.00549034 0.00889078 0.017066 -0.00898995 -0.0107033 4.50914e-05 -0.00822613 -0.0155631 0.00498648 -0.0189824 -0.0142572 -0.0142874 -0.007466 -0.0208996 -0.0228146 -0.0188315 0.0386719 -0.0246994
internal_weight=404.907 117.984 49.1824 286.923 103.344 25.4814 77.8627 38.3227 23.9395 68.8012 20.4814 42.9218 31.6395 183.579 171.616 53.7434 43.3274 117.873 20.8369 102.588 25.8794 39.5401 24.3596 93.2381 81.5156 32.042 28.7009 71.9291
internal_count=1302 368 146 934 327 76 251 122 78 222 64 134 97 607 570 172 141 398 65 351 88 129 78 321 282 107 82 249
is_linear=0
shrinkage=0.03


Tree=27
num_leaves=28
num_cat=0
split_feature=71 64 53 26 39 69 28 79 59 26 30 56 56 85 90 91 36 55 77 60 88 47 74 44 46 82 47
split_gain=29.5409 15.21 17.527 11.8129 11.3283 11.0402 14.771 10.7861 15.7711 11.6649 7.59495 9.78925 11.6141 7.54037 7.23576 6.62729 5.5886 4.86106 4.66843 4.34152 3.78862 2.62235 2.425 1.28163 0.568853 0.455248 0.900133
threshold=0.57814946770668041 51.956430435180671 22.196431159973148 -0.035802356898784631 119.83569717407228 2.3842600584030156 34.500000000000007 -0.059744624421000474 0.035402454435825355 -0.0001869345942395739 22.310000419616703 -45.10609054565429 10.519655704498293 -0.0035319027956575151 0.02838606666773558 0.017247272655367855 16.819999694824222 -12.167432785034178 0.05929409712553025 0.03574043698608876 0.044662563130259521 120.63254928588869 2.0923537015914921 124.1103973388672 120.75984954833986 0.032464129850268371 119.63220214843751
decision_type=2 2 2 2 2 2 2 2 2 2 2 2 2 2 2 2 2 2 2 2 2 2 2 2 2 2 2
left_child=7 2 10 -4 -5 6 14 9 13 15 11 -2 21 -9 16 -1 -3 -8 -10 -15 23 -13 -23 25 -7 26 -17
right_child=1 5 3 4 -6 24 17 8 18 -11 -12 12 -14 19 -16 20 -18 -19 -20 -21 -22 22 -24 -25 -26 -27 -28
leaf_value=0.00055993163846527496 0.023228357974883061 0.037996522335212383 0.041216029142078996 -0.010641035338771587 0.028418797968004457 0.025094516371270349 0.0074391039537336535 -0.0053260565908527912 -0.023958684281360675 0.0088151520213977496 -0.023846605281629789 -0.00093905856795384671 0.015080640143722105 0.037529688385260399 3.4178628381743731e-05 -0.0094380899637722619 0.011576094347066966 -0.019691500792939232 -0.0014609886170323814 0.0093619368917483136 -0.0058943960018210491 -0.025718038831298126 -0.0085326554081043247 -0.010603374729973093 0.041715929728286055 -0.026263499188736966 -0.023177766038067499
leaf_weight=16.650216639041901 10.604652076959608 19.025937438011169 11.880295246839522 15.206760138273241 10.431544750928877 10.984140396118166 9.4431364834308642 9.2765063941478747 15.558483898639677 17.855990469455719 17.157741189002991 9.5827154219150525 14.989006161689757 12.173654139041902 11.25013545155525 8.9759044647216815 13.135641455650328 13.325848966836928 16.924345314502716 9.239923417568205 15.560023188591002 18.758762717247009 14.085744321346281 9.6162953376770002 11.440250456333159 47.049976408481598 14.226807057857512
leaf_count=55 31 54 33 48 30 31 29 30 53 56 60 30 46 36 35 31 39 44 56 30 53 65 46 33 32 166 50
internal_value=5.9001e-05 0.00779269 0.000922848 0.0177392 0.00572161 0.0171893 0.0107257 -0.00839989 0.00175508 -0.0133128 -0.00660413 -0.00197237 -0.00694484 0.0168991 0.0208272 -0.0168849 0.0278802 -0.00859986 -0.0126306 0.0263353 -0.0199029 -0.0148942 -0.0188178 -0.0225254 0.0349931 -0.0239856 -0.0184722
internal_weight=404.41 211.302 122.697 37.5186 25.6383 88.6051 66.1807 193.108 63.1729 129.935 85.1786 68.0209 57.4162 30.6901 43.4117 112.079 32.1616 22.769 32.4828 21.4136 95.429 42.4272 32.8445 79.869 22.4244 70.2527 23.2027
internal_count=1302 653 389 111 78 264 201 649 205 444 278 218 187 96 128 388 93 73 109 66 333 141 111 280 63 247 81
is_linear=0
shrinkage=0.03


Tree=28
num_leaves=31
num_cat=0
split_feature=72 79 52 68 52 51 38 67 73 58 83 34 91 42 77 85 59 68 35 5 5 75 35 60 41 27 75 34 91 75
split_gain=16.6052 15.6036 12.1559 14.9793 8.3063 10.6533 8.08998 8.53615 7.18007 7.15827 7.08437 6.48934 8.49529 7.82059 6.33625 5.22899 5.15461 5.09801 6.50882 4.46836 4.30087 4.23296 3.17715 3.11655 2.91509 2.80414 2.67917 2.34064 2.26627 1.38286
threshold=0.6324543058872224 -0.073127377778291688 0.7886912226676942 0.47468571364879614 -0.96770718693733204 -0.52035191655158985 21.775000572204593 -0.0091482582502067072 0.64716386795043956 -0.02785428054630756 332748672.00000006 -0.87373018264770497 0.029761065728962425 -0.75386175513267506 -0.23037043213844297 -0.0055852809455245725 0.037694515660405166 2.0900213718414311 20.375000000000004 0.00068096842733211826 -0.012308029923588036 0.19287206232547763 15.295000076293947 -0.026495807804167267 0.0049684571567922839 0.089335165917873396 0.21363196521997455 -0.40505887567996973 0.022972995415329937 0.10146573185920717
decision_type=2 2 8 2 10 8 2 8 2 2 2 2 2 2 2 2 2 2 2 10 8 2 2 2 2 2 2 2 2 2
left_child=1 2 4 28 5 -1 9 -8 24 14 -7 12 13 -3 -2 25 23 -11 22 29 -16 -9 -19 26 -5 -13 -6 -24 -4 -17
right_child=6 11 3 8 16 10 7 21 -10 17 -12 15 -14 -15 20 19 -18 18 -20 -21 -22 -23 27 -25 -26 -27 -28 -29 -30 -31
leaf_value=0.023749795226857964 0.014576735730833824 0.011602344829865184 -0.026216175298533023 0.0098762100910384284 0.036187286332680021 -0.020548441847006799 0.021683729243535996 -0.017420285868893718 -0.0048801478922539188 -0.027599704744405335 0.01052236669649876 -0.0084055334745670469 0.026127657924527783 -0.020514919443685796 0.0045825305935950208 -0.0099092353430657327 0.0031841935887576265 -0.0025180483278035722 0.0088598739944352658 0.0016968226936321356 -0.017206190908879676 0.0039520490553471444 -0.028746455588868604 0.013924981370221077 0.030047257826644962 0.012453960802711271 0.017611046453034199 -0.012288914734564083 -0.0078185217197320901 -0.023925787555074667
leaf_weight=15.497123181819914 14.009864389896391 12.950064718723295 13.156333804130556 15.444752544164659 26.520096927881241 14.092597514390947 14.483246147632597 13.610863238573073 16.812815815210342 24.844891756772995 10.903775632381437 10.482760757207872 11.082771360874174 12.423169881105425 12.74245563149452 10.984322041273115 11.118234395980833 12.219347178936003 11.12056592106819 10.533611655235289 20.045391798019409 18.759348511695862 16.223380595445629 17.356280833482742 12.311712890863417 10.765484273433684 13.757566303014753 19.108409285545353 12.58853444457054 26.625093340873718
leaf_count=42 39 36 39 42 71 40 39 39 47 75 30 30 30 36 36 31 30 35 31 30 58 53 48 47 33 30 37 55 36 77
internal_value=-0.00011958 0.00435409 0.00971976 -2.66995e-05 0.0159362 0.00498704 -0.00731039 0.00332889 0.0104339 -0.0111319 -0.00711151 -0.00475404 0.00539761 -0.00430443 -0.00168085 -0.0100883 0.0222211 -0.0163451 -0.0111966 -0.0154679 -0.00885335 -0.00528722 -0.015973 0.0257766 0.0195571 0.00224773 0.0304226 -0.020429 -0.0178489 -0.0201948
internal_weight=462.575 285.407 179.56 70.3141 109.246 40.4935 177.168 46.8535 44.5693 130.314 24.9964 105.847 36.456 25.3732 46.7977 69.3913 68.7522 83.5166 58.6717 48.143 32.7878 32.3702 47.5511 57.6339 27.7565 21.2482 40.2777 35.3318 25.7449 37.6094
internal_count=1302 794 494 197 297 112 508 131 122 377 70 300 102 72 133 198 185 244 169 138 94 92 138 155 75 60 108 103 75 108
is_linear=0
shrinkage=0.03


Tree=29
num_leaves=28
num_cat=0
split_feature=26 48 63 75 35 50 92 67 97 55 39 59 37 95 56 37 75 38 52 65 64 92 38 9 59 86 52
split_gain=19.9603 19.9534 11.9156 18.7369 16.9204 14.6433 15.7924 10.3167 15.7418 9.71242 8.69376 7.96228 9.0912 7.82922 7.28645 6.75983 6.55165 5.04691 4.58868 4.5002 4.07921 2.70214 2.65043 1.89681 1.32746 0.781501 0.282458
threshold=-0.0025110926944762464 12.541369915008547 0.024341762997210029 0.10787538811564447 16.775000572204593 0.95200389623641979 43.103586196899421 0.00019209690071875232 -0.081697601824998842 1.0000000180025095e-35 121.83020019531251 0.19892805069684985 24.57499980926514 1.0000000180025095e-35 -12.167432785034178 26.935000419616703 0.20893638581037524 21.194999694824222 0.7886912226676942 -0.0041837147437036029 42.178819656372077 53.928894042968757 18.214999198913578 4.5000000000000009 -0.072502225637435899 0.75000000000000011 1.7354831695556643
decision_type=2 2 2 2 2 2 2 10 2 2 2 2 2 8 2 2 2 2 8 2 2 2 2 8 2 2 8
left_child=2 7 3 19 9 6 10 8 -2 -5 18 12 20 15 -14 -3 -9 23 22 -1 -8 -10 -4 -12 -22 26 -26
right_child=1 13 5 4 -6 -7 11 16 21 -11 17 -13 14 -15 -16 -17 -18 -19 -20 -21 24 -23 -24 -25 25 -27 -28
