tree
version=v4
num_class=3
num_tree_per_iteration=3
label_index=0
max_feature_idx=70
objective=multiclass num_class:3
feature_names=Column_0 Column_1 Column_2 Column_3 Column_4 Column_5 Column_6 Column_7 Column_8 Column_9 Column_10 Column_11 Column_12 Column_13 Column_14 Column_15 Column_16 Column_17 Column_18 Column_19 Column_20 Column_21 Column_22 Column_23 Column_24 Column_25 Column_26 Column_27 Column_28 Column_29 Column_30 Column_31 Column_32 Column_33 Column_34 Column_35 Column_36 Column_37 Column_38 Column_39 Column_40 Column_41 Column_42 Column_43 Column_44 Column_45 Column_46 Column_47 Column_48 Column_49 Column_50 Column_51 Column_52 Column_53 Column_54 Column_55 Column_56 Column_57 Column_58 Column_59 Column_60 Column_61 Column_62 Column_63 Column_64 Column_65 Column_66 Column_67 Column_68 Column_69 Column_70
feature_infos=[-0.29647758603096008:0.38247641921043396] [0:1] [0:1] [0:1] [1:4] [-0.45504045486450195:0.54322069883346558] [0:1] [0:1] [0:1] [1:194] [-0.36343374848365784:0.54829078912734985] [0:1] [0:1] [0:0.25] [1:21] [-0.45504045486450195:0.54322069883346558] [0:1] [0:1] [0:1] [0:203] [0:1] [0:6] [-0.45504045486450195:0.54322069883346558] [-0.45504045486450195:0.54322069883346558] [-0.45504045486450195:0.54322069883346558] [-0.1694311797618866:0.39035001397132874] [-0.13416466116905212:0.35456526279449463] [0:0.29364687204360962] [1:1087] [0:549] [-0.18788270652294159:0.73099786043167114] [-0.2926311194896698:0.70564854145050049] [-0.35529175400733948:1.0041122436523438] [-0.40012446045875549:1.6595629453659058] [0.0047560385428369045:0.22094714641571045] [0.0095606492832303047:0.15728901326656342] [0.015892580151557922:0.10758519917726517] [21.504817962646484:94.974662780761719] [-0.15371130406856537:0.43875172734260559] [-0.12889130413532257:0.3928375244140625] [-0.11205442994832993:0.11772836744785309] [0.32035714387893677:3.4367141723632812] [0.33007499575614929:3.1954300403594971] [0.34015598893165588:3.0941760540008545] [0.32739457488059998:3.1937198638916016] [0.33671122789382935:3.0875694751739502] [0.35104194283485413:3.8643267154693604] [0.20991608500480652:2.8406264781951904] [0.053389482200145721:1.5111978054046631] [0.014512204565107822:0.29303669929504395] [-0.78293991088867188:10.328964233398438] [-2.3011901378631592:16.761091232299805] [-0.50928992033004761:0] [-0.1878550797700882:0.73099786043167114] [0.0012843391159549356:0.14675383269786835] [0.0067340065725147724:0.99469214677810669] [26597238:2543716608] [0.95970481634140015:2.0386159420013428] [-0.12912794947624207:0.11780386418104172] [0:1] [-0.15379838645458221:0.14485582709312439] [-0.2383464127779007:0.20691065490245819] [-0.33259490132331848:0.35951325297355652] [0.0031643849797546864:0.085850544273853302] [0.0087705496698617935:0.050428587943315506] [18.635524749755859:89.3983154296875] [-5907.96484375:7019.05517578125] [0:1] [0:1] [-2.3075559139251709:15.573112487792969] [-0.40345379710197449:0]
tree_sizes=3222 3375 3117 3319 3434 3225 3442 3427 3241 3447 3449 3337 3242 3452 3452

Tree=0
num_leaves=30
num_cat=0
split_feature=44 48 38 43 28 63 32 36 41 38 48 14 41 37 39 70 44 28 63 69 31 23 36 42 34 69 63 5 31
split_gain=31.095 16.8739 15.951 14.8713 20.3884 18.7828 17.3887 14.6771 11.1131 10.7468 10.4383 7.25452 6.12685 5.99229 5.80681 7.13612 6.24755 7.3673 5.52314 5.35543 4.28468 3.78632 3.43068 5.76356 1.85666 3.59372 1.14832 0.836299 0.370824
threshold=0.57814946770668041 0.087012495845556273 -0.073877859860658632 2.3030670881271367 54.500000000000007 0.027180721983313564 -0.025706085376441475 0.026150185614824299 0.62393572926521312 -0.0047330672387033692 0.12656049430370334 5.5000000000000009 0.77290713787078869 51.347110748291023 -0.022449064999818798 -0.00082461416604928661 0.46012859046459204 22.500000000000004 0.014833352994173767 -0.19951800256967542 -0.0098351170308887941 0.12721748650074008 0.042818894609808929 2.8354524374008183 0.024328135885298256 0.22641759365797046 0.034439187496900565 0.085660584270954146 -0.018475717864930626
decision_type=2 2 2 8 2 2 2 2 2 2 2 10 2 2 10 2 2 2 2 2 2 2 2 2 2 2 2 8 2
left_child=1 -1 -2 4 5 8 11 24 -4 -7 -9 -5 28 -11 -12 16 26 -18 -6 20 -20 -19 23 -8 27 -26 -16 -3 -10
right_child=2 7 3 6 18 9 22 10 12 13 14 -13 -14 -15 15 -17 17 21 19 -21 -22 -23 -24 -25 25 -27 -28 -29 -30
leaf_value=-1.1809457367601197 -1.2199729516917841 -1.2171762408132951 -1.1957257330258657 -1.1825437372522769 -1.2269431544098004 -1.1827095667755088 -1.1414959627636794 -1.1859321380627945 -1.1670551214239526 -1.2287106249497997 -1.194671664958413 -1.2144989291132113 -1.1851043146375322 -1.2007128423836479 -1.2279522174460451 -1.1912015627455712 -1.1924079997562287 -1.2032537076495888 -1.2110235746123237 -1.2182869739845659 -1.1857268535362335 -1.2271887126810883 -1.1802326514588617 -1.1769883015149079 -1.2029306529101147 -1.2264543673271695 -1.213892023449697 -1.2301296755845055 -1.1450492513527368
leaf_weight=15.764357149600981 17.97136715054512 9.7739014327526075 15.133782863616942 11.980911433696749 13.557347148656843 15.133782863616942 10.71976286172867 18.28665429353714 9.773901432752611 11.665624290704729 17.97136715054512 11.665624290704725 10.089188575744627 14.818495720624922 28.375842869281769 11.035050004720686 16.079644292593002 9.773901432752611 9.4586142897605878 15.449070006608961 13.557347148656847 14.503208577632902 11.980911433696745 10.089188575744627 10.71976286172867 11.980911433696745 9.4586142897605878 33.105150014162064 9.4586142897605914
leaf_count=50 57 31 48 38 43 48 34 58 31 37 57 37 32 47 90 35 51 31 30 49 43 46 38 32 34 38 30 105 30
internal_value=-1.20164 -1.2099 -1.1936 -1.19108 -1.19647 -1.18757 -1.17824 -1.21239 -1.17424 -1.20214 -1.20631 -1.19816 -1.16374 -1.21355 -1.20991 -1.21303 -1.21621 -1.20779 -1.21119 -1.20516 -1.19605 -1.21797 -1.16442 -1.15675 -1.22378 -1.21584 -1.22482 -1.22758 -1.15393
internal_weight=419.332 206.828 212.504 194.532 138.096 86.0734 56.4364 191.064 44.4555 41.6179 125.484 23.6465 29.3217 26.4841 107.198 89.2263 78.1912 40.3568 52.0224 38.465 23.016 24.2771 32.7899 20.809 65.5797 22.7007 37.8345 42.8791 19.2325
internal_count=1330 656 674 617 438 273 179 606 141 132 398 75 93 84 340 283 248 128 165 122 73 77 104 66 208 72 120 136 61
is_linear=0
shrinkage=1


Tree=1
num_leaves=31
num_cat=0
split_feature=46 54 48 48 64 35 10 25 35 40 47 42 35 48 34 51 34 35 66 34 27 48 23 31 63 66 5 60 57 32
split_gain=19.5574 11.3261 9.99541 9.46769 9.5672 9.39766 7.61687 7.59945 6.81995 6.66464 9.57152 10.8173 8.66837 9.26573 6.39323 5.28671 5.00888 6.2112 5.23876 10.3525 6.54749 5.12062 4.98549 4.75365 3.65089 3.34503 4.70952 3.11255 2.80125 2.12719
threshold=0.72635707259178173 0.024151939898729328 0.089253440499305739 0.10365679487586023 0.0208684615790844 0.020781627856194976 0.16339022666215899 0.19910445809364322 0.073195964097976698 -0.0053294796962290994 0.3764661848545075 0.34791500866413122 0.029204512946307663 0.23587242513895038 0.021489542908966545 -0.21285610646009442 0.017749834805727008 0.027527204714715484 -40.838481903076165 0.05405546352267266 0.11883372440934183 0.19681256264448169 0.16593308001756671 -0.025451818481087681 0.021983304992318157 1443.9924316406252 0.27654772996902471 -0.00047172805352602149 1.6078024506568911 -0.05804095230996608
decision_type=2 2 2 2 2 2 8 2 2 10 2 2 2 2 2 2 2 2 2 2 2 2 2 2 2 2 10 2 2 2
left_child=1 2 28 4 -4 14 22 8 9 -7 11 -11 15 -14 -5 -12 -8 -18 19 29 21 -20 -2 -23 -13 26 -9 -26 -1 -19
right_child=6 -3 3 5 -6 7 16 25 -10 10 12 24 13 -15 -16 -17 17 18 20 -21 -22 23 -24 -25 27 -27 -28 -29 -30 -31
leaf_value=-0.94151425653960452 -0.9006176478650022 -0.93455427463899077 -0.91517407797404982 -0.93697229579695074 -0.88116733783938606 -0.88773687201500018 -0.94718638966983448 -0.92665557714397684 -0.92879305019984981 -0.92224341680323663 -0.91660331887782154 -0.87789263467082534 -0.9439581903687968 -0.90978509479403036 -0.90972776057161731 -0.89151748816311216 -0.91215036285176587 -0.93236879755482283 -0.91208894765960102 -0.91433529308000605 -0.90374848934479235 -0.91861608512804604 -0.92273525958680414 -0.94315112501175757 -0.88808518991263474 -0.93358113174259927 -0.90464991624576574 -0.91094229871762444 -0.92053404454806709 -0.94608609100612617
leaf_weight=10.791334211826326 13.669023334980009 21.582668423652649 12.949601054191591 21.222957283258438 17.266134738922119 17.266134738922119 12.230178773403166 16.906423598527908 10.791334211826323 12.230178773403166 16.906423598527908 14.02873447537422 14.388445615768434 12.589889913797377 11.151045352220534 12.949601054191591 19.424401581287384 19.064690440893173 11.870467633008955 15.827290177345274 11.510756492614744 10.791334211826323 23.740935266017914 19.784112721681598 10.791334211826323 12.230178773403166 16.187001317739487 11.510756492614748 11.510756492614744 35.25169175863266
leaf_count=30 38 60 36 59 48 48 34 47 30 34 47 39 40 35 31 36 54 53 33 44 32 30 66 55 30 34 45 32 32 98
internal_value=-0.91911 -0.914124 -0.912398 -0.910613 -0.895162 -0.912925 -0.926459 -0.910233 -0.90665 -0.904636 -0.90767 -0.89803 -0.916121 -0.928262 -0.927601 -0.905195 -0.929365 -0.92766 -0.930121 -0.935478 -0.922978 -0.928416 -0.914394 -0.934764 -0.890002 -0.920813 -0.915796 -0.899044 -0.93123 -0.941606
internal_weight=478.416 285.251 263.668 241.366 30.2157 211.15 193.165 178.776 133.453 122.661 105.395 48.561 56.8344 26.9783 32.374 29.856 155.755 143.525 124.1 70.1437 53.9567 42.4459 37.41 30.5754 36.3308 45.3236 33.0934 22.3021 22.3021 54.3164
internal_count=1330 793 733 671 84 587 537 497 371 341 293 135 158 75 90 83 433 399 345 195 150 118 104 85 101 126 92 62 62 151
is_linear=0
shrinkage=1


Tree=2
num_leaves=29
num_cat=0
split_feature=33 46 65 36 40 46 27 41 26 46 44 44 42 43 40 66 40 25 66 27 35 9 52 64 58 30 50 25
split_gain=22.103 21.0544 22.6422 19.0122 16.9195 13.0936 11.8786 8.42639 9.75905 8.14054 8.13297 12.3437 8.53015 13.8073 17.3671 14.0785 8.43212 8.43052 6.16057 5.45521 5.28675 3.09042 4.18323 2.31962 1.63246 1.39903 1.06827 0.427591
threshold=-0.13762260973453519 0.3852218389511109 69.37500381469728 0.025085248053073887 0.01122564170509577 0.86185732483863842 0.17989228665828708 2.9264143705368046 0.078057456761598601 0.68384838104248058 0.48002530634403234 0.43551082909107214 0.74305999279022228 2.2436380386352544 -0.0069628614000976077 949.61685180664074 0.002452508895657957 0.27172316610813146 -814.54479980468739 0.16116563975811007 0.022330926731228832 6.5000000000000009 -0.13879925757646558 0.023213078267872337 0.0013345647021196785 -0.0010198133531957863 0.071340270340442671 0.20744886249303821
decision_type=2 2 2 2 10 2 2 2 2 2 2 2 2 8 10 2 10 2 2 2 2 8 2 2 2 2 2 2
left_child=5 -2 6 -4 -5 9 7 8 20 -1 11 -10 17 15 -15 16 -14 18 -12 21 -3 22 -20 -8 -16 -24 -22 -9
right_child=1 2 3 4 -6 -7 23 27 10 -11 12 -13 13 14 24 -17 -18 -19 19 -21 26 -23 25 -25 -26 -27 -28 -29
leaf_value=-1.1789696895217405 -1.1741143694875489 -1.2027529195997337 -1.1603961389177537 -1.2183916212709485 -1.1708652908890969 -1.1620633829150975 -1.2121089955674784 -1.2167604722870704 -1.2110235746123237 -1.2121089955674784 -1.193694281927314 -1.1671549022044543 -1.1887088435638284 -1.1836256154494869 -1.2265200366177929 -1.2051793907463049 -1.1499349244394932 -1.1852075350759637 -1.1995039955829374 -1.1978110953979118 -1.2280721117228557 -1.2287064649647033 -1.2110235746123237 -1.2281629599770054 -1.2116820481343127 -1.2271102582984232 -1.216067386539367 -1.228817681056841
leaf_weight=11.665624290704729 17.97136715054512 17.025505721569061 15.133782863616942 17.971367150545124 9.4586142897605878 16.394931435585022 13.242060005664824 9.4586142897605914 9.4586142897605914 13.242060005664824 11.035050004720686 12.611485719680784 11.03505000472069 16.079644292593002 18.917228579521183 16.394931435585022 10.089188575744627 9.4586142897605878 11.350337147712699 10.719762861728666 19.232515722513199 24.907684296369553 9.4586142897605843 30.582852870225906 12.926772862672804 14.187921434640897 17.025505721569061 12.296198576688765
leaf_count=37 57 54 48 57 30 52 42 30 30 42 35 40 35 51 60 52 32 30 36 34 61 79 30 97 41 45 54 39
internal_value=-1.20264 -1.20493 -1.20654 -1.18624 -1.20147 -1.18207 -1.20931 -1.20694 -1.20535 -1.19628 -1.20227 -1.18552 -1.20445 -1.19767 -1.20831 -1.18427 -1.16866 -1.21079 -1.21393 -1.21717 -1.21662 -1.22065 -1.21434 -1.22364 -1.22096 -1.22129 -1.22295 -1.22444
internal_weight=419.332 378.029 360.058 42.5638 27.43 41.3026 317.494 273.669 251.914 24.9077 198.631 22.0701 176.561 85.4428 47.9236 37.5192 21.1242 91.118 81.6594 70.6243 53.2835 59.9046 34.9969 43.8249 31.844 23.6465 36.258 21.7548
internal_count=1330 1199 1142 135 87 131 1007 868 799 79 630 70 560 271 152 119 67 289 259 224 169 190 111 139 101 75 115 69
is_linear=0
shrinkage=1


Tree=3
num_leaves=30
num_cat=0
split_feature=45 33 48 36 43 42 28 37 64 42 28 48 43 39 70 24 42 28 27 47 49 32 31 43 31 5 28 34 49
split_gain=27.2321 16.6687 15.7463 15.4631 13.0502 14.0888 20.3659 16.8727 10.2312 14.6005 13.2769 8.45972 6.38425 6.36519 7.45105 6.17361 5.71858 7.19939 5.28588 9.20875 3.98029 3.6799 2.51303 2.05845 1.7931 3.38135 1.27053 0.841673 0.193727
threshold=0.57062646746635448 -0.14104686677455899 0.087012495845556273 0.026150185614824299 0.56524401903152477 2.3347550630569462 53.500000000000007 45.577280044555671 0.039686707779765136 0.66227248311042797 36.500000000000007 0.12656049430370334 2.2773249149322514 -0.022449064999818798 -0.0042687298264354459 0.20835129171609881 0.46033249795436865 23.500000000000004 0.046559512615203864 2.0681416988372807 0.047163298353552825 0.080778915435075774 -0.0028508235700428482 2.2377569675445561 0.014739259611815216 0.11960280686616899 16.500000000000004 0.036650061607360847 0.021534144878387455
decision_type=2 2 2 2 10 2 2 2 2 2 2 2 10 10 2 2 2 2 2 2 2 2 2 10 2 10 2 2 2
left_child=2 20 -1 24 -3 6 8 -7 9 10 15 -5 21 -13 16 -6 26 -18 -9 -20 -2 23 -19 -8 28 -26 -15 -11 -4
right_child=1 4 3 11 5 7 12 18 -10 27 -12 13 -14 14 -16 -17 17 22 19 -21 -22 -23 -24 -25 25 -27 -28 -29 -30
leaf_value=0.020660921085463638 0.0025419258713102631 0.037056871521231272 -0.027423109317348041 0.015205742747425584 -0.021430159139088471 -0.0058118359054325098 -0.027076914138373459 0.013502207103589724 -0.010228015251121454 0.047587176836790521 0.031654994480106689 0.010537434159647065 0.0079382173653578542 -0.025127549786831752 0.010176223393142184 0.0097052449139706197 0.010916391701596945 -0.025823502008312165 0.013990538107701775 0.051416453602063067 -0.020881827674993414 -0.0013568372381847786 -0.0053505346791340455 -0.0090521051371367321 0.00037999783723684325 -0.021780019759108111 -0.011426037527339044 0.02752072101669269 -0.017341974452450202
leaf_weight=15.944507062435148 9.5136338770389575 15.35242912173271 29.60543429851532 18.087782770395279 11.351689517498018 14.775928497314451 20.02197149395943 12.432776451110838 11.9845013320446 9.9536798894405383 11.404754579067228 15.807136476039885 12.05381855368614 26.480568796396255 13.626788496971129 9.8714842498302442 14.87748810648918 9.9993690848350525 10.187015831470491 17.281164944171906 18.510695725679398 11.051033228635786 11.910092890262604 9.7255407571792585 9.3698084652423876 17.108985960483551 11.260475873947142 10.169853538274763 9.6924586594104749
leaf_count=50 30 48 95 57 36 47 64 39 38 31 36 50 38 85 43 31 47 32 32 54 59 35 38 31 30 55 36 32 31
internal_value=0.000719337 0.00813201 -0.00712658 -0.00958238 0.0113586 0.00886768 0.002954 0.0213042 0.0141374 0.0197602 0.00694316 -0.00320365 -0.0107521 -0.00652095 -0.0096636 -0.00716316 -0.0133778 -0.00475808 0.0312422 0.0385155 -0.0131164 -0.0163319 -0.0154136 -0.02167 -0.021193 -0.01421 -0.02144 0.0392291 -0.0254287
internal_weight=419.413 215.642 203.771 187.826 187.618 172.265 117.588 54.6769 64.736 52.7515 32.6279 122.05 52.8524 103.962 88.1548 21.2232 74.528 36.787 39.901 27.4682 28.0243 40.7985 21.9095 29.7475 65.7767 26.4788 37.741 20.1235 39.2979
internal_count=1330 681 649 599 592 544 372 172 204 166 103 388 168 331 281 67 238 117 125 86 89 130 70 95 211 85 121 63 126
is_linear=0
shrinkage=0.03


Tree=4
num_leaves=31
num_cat=0
split_feature=46 54 48 48 42 43 64 66 37 34 70 40 37 34 41 27 47 66 52 47 66 32 36 66 33 56 70 52 47 23
split_gain=18.3847 10.8884 9.38727 8.9284 9.05869 12.0752 9.02835 7.85241 7.57937 8.04043 11.9874 8.94263 9.33388 7.63087 7.32333 11.7245 7.12298 6.79527 6.70241 6.19068 5.92974 5.9152 5.47101 5.40119 4.43234 4.29719 4.1771 4.12623 3.62055 3.05764
threshold=0.72635707259178173 0.024151939898729328 0.089253440499305739 0.10365679487586023 0.62567502260208141 0.46098400652408605 0.0208684615790844 1377.7007446289065 76.163829803466811 0.017749834805727008 -0.0776829458773136 -0.023020841181278225 45.577280044555671 0.05405546352267266 0.47630713880062109 0.10899446904659273 0.3255962878465653 -6.8575839996337882 -0.11831246316432951 0.46781186759471899 2139.653442382813 -0.046181518584489815 0.031773049384355552 -1577.573791503906 0.0051930660847574481 351312240.00000006 -0.014634667430073021 -0.15126640349626538 0.4107560813426972 0.18309929221868518
decision_type=2 2 2 2 2 10 2 2 2 2 2 10 2 2 2 2 2 2 2 2 2 2 2 2 2 2 2 2 2 2
left_child=1 2 -1 6 5 16 -4 14 9 -2 13 -12 -13 21 28 -16 25 -14 -18 -17 -9 23 -19 -11 -20 -5 -24 -21 -7 -29
right_child=8 -3 3 4 -6 7 -8 20 -10 10 11 12 17 -15 15 19 18 22 24 27 -22 -23 26 -25 -26 -27 -28 29 -30 -31
leaf_value=-0.012188561912382842 -0.026799309729408107 -0.015644332891119602 0.0033413740702421149 0.010784029743650966 0.027456299612038368 6.8491001416876835e-05 0.036293853165220956 -0.028862280342243384 -0.03025904937659521 0.0079950227210691931 -0.017847821016733108 0.030818578488014288 -0.017404688332837866 0.0061666911503406776 0.025584451582123201 0.015152216914116232 0.03770351157069534 -0.0070668181520823006 -0.0027763736718071841 0.0075525066416087501 0.00030036273745770795 -0.024583783517088439 0.004623783541818526 -0.016114790778546002 0.021577637551112638 -0.011416658738607512 0.026573661266517772 -0.02096684571063864 -0.023502397499228903 -0.0016847824787364748
leaf_weight=22.203474819660187 14.293374568223951 21.520901769399643 12.972771286964418 20.156145811080936 14.798137336969374 10.790125012397768 17.424130916595459 13.981129974126818 11.440516740083693 12.924538880586622 12.92362132668495 12.605821818113325 10.740135937929152 16.556752175092697 19.859298527240753 15.134255409240721 14.143978416919706 14.019849240779875 10.826273173093798 12.256958901882166 10.763085544109343 35.394387453794479 17.273304164409634 20.429491460323334 15.907710343599318 11.507133424282072 14.057763814926153 16.206298053264625 11.833928316831587 13.320077270269392
leaf_count=62 40 60 36 56 41 30 48 39 32 36 36 35 30 46 55 42 39 39 30 34 30 99 48 57 44 32 39 45 33 37
internal_value=-0.000408446 0.0044173 0.00610502 0.00782755 0.00558062 0.00380419 0.0227848 -0.00188819 -0.00754818 -0.00595624 -0.00402254 0.00417525 0.00851499 -0.0118237 0.00191789 0.00634351 0.0134392 0.00305049 0.0215621 -0.00069573 -0.0166584 -0.0161827 0.00816573 -0.00681157 0.0119707 0.0026133 0.0149897 -0.00665597 -0.0127337 -0.0126084
internal_weight=478.265 285.606 264.085 241.881 211.485 196.686 30.3969 124.145 192.66 181.219 166.926 81.6205 68.6969 85.3052 99.4009 76.7769 72.5412 56.0911 40.878 56.9176 24.7442 68.7484 45.3509 33.354 26.734 31.6633 31.3311 41.7833 22.6241 29.5264
internal_count=1330 793 733 671 587 546 84 345 537 505 465 227 191 238 276 213 201 156 113 158 69 192 126 93 74 88 87 116 63 82
is_linear=0
shrinkage=0.03


Tree=5
num_leaves=29
num_cat=0
split_feature=46 25 47 66 40 66 35 40 39 66 63 37 36 48 65 63 31 70 65 40 27 64 35 5 50 56 58 38
split_gain=16.9139 18.447 17.0956 15.3399 16.0388 12.5597 11.523 10.614 10.6115 10.1053 10.0587 9.93476 9.61245 8.94571 7.4734 5.93617 7.37727 5.62557 5.48244 6.34916 5.2657 4.67928 3.78575 2.65125 2.36 2.32108 2.06447 0.386548
threshold=0.3852218389511109 0.26214715838432318 0.50391513109207164 -204.14979553222653 -0.011734060011804102 -517.15200805664051 0.042160445824265487 0.0040290022734552631 0.013564319815486671 809.19342041015636 0.018997188657522205 48.761896133422859 0.03222929127514363 0.36683841049671179 64.559387207031264 0.018580019474029544 -0.0042189934756606809 -0.13251698017120359 57.61560249328614 -0.0034861712483689185 0.13612618297338488 0.017092130146920684 0.047540497034788139 0.17795133590698245 -0.063665185123682008 309590608.00000006 -0.0036123719764873381 0.0007238340040203185
decision_type=2 2 2 2 8 2 2 10 10 2 2 2 2 2 2 2 2 2 2 10 2 2 2 8 2 2 2 2
left_child=-1 3 14 4 17 12 10 11 9 -9 -7 18 -6 22 -3 -4 -17 -2 19 20 23 24 25 -5 -13 -14 -21 -23
right_child=1 2 15 7 5 6 -8 8 -10 -11 -12 21 13 -15 -16 16 -18 -19 -20 26 -22 27 -24 -25 -26 -27 -28 -29
leaf_value=0.027241102658989814 0.039518904888605447 0.013952813648129571 0.017154431864022993 -0.018353726266178705 0.01257630149700668 0.022470442650624953 0.039605184574552837 -0.0086285539983058327 -0.014687955656407644 0.026738724310061718 -0.016685806508134698 0.0029665348972251321 -0.025084762323868852 0.0073596938358762229 0.051656090048912098 0.010238254720588365 -0.023887987686392425 0.011257595577654088 0.0093958595979043973 -0.0090630217711700125 0.017270483839941182 -0.017425761407530032 -0.0026981913039339318 0.0027551195752208513 -0.017352970483873551 -0.0080993447050606363 -0.026811418569748998 -0.027122266789755396
leaf_weight=18.218472748994827 10.8336418569088 9.5140616893768328 12.048302561044691 10.672717005014421 17.126700907945633 10.120187163352972 9.9254932701587659 10.99207052588463 18.486575216054916 18.432338356971741 11.597362279891966 9.4295678734779376 34.41111832857132 16.449199944734573 10.895234495401381 9.776997983455658 11.366213589906693 16.206824958324432 16.356226325035095 11.285105526447298 9.4420244693756086 12.504702329635618 12.882499665021895 9.4715684056282061 9.6961577236652357 10.680667728185652 15.996934890747069 44.379606604576111
leaf_count=57 34 30 38 34 54 32 31 35 59 58 37 30 110 52 34 31 36 51 52 36 30 40 41 30 31 34 51 142
internal_value=-0.000253843 -0.00156773 0.0146506 -0.00410509 0.00310638 -0.00154252 0.0144712 -0.0095885 0.00265592 0.0136772 0.0017466 -0.013511 -0.007174 -0.0118255 0.0355529 0.0011339 -0.0083577 0.0235859 -0.00551063 -0.00988625 -0.000165061 -0.0210466 -0.0173015 -0.00876773 -0.00768521 -0.0213245 -0.0200499 -0.0253286
internal_weight=419.199 400.98 53.6008 347.379 150.234 123.193 31.643 197.146 47.911 29.4244 21.7175 149.235 91.5502 74.4235 20.4093 33.1915 21.1432 27.0405 73.2246 56.8684 29.5863 76.01 57.9743 20.1443 19.1257 45.0918 27.282 56.8843
internal_count=1330 1273 169 1104 476 391 100 628 152 93 69 476 291 237 64 105 67 85 233 181 94 243 185 64 61 144 87 182
is_linear=0
shrinkage=0.03


Tree=6
num_leaves=31
num_cat=0
split_feature=44 48 38 36 43 49 32 36 41 41 64 48 33 14 15 39 36 38 39 26 63 47 27 62 58 54 31 15 48 35
split_gain=27.9066 15.1311 14.5095 13.7848 12.9963 20.9072 15.1996 14.4588 9.90372 21.2249 9.83167 9.5963 10.6866 6.79936 5.70973 5.49856 7.18075 8.27007 4.72694 6.89192 3.35427 4.81268 4.79099 3.99988 3.31393 3.78459 1.87088 3.20255 1.06588 0.283193
threshold=0.57814946770668041 0.087012495845556273 -0.073877859860658632 0.026150185614824299 2.3030670881271367 0.048937905579805381 -0.025706085376441475 0.073580253869295134 0.62393572926521312 0.60858571529388439 0.025397648103535179 0.12733010202646258 -0.019261815585196015 5.5000000000000009 0.18334370106458667 -0.022449064999818798 0.029631555080413822 -0.0075327393133193246 0.0111349537037313 0.082985941320657744 0.013985055964440109 1.894661068916321 0.16681282967329028 0.01019013859331608 0.00038362936174962675 0.011799592059105636 0.014739259611815216 0.13949698954820636 0.1755308732390404 0.024170060642063621
decision_type=2 2 2 2 8 2 2 2 2 2 2 2 2 10 2 10 2 2 10 2 2 2 2 2 2 2 2 2 2 2
left_child=1 -1 -2 26 5 8 13 20 9 14 -10 12 -5 -6 -4 -13 17 -17 28 -20 -7 22 -22 -23 25 -8 29 -28 -18 -3
right_child=2 3 4 11 6 7 24 -9 10 -11 -12 15 -14 -15 -16 16 18 -19 19 -21 21 23 -24 -25 -26 -27 27 -29 -30 -31
leaf_value=0.019903783887349865 -0.01712236474220254 -0.02719321190699284 0.041372742784639538 -0.0067361326366715676 0.018764207171590358 -0.025815182493384593 0.037167962730323731 0.023339416089323776 0.044319557396997576 -0.020807248690737506 0.0098081634140590058 0.0074442061126075345 0.036109247925026108 -0.012067163811064858 0.0087963930165207392 -0.017558196217152322 -0.012068119585385463 0.0159572135473132 0.014148385483369391 -0.020123697716315656 -0.025255457103008118 -0.011739428148841097 0.00024191912017719529 0.012435585825861848 0.046557755091930345 0.0099262504872007998 0.00049502910302428227 -0.021250918725589606 -0.024484742569562037 -0.016519312840349288
leaf_weight=16.121026366949081 17.683736205101013 29.264421492815018 9.6388562917709368 9.8428171277046221 12.175214856863024 10.822270900011061 9.7988753616809863 12.169728547334669 17.298070877790455 14.193593412637709 13.709621787071226 18.055613428354263 9.5938211977481824 11.644923478364943 10.152792334556578 9.9660292267799395 11.817039251327513 15.786605626344679 9.4816743135452288 9.6788559257984144 17.230302274227146 9.6940939128398913 10.395863384008406 13.575285255908964 14.38262030482292 9.7099626362323743 9.3447857499122637 16.28933396935463 30.643235445022583 9.2174796164035779
leaf_count=50 57 95 30 31 38 35 30 38 53 45 43 57 30 37 32 32 38 50 30 31 55 31 33 43 44 30 30 53 99 30
internal_value=0.000698202 -0.00719385 0.00825072 -0.009598 0.0106082 0.00555899 0.0224572 -0.00533825 0.0178407 0.00634914 0.029844 -0.00372921 0.0151442 0.00381279 0.0258884 -0.00731826 -0.0104186 0.00281556 -0.0159061 -0.00330345 -0.011275 -0.00774533 -0.0159874 0.00229547 0.0350763 0.0247543 -0.0207947 -0.0136026 -0.0213863 -0.0251197
internal_weight=419.379 205.103 214.276 188.982 196.592 138.88 57.7116 73.8875 64.9929 33.9852 31.0077 124.866 19.4366 23.8201 19.7916 105.429 87.3734 25.7526 61.6208 19.1605 61.7178 50.8955 27.6262 23.2694 33.8915 19.5088 64.116 25.6341 42.4603 38.4819
internal_count=1330 656 674 606 617 438 179 235 203 107 96 398 61 75 62 337 280 82 198 61 197 162 88 74 104 60 208 83 137 125
is_linear=0
shrinkage=0.03


Tree=7
num_leaves=31
num_cat=0
split_feature=46 54 48 25 37 34 70 39 58 34 48 64 42 43 47 52 25 37 23 25 6 32 40 5 33 56 15 69 28 57
split_gain=17.3498 10.3583 8.87236 8.40283 7.28176 7.77052 11.5119 9.05963 8.18417 7.37524 7.03843 9.03281 8.22905 8.6684 6.64192 6.38784 6.19123 6.44002 6.51929 8.8248 8.00474 5.72924 5.36479 4.68515 4.21803 4.13435 3.84974 3.75968 3.23064 2.75502
threshold=0.72635707259178173 0.024151939898729328 0.089253440499305739 0.28192134201526647 76.163829803466811 0.017749834805727008 -0.0776829458773136 -0.019719719886779782 -0.007928723003715275 0.05405546352267266 0.10365679487586023 0.0208684615790844 0.62567502260208141 0.46098400652408605 0.3255962878465653 -0.11831246316432951 0.25138086080551153 34.979230880737312 0.11463637277483942 0.20231024920940402 0.20714285969734195 -0.046181518584489815 -0.023020841181278225 0.20936453342437747 0.0051930660847574481 351312240.00000006 0.17284182459115985 -0.2199536710977554 24.500000000000004 1.6078024506568911
decision_type=2 2 2 2 2 2 2 8 2 2 2 2 2 10 2 2 2 2 2 2 8 2 10 8 2 2 2 2 2 2
left_child=1 2 29 10 5 -2 9 -8 -9 21 11 -4 13 14 25 -16 17 -15 28 20 -20 22 -7 -24 -17 -12 -10 -28 -19 -1
right_child=4 -3 3 -5 -6 6 7 8 26 -11 12 -13 -14 16 15 24 -18 18 19 -21 -22 -23 23 -25 -26 -27 27 -29 -30 -31
leaf_value=-0.022150609507503784 -0.026358983731600026 -0.015327902388721783 0.0031357549854465747 -0.01375648011729662 -0.02971696528915517 -0.022734484295407906 0.020482419302159442 0.015780382898474957 0.0028155503924493647 0.0061126349865976417 0.010589011326454388 0.036281037683545285 0.027895594276126826 0.015778560084274803 0.036558414866584794 -0.0028551852821737211 0.02034432882620479 -0.025470553897740514 -0.0082364300950894878 -0.015275758857395464 0.021704287469961274 -0.024165629945386579 0.015513923328383658 -0.010908116955674634 0.020861186484205443 -0.011198337574534617 -0.025117692884147825 -0.003009864897277924 -0.007072442617280416 -0.0013140222804117407
leaf_weight=10.67878493666649 14.183732241392134 21.428311884403229 12.999280601739885 14.689167022705076 11.32430663704872 11.083203852176664 21.284712314605713 16.18439108133316 16.539133667945862 16.565510749816895 20.191658616065983 16.832370400428772 14.548011988401411 13.695728331804274 14.255167424678801 10.834934711456301 10.797351807355879 15.068403840065001 12.24612373113632 17.594403177499771 20.224304765462875 35.159571826457977 10.770147800445558 11.430199086666105 15.999055027961729 11.474805772304533 14.668215513229372 12.954456657171248 20.85735872387886 11.439264833927153
leaf_count=30 40 60 36 41 32 31 59 45 46 46 56 46 40 38 39 30 30 42 34 49 56 99 30 32 44 32 41 36 58 32
internal_value=-0.000397545 0.00428347 0.00592448 0.00759345 -0.00734753 -0.00579088 -0.0038934 0.00413227 -0.00187447 -0.0115586 0.0090254 0.022408 0.00690437 0.00509544 0.0130598 0.0208732 -0.000219363 -0.00262662 -0.0057057 0.00132212 0.0105035 -0.0158621 -0.0066415 0.00202631 0.0115265 0.00259292 -0.00855077 -0.015217 -0.01527 -0.0118971
internal_weight=478.002 285.854 264.426 242.308 192.148 180.823 166.64 81.6309 60.3462 85.0086 227.619 29.8317 197.787 183.239 72.7556 41.0892 110.484 99.6863 85.9906 50.0648 32.4704 68.4431 33.2836 22.2003 26.834 31.6665 44.1618 27.6227 35.9258 22.118
internal_count=1330 793 733 671 537 505 465 227 168 238 630 82 548 508 201 113 307 277 239 139 90 192 93 62 74 88 123 77 100 62
is_linear=0
shrinkage=0.03


Tree=8
num_leaves=29
num_cat=0
split_feature=33 46 25 47 46 36 48 35 28 70 40 66 28 40 43 38 46 38 66 37 52 63 31 32 51 28 35 43
split_gain=20.1427 19.1232 20.4499 18.1897 11.7904 10.5336 17.0972 10.3846 8.32058 7.7174 12.5108 10.2054 9.95892 12.0495 7.70818 11.1797 7.61095 7.55392 7.43111 4.50007 4.41506 4.29534 4.82331 4.17645 6.68068 2.59077 2.3988 2.38398
threshold=-0.13762260973453519 0.39132554829120642 0.26214715838432318 0.50391513109207164 0.86185732483863842 0.025085248053073887 0.12125867232680322 0.025719883851706985 31.500000000000004 -0.097924102097749696 0.0038255851250141863 -517.15200805664051 27.500000000000004 -0.0017764306394383309 2.2507820129394536 0.023605216294527057 0.68384838104248058 -0.0041837147437036029 -282.36515808105463 48.761896133422859 -0.14198955893516538 0.018580019474029544 1.0000000180025095e-35 -0.0021538673900067802 -0.43533080816268915 89.500000000000014 0.022330926731228832 0.54881301522254955
decision_type=2 2 2 2 2 2 2 2 2 2 10 2 2 10 10 2 2 2 2 2 2 2 2 2 2 2 2 10
left_child=4 19 5 27 16 6 17 8 -8 11 20 12 -7 -14 15 -12 -1 -3 -13 -2 23 -5 -23 24 -11 -15 -22 -4
right_child=1 2 3 21 -6 9 7 -9 -10 10 14 18 13 25 -16 -17 -18 -19 -20 -21 26 22 -24 -25 -26 -27 -28 -29
leaf_value=0.022257777813265149 0.034140595275153687 0.0029519057113730832 0.021138966324900792 0.012928310853758455 0.037880821723176687 -0.025540016357084961 0.042703935564567953 -0.0084171062185697081 0.0076482299776975344 0.013816573425810398 0.023002031853551267 0.028650718142803747 0.019975120799472414 -0.0034780830629065817 -0.019412173677884951 -0.012141225666632775 -0.0096651345946499045 -0.025056235511326675 -0.0040472432403398546 0.0073837136362596778 -0.01086324323441013 0.0055851759499972739 -0.023134010313869195 -0.02572550387458418 -0.016340811356278854 -0.025489625692431281 -0.025548777154047301 0.046064961394507574
leaf_weight=11.862012922763826 13.214766144752504 16.071436077356339 9.7072760462760943 11.169752627611162 16.863645792007446 20.463646084070206 13.590564191341402 9.3952057361602765 11.364097863435743 11.004215568304062 17.499540925025943 12.507515609264376 14.961489230394362 9.72687476873398 12.393573880195616 13.705998778343199 13.21549344062805 17.340789765119553 11.244364082813261 10.542620480060576 14.335890561342238 9.4774584174156207 10.01251098513603 9.3967502117156965 13.760304778814316 9.2940012812614423 65.080783724784851 9.7393060922622663
leaf_count=37 41 51 30 35 52 66 42 30 36 35 55 39 47 31 40 44 42 56 36 33 46 30 32 30 44 30 210 30
internal_value=-0.000245472 -0.00245676 -0.00423208 0.0133474 0.0192257 -0.00717217 0.00321373 0.0178258 0.0276497 -0.0101631 -0.0139761 -0.00241931 -0.00954169 0.000546946 -0.000291939 0.00766881 0.00570933 -0.0118899 0.0136331 0.0230448 -0.0191807 -0.00122903 -0.00957762 -0.00974936 -0.00292411 -0.0149693 -0.0230659 0.0352649
internal_weight=418.942 377.001 353.243 50.1063 41.9412 303.137 67.7621 34.3499 24.9547 235.375 157.177 78.1979 54.446 33.9824 43.5991 31.2055 25.0775 33.4122 23.7519 23.7574 113.578 30.6597 19.49 34.1613 24.7645 19.0209 79.4167 19.4466
internal_count=1330 1199 1125 157 131 968 215 108 78 753 504 249 174 108 139 99 79 107 75 74 365 97 62 109 79 61 256 60
is_linear=0
shrinkage=0.03


Tree=9
num_leaves=31
num_cat=0
split_feature=44 48 31 36 41 43 63 48 52 32 48 5 66 63 44 32 26 30 70 28 46 58 40 39 36 54 31 69 23 35
split_gain=26.3293 14.3419 13.915 13.3472 12.2616 15.6219 14.073 11.6781 10.9532 10.3221 9.26978 5.89689 5.52905 5.32929 5.94939 8.77335 7.87018 5.27105 5.26484 4.95308 4.63502 4.62189 3.32221 7.36272 3.25134 2.75826 1.84328 3.21402 1.30615 0.28608
threshold=0.57814946770668041 0.087012495845556273 -0.037025636062026017 0.026150185614824299 2.9264143705368046 0.62792497873306286 0.033495604991912849 0.21013093739748004 -0.170793741941452 0.14372726529836657 0.12656049430370334 -0.054083626717329018 1335.496276855469 0.035132668912410743 0.45548179745674139 -0.046181518584489815 0.090137775987386717 -0.0046563667710870496 -0.01669087819755077 648.50000000000011 2.6191390752792363 -0.00078866808325983573 -0.0072075813077390185 -0.0034969592234119769 0.045065391808748252 0.011638015974313022 0.014739259611815216 0.29360537230968481 0.045033564791083343 0.024170060642063621
decision_type=2 2 2 2 2 10 2 2 2 2 2 10 2 2 2 2 2 2 2 2 2 2 10 8 2 2 2 2 2 2
left_child=1 -1 11 26 5 6 18 12 -9 20 -5 -2 19 14 28 -16 -17 -15 25 -7 -10 -18 24 -24 -13 -4 29 -28 -12 -3
right_child=2 3 4 10 -6 7 -8 8 9 -11 13 22 -14 17 15 16 21 -19 -20 -21 -22 -23 23 -25 -26 -27 27 -29 -30 -31
leaf_value=0.01922307324509832 0.015897042041626022 -0.026893408333547496 0.049014287173043909 0.015399828219134199 0.035751016082125164 -0.023059380194024995 -0.0087272587655811418 -0.0083969370535491774 0.018510517079083254 -0.003907899444493019 -0.026446371646229622 -0.023343295276452004 0.008796354632985233 -0.011729502045609033 -0.022595474209951821 0.023735285728381451 -0.020111827161126389 0.015426955124646292 0.015441308171768309 0.001590362569911687 0.047333388036387807 0.0066290623609719925 0.018512611305744157 -0.015077123331245763 -0.0018454079347348608 0.023639529353231482 -0.0039727978647979834 -0.025437028231238237 -0.013111361798323779 -0.016238180406776395
leaf_weight=16.278641104698181 9.6432814896106702 28.798253059387207 13.850805282592772 18.580606579780579 17.366000592708588 21.702877789735794 9.4695238769054395 15.34698513150215 13.480949223041536 9.8248507380485517 16.550157785415649 16.771872699260715 11.000894099473951 9.6862692534923571 14.328676283359526 11.512303650379179 9.8931626081466657 15.358366817235945 14.465881049633028 10.658028244972227 9.892767131328581 11.705370247364046 9.6757360696792585 12.055270463228227 10.121120780706404 9.7441906034946424 15.077226728200914 10.342795282602308 16.892503023147583 9.1212024986743909
leaf_count=50 30 95 42 58 53 70 30 49 42 31 54 54 35 31 46 36 32 49 45 33 30 37 30 38 32 30 49 34 55 30
internal_value=0.000677852 -0.00702199 0.0079845 -0.00938611 0.0126144 0.00949885 0.0232706 0.00220289 0.0121923 0.0216775 -0.0036206 -0.00447769 -0.00900346 -0.00706979 -0.0107834 -0.00380335 0.00475293 0.00487683 0.0312513 -0.0151367 0.0321511 -0.0059675 -0.0087574 3.51867e-05 -0.0156088 0.0399223 -0.020487 -0.0133383 -0.0202868 -0.0248135
internal_weight=419.197 204.126 215.071 187.847 156.804 139.438 47.5304 91.9074 48.5456 33.1986 124.507 58.2673 43.3618 105.927 80.8822 47.4395 33.1108 25.0446 38.0609 32.3609 23.3737 21.5985 48.624 21.731 26.893 23.595 63.3395 25.42 33.4427 37.9195
internal_count=1330 656 674 606 490 437 147 290 152 103 398 184 138 340 260 151 105 80 117 103 72 69 154 68 86 72 208 83 109 125
is_linear=0
shrinkage=0.03


Tree=10
num_leaves=31
num_cat=0
split_feature=46 54 48 25 10 48 64 42 43 47 52 25 22 41 27 69 26 16 48 34 35 70 48 27 34 32 53 57 36 25
split_gain=16.4639 9.93595 8.38879 7.99701 6.89093 6.58181 8.53559 7.71472 8.24734 6.30262 8.54013 5.92155 5.66513 5.27922 6.47954 5.65627 5.21065 4.83129 4.68385 4.58296 5.60754 6.45283 8.1679 5.23241 5.09193 3.82868 3.22957 2.66738 2.56028 2.10343
threshold=0.72635707259178173 0.024151939898729328 0.089253440499305739 0.28192134201526647 0.16339022666215899 0.10365679487586023 0.021488103084266189 0.62567502260208141 0.46098400652408605 0.32004857063293463 -0.11831246316432951 0.25138086080551153 0.21665770560503009 0.47630713880062109 0.11054606735706331 -0.21439934521913526 0.052771333605051048 0.36613294482231146 0.21127264201641086 0.017749834805727008 0.027527204714715484 -0.055968509986996644 0.59188121557235729 0.068798538297414794 0.05405546352267266 -0.059199359267950051 0.0015932794194668534 1.6078024506568911 0.043944001197814948 0.20393545180559161
decision_type=2 2 2 2 8 2 2 2 10 2 2 2 2 2 2 2 2 10 2 2 2 2 2 2 2 2 2 2 2 2
left_child=1 2 27 5 17 6 -4 8 9 18 -11 12 13 -10 -15 26 -12 -2 -7 -6 -21 24 23 -23 25 28 -16 -1 -22 -14
right_child=4 -3 3 -5 19 7 -8 -9 11 10 16 -13 29 14 15 -17 -18 -19 -20 20 21 22 -24 -25 -26 -27 -28 -29 -30 -31
leaf_value=-0.021732364871286342 0.014503938543189439 -0.015075395457037438 0.0041727828349107333 -0.013478185511071552 -0.027192855545303627 -0.013125171656993725 0.03612878982194042 0.02698883112708763 -0.012172291016682515 0.036609950685455736 -0.006415141409594264 0.019851029055474843 -0.0057382688754952617 0.020579766493181956 0.020021639222080514 -0.013277010169812396 0.018697519190300969 -0.0065593644430761225 0.011327813106790156 0.0063822600320975328 0.00027149219526096427 -0.009805233087901306 -0.019330849162148361 0.0150522900456903 5.7452960296818926e-06 -0.025814239945268214 -0.0024738444418119254 -0.0011976688858214492 -0.018874110337878711 -0.023366721168321353
leaf_weight=10.601329922676088 19.092889815568924 21.350106209516525 14.121290206909181 14.633601725101469 11.943888306617735 11.129867017269136 15.848151534795759 14.641930490732191 17.887806504964828 15.80389094352722 11.21691554784775 10.843686312437056 13.289647191762926 17.775703638792038 10.82705813646316 17.231208115816123 18.924302697181702 18.288158655166626 15.845301747322081 19.441785901784897 11.775984019041063 10.742966800928114 15.218368351459501 21.291031926870346 14.397436290979384 37.03185960650444 10.786250770092009 11.421889364719389 12.416243046522139 11.804347664117811
leaf_count=30 53 60 39 41 34 31 43 40 50 43 31 30 37 49 30 48 52 51 44 54 33 30 43 59 40 105 30 32 35 33
internal_value=-0.000386308 0.0041684 0.00577185 0.00738966 -0.00716963 0.00878216 0.0216924 0.00672895 0.00497357 0.0127295 0.0193705 -0.000215428 -0.00257567 0.00161672 0.00610868 -0.000863762 0.00944606 0.0042966 0.00113007 -0.00995796 -0.00833187 -0.0106927 -0.00192998 0.00667157 -0.0160715 -0.0197916 0.00918219 -0.0115971 -0.00991381 -0.0146085
internal_weight=477.625 285.984 264.634 242.611 191.641 227.977 29.9694 198.008 183.366 72.9203 45.9451 110.446 99.602 74.508 56.6202 38.8445 30.1412 37.381 26.9752 154.26 142.316 122.874 47.2524 32.034 75.6215 61.2241 21.6133 22.0232 24.1922 25.094
internal_count=1330 793 733 671 537 630 82 548 508 201 126 307 277 207 157 108 83 104 75 433 399 345 132 89 213 173 60 62 68 70
is_linear=0
shrinkage=0.03


Tree=11
num_leaves=30
num_cat=0
split_feature=46 25 47 66 32 46 62 66 43 44 54 66 65 49 43 41 59 36 24 49 5 57 34 36 48 27 49 32 5
split_gain=15.312 16.577 14.9583 14.0896 14.0095 10.732 9.76442 8.17491 7.66779 9.10801 6.94332 6.86143 6.63855 5.81561 5.64724 14.9177 5.43486 6.37121 3.92266 4.39828 3.74651 3.61479 4.48823 3.03696 3.06177 1.58757 1.45283 1.1196 0.579242
threshold=0.3852218389511109 0.26214715838432318 0.50391513109207164 -204.14979553222653 -0.028460902161896225 2.7519339323043828 0.10787429660558702 -517.15200805664051 0.58536198735237133 0.43551082909107214 0.0094659328460693377 -381.30854797363276 64.559387207031264 0.13155687600374225 0.48969699442386633 0.51269999146461498 0.41666667163372045 0.033724496141076095 0.054000716656446464 0.11482806876301767 -0.048233432695269578 1.6443741321563723 0.023274104110896591 0.037537608295679099 0.33930380642414099 0.10899446904659273 0.029984990134835247 0.020335776731371883 0.26896141469478613
decision_type=2 2 2 2 2 2 2 2 8 2 2 2 2 2 10 2 2 2 2 2 8 2 2 2 2 2 2 2 8
left_child=-1 3 12 4 5 8 14 23 9 -2 -10 -9 -3 -4 20 -16 17 25 -12 -20 -5 22 -18 -6 -25 -17 -22 -24 -23
right_child=1 2 13 6 7 -7 -8 11 10 -11 18 -13 -14 -15 15 16 21 -19 19 -21 26 28 27 24 -26 -27 -28 -29 -30
leaf_value=0.025653778286808107 -0.0031209353739581813 0.012759666090978896 -0.01209886402995506 -0.002029695842949561 -0.0023997915347742571 0.039024410681517942 0.012319316399003301 0.023435683615859272 -0.020764936670296951 0.033528830371251671 -0.0086044324107266718 -0.0083654077324805884 0.047731747709409675 0.012338203953134851 0.021161966393747421 -0.0039638343685053003 0.0025302829563186584 0.010496530587335857 0.027488853660767986 -0.000525752553722604 -0.026354345556153951 -0.025885897157193197 -0.022579616170817128 -0.024270639786963429 -0.0055730963975488346 -0.02071110290830027 -0.011233537537576934 -0.0081239532770835919 -0.01401233180506156
leaf_weight=18.599249094724655 9.4953740537166613 9.7036803662776965 15.367937892675398 9.2547909021377546 18.480331659317017 10.400351971387861 16.485113888978958 12.042731761932375 10.589148342609404 15.318461358547209 9.4359500706195849 10.73955988883972 11.343568801879881 17.876361161470413 13.373545140027998 9.9828025102615374 16.319873005151749 18.183179974555969 9.6061395108699816 9.5471156537532789 32.846185326576233 24.932860493659973 14.791658669710161 21.599443703889847 13.241458445787428 10.807848513126372 9.5404673516750318 9.3113400638103467 9.3372917771339399
leaf_count=57 30 30 49 30 59 32 52 37 34 48 30 34 34 56 42 32 52 58 30 30 107 81 48 70 42 35 31 30 30
internal_value=-0.000238192 -0.00150324 0.0137566 -0.00393279 0.00295503 0.0121343 -0.00923207 -0.00605889 0.0072308 0.0199267 -0.00110602 0.00872326 0.0329182 0.00101818 -0.0112779 -0.00777268 -0.0113319 -0.00216969 0.00663114 0.0141915 -0.0195894 -0.0160208 -0.00957235 -0.0124191 -0.0175183 -0.0132207 -0.0232883 -0.0175413 -0.0231398
internal_weight=418.554 399.955 54.2915 345.663 150.496 74.3925 195.167 76.1035 63.9922 24.8138 39.1784 22.7823 21.0472 33.2443 178.682 127.04 113.667 38.9738 28.5892 19.1533 51.6414 74.693 40.4229 53.3212 34.8409 20.7907 42.3867 24.103 34.2702
internal_count=1330 1273 169 1104 476 234 628 242 202 78 124 71 64 105 576 408 366 125 90 60 168 241 130 171 112 67 138 78 111
is_linear=0
shrinkage=0.03


Tree=12
num_leaves=29
num_cat=0
split_feature=44 48 38 36 31 43 36 49 66 28 41 48 47 54 39 52 36 55 36 46 27 49 51 27 34 69 54 5
split_gain=24.9343 13.6031 13.4283 12.9187 11.5706 13.6049 13.9507 19.8782 10.0208 9.41272 21.6601 8.88807 6.5711 5.88154 5.11988 6.44805 7.70226 5.2619 5.25969 4.54037 2.85077 2.53634 2.38864 2.01966 1.87475 3.59483 1.34241 0.903339
threshold=0.57814946770668041 0.087012495845556273 -0.073877859860658632 0.026150185614824299 -0.037025636062026017 2.3200449943542485 0.073580253869295134 0.048937905579805381 -680.62496948242176 36.500000000000007 0.62393572926521312 0.12656049430370334 2.6911807060241704 0.012483674101531507 -0.022449064999818798 -0.15753379464149472 0.029631555080413822 0.043717898428440101 0.053020708262920387 2.3341255187988286 0.1516104340553284 0.11164413020014764 -0.069617789238691316 0.14049758017063144 0.024328135885298256 0.22641759365797046 0.011571483686566355 0.085660584270954146
decision_type=2 2 2 2 2 8 2 2 2 2 2 2 2 2 10 2 2 2 2 2 2 2 2 2 2 2 2 8
left_child=1 -1 -2 24 8 6 7 9 -4 10 -6 -5 13 -7 -13 -16 17 -17 23 20 21 -9 26 -18 27 -26 -10 -3
right_child=2 3 4 11 5 12 -8 19 22 -11 -12 14 -14 -15 15 16 18 -19 -20 -21 -22 -23 -24 -25 25 -27 -28 -29
leaf_value=0.018569220330148174 -0.016816147007273057 -0.013473848117707195 0.016306401835322164 0.015035037906979088 -0.014454724595959499 0.051785770334356454 0.039522197212619084 -0.026467982859986465 -0.0087950383833031061 0.041736946401997883 0.032408728344914178 0.0072957018817962202 0.012418899829943058 0.020091464291937946 -0.023848963343558408 0.022879417707400651 -0.026367833985313911 -0.0062335053975316797 0.0020065094906144888 0.004926845625557264 4.3636227268527708e-05 -0.0064123386894793868 -0.0024725627495676612 -0.0096803300660252226 0.00074857967820196256 -0.023078626035146335 -0.025857412882520071 -0.026737527895141631
leaf_weight=16.428424149751663 17.480654865503311 9.3487167060375196 16.77000430226326 18.681399464607239 15.984167933464049 13.212561786174776 10.647042036056517 15.438822865486147 9.476660758256914 11.180608689785002 17.807970881462097 18.100360721349716 15.407642453908919 11.593888044357298 21.426485568284988 11.149249494075777 15.917107969522478 9.7120678722858411 15.662669807672499 15.868884056806563 9.4328757226467115 9.9036338627338392 16.110702157020569 13.535986691713331 10.403462380170824 11.440106034278868 9.4494781494140607 31.385782659053802
leaf_count=50 57 31 52 58 51 39 32 50 30 34 54 57 47 35 71 35 52 31 50 50 30 32 51 44 34 38 30 105
internal_value=0.00065818 -0.00686621 0.00774308 -0.00919059 0.00998172 0.0142671 0.00849571 0.00466758 -0.00217551 0.0189769 0.0104633 -0.00352869 0.0289416 0.0383252 -0.00692604 -0.00992043 -0.00510851 0.00966063 -0.0119991 -0.00816073 -0.0141037 -0.0191713 -0.0112287 -0.0192683 -0.0201943 -0.0121944 -0.0181841 -0.0240893
internal_weight=418.957 203.192 215.766 186.763 198.285 146.478 106.264 95.617 51.8068 44.9727 33.7921 124.185 40.2141 24.8064 105.504 87.4036 65.9771 20.8613 45.1158 50.6442 34.7753 25.3425 35.0368 29.4531 62.5781 21.8436 18.9261 40.7345
internal_count=1330 656 674 606 617 454 333 301 163 139 105 398 121 74 340 283 212 66 146 162 112 82 111 96 208 72 60 136
is_linear=0
shrinkage=0.03


Tree=13
num_leaves=31
num_cat=0
split_feature=49 64 54 40 34 66 46 38 69 35 65 65 34 25 47 31 60 55 33 42 49 38 32 25 26 30 42 58 66 50
split_gain=15.6452 8.6515 9.37281 8.95286 6.86435 6.67177 7.79053 6.38171 8.23852 5.706 10.7497 4.94615 9.22542 8.65836 4.9953 4.8763 4.61798 4.60223 4.4833 3.70848 3.33711 4.49896 7.39331 3.24862 5.49176 3.03306 2.98369 2.56616 2.23697 1.83424
threshold=0.035565583035349853 0.024425627663731578 0.021797046996653083 -0.0052609376143664113 0.017749834805727008 -827.72375488281239 0.39132554829120642 -0.0075327393133193246 -0.59661152958869923 0.027191456407308582 53.928894042968757 53.023525238037116 0.05405546352267266 0.2146539390087128 1.8248400688171389 -0.013575040735304354 -0.0099737145937979204 0.060826124623417861 0.027579581364989284 0.50484251976013195 0.18294408917427066 -0.020697217434644696 -0.04320139437913894 0.080642372369766249 0.1937062740325928 0.0009107695077545942 0.60358497500419628 0.00060163307352922868 -94.643890380859361 -0.11050285026431082
decision_type=2 2 2 10 2 2 2 2 2 2 2 2 2 2 2 2 2 2 2 2 2 2 2 2 2 2 2 2 2 2
left_child=1 3 5 -1 -2 -3 -7 8 -5 10 -6 12 20 18 -15 -8 -17 23 -13 -18 21 22 -11 -9 -25 -10 -14 -20 -23 -24
right_child=4 2 -4 7 9 6 15 17 25 11 -12 13 26 14 -16 16 19 -19 27 -21 -22 28 29 24 -26 -27 -28 -29 -30 -31
leaf_value=0.02111218459059664 -0.025679212645366028 -0.0010674907010283113 -0.01359495998506881 0.026653486897066668 0.023480803702634293 -0.0031724978995852381 0.033216669615186413 -0.0020196421744985873 0.0085374433786742539 0.0084170482680016971 -0.010671779219964693 0.025111712150766689 -0.0068324335930778088 -0.020103120901775965 0.0026243081080971195 0.031560839288458542 0.020436826756418832 0.0049068682617318489 0.012273692370292884 0.0009553557662362245 -0.025027409405230964 -0.024637149628263938 -0.0065359539893162389 -0.026592212743258979 -0.0026803153828762897 -0.01124358445187049 0.011300959573332141 -0.0075306628511545379 -0.0071837945036369926 -0.024523872648272313
leaf_weight=14.193536818027495 13.679085254669188 21.281534284353256 11.736412853002546 11.314611762762068 16.31237301230431 13.211517244577406 22.361420959234238 17.259302854537964 11.180223196744921 20.046866357326508 15.085620999336241 11.668054789304732 12.876329094171522 19.008023977279663 15.038814246654509 11.306607365608214 14.935566037893294 16.459778934717178 10.836151003837587 19.854844927787781 20.727870374917984 22.308310449123383 10.636172026395798 22.88760894536972 13.929479837417601 15.445086598396299 19.131006449460983 10.779067188501356 10.729325026273726 10.934969186782837
leaf_count=39 39 59 33 31 45 37 61 48 31 56 42 32 36 54 42 31 41 46 30 55 59 63 30 64 39 43 53 30 30 31
internal_value=-0.000374663 0.00507476 0.0109603 -0.00047192 -0.0057673 0.0138634 0.0177199 -0.00346314 0.00635116 -0.00445496 0.00724879 -0.00636954 -0.00982317 0.000212976 -0.0102758 0.0217395 0.0155849 -0.00875703 0.0109291 0.00965611 -0.014462 -0.0112365 -0.00449558 -0.0129296 -0.0178554 -0.00292897 0.00402003 0.00250137 -0.0193466 -0.016337
internal_weight=477.156 237.358 114.688 122.67 239.798 102.951 81.67 108.476 37.9399 226.119 31.398 194.721 127.391 67.3301 34.0468 68.4584 46.097 70.5362 33.2833 34.7904 95.3835 74.6556 41.618 54.0764 36.8171 26.6253 32.0073 21.6152 33.0376 21.5711
internal_count=1330 658 317 341 672 284 225 302 105 633 87 546 358 188 96 188 127 197 92 96 269 210 117 151 103 74 89 60 93 61
is_linear=0
shrinkage=0.03


Tree=14
num_leaves=31
num_cat=0
split_feature=33 36 37 65 38 46 46 70 66 40 40 64 64 28 40 38 43 43 33 35 22 16 63 34 45 25 28 58 51 50
split_gain=18.6675 17.8891 18.6067 16.3217 14.4333 12.0416 10.6013 9.7875 12.2624 10.425 10.2015 9.53915 9.74946 9.09687 10.4362 8.3794 7.83343 7.29061 7.23207 6.80351 5.2771 4.32189 3.72795 6.41466 3.32207 1.85288 0.920252 0.753903 0.326287 0.0123618
threshold=-0.13762260973453519 0.025933937169611457 76.87866592407228 67.740001678466811 -0.0041837147437036029 0.3852218389511109 0.86185732483863842 -0.097057238221168504 -517.15200805664051 0.0043422905728220948 0.02164275944232941 0.018303623422980312 0.015723290853202346 27.500000000000004 0.0022447110386565332 0.025396547280251983 0.47471299767494207 0.62611499428749096 0.051658669486641891 0.036325141787528999 0.11952194571495058 0.33227176964282995 0.015280990395694973 0.02055127173662186 0.53051960468292247 0.0055198494810611018 90.500000000000014 0.0039810489397495994 -0.57081764936447132 0.13817128539085391
decision_type=2 2 2 2 2 2 2 2 2 10 10 2 2 2 10 2 10 10 2 2 2 10 2 2 2 2 2 2 2 2
left_child=6 3 5 4 11 -3 17 8 13 22 15 12 -2 -7 21 19 -10 -1 29 -11 -13 -15 23 -9 -5 -24 27 -27 -25 -6
right_child=1 2 -4 24 18 7 -8 9 16 10 -12 20 -14 14 -16 -17 -18 -19 -20 -21 -22 -23 25 28 -26 26 -28 -29 -30 -31
leaf_value=0.020565018336657925 0.018435661176170869 0.017713773344154603 0.030580387047071948 0.044367112173757516 -0.025785392230652002 -0.025000977553293082 0.035828711492877488 0.0061406603356748447 -0.0059379537019169076 0.0029240393303824426 -0.020240916963987932 0.011079758688746139 -0.018729555654500164 0.026706600383406959 -0.018766335851140376 -0.012410043934063234 0.027216602730986004 -0.010605374904486986 0.0060369637584626497 0.035370497548321479 0.043380620543818416 0.00092216828489046269 -0.0077409244313628089 -0.013535733250199033 0.017291778462998293 -0.026792178795607729 -0.012762724942783904 -0.01720463500633411 -0.025163461557895086 -0.016395539719292602
leaf_weight=12.871747046709062 12.224654763936998 14.818570345640181 10.903988450765608 9.9108991920948046 11.886758685112001 19.13612562417984 17.256691217422485 13.715788513422011 9.4660550057888049 13.218705087900164 17.605522990226746 9.5071690678596514 11.225859403610228 9.7073740959167498 14.99611723423004 12.102054536342619 17.069682627916336 12.275944620370863 11.816109538078306 9.6732925772666913 9.7225804328918439 13.062669694423674 9.2194093167781812 9.1880218386650068 9.8521800339221937 48.798111796379089 10.519185721874235 18.110915333032608 9.130274564027788 9.1608164608478528
leaf_count=40 38 45 33 30 39 63 52 44 30 42 57 30 36 30 49 39 53 39 37 30 30 41 30 30 30 160 34 59 30 30
internal_value=-0.000232041 -0.00237785 -0.00619121 0.0087908 0.00228467 -0.00778632 0.0183988 -0.00933329 -0.000888666 -0.013418 -0.00224058 0.0136535 0.000606136 -0.00871616 -3.25748e-05 0.00712614 0.0156033 0.0055254 -0.0124473 0.0175413 0.0287482 0.0125757 -0.0183117 -0.00915571 0.0323526 -0.0215536 -0.0230786 -0.0244886 -0.0203338 -0.0226275
internal_weight=418.153 375.749 280.442 95.307 75.5439 269.538 42.4044 254.719 83.438 171.281 52.5996 42.6803 23.4505 56.9023 37.7662 34.9941 26.5357 25.1477 32.8637 22.892 19.2297 22.77 118.682 32.0341 19.7631 86.6476 77.4282 66.909 18.3183 21.0476
internal_count=1330 1199 899 300 240 866 131 821 266 555 168 134 74 183 120 111 83 79 106 72 60 71 387 104 60 283 253 219 60 69
is_linear=0
shrinkage=0.03


end of trees

feature_importances:
Column_48=27
Column_66=21
Column_36=20
Column_46=18
Column_43=17
Column_34=16
Column_40=16
Column_25=15
Column_28=14
Column_35=14
Column_32=13
Column_47=13
Column_27=12
Column_31=12
Column_38=12
Column_42=11
Column_63=11
Column_64=11
Column_41=10
Column_49=10
Column_54=10
Column_70=10
Column_5=9
Column_33=9
Column_37=9
Column_44=9
Column_39=8
Column_52=8
Column_58=7
Column_65=7
Column_69=7
Column_23=5
Column_26=5
Column_50=4
Column_51=4
Column_57=4
Column_15=3
Column_30=3
Column_56=3
Column_10=2
Column_14=2
Column_16=2
Column_22=2
Column_24=2
Column_45=2
Column_55=2
Column_60=2
Column_62=2
Column_6=1
Column_9=1
Column_53=1
Column_59=1

parameters:
[boosting: gbdt]
[objective: multiclass]
[metric: multi_logloss]
[tree_learner: serial]
[device_type: cpu]
[data_sample_strategy: bagging]
[data: ]
[valid: ]
[num_iterations: 600]
[learning_rate: 0.03]
[num_leaves: 31]
[num_threads: 0]
[seed: 0]
[deterministic: 0]
[force_col_wise: 0]
[force_row_wise: 0]
[histogram_pool_size: -1]
[max_depth: -1]
[min_data_in_leaf: 30]
[min_sum_hessian_in_leaf: 0.001]
[bagging_fraction: 0.9]
[pos_bagging_fraction: 1]
[neg_bagging_fraction: 1]
[bagging_freq: 5]
[bagging_seed: 3]
[bagging_by_query: 0]
[feature_fraction: 0.9]
[feature_fraction_bynode: 1]
[feature_fraction_seed: 2]
[extra_trees: 0]
[extra_seed: 6]
[early_stopping_round: 0]
[early_stopping_min_delta: 0]
[first_metric_only: 0]
[max_delta_step: 0]
[lambda_l1: 0]
[lambda_l2: 1]
[linear_lambda: 0]
[min_gain_to_split: 0]
[drop_rate: 0.1]
[max_drop: 50]
[skip_drop: 0.5]
[xgboost_dart_mode: 0]
[uniform_drop: 0]
[drop_seed: 4]
[top_rate: 0.2]
[other_rate: 0.1]
[min_data_per_group: 100]
[max_cat_threshold: 32]
[cat_l2: 10]
[cat_smooth: 10]
[max_cat_to_onehot: 4]
[top_k: 20]
[monotone_constraints: ]
[monotone_constraints_method: basic]
[monotone_penalty: 0]
[feature_contri: ]
[forcedsplits_filename: ]
[refit_decay_rate: 0.9]
[cegb_tradeoff: 1]
[cegb_penalty_split: 0]
[cegb_penalty_feature_lazy: ]
[cegb_penalty_feature_coupled: ]
[path_smooth: 0]
[interaction_constraints: ]
[verbosity: -1]
[saved_feature_importance_type: 0]
[use_quantized_grad: 0]
[num_grad_quant_bins: 4]
[quant_train_renew_leaf: 0]
[stochastic_rounding: 1]
[linear_tree: 0]
[max_bin: 255]
[max_bin_by_feature: ]
[min_data_in_bin: 3]
[bin_construct_sample_cnt: 200000]
[data_random_seed: 1]
[is_enable_sparse: 1]
[enable_bundle: 1]
[use_missing: 1]
[zero_as_missing: 0]
[feature_pre_filter: 1]
[pre_partition: 0]
[two_round: 0]
[header: 0]
[label_column: ]
[weight_column: ]
[group_column: ]
[ignore_column: ]
[categorical_feature: ]
[forcedbins_filename: ]
[precise_float_parser: 0]
[parser_config_file: ]
[objective_seed: 5]
[num_class: 3]
[is_unbalance: 0]
[scale_pos_weight: 1]
[sigmoid: 1]
[boost_from_average: 1]
[reg_sqrt: 0]
[alpha: 0.9]
[fair_c: 1]
[poisson_max_delta_step: 0.7]
[tweedie_variance_power: 1.5]
[lambdarank_truncation_level: 30]
[lambdarank_norm: 1]
[label_gain: ]
[lambdarank_position_bias_regularization: 0]
[eval_at: ]
[multi_error_top_k: 1]
[auc_mu_weights: ]
[num_machines: 1]
[local_listen_port: 12400]
[time_out: 120]
[machine_list_filename: ]
[machines: ]
[gpu_platform_id: -1]
[gpu_device_id: -1]
[gpu_use_dp: 0]
[num_gpu: 1]

end of parameters

pandas_categorical:null
