tree
version=v4
num_class=3
num_tree_per_iteration=3
label_index=0
max_feature_idx=70
objective=multiclass num_class:3
feature_names=Column_0 Column_1 Column_2 Column_3 Column_4 Column_5 Column_6 Column_7 Column_8 Column_9 Column_10 Column_11 Column_12 Column_13 Column_14 Column_15 Column_16 Column_17 Column_18 Column_19 Column_20 Column_21 Column_22 Column_23 Column_24 Column_25 Column_26 Column_27 Column_28 Column_29 Column_30 Column_31 Column_32 Column_33 Column_34 Column_35 Column_36 Column_37 Column_38 Column_39 Column_40 Column_41 Column_42 Column_43 Column_44 Column_45 Column_46 Column_47 Column_48 Column_49 Column_50 Column_51 Column_52 Column_53 Column_54 Column_55 Column_56 Column_57 Column_58 Column_59 Column_60 Column_61 Column_62 Column_63 Column_64 Column_65 Column_66 Column_67 Column_68 Column_69 Column_70
feature_infos=[-0.29647758603096008:0.52746760845184326] [0:1] [0:1] [0:1] [1:16] [-0.49710473418235779:0.51799881458282471] [0:1] [0:1] [0:1] [1:389] [-0.65735739469528198:0.7704806923866272] [0:1] [0:1] [0:1] [1:31] [-0.49710473418235779:0.46181789040565491] [0:1] [0:1] [0:1] [0:389] none none [-0.49710473418235779:0.46181789040565491] [-0.49710473418235779:0.46181789040565491] [-0.49710473418235779:0.46181789040565491] [-0.13055290281772614:0.38718521595001221] [-0.065115898847579956:0.34349846839904785] [0:0.2784406840801239] [2:1638] [2:908] [-0.17384268343448639:0.21880504488945007] [-0.29685837030410767:0.42632418870925903] [-0.40267550945281982:0.48502764105796814] [-0.44855311512947083:0.49054127931594849] [0.0031853108666837215:0.12388564646244049] [0.0061286971904337406:0.087127633392810822] [0.007839590311050415:0.066507764160633087] [19.476335525512695:87.465171813964844] [-325.87701416015625:317.59671020507812] [-291.8492431640625:294.35494995117188] [-103.30968475341797:104.84266662597656] [1083.3399658203125:4626.478515625] [1119.2774658203125:4484.07763671875] [1222.380859375:4406.65771484375] [1128.05810546875:4516.134765625] [1204.33984375:4442.4521484375] [1245.19873046875:5021.06787109375] [744.76202392578125:4177.37744140625] [0.033432282507419586:0.9272882342338562] [33.678573608398438:270.38473510742188] [-0.82737761735916138:4.2153692245483398] [-2.2494876384735107:21.43937873840332] [-0.51295280456542969:0] [-0.17384886741638184:0.21880504488945007] [0.00070384453283622861:0.073517434298992157] [0.0042891758494079113:0.2773793637752533] [58519.62109375:3626351.75] [1.0399078130722046:2.0331277847290039] [-0.080750487744808197:0.083785392343997955] [0:1] [-0.15379838645458221:0.14485582709312439] [-0.2383464127779007:0.20691065490245819] [-0.33259490132331848:0.35951325297355652] [0.0031643849797546864:0.085850544273853302] [0.0087705496698617935:0.050428587943315506] [18.635524749755859:89.3983154296875] [-5907.96484375:7019.05517578125] [0:1] [0:1] [-2.3075559139251709:15.573112487792969] [-0.40345379710197449:0]
tree_sizes=3307 3357 3309 3453 3452 3445 3434 3451 3443 3453 3436 3449 3449 3441 3436 3444 3435 3430 3345 3443 3231 3441 3435 3441 3452 3440 3454 3448 3422 3438 3444 3438 3440 3447 3447 3442 3457 3425 3454 3457 3445 3446 3440 3460 3456 3327 3461 3440 3218 3447 3461 3438 3459 3464 3343 3445 3447

Tree=0
num_leaves=31
num_cat=0
split_feature=49 61 31 31 47 40 70 55 37 50 23 47 63 50 50 63 34 55 65 52 61 23 49 58 43 27 64 26 55 22
split_gain=18.3376 8.78723 7.62001 9.13405 7.43488 9.15045 8.57358 6.1058 5.79664 5.72082 5.75849 6.22761 5.54824 5.32072 5.59826 5.27197 4.6588 4.67653 4.55098 4.48519 3.98598 3.92484 3.92479 3.59383 3.57867 3.52605 2.82013 2.26257 2.2368 1.91096
threshold=89.707229614257827 -0.034966133534908288 0.022323296405375007 0.043556112796068198 2789.575805664063 -24.22220420837402 -0.030972395092248913 0.043635634705424316 47.348642349243171 -0.36317215859889979 0.097683884203434004 1775.9966430664065 0.020314436405897144 0.14255890250205996 -0.25659924745559687 0.035241434350609786 0.046346928924322135 0.027031745761632923 58.826759338378913 -0.01020669564604759 -0.016335933469235894 0.019940675236284736 181.10405731201175 0.002972904010675848 2517.8623046875005 0.048193700611591346 0.026662928983569149 0.085637230426073088 0.029261087998747829 0.135979138314724
decision_type=2 2 2 2 2 10 2 2 2 2 2 2 2 2 2 2 2 2 2 2 2 2 2 2 10 2 2 2 2 2
left_child=8 12 4 23 16 20 7 -7 27 -10 21 18 -2 14 -14 22 17 -3 -12 -20 -6 -11 24 26 -5 -19 -4 28 -1 -15
right_child=1 2 3 15 5 6 -8 -9 9 10 11 -13 13 29 -16 -17 -18 25 19 -21 -22 -23 -24 -25 -26 -27 -28 -29 -30 -31
leaf_value=-1.2029306529101147 -1.2081551257749503 -1.195925665467698 -1.1878096523450736 -1.2017301101198083 -1.1978110953979118 -1.1938128815880837 -1.2062548411391243 -1.160066796173876 -1.2246067940014937 -1.2003708741540133 -1.1737337397264702 -1.2167604722870704 -1.1805124428341651 -1.1837234052003431 -1.2079656809798462 -1.1864284714184679 -1.197274367879134 -1.2026558492493877 -1.2111433161995129 -1.1850122016174045 -1.2220488290815259 -1.2236175178480595 -1.1938662807043861 -1.194754437182826 -1.2210603116417293 -1.22105785674037 -1.1634616129772004 -1.2272300842467627 -1.2216047770315055 -1.162259944376977
leaf_weight=10.71976286172867 9.4586142897605878 10.089188575744627 10.089188575744631 16.394931435585022 10.71976286172867 9.4586142897605914 12.296198576688765 10.404475718736647 12.926772862672804 10.71976286172867 9.4586142897605914 9.4586142897605878 13.242060005664824 11.03505000472069 11.980911433696749 15.133782863616942 17.656080007553101 11.665624290704725 11.035050004720686 10.71976286172867 12.296198576688765 15.133782863616942 15.133782863616942 13.872634291648863 17.025505721569061 47.293071448802948 10.089188575744627 22.700674295425415 11.665624290704725 9.4586142897605878
leaf_count=34 30 32 32 52 34 30 39 33 41 34 30 30 42 35 38 48 56 37 35 34 39 48 48 44 54 150 32 72 37 30
internal_value=-1.20249 -1.19842 -1.20093 -1.19452 -1.20536 -1.19681 -1.18668 -1.17496 -1.2121 -1.20712 -1.20344 -1.19645 -1.18774 -1.18348 -1.19327 -1.20131 -1.2108 -1.21429 -1.19004 -1.19807 -1.21104 -1.21426 -1.20618 -1.18222 -1.21183 -1.21748 -1.17437 -1.22058 -1.21307 -1.17241
internal_weight=419.332 294.793 239.618 97.739 141.879 55.1753 32.1593 19.8631 124.538 79.4524 66.5256 40.672 55.1753 45.7166 25.223 63.688 86.704 69.0479 31.2134 21.7548 23.016 25.8535 48.5542 34.051 33.4204 58.9587 20.1784 45.0861 22.3854 20.4937
internal_count=1330 935 760 310 450 175 102 63 395 252 211 129 175 145 80 202 275 219 99 69 73 82 154 108 106 187 64 143 71 65
is_linear=0
shrinkage=1


Tree=1
num_leaves=31
num_cat=0
split_feature=49 37 61 51 29 28 62 55 63 0 26 47 29 63 32 34 49 9 28 24 15 39 24 49 39 17 24 41 39 51
split_gain=33.7043 15.3114 11.8798 11.1158 7.27028 9.04933 8.91785 6.47778 6.10783 6.37118 4.94102 4.76935 4.9926 6.15614 4.66018 4.6383 4.55799 4.17734 4.12796 4.28837 5.07262 4.33541 3.97896 3.89937 3.80404 5.28634 4.29655 3.58601 3.4959 3.48304
threshold=68.089977264404311 38.251186370849616 0.0026334986323490743 1.0924267768859866 38.500000000000007 115.50000000000001 0.030728772282600406 0.024570597335696224 0.010116333141922952 0.11836225911974908 0.10764576867222787 2987.1054687500005 65.500000000000014 0.01596080977469683 0.051458595320582397 0.021026272326707843 112.47658920288087 14.500000000000002 89.500000000000014 0.096178982406854643 0.050811650231480605 -12.469076633453367 0.19266656041145327 158.20608520507815 -101.68989944458006 0.69631093740463268 0.15714824944734576 2558.987182617188 -28.209205627441403 0.138047069311142
decision_type=2 2 2 2 2 2 2 2 2 10 2 2 2 2 2 2 2 10 2 2 2 10 2 2 8 8 2 2 10 2
left_child=2 24 7 4 17 10 8 -1 -7 11 -6 12 -10 -14 -8 29 -5 18 19 20 -3 -21 -23 -11 25 26 -2 -12 -16 -4
right_child=1 3 15 16 5 6 14 -9 9 23 27 -13 13 -15 28 -17 -18 -19 -20 21 -22 22 -24 -25 -26 -27 -28 -29 -30 -31
leaf_value=-0.87803386271346529 -0.91325256612243633 -0.91675078279432287 -0.9318603281448703 -0.92056401539752652 -0.91609904835501033 -0.89244529740451728 -0.9393937133574588 -0.90267141805910955 -0.91947527612149305 -0.91466560719078871 -0.88291509186822581 -0.92009423395103429 -0.9130234789003282 -0.88471779124189409 -0.90983145070895566 -0.90115890596988169 -0.94167229310607692 -0.9072588372620316 -0.94211547266656315 -0.92967455622489625 -0.94133978044468247 -0.90333737541028813 -0.92380468272563776 -0.93777791474231975 -0.94714754722981598 -0.94545056307295317 -0.93584867473047184 -0.9072588372620316 -0.92955608238341902 -0.90972776057161731
leaf_weight=20.143823862075806 16.906423598527912 11.870467633008959 12.58988991379738 14.388445615768431 13.309312194585798 11.151045352220534 18.345268160104752 21.582668423652649 12.949601054191588 11.151045352220537 12.949601054191591 27.338046669960022 12.949601054191591 15.107867896556852 14.028734475374224 16.187001317739487 25.539490967988968 11.151045352220534 11.510756492614744 17.985557019710541 19.064690440893173 19.424401581287384 14.02873447537422 14.02873447537422 18.345268160104752 13.309312194585798 12.230178773403166 11.151045352220534 16.546712458133698 11.151045352220534
leaf_count=56 47 33 35 40 37 31 51 60 36 31 36 76 36 42 39 45 71 31 32 50 53 54 39 39 51 37 34 31 46 31
internal_value=-0.918547 -0.922169 -0.901116 -0.919642 -0.91762 -0.914141 -0.917407 -0.890104 -0.912478 -0.915119 -0.901116 -0.910391 -0.904042 -0.897137 -0.927866 -0.91304 -0.934297 -0.923929 -0.926009 -0.923504 -0.932139 -0.918153 -0.91182 -0.92778 -0.935895 -0.930488 -0.922992 -0.893274 -0.920512 -0.921523
internal_weight=478.416 396.761 81.6544 335.97 296.042 191.007 153.597 41.7265 104.676 93.5249 37.41 68.3451 41.0071 28.0575 48.9207 39.9279 39.9279 105.036 93.8846 82.3739 30.9352 51.4387 33.4531 25.1798 60.7912 42.4459 29.1366 24.1006 30.5754 23.7409
internal_count=1330 1103 227 934 823 531 427 116 291 260 104 190 114 78 136 111 111 292 261 229 86 143 93 70 169 118 81 67 85 66
is_linear=0
shrinkage=1


Tree=2
num_leaves=31
num_cat=0
split_feature=48 33 51 31 57 57 56 52 31 57 64 40 35 64 9 27 25 26 22 30 24 33 55 6 39 61 5 34 34 69
split_gain=10.2861 11.0876 8.30442 7.10975 9.20548 6.91497 6.23297 5.60975 8.25667 5.92992 7.50481 5.13176 4.8845 4.32623 4.71967 4.27777 5.18818 4.22469 3.60762 5.36114 3.01312 2.78508 2.75066 2.3122 5.00836 2.83279 2.28325 1.57396 2.31979 2.86086
threshold=0.14319340884685519 0.035483926534652717 1.2014732956886294 0.012314205057919027 1.818094074726105 1.9035117626190188 921167.15625000012 -0.12789244949817655 -0.0032691126689314838 1.4142192602157595 0.029002583585679535 -21.235202789306637 0.023692974820733074 0.016750621609389785 3.5000000000000004 0.064208965748548522 0.14255767315626147 0.18073394149541858 0.19313429296016696 0.0040823074523359546 0.022034360095858577 0.015155387111008169 0.039659695699810989 0.35319472849369055 -41.542421340942376 0.054135970771312721 0.15532580763101581 0.013122064527124168 0.025635555386543277 -0.50181534886360157
decision_type=2 2 2 2 2 2 2 2 2 2 2 10 2 2 8 2 2 2 2 2 2 2 2 8 10 2 8 2 2 2
left_child=1 11 3 4 7 -6 12 9 21 10 -2 -1 -5 -14 -15 -4 -17 -10 19 -11 -13 -9 -23 24 -16 -25 -7 -22 29 -29
right_child=2 -3 15 6 5 26 -8 8 17 18 -12 20 13 14 23 16 -18 -19 -20 -21 27 22 -24 25 -26 -27 -28 28 -30 -31
leaf_value=-1.195925665467698 -1.1642706147912114 -1.1899276736959059 -1.1752717574895903 -1.1948315488668151 -1.1654968267925871 -1.1852075350759637 -1.1852075350759637 -1.2230032455321922 -1.2047860811789823 -1.1852452713762502 -1.1995039955829374 -1.2036651586542848 -1.1938128815880837 -1.195925665467698 -1.1955500013310936 -1.1814357172296361 -1.2068824469547432 -1.1781931479549177 -1.2132834814808247 -1.2111433161995129 -1.2292625313005701 -1.1980917437983036 -1.2158021176424991 -1.2252236104684318 -1.2220488290815259 -1.206747016297864 -1.205286676937577 -1.2197925450897544 -1.2243461525136663 -1.1995039955829374
leaf_weight=10.089188575744627 9.773901432752611 17.97136715054512 15.133782863616942 16.394931435585022 11.350337147712709 9.4586142897605878 9.4586142897605878 17.656080007553101 10.40447571873665 17.340792864561084 11.350337147712706 11.035050004720686 9.4586142897605878 10.089188575744627 11.665624290704729 12.296198576688768 15.133782863616942 9.7739014327526075 14.187921434640883 11.035050004720686 15.764357149600981 13.557347148656847 16.710218578577042 35.312160015106201 12.296198576688765 10.089188575744627 9.4586142897605914 12.296198576688761 21.439525723457336 11.350337147712713
leaf_count=32 31 57 48 52 36 30 30 56 33 55 36 35 30 32 37 39 48 31 45 35 50 43 53 112 39 32 30 39 68 36
internal_value=-1.20242 -1.21077 -1.19979 -1.20171 -1.19768 -1.18304 -1.2074 -1.20116 -1.20711 -1.19482 -1.18222 -1.21544 -1.20953 -1.2123 -1.21458 -1.18762 -1.19514 -1.19137 -1.20139 -1.19527 -1.21823 -1.21383 -1.20799 -1.21734 -1.20939 -1.2213 -1.19489 -1.2208 -1.21733 -1.21033
internal_weight=419.332 99.946 319.386 276.822 162.058 30.2676 114.765 131.79 68.102 63.688 21.1242 81.9747 105.306 88.911 79.4524 42.5638 27.43 20.1784 42.5638 28.3758 71.8855 47.9236 30.2676 69.3632 23.9618 45.4013 18.9172 60.8504 45.0861 23.6465
internal_count=1330 317 1013 878 514 96 364 418 216 202 67 260 334 282 252 135 87 64 135 90 228 152 96 220 76 144 60 193 143 75
is_linear=0
shrinkage=1


Tree=3
num_leaves=31
num_cat=0
split_feature=49 61 31 31 47 40 70 55 37 50 30 34 23 63 35 50 60 23 34 55 61 61 61 17 27 31 47 26 55 43
split_gain=17.4306 8.33899 7.20245 8.67599 7.12165 8.72608 8.08507 5.68498 5.62506 5.55116 5.82305 7.19204 6.69064 5.24236 5.05058 5.00529 9.1718 4.89994 4.48217 4.54834 4.26818 3.98111 3.8604 3.45358 3.42881 3.2401 2.85179 2.22926 2.20147 1.9708
threshold=89.707229614257827 -0.034966133534908288 0.022323296405375007 0.043556112796068198 2789.575805664063 -24.22220420837402 -0.030972395092248913 0.043635634705424316 47.348642349243171 -0.36317215859889979 -0.012704276014119385 0.018560024909675125 0.093956641852855696 0.020314436405897144 0.042475536465644843 0.14255890250205996 -0.015209402423352001 0.27414308488368994 0.046346928924322135 0.027031745761632923 0.02802972681820393 0.049222953617572791 -0.016335933469235894 0.61036840081214916 0.048193700611591346 0.027240062132477764 2399.4716796875005 0.085637230426073088 0.029261087998747829 2785.6684570312505
decision_type=2 2 2 2 2 10 2 2 2 2 2 2 2 2 2 2 2 2 2 2 2 2 2 10 2 2 2 2 2 10
left_child=8 13 4 23 18 22 7 -7 27 -10 -11 -12 -13 -2 17 16 -15 20 19 -3 -5 -16 -6 -4 -21 -14 -22 28 -1 -17
right_child=1 2 3 14 5 6 -8 -9 9 10 11 12 25 15 21 29 -18 -19 -20 24 26 -23 -24 -25 -26 -27 -28 -29 -30 -31
leaf_value=-0.0004059196154671219 -0.0056727981536941292 0.0063791456276030582 0.028753952493853777 0.017152766175726711 0.0044560044357974333 0.0083242229289182679 -0.0038086678918715254 0.040732378312776159 -0.021940085088009414 -0.018083244245717299 -0.010830243231211142 -0.0058369216584563798 0.031201988376668776 -0.012582014630310168 -0.0011335827893201528 0.039115212555800277 0.022950680708825652 -0.021192994536108446 0.0049771773161757871 -0.00026666484244586969 -0.015130507854997678 0.024611288539871604 -0.019429551780414205 0.0091912810004462168 -0.018428986623600398 0.007370652443410528 0.0054486000003557229 -0.02455825532971357 -0.018970552036506626 0.017785025401399451
leaf_weight=10.684487611055376 9.4333461821079236 10.103063225746153 17.212187945842743 9.4607209563255292 10.743134975433351 9.5010958313941973 12.275910615921019 10.599602669477461 12.779040306806563 13.206689059734343 19.211310476064682 12.205095976591108 12.009954512119295 10.116539835929871 9.8296495676040667 9.574628412723543 15.228887885808945 11.018172293901442 17.697994261980057 11.662275701761244 12.284342646598818 10.787085890769957 12.188527226448057 17.150849193334579 46.900270015001297 9.793195575475691 10.410776764154432 22.417253434658051 11.558656334877012 11.186530709266661
leaf_count=34 30 32 54 30 34 30 39 33 41 42 61 39 38 32 31 30 48 35 56 37 39 34 39 54 150 31 33 72 37 35
internal_value=-0.000110894 0.00385055 0.00140099 0.00760661 -0.00292159 0.00542389 0.0152601 0.0265343 -0.0095124 -0.00460939 -0.000999376 0.0034954 0.0116662 0.0142161 0.000983508 0.0183194 0.00882869 -0.00484667 -0.00826704 -0.0117031 0.00122465 0.012852 -0.00852092 0.0195261 -0.0148773 0.0212905 -0.00585885 -0.0179165 -0.0104542 0.0289675
internal_weight=419.231 295.366 239.826 98.1538 141.672 55.3083 32.3766 20.1007 123.866 79.2053 66.4262 53.2196 34.0082 55.5399 63.7907 46.1066 25.3454 43.174 86.3636 68.6656 32.1558 20.6167 22.9317 34.363 58.5625 21.8032 22.6951 44.6604 22.2431 20.7612
internal_count=1330 935 760 310 450 175 102 63 395 252 211 169 108 175 202 145 80 137 275 219 102 65 73 108 187 69 72 143 71 65
is_linear=0
shrinkage=0.03


Tree=4
num_leaves=31
num_cat=0
split_feature=49 37 61 56 60 9 55 50 64 25 48 36 62 0 24 34 34 36 58 8 46 27 70 35 25 56 34 44 55 24
split_gain=31.6771 14.5324 11.1219 10.0227 6.58633 6.45495 6.01812 5.49385 5.83418 6.67946 5.41249 4.89535 4.57709 5.88998 4.49389 4.7847 4.45122 4.43256 4.15085 4.03377 4.28429 3.97574 3.65423 3.62237 3.27552 3.08761 2.58036 2.44635 2.42405 1.75217
threshold=68.089977264404311 38.251186370849616 0.0026334986323490743 486266.46875000006 0.033196447417140014 19.500000000000004 0.024570597335696224 -0.47315689921379084 0.027068777009844783 0.10675127431750299 0.37685295939445501 0.043831694871187217 0.030333074741065506 0.11836225911974908 0.23319522291421893 0.038654902949929244 0.021026272326707843 0.049974871799349792 -0.00091251518460921932 0.037315510213375098 1896.320251464844 0.060541847720742233 -0.047891572117805474 0.048734586685895927 0.19262671470642093 564279.21875000012 0.013997461181133987 1673.8362426757815 0.057339118793606765 0.15714824944734576
decision_type=2 2 2 2 2 10 2 2 2 2 2 2 2 10 2 2 2 2 2 10 2 2 2 2 2 2 2 2 2 2
left_child=2 17 6 4 5 7 -1 -3 9 -9 14 12 13 22 15 19 26 29 -12 20 -5 -10 -7 -17 -11 -22 -4 -8 -16 -2
right_child=1 3 16 10 -6 11 27 8 21 24 18 -13 -14 -15 28 23 -18 -19 -20 -21 25 -23 -24 -25 -26 -27 -28 -29 -30 -31
leaf_value=0.039142920489764567 -0.015197985210544721 0.011817619249803369 0.0075802095316500496 -0.008742085064530395 0.025339347144387205 0.023621157043805335 0.0046959753152955308 0.01946667495156048 -0.00084059101870318604 -0.014433841792804039 -0.0099366246720694953 0.02468100154829506 -0.0065534935122553055 -0.0074929190657134692 -0.0066479392721253703 -0.021223456936007665 0.017050893151919381 -0.0022610949541519783 0.012492631959955708 -0.01501169932832612 0.00052505353393927782 -0.022713186036678233 0.0030109006360246782 -0.00089503950867726495 0.0032082912395791888 0.021441868687342214 -0.011511843971556935 0.024959152052650431 -0.024162198803344696 -0.028330633285992779
leaf_weight=20.363283067941666 26.137567609548569 17.653480529785156 10.80464491248131 12.586759865283964 10.806649655103682 21.647455304861065 10.842557281255724 11.537879616022108 11.140688598155974 18.327644228935242 10.767198592424394 12.986521065235136 20.485471963882446 11.883952677249907 11.510181754827498 21.896342754364014 16.255934685468674 14.692019045352934 19.407907068729401 10.76296418905258 11.512714147567751 22.260117918252945 12.259386867284777 12.175353109836577 17.988878607749939 13.310109674930571 12.944684565067289 10.842662781476973 22.939702361822128 19.639346867799759
leaf_count=56 73 49 30 35 30 60 30 32 31 51 30 36 57 33 32 61 45 41 54 30 32 62 34 34 50 37 36 30 64 55
internal_value=0.000134646 -0.00338786 0.0169842 -0.000930421 0.00363124 0.0021805 0.0275832 -0.00292323 -0.00623056 0.000532614 -0.00678482 0.00850631 0.0050172 0.010223 -0.00969707 -0.00576238 0.00544276 -0.0167994 0.00442732 0.000367007 0.00506719 -0.0156542 0.016469 -0.0141918 -0.00584326 0.0121368 -0.00287068 0.0154812 -0.018663 -0.0213174
internal_weight=478.37 396.316 82.0538 335.847 188.978 178.171 42.0485 98.9087 81.2552 47.8544 146.869 79.2628 66.2763 45.7908 116.694 82.2442 40.0053 60.4689 30.1751 48.1725 37.4096 33.4008 33.9068 34.0717 36.3165 24.8228 23.7493 21.6852 34.4499 45.7769
internal_count=1330 1103 227 934 525 495 116 275 226 133 409 220 184 127 325 229 111 169 84 134 104 93 94 95 101 69 66 60 96 128
is_linear=0
shrinkage=0.03


Tree=5
num_leaves=31
num_cat=0
split_feature=48 33 51 31 57 25 56 61 23 60 40 35 52 30 40 19 30 64 9 61 57 24 6 39 61 66 26 32 27 37
split_gain=9.79477 10.6858 7.80837 6.78107 8.75595 6.52569 5.94107 5.46358 5.87406 5.17877 4.96337 4.70546 4.4035 6.02309 5.85791 4.56489 6.91505 4.15049 4.54348 3.73186 3.64155 2.94299 2.25147 4.83198 2.76548 1.85385 1.56125 2.30251 1.1101 0.783405
threshold=0.14319340884685519 0.035483926534652717 1.2014732956886294 0.012314205057919027 1.818094074726105 0.16926830261945727 921167.15625000012 0.017200984060764316 1.0000000180025095e-35 0.009244164917618038 -21.235202789306637 0.023692974820733074 -0.12789244949817655 0.01596819888800383 -10.075807571411131 20.500000000000004 0.005094056250527502 0.016750621609389785 3.5000000000000004 -0.034966133534908288 1.5466178059577944 0.022034360095858577 0.35319472849369055 -41.542421340942376 0.054135970771312721 647.54827880859386 0.15077951550483706 -0.016949155367910858 0.06850039586424829 49.063358306884773
decision_type=2 2 2 2 2 2 2 2 2 2 10 2 2 2 10 2 2 2 8 2 2 2 8 10 2 2 2 2 2 2
left_child=1 10 3 4 7 -6 11 8 -2 19 -1 -5 13 14 20 16 25 -13 -19 -4 -10 -12 23 -20 -24 -14 29 -28 -17 -23
right_child=2 -3 9 6 5 -7 -8 -9 12 -11 21 17 15 -15 -16 28 -18 18 22 -21 -22 26 24 -25 -26 -27 27 -29 -30 -31
leaf_value=0.0063267362550061173 0.019840903636205966 0.012186204949904021 0.0096416783913025796 0.0073877097328625217 0.030477943421713345 0.002625618232982348 0.016657604191081584 0.018493246249091509 0.027560952052083802 -0.00075725276943078474 -0.0012037247895499803 0.0083176448305381252 -0.019072510841565745 -0.017251050167531524 -0.0043033397758830182 -0.024360456742167944 0.016281093328334169 0.0062697435520183403 0.0066620157634304164 0.031808255775554649 0.0036429381302024691 -0.025139453809205896 -0.022564307742425509 -0.019403554483773448 -0.0042765879761502146 -0.0016349655574251327 0.00031934909882327961 -0.018576930254201991 -0.0097097285538234601 -0.013103694251095609
leaf_weight=10.113477975130079 10.109984636306761 18.050584614276886 14.599998533725737 16.44206029176712 17.194999426603321 13.316065549850462 9.5379870831966382 13.60232627391815 13.354329705238344 13.964647889137266 11.01386448740959 9.5023288130760175 11.60019099712372 9.4573926627635938 18.654840469360352 13.175037980079653 11.668824553489683 10.124587357044218 11.702059775590898 14.323521047830583 10.109644651412962 26.223374396562576 34.928650230169296 12.17740538716316 10.066385477781294 10.081442862749098 9.3825480937957781 14.07386142015457 10.068590223789213 10.638907641172407
leaf_count=32 32 57 46 52 54 42 30 43 42 44 35 30 37 30 59 42 37 32 37 45 32 84 112 39 32 32 30 45 32 34
internal_value=-4.26977e-05 -0.00821519 0.00251792 0.000651955 0.00458257 0.0187913 -0.00491509 0.0011787 -0.000950834 0.0142748 -0.0128296 -0.00701448 -0.00305805 0.00325448 0.00815211 -0.0087675 -0.00151884 -0.00974281 -0.011992 0.0213152 0.0178258 -0.0155955 -0.0147278 -0.00687584 -0.0186549 -0.011394 -0.0181609 -0.0113144 -0.0186764 -0.0221036
internal_weight=419.26 99.4966 319.763 276.875 162.394 30.5111 114.481 131.883 118.28 42.8882 81.446 104.943 108.17 51.5762 42.1188 56.5941 33.3505 88.5014 78.9991 28.9235 23.464 71.3326 68.8745 23.8795 44.995 21.6816 60.3187 23.4564 23.2436 36.8623
internal_count=1330 317 1013 878 514 96 364 418 375 135 260 334 343 163 133 180 106 282 252 91 74 228 220 76 144 69 193 75 74 118
is_linear=0
shrinkage=0.03


Tree=6
num_leaves=31
num_cat=0
split_feature=49 7 49 40 51 7 37 50 30 34 23 63 47 36 17 51 55 64 63 48 34 33 46 30 31 57 43 48 40 35
split_gain=16.6353 8.16938 8.5039 9.54146 6.1475 5.56518 5.44651 5.36302 5.64598 6.92035 6.31644 4.88148 4.76364 6.55109 5.53396 5.06659 4.5712 4.27874 4.37 4.15108 4.74187 3.8757 3.25782 3.07945 3.05805 2.6927 2.54815 2.08211 1.9837 1.37505
threshold=89.707229614257827 0.81101191043853771 187.00714111328128 -19.698928833007809 -0.085997853428125368 0.88194444775581371 47.348642349243171 -0.36317215859889979 -0.012704276014119385 0.018560024909675125 0.093956641852855696 0.025034305639564994 2117.9443359375005 0.047661181539297111 0.55941176414489757 0.015340674668550493 0.083392933011055007 0.029379688203334812 0.022187468595802787 0.20223142206668857 0.019957453012466434 0.018330985680222515 3658.593627929688 -0.0057008804287761441 0.027240062132477764 1.6709084510803225 1873.7639770507815 0.21179895848035815 3.8685247898101811 0.037826716899871833
decision_type=2 8 2 10 2 10 2 2 2 2 2 2 2 2 10 2 2 2 2 2 2 2 2 2 2 2 10 2 10 2
left_child=6 2 11 4 29 -3 28 -8 -9 -10 -11 19 13 -13 -14 -15 -6 18 -5 21 -21 23 26 -2 -12 -25 -22 -16 -1 -4
right_child=1 5 3 17 16 -7 7 8 9 10 24 12 14 15 27 -17 -18 -19 -20 20 22 -23 -24 25 -26 -27 -28 -29 -30 -31
leaf_value=-0.021219712892401994 0.0045088523282469529 0.035610479588456131 -0.019917379896237521 0.021590114604040297 0.02482968146044091 0.0079544124610166061 -0.021648043138695769 -0.017863898803936375 -0.010662145876969835 -0.0056622219675963783 0.030247347364541662 0.029543088197310677 0.010798460125654129 0.014487129147219103 -0.003141210298785755 -0.01152726462114094 -0.0028593740584958545 0.032512049208969149 -0.0028763528304775695 0.003659688416955928 -0.006928685634907593 0.012208800997682212 -0.00057756049667177919 -0.021331896490734491 0.0071747814955762474 -3.9558640228946372e-05 -0.02485821017966024 -0.022936730275966027 -0.0058489492812546142 -0.0037641916530890564
leaf_weight=33.325778126716614 17.977697640657425 10.164012998342516 9.3810426890850085 15.626113891601564 9.5864874124526995 17.767311275005341 12.624989181756971 13.106348335742949 19.123359560966492 12.150497376918791 12.161536186933519 11.815855354070662 13.359930604696272 14.252135217189791 9.507273733615877 11.113919347524641 10.508188128471373 15.078944712877272 10.513005286455153 15.719760179519652 11.370632708072661 17.342403382062912 10.721528768539427 11.308815598487856 9.829378664493559 9.4554374516010267 24.031125038862228 9.4339403212070447 10.915807932615278 9.7947991192340833
leaf_count=108 57 32 30 49 30 56 41 42 61 39 38 37 42 45 30 35 33 47 33 50 36 55 34 36 31 30 77 30 35 31
internal_value=-0.000106099 0.0037519 0.002108 0.0101997 -0.00043317 0.0189013 -0.00932282 -0.00450232 -0.000967976 0.00344203 0.0114207 -0.0014029 0.00486185 0.012046 -0.00352123 0.00308424 0.010901 0.0201005 0.0120064 -0.00510395 -0.0103993 0.000814976 -0.0151668 -0.00446421 0.0206951 -0.0120833 -0.019448 -0.0136564 -0.0176404 -0.012262
internal_weight=419.068 295.83 267.899 80.4886 39.2705 27.9313 123.238 78.9961 66.3711 53.2648 34.1414 187.41 69.4831 37.1819 32.3011 25.3661 20.0947 41.2181 26.1391 117.927 61.843 56.0844 46.1233 38.742 21.9909 20.7643 35.4018 18.9412 44.2416 19.1758
internal_count=1330 935 847 253 124 88 395 252 211 169 108 594 219 117 102 80 63 129 82 375 197 178 147 123 69 66 113 60 143 61
is_linear=0
shrinkage=0.03


Tree=7
num_leaves=31
num_cat=0
split_feature=48 51 33 54 63 50 61 58 52 33 24 47 50 41 31 27 55 29 57 15 60 32 43 46 69 36 61 62 22 24
split_gain=25.6356 12.1874 11.9543 10.2358 8.47355 7.53305 6.35993 5.10992 7.05534 6.96428 7.75623 6.24496 5.2101 7.37312 4.63451 4.52325 7.68752 4.73353 4.95901 4.46966 4.41765 4.3628 4.97115 4.31991 3.70374 3.17061 3.02879 3.00762 2.75047 2.50851
threshold=0.1156129837036133 1.2805544137954714 0.011420937255024912 0.0075037430506199607 0.035838345065712936 -0.47315689921379084 -0.030474476516246792 0.0095870424993336218 -0.12159669026732443 -0.050121515989303582 0.074374940246343627 1369.994079589844 0.15484010428190234 3055.039916992188 0.047056145966053016 0.10612841323018075 0.042046340182423599 35.500000000000007 1.7057758569717409 0.084674093872308745 0.036786070093512542 0.0090908212587237375 2403.7946777343755 2970.3750000000005 -0.19951800256967542 0.02923707198351622 -0.049278251826763146 -0.01069102482870221 0.17897826433181765 0.070660810917615904
decision_type=2 2 2 2 2 2 2 2 2 2 2 2 2 2 2 2 2 2 2 2 2 2 10 2 2 2 2 2 2 2
left_child=2 4 3 29 5 27 19 9 -9 12 11 -11 13 -8 28 16 21 -18 -19 -7 25 -12 -23 -10 -4 -3 -21 -2 -6 -1
right_child=1 20 24 -5 14 6 7 8 23 10 15 -13 -14 -15 -16 -17 17 18 -20 26 -22 22 -24 -25 -26 -27 -28 -29 -30 -31
leaf_value=0.019905311629308222 0.024340857278076132 -0.007689716159318908 -0.009793524345306304 0.0032896349822678483 -0.022677364896958607 0.004288620704180908 0.026816833584353609 -0.024744533946716957 0.011274710065828487 0.0039264328324220095 0.0063250774571058871 -0.023861933407283636 -0.0011099144245645056 -0.00062975538971976228 0.0036485736674252622 0.018265089667002396 -0.007513947152030246 0.024050565643357991 0.0012340108343549278 -0.0044811794274215366 0.00041726889237041838 0.00072967486550496547 -0.023641933106617521 -0.011520094262632914 0.012161605690132802 -0.026911283502273686 -0.024942645459772862 0.0060634290541216824 -0.0048102918088110801 0.040588452089023404
leaf_weight=11.280898898839949 14.080237716436384 12.16546246409416 14.405346423387529 13.728779375553129 25.728688716888428 11.113466680049894 26.367363393306732 13.95217990875244 15.15296193957329 11.158311128616335 12.632676810026167 18.664858400821686 18.690014719963074 12.923398554325102 12.174958348274229 14.756727427244185 10.781645029783247 19.872492432594299 14.741090804338453 10.717196166515349 10.747380733489988 12.258811533451082 18.298087626695633 12.94322746992111 11.547957688570021 26.589729130268097 17.906821787357334 19.507825583219528 11.832886755466459 21.493454545736313
leaf_count=31 39 34 40 38 72 31 73 39 42 31 35 52 52 36 34 41 30 55 41 30 30 34 51 36 32 75 50 54 33 59
internal_value=0.000129197 -0.00281666 0.0164398 0.0253853 -0.000859013 0.00101753 -0.00065164 0.00125383 -0.00809536 0.0033419 -0.000455807 -0.0136749 0.0119239 0.0179976 -0.012216 0.00345356 0.000809864 0.00933056 0.014641 -0.0115899 -0.0166093 -0.00815445 -0.0141512 0.000738676 6.42102e-05 -0.0212227 -0.0176915 0.0142076 -0.0173195 0.0342695
internal_weight=478.215 405.759 72.4564 46.5031 356.256 306.519 272.931 233.194 42.0484 191.145 133.165 29.8232 57.9808 39.2908 49.7365 103.342 88.5848 45.3952 34.6136 39.7375 49.5026 43.1896 30.5569 28.0962 25.9533 38.7552 28.624 33.5881 37.5616 32.7744
internal_count=1330 1130 200 128 991 852 759 648 117 531 370 83 161 109 139 287 246 126 96 111 139 120 85 78 72 109 80 93 105 90
is_linear=0
shrinkage=0.03


Tree=8
num_leaves=31
num_cat=0
split_feature=48 60 5 69 31 57 56 57 6 22 70 64 60 54 6 40 15 54 27 56 5 15 40 61 40 58 40 7 17 5
split_gain=9.35046 10.0616 10.7831 7.4612 7.96479 8.89736 7.55786 6.90662 6.75013 5.00385 4.86804 4.763 4.35029 6.33621 4.68173 5.91971 4.1175 3.77866 4.4301 4.71555 4.15968 3.98742 3.23199 3.01419 2.98016 3.70095 2.90146 2.76332 2.71784 2.36536
threshold=0.14319340884685519 0.002052593277767301 0.23441903293132785 1.3272722363471987 0.012314205057919027 1.818094074726105 963069.62500000012 1.9590402841567995 0.45368783175945288 0.24957498162984851 -0.026026308536529538 0.020001485943794254 -0.013652754947543142 0.010853169951587917 0.30993431806564337 5.2611773014068612 0.16650677472352984 0.0073724645189940938 0.083468437194824233 321599.50000000006 0.29662138223648077 0.14679764211177829 -1.0000000180025095e-35 -0.007282035192474722 -24.22220420837402 0.0022509865229949359 -9.6355714797973615 0.62331080436706554 0.72673159837722789 0.11618762835860254
decision_type=2 2 8 2 2 2 2 2 10 2 2 2 2 2 10 10 2 2 2 2 10 2 10 2 10 2 10 10 10 8
left_child=1 29 10 4 5 8 17 16 12 22 -3 -5 13 -2 15 28 -7 18 19 -6 21 27 -10 -16 -13 -26 -15 -19 -14 -1
right_child=3 2 -4 11 6 7 -8 -9 9 -11 -12 24 14 26 23 -17 -18 20 -20 -21 -22 -23 -24 -25 25 -27 -28 -29 -30 -31
leaf_value=-0.0083104444198310989 0.025654727051239185 -0.01385920861466142 0.029401245292208413 0.031277272777100878 -0.0040488141460620214 0.039776224245811516 0.017654150425348607 -0.00093160122949022522 0.02679493721496326 -0.0058743435189106694 0.01134564468016442 0.020290038642760553 0.0025544990894693187 0.0080042394153121161 -0.023428928082056304 0.015409624584716971 0.012158927737103324 -0.015133355410920165 -0.015040170213031152 0.023001501786434307 0.0024419728933198345 -0.022184747635055405 0.0046430930791486356 -0.005305184555567592 0.013894772433487313 -0.0097803435255974739 -0.014341846860943898 0.0045197701276407315 -0.018678065946867658 -0.02077393569860218
leaf_weight=25.856517672538757 9.4731230139732379 19.608699023723602 9.820342540740965 9.9371130764484388 12.487952023744588 11.613974392414095 10.566187053918837 10.807281941175459 16.23912039399147 9.4774637222290021 9.4712435603141802 10.559174180030821 9.5087205171585101 9.5558497011661547 16.594723850488663 13.93348979949951 9.9229393899440748 12.472986042499544 10.037094682455061 9.4427741169929487 14.450050562620161 32.242074966430664 9.7820335924625414 16.994705766439438 10.202639669179918 11.670982420444487 9.4438501894474012 11.648288518190382 11.008147001266478 34.308556795120239
leaf_count=83 30 63 31 31 40 36 33 34 51 30 30 33 30 30 53 44 31 40 32 30 46 103 31 54 32 37 30 37 35 110
internal_value=-4.1283e-05 -0.00804847 0.00379231 0.00245436 0.000644693 0.00485233 -0.00544553 0.0187003 0.00134434 0.0123411 -0.0055458 0.014027 -0.00278552 0.00690102 -0.00688032 0.000921712 0.0281559 -0.00796746 0.0005942 0.00809348 -0.011787 -0.0154139 0.0189475 -0.0146776 0.00796427 0.00138726 -0.00326468 -0.00584063 -0.00917626 -0.0156411
internal_weight=419.138 99.0654 38.9003 320.073 277.703 164.355 113.347 32.3442 132.011 35.4986 29.0799 42.3699 96.5126 28.4728 68.0398 34.4504 21.5369 102.781 31.9678 21.9307 70.8134 56.3633 26.0212 33.5894 32.4328 21.8736 18.9997 24.1213 20.5169 60.1651
internal_count=1330 317 124 1013 880 519 361 101 418 112 93 133 306 90 216 109 67 328 102 70 226 180 82 107 102 69 60 77 65 193
is_linear=0
shrinkage=0.03


Tree=9
num_leaves=31
num_cat=0
split_feature=49 7 49 51 5 58 58 7 37 50 30 34 23 63 47 15 17 27 17 45 27 69 51 50 45 31 26 55 48 52
split_gain=15.8269 7.67618 8.04291 6.59289 8.86537 7.57541 6.23975 5.25082 5.23557 5.20478 5.47805 6.61492 6.02614 4.64162 4.56892 6.16257 5.28905 4.00545 4.59932 7.50665 3.76906 3.60466 3.39532 3.35937 3.34084 2.88389 2.19797 2.21399 2.05067 1.20454
threshold=89.707229614257827 0.81101191043853771 187.00714111328128 -0.27160136401653284 0.10264183208346368 0.00054875444038771104 -0.0019007012597285209 0.88194444775581371 47.348642349243171 -0.36317215859889979 -0.012704276014119385 0.018560024909675125 0.093956641852855696 0.025034305639564994 2117.9443359375005 0.052137408405542381 0.55941176414489757 0.050383508205413825 0.61861473321914684 3135.5244140625005 0.078921668231487288 -0.75317910313606251 -0.24564138054847715 0.31517514586448675 3453.5859375000005 0.027240062132477764 0.085637230426073088 0.029261087998747829 0.21179895848035815 -0.12902117520570752
decision_type=2 8 2 2 10 2 2 10 2 2 2 2 2 2 2 2 10 2 10 2 2 2 2 2 2 2 2 2 2 2
left_child=8 2 13 6 -5 24 -4 -3 26 -10 -11 -12 -13 17 15 -15 -16 22 19 21 -17 -19 -2 -20 -6 -14 27 -1 -18 -8
right_child=1 7 3 4 5 -7 29 -9 9 10 11 12 25 14 16 20 28 18 23 -21 -22 -23 -24 -25 -26 -27 -28 -29 -30 -31
leaf_value=0.00016227212143049064 -0.0048688892508528051 0.034343057455911437 0.01557364964123935 -0.007683516577206017 -0.0023278015788065721 0.036765927849053422 -0.017866184859899416 0.0076365411726365432 -0.02139588478024548 -0.017650855314181643 -0.010457898016170896 -0.0055762694203217228 0.029358667100139905 -0.0065835865342578218 0.010428561803748881 0.030786436083802753 -0.0030411944617984915 0.0049196430133162496 -0.020534055551527711 0.014041511271115475 0.0077024822742300641 -0.01623152255749756 0.015192100588369496 -6.8735504489432324e-05 0.020806167177421495 0.0070149182864945652 -0.024011402509651954 -0.018531178012253229 -0.022725992949893824 -0.00291371295833076
leaf_weight=10.546912848949434 15.407914549112322 10.326856493949892 11.796401023864748 10.240345448255537 10.234050780534746 18.094514220952988 10.069557785987856 17.867173373699188 12.488484323024748 13.008296579122542 19.015886813402176 12.123189985752104 12.302579343318941 11.114486038684843 13.444274246692656 12.525454074144365 9.4847169816494006 9.7255797088146192 29.560242086648941 16.497674852609634 13.725885808467863 23.647175937891006 13.313211083412169 9.4601156413555128 10.984893769025801 9.8587804436683637 21.859152555465698 11.369525611400602 9.3500427305698377 9.4531953632831556
leaf_count=34 49 32 37 32 32 56 32 56 41 42 61 39 38 35 42 39 30 31 95 52 43 76 42 30 34 31 72 37 30 30
internal_value=-0.000103703 0.00364694 0.00204825 0.00989252 0.0165936 0.0229511 -0.000895497 0.0182599 -0.00912715 -0.00440666 -0.000936602 0.00339255 0.0111534 -0.00137411 0.00472223 0.011731 -0.00349974 -0.00499348 -0.00811925 -0.00199726 0.0194422 -0.0101038 0.00462834 -0.0156981 0.0100459 0.0201508 -0.017336 -0.00992074 -0.0134663 -0.0111207
internal_weight=418.897 296.324 268.13 80.873 49.5538 39.3135 31.3192 28.194 122.573 78.7972 66.3087 53.3004 34.2845 187.257 69.6449 37.3658 32.279 117.612 88.8908 49.8704 26.2513 33.3728 28.7211 39.0204 21.2189 22.1614 43.7756 21.9164 18.8348 19.5228
internal_count=1330 935 847 253 154 122 99 88 395 252 211 169 108 594 219 117 102 375 284 159 82 107 91 125 66 69 143 71 60 62
is_linear=0
shrinkage=0.03


Tree=10
num_leaves=31
num_cat=0
split_feature=49 37 51 45 29 28 62 65 63 0 22 64 36 32 36 6 58 54 50 9 28 64 24 24 49 39 5 32 24 29
split_gain=28.244 13.3848 9.78406 9.63378 6.49139 8.6463 8.24715 5.94206 5.66693 5.89766 5.31751 5.25492 4.63346 4.41251 4.28488 4.13014 5.18077 4.53131 4.00377 3.93959 4.06127 4.37472 5.90036 5.97646 3.62026 3.26235 3.18205 2.67716 1.69789 3.22353
threshold=68.089977264404311 38.251186370849616 1.0924267768859866 1605.7669677734377 38.500000000000007 115.50000000000001 0.030728772282600406 47.529371261596687 0.010116333141922952 0.11836225911974908 0.18656308203935626 0.017608474940061573 0.028265562839806083 0.051458595320582397 0.049974871799349792 0.36391694843769079 0.0019899411126971249 0.010451085399836304 -0.15290763229131696 14.500000000000002 89.500000000000014 0.03522701375186444 0.096178982406854643 0.20212552696466449 158.20608520507815 -28.209205627441403 0.070525463670492186 0.03065518289804459 0.15714824944734576 50.500000000000007
decision_type=2 2 2 2 2 2 2 2 2 10 2 2 2 2 2 10 2 2 2 10 2 2 2 2 2 10 10 2 2 2
left_child=3 14 4 7 19 10 8 -1 -7 11 27 -10 -4 -8 28 17 -17 -13 -5 20 21 22 -3 -24 -11 -15 -20 -6 29 -2
right_child=1 2 12 18 5 6 13 -9 9 24 -12 15 -14 25 -16 16 -18 -19 26 -21 -22 -23 23 -25 -26 -27 -28 -29 -30 -31
leaf_value=0.016696015002627941 -0.023044943027932446 -0.012761105333417597 0.00040231764247757978 0.033251815198155968 0.016563255809329505 0.025026268182354958 -0.020244327124421719 -0.010276294360437544 -0.0097449368419034506 0.0036797515994050527 0.033125107028758184 -0.0089226773035723361 -0.021522800096264307 0.0084556839442775263 -0.0018672745525370638 0.028246051421340606 0.0027076982521114928 0.0150989799594858 0.0043736133005959806 0.011204088770283371 -0.023013907866131576 -0.014918787748252496 0.015367938515095395 -0.0091286553873014646 -0.018615175378834076 -0.010597167416888896 0.023405820324167659 -0.0025217267448766007 -0.027572411963527856 -0.0016598439758896456
leaf_weight=12.025338321924211 15.238404244184496 20.005441665649414 12.53804576396942 21.581447184085846 15.181868851184847 11.261571466922758 18.220862805843353 15.889956146478651 11.869411438703535 11.186356395483019 11.598191797733305 13.726555347442629 26.893303781747818 14.079068809747698 14.619172394275664 18.853717684745792 11.532043367624281 12.634690016508101 13.844322443008421 11.172853171825407 11.433201581239699 24.272769570350647 24.871513515710831 12.901478499174116 13.927899509668348 16.487841069698334 19.31849417090416 10.793176144361494 19.363971263170242 10.682882606983183
leaf_count=33 43 56 35 59 42 31 51 44 33 31 32 38 76 39 41 52 32 35 38 31 32 68 69 36 39 46 53 30 55 30
internal_value=0.000121587 -0.00322201 -0.00087022 0.0159608 0.00101719 0.00429558 0.00110265 0.0015184 0.00582683 0.00328022 0.0169963 0.00781109 -0.0147137 -0.00897673 -0.0161606 0.0115883 0.0189488 0.00272172 0.0231659 -0.00496088 -0.00699098 -0.00450808 4.48697e-05 0.00698141 -0.00892396 -0.00183159 0.0158211 0.00883354 -0.0206348 -0.0146206
internal_weight=478.006 395.346 335.442 82.6596 296.011 191.353 153.78 27.9153 104.992 93.7307 37.5732 68.6164 39.4313 48.7878 59.9044 56.747 30.3858 26.3612 54.7443 104.657 93.4844 82.0512 57.7784 37.773 25.1143 30.5669 33.1628 25.975 45.2853 25.9213
internal_count=1330 1103 934 227 823 531 427 77 291 260 104 190 111 136 169 157 84 73 150 292 261 229 161 105 70 85 91 72 128 73
is_linear=0
shrinkage=0.03


Tree=11
num_leaves=31
num_cat=0
split_feature=48 33 69 31 56 23 61 40 24 18 32 51 9 54 27 56 5 15 40 54 6 24 7 39 61 31 5 60 40 31
split_gain=8.84831 10 7.06431 7.63562 7.21842 6.44798 6.23993 4.78064 4.64915 4.23243 5.0554 6.02595 5.28841 3.64455 4.26854 4.48211 4.05123 3.88591 3.15379 2.95309 2.90153 2.85024 2.65848 2.59621 2.34097 1.57452 1.79104 1.53026 1.3377 1.17424
threshold=0.14319340884685519 0.035483926534652717 1.3272722363471987 0.012314205057919027 963069.62500000012 1.0000000180025095e-35 0.019873050041496757 -21.235202789306637 0.11495284736156465 0.081666667014360442 -0.10121775418519972 -0.47033207118511194 13.500000000000002 0.0073724645189940938 0.083468437194824233 321599.50000000006 0.29662138223648077 0.14679764211177829 7.5812487602233896 0.018157563172280792 0.32345247268676763 0.022034360095858577 0.62331080436706554 -6.2295620441436759 -0.032422218471765511 -0.029725494794547554 0.20608457922935489 -0.0046187329571694127 -10.940778732299803 0.0613063182681799
decision_type=2 2 2 2 2 2 2 10 2 10 2 2 8 2 2 2 10 2 10 2 10 2 10 10 2 2 8 2 8 2
left_child=1 7 3 5 13 -2 9 -1 -4 10 24 12 -12 14 15 -5 17 22 27 -10 -20 -9 -15 -14 -7 -23 -27 28 -13 -19
right_child=2 -3 8 4 -6 6 -8 21 19 -11 11 18 23 16 -16 -17 -18 29 20 -21 -22 25 -24 -25 -26 26 -28 -29 -30 -31
leaf_value=0.0064091826645659407 0.023177976826328845 0.011788123620472834 0.0012197746090038802 -0.0039878361294916473 0.017125371577967896 0.0013795515883018264 0.022313080848412072 -0.00095855122955443338 0.031161406369321205 0.014126008235987033 0.016441097066756616 -0.00123801372718439 0.0042929081473139126 -0.014922640666202818 -0.014847980595123284 0.022324998678174581 0.0024272534561031009 -0.025731376179960151 0.010689643457972181 0.010018735434566869 -0.009980807179059064 -0.0080103538321580729 0.0043716193206198442 -0.015250049359931368 0.021540095795203881 -0.023843464694056862 -0.0090077487211148877 -0.022844534437833068 -0.016283179759109 -0.011181082554068808
leaf_weight=10.095059245824812 14.481699258089064 18.168246209621429 16.906236171722412 12.468725264072424 10.652829527854918 9.8773698210716265 12.454017132520674 10.950815439224241 12.911001920700075 17.826543152332306 18.175703316926956 9.8463495075702649 12.622920334339144 12.387930274009706 9.9739836156368238 9.538721948862074 14.452965855598448 22.564532279968265 9.5806862413883227 12.82060784101486 13.492156922817228 13.838734537363051 11.682350873947142 10.293773621320723 10.258618026971815 34.075844794511802 11.422177344560614 14.722829312086107 11.038526922464369 9.3620816767215711
leaf_count=32 45 57 53 40 33 31 39 35 40 56 57 31 40 40 32 30 46 73 30 40 43 45 37 33 32 111 37 47 35 30
internal_value=-3.49957e-05 -0.00785002 0.0023858 0.000620571 -0.00535444 0.00473132 0.0028111 -0.012379 0.0136073 0.000899616 -0.00116729 -0.00395595 0.00478759 -0.0078353 0.000564693 0.00789161 -0.0116031 -0.0152034 -0.0100564 0.0213961 -0.00131018 -0.0151295 -0.00575745 -0.00475604 0.0121838 -0.0176856 -0.0203928 -0.0155332 -0.00957069 -0.0219338
internal_weight=418.944 98.5509 320.393 277.755 113.084 164.671 150.189 80.3826 42.6378 137.735 119.909 99.7729 41.0924 102.431 31.9814 22.0074 70.4499 55.9969 58.6805 25.7316 23.0728 70.2876 24.0703 22.9167 20.136 59.3368 45.498 35.6077 20.8849 31.9266
internal_count=1330 317 1013 880 361 519 474 260 133 435 379 316 130 328 102 70 226 180 186 80 73 228 77 73 63 193 148 113 66 103
is_linear=0
shrinkage=0.03


Tree=12
num_leaves=31
num_cat=0
split_feature=49 61 31 31 47 54 63 37 30 25 48 61 65 25 48 27 34 55 41 70 64 58 27 56 5 26 55 31 50 50
split_gain=15.0928 7.39782 6.50086 8.04021 6.62054 6.13451 5.49486 5.06574 5.04556 5.88958 6.36482 5.03169 4.99544 4.80246 6.19081 5.32445 4.04388 4.41362 3.99784 3.76996 3.46577 3.31968 3.25604 3.02145 4.24061 2.17877 2.17397 1.71999 1.41688 1.39953
threshold=89.707229614257827 -0.034966133534908288 0.022323296405375007 0.044648699462413795 2789.575805664063 0.0078453128226101416 0.019876061938703064 47.348642349243171 0.0031284207943826918 0.10593222826719285 0.16027166694402697 -0.02383348252624273 45.207084655761726 0.18993237614631656 0.19769962877035144 0.072666075080633177 0.046346928924322135 0.027031745761632923 1648.2785644531252 -0.16841928660869596 0.03472756780683995 0.0039900222327560195 0.048193700611591346 455080.75000000006 0.21261645853519442 0.085637230426073088 0.029261087998747829 0.035948954522609718 0.28983123600482946 0.047280894592404372
decision_type=2 2 2 2 2 2 2 2 2 2 2 2 2 2 2 2 2 2 2 2 2 2 2 2 10 2 2 2 2 2
left_child=7 13 4 23 16 -6 -5 25 18 27 -11 -7 -13 14 -2 -16 17 -3 -9 -17 21 -8 -19 24 -4 26 -1 -10 -24 -20
right_child=1 2 3 6 5 11 20 8 9 10 -12 12 -14 -15 15 19 -18 22 29 -21 -22 -23 28 -25 -26 -27 -28 -29 -30 -31
leaf_value=0.00029925259284219007 -0.012349264088038098 0.006429647556754973 0.024067260364900509 -0.012960501331830391 -0.0097624984448362248 0.027779046452289083 -0.0083505901978978888 0.0013469625544864224 0.00037662647670122284 -0.0052029168321537133 0.026572125036274152 -0.012124530555645838 0.013462105135462475 0.026964110347403859 -0.003146112404722378 0.0077208406632769564 0.0044374578316905009 -0.00031062000430579861 -0.024526561251586226 0.034090910852656572 0.018264107943908852 0.010809175359674985 -0.020836918046191279 0.028381229877876068 -0.0017014141234995136 -0.023754771148823562 -0.0182679011997577 -0.017213182817799096 -0.0072616003676959856 -0.0086882301881229407
leaf_weight=10.513399332761766 9.8607207834720594 10.089736610651014 9.691186189651491 18.188851892948151 16.579362601041794 11.06127870082855 16.700102627277378 13.072984129190443 9.3616339862346667 9.313521087169649 12.479447692632673 9.7845931649208087 18.123156934976578 15.535698384046553 10.568214476108553 9.6024881303310377 17.873499512672424 11.668309658765791 15.074126571416857 10.787614375352861 13.540071278810499 14.068619847297667 35.956904619932175 14.593341171741484 12.165429741144179 21.583424866199493 11.253337174654005 9.6440717577934247 10.289375901222227 9.6246374845504743
leaf_count=34 31 32 30 58 53 34 53 42 30 30 39 31 57 48 33 30 56 37 49 33 42 44 117 45 38 72 37 31 33 31
internal_value=-9.91438e-05 0.0035524 0.00123703 0.00709775 -0.00288442 0.00513033 0.000502969 -0.00894282 -0.00430305 0.00299534 0.0133601 0.0115522 0.00438221 0.0132346 0.00748926 0.0139968 -0.00806798 -0.0113714 -0.0120602 0.0226138 0.00619382 0.000474462 -0.0145292 0.0180899 0.0102774 -0.0170656 -0.00968067 -0.00896324 -0.0180342 -0.0189329
internal_weight=418.649 296.729 240.374 98.9476 141.426 55.5484 62.4976 121.921 78.5704 40.7987 21.793 38.969 27.9078 56.3547 40.819 30.9583 85.8778 68.0043 37.7717 20.3901 44.3088 30.7687 57.9146 36.45 21.8566 43.3502 21.7667 19.0057 46.2463 24.6988
internal_count=1330 935 760 310 450 175 197 395 252 130 69 122 88 175 127 96 275 219 122 63 139 97 187 113 68 143 71 61 150 80
is_linear=0
shrinkage=0.03


Tree=13
num_leaves=31
num_cat=0
split_feature=49 51 61 22 31 61 48 24 49 34 5 39 24 24 35 6 32 7 5 54 15 62 51 65 35 22 28 69 24 23
split_gain=26.475 11.1583 9.80648 7.27587 5.62591 5.23224 5.95018 4.97079 4.47117 4.38811 4.1269 5.20799 6.13928 7.26896 4.14496 4.06669 4.00287 4.97985 3.75442 4.84715 3.81467 4.64648 3.52738 3.48729 3.38363 3.30386 3.13614 4.15756 3.01919 2.8964
threshold=68.089977264404311 1.2805544137954714 0.0026334986323490743 0.086567401885986342 -0.014606084208935497 -0.030474476516246792 0.21405038982629779 0.075584169477224364 112.47658920288087 0.021026272326707843 0.29305949807167059 -51.195564270019524 0.31283488869667059 0.26257874071598059 0.030607959255576137 0.37466578185558325 -0.0065930993296205989 0.71849057078361522 0.071797974407672896 0.010914594400674106 0.12639929354190829 -0.0058364539872854939 0.138047069311142 47.400861740112312 0.037439549341797836 0.20298469066619876 99.500000000000014 -0.36866016685962671 0.16908796876668933 0.14719653874635699
decision_type=2 2 2 2 2 2 2 2 2 2 10 10 2 2 2 10 2 10 8 2 2 2 2 2 2 2 2 2 2 2
left_child=2 3 4 18 -1 6 -5 23 -3 22 11 15 13 16 -12 28 -13 26 19 -2 -20 -22 -4 -7 -16 -17 -18 -28 -9 -8
right_child=1 8 9 5 -6 7 29 10 -10 -11 14 12 -14 -15 24 25 17 -19 20 -21 21 -23 -24 -25 -26 -27 27 -29 -30 -31
leaf_value=0.013207030801732689 0.014014151674818487 -0.00037998357051011948 -0.013925643825183055 0.0048967878529007835 0.035779995650702535 0.0017731027855929029 -0.0056016290540412648 -0.020377988762827797 -0.02229044650665778 0.016107674822796427 -0.016789784140260236 0.019972892035747661 0.029555094514380039 -0.010786996215884716 0.013836689364669761 0.017884923976704357 0.023168042691888789 -0.010165502684292952 -0.024835848607114186 -0.010309129543225911 0.0068783696815951203 -0.016753558595919052 0.0082918091840604169 -0.017185735320235138 -0.0076574635847111178 -0.003635944313891287 -0.0059341630596481633 0.016301474927938847 9.1453934425951553e-05 -0.026356528824103175
leaf_weight=20.903674066066742 11.128000199794771 11.075775325298308 12.692285627126696 17.20149153470993 21.764566510915756 17.171784490346909 11.347821325063707 11.389412909746172 33.922845840454102 16.372364312410355 13.672780930995939 29.051033526659012 12.311606854200361 15.371663779020308 12.304226875305178 11.895343363285066 12.274139195680617 12.191550850868223 18.496713578701019 17.816729038953781 11.81858089566231 17.55531057715416 11.217582881450651 16.416675984859467 12.152031272649763 12.227896004915236 14.4030892252922 14.087092936038976 13.589729011058806 13.853612899780272
leaf_count=57 31 31 35 48 59 48 32 32 97 45 38 80 34 43 34 33 34 34 52 50 33 49 31 46 34 34 40 39 38 39
internal_value=0.000115089 -0.00313137 0.0154169 -0.00130053 0.0252769 0.00100324 -0.00855999 0.0027918 -0.017023 0.00461362 0.0046151 0.00673626 0.0103442 0.00763967 -0.00416513 -0.00136921 0.011182 0.00607857 -0.00939319 -0.00080216 -0.014465 -0.00733184 -0.00358766 -0.00772217 0.00327524 0.00726564 0.0110638 0.0052403 -0.00966687 -0.0175814
internal_weight=477.677 394.727 82.9505 349.728 42.6682 272.913 42.4029 230.51 44.9986 40.2822 196.922 158.793 109.69 97.3786 38.129 49.1024 82.0069 52.9559 76.8153 28.9447 47.8706 29.3739 23.9099 33.5885 24.4563 24.1232 40.7643 28.4902 24.9791 25.2014
internal_count=1330 1103 227 975 116 760 119 641 128 111 547 441 304 270 106 137 227 147 215 81 134 82 66 94 68 67 113 79 70 71
is_linear=0
shrinkage=0.03


Tree=14
num_leaves=31
num_cat=0
split_feature=48 60 5 69 31 57 56 57 6 22 70 64 60 54 48 43 31 25 35 9 64 56 58 27 6 17 5 54 46 66
split_gain=8.44561 9.61566 10.069 6.65317 7.3427 8.35176 6.89223 6.39093 6.33852 4.68631 4.61683 4.32073 4.14289 5.92869 4.56109 6.72982 4.62893 3.85487 3.5404 4.0366 4.12029 2.7249 3.67422 2.5983 3.30491 2.43876 2.33589 2.99497 2.15002 2.13562
threshold=0.14319340884685519 0.002052593277767301 0.23441903293132785 1.3272722363471987 0.012314205057919027 1.818094074726105 963069.62500000012 1.9590402841567995 0.45368783175945288 0.24957498162984851 -0.026026308536529538 0.020001485943794254 -0.013652754947543142 0.010853169951587917 0.21405038982629779 2360.691284179688 -0.012528298422694205 0.1613029018044472 0.023692974820733074 3.5000000000000004 0.017092130146920684 758656.71875000012 0.0043179611675441274 0.081740178167819991 0.38348416984081274 0.44315245747566229 0.11618762835860254 0.0068262454587966212 2754.7812500000005 1129.018249511719
decision_type=2 2 8 2 2 2 2 2 10 2 2 2 2 2 2 10 2 2 2 8 2 2 2 2 10 10 8 2 2 2
left_child=1 26 10 4 5 8 18 17 12 25 -3 -5 13 -2 28 -16 -17 -7 -6 -20 -21 -13 -23 24 -22 -10 27 -1 -14 -26
right_child=3 2 -4 11 6 7 -8 -9 9 -11 -12 21 14 -15 15 16 -18 -19 19 20 23 22 -24 -25 29 -27 -28 -29 -30 -31
leaf_value=-0.015589274305643474 0.024612499096157207 -0.01345204909622897 0.028393945654455195 0.029397449003261012 0.0045683296360138044 0.038069926586942748 0.016615061289194353 -0.0009493054037782668 0.0078669353629278981 -0.0058283318184136007 0.011113988074021926 -0.0043593379733149161 -0.0042521143585154608 -0.0032422701010809416 -0.015526831660782899 -0.0012636718121701684 0.024379650560963792 0.011566845594735259 0.0073420385361573715 0.005459557722589041 -0.00066477361001196413 0.023835966750907021 -0.00060235236849571019 -0.02318357383081409 -0.024280360666300571 0.026714915352560754 -0.020336503006537724 0.0049182528757447793 -0.021968654520850863 -0.0054382608358165187
leaf_weight=15.839551091194155 9.6139781475067156 19.354332804679871 9.9548915624618513 10.179824560880659 17.033898085355759 11.84282895922661 10.736040413379667 10.808335602283476 12.811226487159731 9.4622186124324781 9.5063950121402758 11.178994327783583 10.052880436182024 18.982583522796631 15.059368044137953 15.418254554271696 9.6461721658706683 10.019366502761839 9.7948743104934675 9.4990325868129712 18.408461034297943 11.985027998685839 9.5689009726047498 23.288548231124878 14.665924519300463 13.502798020839689 33.730148911476135 9.72530350089073 17.688127458095551 9.3664249181747419
leaf_count=52 30 63 31 31 54 36 33 34 40 30 30 35 32 60 48 49 30 31 31 30 59 37 30 76 48 42 110 31 57 30
internal_value=-3.21279e-05 -0.00768882 0.00386816 0.00232751 0.000609427 0.00463292 -0.0052621 0.0179734 0.00122686 0.0118314 -0.00525907 0.0131786 -0.00278728 0.00663751 -0.00679737 -0.000256504 0.00916202 0.0269609 -0.00770239 -0.0101853 -0.0125337 0.0074127 0.0134409 -0.0151769 -0.0103509 0.0181626 -0.0151929 -0.0078964 -0.0159198 -0.0174474
internal_weight=418.725 98.1106 38.8156 320.614 277.701 164.908 112.793 32.6705 132.238 35.7762 28.8607 42.9127 96.4614 28.5966 67.8648 40.1238 25.0644 21.8622 102.057 85.0233 75.2284 32.7329 21.5539 65.7294 42.4408 26.314 59.295 25.5649 27.741 24.0323
internal_count=1330 317 124 1013 880 519 361 101 418 112 93 133 306 90 216 127 79 67 328 274 243 102 67 213 137 82 193 83 89 78
is_linear=0
shrinkage=0.03


Tree=15
num_leaves=31
num_cat=0
split_feature=49 17 52 31 31 36 29 57 30 52 39 48 9 22 36 36 56 55 34 62 70 22 31 50 22 62 36 16 27 50
split_gain=13.5862 7.13918 6.85885 5.78234 7.34396 6.57319 6.60675 6.79804 5.64507 5.49089 6.41971 5.25538 4.89535 4.36666 6.57368 4.92695 4.24602 4.14425 3.64496 3.56671 4.36026 3.14683 2.53799 2.2133 2.41188 2.04578 1.91324 1.60721 1.48341 0.856003
threshold=89.707229614257827 0.7637632191181184 -0.012630084063857792 -0.05800094082951545 0.02131478022783995 0.034007832407951362 35.500000000000007 1.6152581572532656 -0.012223802506923674 -0.25747022032737726 -12.963718891143797 0.18935182690620425 5.5000000000000009 0.20627397298812869 0.038162343204021461 0.046164734289050109 292912.56250000006 0.048566274344921119 0.023418176919221882 0.013524737209081652 -0.034484332427382462 0.2085770517587662 0.057315872982144363 -0.16161555796861646 0.081904701888561263 0.062713544815778746 0.026916131377220157 0.36055555939674383 0.08260067924857141 0.047280894592404372
decision_type=2 8 2 2 2 2 2 2 2 2 10 2 8 2 2 2 2 2 2 2 2 2 2 2 2 2 2 10 2 2
left_child=2 3 19 9 13 11 -7 -8 -3 -2 -11 -6 -10 15 16 23 -15 -18 -4 26 -21 -9 -13 -5 -25 -22 29 -26 -28 -1
right_child=1 8 18 4 5 6 7 21 12 10 -12 22 -14 14 -16 -17 17 -19 -20 20 25 -23 -24 24 27 -27 28 -29 -30 -31
leaf_value=-0.026168908433451647 -0.0051746372369298474 0.00065446727233141528 -0.0049389936403012235 -0.022718798419584234 0.0099808643065179992 -0.00364106029594641 0.032037124012818184 -0.0035035523173361444 0.01045889352612232 0.031100709083676445 0.0046431571956737751 -0.0029258550010543812 0.037933676296988898 0.021717152194115769 -0.013102503814914753 0.0050923495875591883 -0.013914615168141827 0.011786547621973818 0.017021212878111515 0.0094034697355082492 -0.0031513602798157996 0.01834958131653722 -0.023063093268477285 0.0029320723554885457 -0.023041703510190092 -0.022239451170371707 -0.0039161369941208167 -0.0053450608950103016 -0.018149641648759738 -0.014238521955863077
leaf_weight=18.230300575494766 12.813057422637938 15.098911255598066 14.303636312484743 20.169613212347031 13.66373750567436 16.684412121772766 17.556381851434708 11.876725077629091 13.433522254228594 15.33774361014366 17.523565411567688 11.73121225833893 11.031224101781843 12.654946744441984 18.434848994016647 13.204979777336119 9.3043171465396899 11.491961449384688 11.413617372512816 12.451679140329359 10.85243219137192 10.338409334421156 10.466086417436598 9.4265024363994616 9.9536383748054522 9.1373252272605878 16.271280974149708 9.3376772999763471 10.985606789588926 14.427423268556593
leaf_count=61 40 47 46 65 43 52 54 37 42 47 54 37 34 40 59 42 30 36 36 40 35 32 34 30 32 30 53 30 36 48
internal_value=7.21868e-05 0.00354937 -0.00847098 0.00166196 -0.000493116 0.00576216 0.0120622 0.0185775 0.0152324 0.0111977 0.0175458 -0.00421411 0.0238505 -0.00556564 0.000865216 -0.010868 0.00871966 0.000176933 0.0050795 -0.0122582 -0.004076 0.00701873 -0.0130055 -0.0151947 -0.00932352 -0.0125204 -0.0165489 -0.0151615 -0.0100921 -0.021478
internal_weight=409.607 291.533 118.073 251.97 206.295 92.317 56.4559 39.7715 39.5637 45.6744 32.8613 35.861 24.4647 113.978 51.8861 62.0924 33.4512 20.7963 25.7173 92.356 32.4414 22.2151 22.1973 48.8874 28.7178 19.9898 59.9146 19.2913 27.2569 32.6577
internal_count=1302 917 385 794 653 289 175 123 123 141 101 114 76 364 165 199 106 66 82 303 105 69 71 157 92 65 198 62 89 109
is_linear=0
shrinkage=0.03


Tree=16
num_leaves=31
num_cat=0
split_feature=49 56 9 56 50 34 62 35 26 19 69 59 22 51 28 49 37 33 58 50 32 5 26 47 70 52 34 50 69 62
split_gain=23.7975 14.1619 12.5987 11.2862 8.80709 8.39704 6.74934 5.88738 5.58565 5.20929 4.34284 3.9883 4.22591 3.76889 3.70539 5.39811 3.37725 4.82819 5.35982 3.36546 3.27821 3.19547 4.3 5.69151 2.99046 2.88312 2.80402 2.43777 1.93905 1.91526
threshold=86.53507232666017 198305.71875000003 17.500000000000004 486266.46875000006 -0.43456916511058802 0.033177675679326064 0.0056774297263473281 0.030698586255311969 0.14037328213453296 20.500000000000004 -0.36866016685962671 0.41666667163372045 0.071716587990522399 0.48241843283176428 201.50000000000003 183.72135925292972 37.81849670410157 -0.044085137546062463 0.0028414397966116671 -0.013327014166861771 0.0097517394460737723 0.21965774893760684 0.14093180000782016 2385.0971679687505 -0.061476750299334519 -0.33950942754745478 0.021026272326707843 -0.26961188018321985 0.38664753735065466 0.016429747454822067
decision_type=2 2 10 2 2 2 2 2 2 2 2 2 2 2 2 2 2 2 2 2 2 8 2 2 2 2 2 2 2 2
left_child=1 -1 4 7 5 -2 11 10 13 -5 20 -3 -13 26 29 -16 25 18 -18 27 -4 22 -19 -24 -12 -6 -8 -9 -17 -11
right_child=2 6 3 9 16 -7 8 19 -10 14 24 12 -14 -15 15 28 17 21 -20 -21 -22 -23 23 -25 -26 -27 -28 -29 -30 -31
leaf_value=0.031192600664133267 0.023336280445537375 0.0042609309656513154 0.0021539503943859995 0.010590709979543995 -0.0085017390629546184 -0.012048869989022057 -0.023359898345034009 0.012401057161013024 0.014068476853517994 -0.010695148651598338 0.020342008883489283 0.0060416480970759343 0.030490732699439225 0.0059652123737358211 0.013368685085808758 -0.0020660702978365906 0.0077982376207529564 -0.020480628798196246 -0.014241935301036001 0.0034624872157536777 -0.018678239329442792 -0.024207568361834703 0.011175084832012107 -0.017074695037504008 0.00055806843428093109 -0.028834601967926313 -0.0046808475989125039 0.030613791091482181 -0.019662630643698525 -0.026005724464406674
leaf_weight=23.243183434009552 11.61785861849785 23.011233508586884 14.113045543432237 11.432006597518919 10.547690540552141 10.693006932735441 11.479436069726946 16.621783196926117 15.264590978622435 19.794318288564682 11.228739440441133 10.942122250795366 16.481768935918808 14.366505682468413 10.711732089519499 10.722473025321962 21.100380063056946 19.153161704540253 17.064215689897537 14.447447329759596 11.796193420886992 24.167180895805359 13.267439991235735 10.677792876958845 15.843506336212156 19.924809247255325 18.782677590847015 13.435481458902361 11.525166958570479 13.750255167484282
leaf_count=63 32 63 39 32 30 30 32 46 42 56 31 30 45 40 30 30 59 54 48 40 33 68 37 30 44 57 52 37 33 39
internal_value=-0.000250705 0.0104039 -0.00453462 0.00100547 -0.010645 0.00658776 0.0057834 0.00777408 -0.00104504 -0.00745227 0.000957724 0.013755 0.0212913 -0.00640943 -0.0106648 -0.00335479 -0.0135016 -0.0107758 -0.00216842 0.0156894 -0.00767237 -0.015556 -0.0102658 -0.0016017 0.00919616 -0.0222904 -0.012287 0.0212657 -0.0116355 -0.0175422
internal_weight=467.207 133.572 333.636 175.422 158.214 22.3109 110.328 97.4862 59.8932 77.936 52.9815 50.4351 27.4239 44.6286 66.5039 32.9594 135.903 105.43 38.1646 44.5047 25.9092 67.2656 43.0984 23.9452 27.0722 30.4725 30.2621 30.0573 22.2476 33.5446
internal_count=1302 367 935 490 445 62 304 270 166 220 147 138 75 124 188 93 383 296 107 123 72 189 121 67 75 87 84 83 63 95
is_linear=0
shrinkage=0.03


Tree=17
num_leaves=31
num_cat=0
split_feature=48 39 54 40 30 9 22 26 47 27 55 42 27 51 51 9 55 58 54 64 57 30 15 39 33 57 24 0 45 27
split_gain=10.6334 7.64748 6.40741 6.56708 6.54863 5.71569 6.19935 6.86803 5.73338 5.21348 5.50775 5.11352 4.51647 7.98176 6.80407 6.36524 4.35075 3.9456 5.29562 5.08472 4.45498 4.19615 3.19711 2.7819 2.63213 2.53294 1.76904 1.26857 1.26161 0.2723
threshold=0.14687774330377582 23.865217208862308 0.019926404580473903 -32.053571701049798 -0.024005131796002385 37.500000000000007 0.32373720407485967 0.24847047775983813 3221.506469726563 0.074809674173593535 0.072439979761838927 1616.9000244140627 0.051787463948130615 0.14698597043752673 -0.49910327792167658 11.500000000000002 0.042046340182423599 0.013371702749282123 0.010329622309654953 0.029636317864060405 1.7506288886070254 -0.030000220052897927 0.13780996203422549 -50.795967102050774 -0.012003925628960131 1.5866129994392397 0.28389811515808111 0.12548993527889254 2742.2631835937505 0.077039398252964034
decision_type=2 10 2 10 2 8 2 2 2 2 2 2 2 2 2 10 2 2 2 2 2 2 2 8 2 2 2 10 2 2
left_child=1 11 5 -4 -5 6 7 9 29 10 12 -1 15 14 24 -2 -3 18 19 20 22 -20 -11 -13 -14 -6 -9 -25 -23 -7
right_child=2 16 3 4 25 8 -8 26 -10 17 -12 23 13 -15 -16 -17 -18 -19 21 -21 -22 28 -24 27 -26 -27 -28 -29 -30 -31
leaf_value=0.0010308486234369286 0.019100294527844248 -0.0042523175988708525 0.029258327876036931 -0.01043001753494985 0.025328375186632057 -0.025546625415122124 0.02031121225585621 -0.022904520931907653 0.0031315526446979627 -0.0083503552673913507 -0.011841634223877517 -0.004142479128407834 0.0078110436604679262 0.037625010575210095 -0.00475811532286611 -0.0098258120591033556 0.01948445093728984 0.015204039148869263 0.003774164482065143 0.019074593587381186 -0.015997126695295297 -0.023230678729827165 0.012989102654242864 -0.023096252093420418 0.029934639887824542 0.0045015278994097411 -0.0055518484116567788 -0.0097566609898794114 -0.0089768281217125958 -0.014251399908261828
leaf_weight=18.342875599861145 10.217616349458696 16.263861358165745 14.331043124198912 13.468775719404219 10.574679970741274 9.2944806218147296 16.008952975273132 9.897901117801668 15.986255049705504 9.3743076324462908 9.526844918727873 12.640551179647444 9.578042119741438 11.572032541036604 16.452189236879352 16.587999105453491 10.781920850276945 10.532210409641264 10.875504165887831 12.107140600681303 13.187139332294462 15.93382501602173 15.505431145429609 35.893414050340652 11.201540470123289 10.589672982692717 11.948612242937086 10.385050296783445 11.241545706987379 9.3976898193359357
leaf_count=59 32 52 44 42 33 30 50 32 51 30 30 41 30 36 52 53 34 33 34 38 42 51 49 118 35 33 38 34 36 30
internal_value=0.000213639 -0.00801075 0.00303969 0.012869 0.00545642 0.0011201 0.00290157 0.00145521 -0.0100334 0.00336599 0.00876107 -0.0127744 0.0114777 0.0168232 0.00954271 0.00149047 0.00556778 -0.00132619 -0.00344784 0.00294723 -0.00253903 -0.0117399 0.00493674 -0.0170177 0.020564 0.0155808 -0.0140722 -0.0203725 -0.0178622 -0.0208799
internal_weight=409.699 104.308 305.391 48.9642 34.6331 256.427 221.749 205.74 34.6784 183.893 85.1363 77.2619 75.6094 48.8038 37.2318 26.8056 27.0458 98.7571 88.2249 50.174 38.0669 38.0509 24.8797 58.919 20.7796 21.1644 21.8465 46.2785 27.1754 18.6922
internal_count=1302 338 964 152 108 812 701 651 111 581 268 252 238 153 117 85 86 313 280 159 121 121 79 193 65 66 70 152 87 60
is_linear=0
shrinkage=0.03


Tree=18
num_leaves=30
num_cat=0
split_feature=49 17 52 31 31 36 28 30 52 39 48 36 9 22 36 36 47 34 62 37 30 32 31 50 24 36 60 47 50
split_gain=12.8685 6.76948 6.65012 5.49433 7.00911 6.24119 6.29804 5.36694 5.25352 6.0132 5.04611 4.92436 4.58842 4.23172 6.28709 4.75512 4.02642 3.48391 3.46068 4.57932 3.37631 3.10598 2.48743 2.15747 2.43031 1.8836 2.52917 1.30095 0.851907
threshold=89.707229614257827 0.7637632191181184 -0.012630084063857792 -0.05800094082951545 0.02131478022783995 0.034007832407951362 120.50000000000001 -0.012223802506923674 -0.25747022032737726 -12.963718891143797 0.18935182690620425 0.044061826542019851 5.5000000000000009 0.20627397298812869 0.038162343204021461 0.046164734289050109 2947.0915527343755 0.023418176919221882 0.013524737209081652 55.779867172241218 0.018093317747116092 0.0071448511444032201 0.057315872982144363 -0.16161555796861646 0.22398348897695544 0.026916131377220157 -0.0015152105479501186 2731.6782226562505 0.047280894592404372
decision_type=2 8 2 2 2 2 2 2 2 10 2 2 8 2 2 2 2 2 2 2 2 2 2 2 2 2 2 2 2
left_child=2 3 18 8 13 10 11 -3 -2 -10 -6 -7 -9 15 16 23 21 -4 25 -20 -8 -15 -12 -5 27 28 -27 -25 -1
right_child=1 7 17 4 5 6 20 12 9 -11 22 -13 -14 14 -16 -17 -18 -19 19 -21 -22 -23 -24 24 -26 26 -28 -29 -30
leaf_value=-0.02591520365514495 -0.0051577251688675269 0.00056184916883976596 -0.0047863013173198455 -0.022465579912500602 0.0097041828956390703 -0.015193767360480276 0.029023443816725166 0.010161279225594413 0.030053994076037847 0.0045335694291722762 -0.0028501571257452435 0.010810786084074799 0.036637451921260604 0.010722115404490069 -0.012875572051010467 0.0049359339450461767 0.020555226595937701 0.016673499329461085 0.0065966802634945011 -0.015377261178311943 0.00860153485185426 -0.011786954076587284 -0.022837798841375326 -0.022527763523998393 0.0031250140302047369 -0.0020402275723825801 -0.020408661274190072 -0.0063613797784901373 -0.013993195838982063
leaf_weight=17.953075289726257 12.806842356920241 15.123444139957426 14.249050527811052 19.954678684473038 13.728621751070021 9.8806582093238848 17.403341084718708 13.50106516480446 15.533029496669768 17.554614216089249 11.709726899862291 15.482842504978178 11.198755025863646 10.393403947353365 18.310143768787384 13.243447363376616 13.481418490409849 11.476403743028639 17.014483004808426 15.336109846830366 13.988519996404646 9.697910934686659 10.356788903474806 9.4916433990001732 9.3831326663494092 16.218681484460834 10.86773696541786 9.7388526201248151 14.302315711975096
leaf_count=61 40 47 46 65 43 31 53 42 47 54 37 48 34 33 59 42 42 36 55 50 43 31 34 31 30 53 36 31 48
internal_value=7.03315e-05 0.00344354 -0.00827549 0.00160184 -0.000503275 0.00559342 0.0117033 0.0147793 0.010871 0.0170444 -0.00414891 0.000488338 0.0231239 -0.00547165 0.000852928 -0.0107094 0.00849613 0.00505281 -0.0120291 -0.00396901 0.0204697 -0.000186541 -0.0128146 -0.014989 -0.00919238 -0.0162845 -0.00987433 -0.0150598 -0.0212086
internal_weight=409.381 291.963 117.418 252.14 206.245 92.5505 56.7554 39.8233 45.8945 33.0876 35.7951 25.3635 24.6998 113.695 51.8829 61.8118 33.5727 25.7255 91.6924 32.3506 31.3919 20.0913 22.0665 48.5683 28.6136 59.3418 27.0864 19.2305 32.2554
internal_count=1302 917 385 794 653 289 175 123 141 101 114 79 76 364 165 199 106 82 303 105 96 64 71 157 92 198 89 62 109
is_linear=0
shrinkage=0.03


Tree=19
num_leaves=31
num_cat=0
split_feature=54 48 15 19 31 50 62 31 60 28 22 56 55 35 35 15 36 57 50 24 15 35 23 9 23 52 27 24 15 56
split_gain=21.4121 11.977 8.28314 8.60297 6.76895 5.82236 5.60299 5.35802 5.55719 4.67558 6.52682 4.57844 5.98992 6.14712 4.79925 4.18555 3.93055 3.80216 3.75191 3.71908 3.84148 4.20282 6.28551 4.89518 3.54939 2.80618 2.43426 2.10032 1.92847 1.81854
threshold=0.012318031862378122 0.11388733237981798 0.074374940246343627 15.500000000000002 0.014457497280091049 -0.47315689921379084 0.018830688670277599 -0.063098218291997896 -0.030744191259145733 102.50000000000001 0.18207456916570666 547066.62500000012 0.042046340182423599 0.030735926702618602 0.024314204230904583 -1.0000000180025095e-35 0.037768309935927398 1.3475751280784609 -0.085846874862909303 0.047382785007357604 0.30775026977062231 0.032193982973694808 0.150395043194294 13.500000000000002 0.21287441253662112 -0.070778366178274141 0.081962198019027724 0.13968130946159366 0.19409468770027163 643478.50000000012
decision_type=2 2 2 2 2 2 2 2 2 2 2 2 2 2 2 2 2 2 2 2 2 2 2 10 2 2 2 2 2 2
left_child=1 4 6 5 18 -4 15 26 -9 10 27 12 13 14 -5 -3 -15 -10 -1 -19 21 28 23 -23 -14 -20 -2 -7 -21 -24
right_child=7 2 3 11 -6 9 -8 8 17 -11 -12 -13 24 16 -16 -17 -18 19 25 20 -22 22 29 -25 -26 -27 -28 -29 -30 -31
leaf_value=0.03178885789447107 -0.0099671145454738128 0.0046550978524896132 0.0080332465279645618 0.0043205805364083562 0.00033734888577807264 -0.025227090852044189 -0.0028272128906326483 0.012984461305315043 -0.018884891635267857 -0.024145387287096889 0.0076125381469767965 -0.01011927082530407 0.006673089900949127 0.023898841723076311 -0.017334213096931967 0.026938032825848082 0.00021603180869044552 -0.015994081569659004 0.023963181434413984 0.0020325367375144277 -0.017598016217734661 -0.006116864219710757 -0.0062877565138682772 0.020353474303968846 0.027069892783181927 0.003608602770672945 -0.025572088391552412 -0.0075562828777372059 0.019757517941584282 -0.023844689925112093
leaf_weight=20.306985437870026 19.588647812604904 12.300782233476637 14.096735060214995 17.288465827703476 17.407382398843765 11.375740975141527 14.75327545404434 12.120318353176115 21.245587587356567 20.893757432699203 16.551697313785553 16.338724762201309 16.215676754713062 11.984932184219362 17.961583435535431 21.080772310495377 12.299807190895079 20.916669815778732 11.084125906229021 10.832561790943148 11.033918201923369 12.7502598464489 11.442098975181581 10.77416932582855 15.24942162632942 13.154409557580946 19.730023473501205 14.325457811355589 10.844185262918471 10.791077941656111
leaf_count=55 56 34 39 48 48 32 41 34 60 59 46 46 45 33 50 58 34 59 30 30 31 36 32 30 42 36 57 40 30 31
internal_value=-0.000247383 0.00465875 0.00151152 -0.0013952 0.0162691 -0.00896883 0.0124594 -0.00862754 -0.00566609 -0.0128304 -0.00680635 0.00408744 0.00672047 0.00104949 -0.00688737 0.0191012 0.0123868 -0.00763134 0.0223507 -0.00506151 -0.0019827 0.000792162 -0.00435973 0.00634212 0.0170876 0.0134973 -0.0182377 -0.0160295 0.01138 -0.0154687
internal_weight=466.739 294.67 232.717 184.582 61.9529 77.2434 48.1348 172.07 132.751 63.1467 42.2529 107.339 90.9999 59.5348 35.25 33.3816 24.2847 120.631 44.5455 99.3849 78.4683 67.4344 45.7576 23.5244 31.4651 24.2385 39.3187 25.7012 21.6767 22.2332
internal_count=1302 816 647 514 169 216 133 486 373 177 118 298 252 165 98 92 67 339 121 279 220 189 129 66 87 66 113 72 60 63
is_linear=0
shrinkage=0.03


Tree=20
num_leaves=29
num_cat=0
split_feature=48 39 33 36 22 15 15 26 24 15 60 15 27 63 33 41 16 64 55 64 33 51 44 42 38 64 37 29
split_gain=10.1043 7.37187 5.62156 5.82294 5.64409 6.53307 6.79225 8.94995 6.18473 7.30754 8.21126 6.44202 7.06676 5.28479 5.10352 5.02485 4.91123 4.21466 4.14697 3.84361 3.36879 2.89596 2.77294 2.32284 1.9004 1.6434 0.858961 0.547459
threshold=0.14687774330377582 23.865217208862308 -0.21794458478689191 0.024427719414234165 0.32373720407485967 0.15215995162725451 0.23592861741781238 0.2379950284957886 0.053208563476800926 0.077298495918512358 -0.0048438217490911475 0.10148319602012636 0.069470260292291655 0.018743449822068218 0.017341056838631633 2415.1713867187505 0.31601439416408544 0.028247282840311531 0.042046340182423599 0.028350480832159523 0.018330985680222515 0.5660078525543214 2772.4362792968755 1610.0759887695315 -52.396108627319329 0.029761065728962425 44.510576248168952 29.500000000000004
decision_type=2 10 2 2 2 2 2 2 2 2 2 2 2 2 2 2 10 2 2 2 2 2 2 2 2 2 2 2
left_child=1 14 -2 15 5 8 16 13 17 10 -10 -11 -13 -8 23 -4 20 -5 -3 -15 -7 -9 -14 -1 -25 26 -18 -26
right_child=2 18 3 4 -6 6 7 21 9 11 -12 12 22 19 -16 -17 25 -19 -20 -21 -22 -23 -24 24 27 -27 -28 -29
leaf_value=-0.0026342871734796906 0.018955254754377485 -0.0041513635238745478 0.002458814813157015 0.0028410281308009809 0.015682150619862237 -0.011618392745617165 0.027528058159436208 -0.01837506564727347 0.0051651044247092246 0.025190253600142622 -0.022668667106443299 0.016648729617414076 -0.018975260180630508 -0.0091395565795038027 0.0020940776678582151 0.026036225536843101 -0.013613505973894983 0.026489983654486175 0.018988092957899137 0.0145578886503035 0.011120498128831416 0.001823709460772168 0.0016372471745973109 -0.0079153600967129204 -0.015094384819542584 -0.0083057438823553528 -0.026714124471010667 -0.025421584264589941
leaf_weight=9.5224713385105115 17.587269753217697 16.222355633974079 17.301951169967651 12.153122544288637 19.030159592628479 11.303987592458727 11.192227780818937 17.018669545650486 17.360089689493179 12.805527925491331 19.377387136220932 14.742313176393507 11.527855455875399 11.282023221254351 16.595219194889069 14.754153609275816 10.956359148025514 15.148485630750654 10.863422363996504 11.415702223777769 10.207211971282957 9.6375457644462568 10.782902419567106 12.274467438459395 13.161925852298735 12.23850581049919 17.902391493320465 25.147966772317886
leaf_count=31 54 52 55 38 59 36 35 55 54 40 62 46 37 36 53 46 35 47 34 36 32 30 34 40 44 39 58 84
internal_value=0.00021156 -0.0078317 0.00295872 0.00192015 0.000389013 -0.000899414 -0.00566696 0.00150177 0.00426006 0.000277753 -0.00972764 0.00769637 0.00114739 0.0115828 -0.0125406 0.0137699 -0.0125142 0.0164352 0.00547492 0.00289033 -0.000813941 -0.0112703 -0.00937026 -0.0165494 -0.019067 -0.0184735 -0.0223629 -0.0223478
internal_weight=409.514 103.788 305.726 288.139 256.082 237.052 123.155 60.5462 113.898 86.5961 36.7375 49.8586 37.0531 33.89 76.7021 32.0561 62.6085 27.3016 27.0858 22.6977 21.5112 26.6562 22.3108 60.1068 50.5844 41.0973 28.8588 38.3099
internal_count=1302 338 964 910 809 750 392 192 358 273 116 157 117 107 252 101 200 85 86 72 68 85 71 199 168 132 93 128
is_linear=0
shrinkage=0.03


Tree=21
num_leaves=31
num_cat=0
split_feature=49 29 52 49 15 51 69 22 34 47 23 27 51 58 44 48 47 69 62 37 34 19 62 15 15 69 60 43 62 37
split_gain=12.3461 6.66395 6.39309 5.62368 6.33212 6.80587 6.52866 5.0161 7.06928 5.69964 4.5922 4.57518 5.54886 4.40091 4.08576 6.08735 3.62814 5.87258 3.34112 4.41065 3.32779 3.15761 2.89385 2.61438 2.3106 2.10991 1.5761 2.40281 1.20119 0.736672
threshold=89.707229614257827 41.500000000000007 -0.012630084063857792 188.21125793457034 0.10557521507143976 -0.27160136401653284 -0.71979713439941395 0.19090297818183902 0.021266626194119457 2146.689575195313 -0.017684032209217545 0.12478245049715044 -0.23986537009477613 0.0010375846759416165 2567.7988281250005 0.18804364651441577 2394.736206054688 -0.54207736253738392 0.013524737209081652 55.779867172241218 0.023418176919221882 4.5000000000000009 0.012165667023509743 0.13780996203422549 0.12745907902717593 0.53093680739402782 -0.0017595146782696245 1628.5828247070315 0.01435000589117408 47.216196060180671
decision_type=2 2 2 2 2 2 2 2 2 2 2 2 2 2 2 2 2 2 2 2 2 2 2 2 2 2 2 10 2 2
left_child=2 10 18 7 -5 6 -6 9 -9 -3 -2 12 16 -7 22 -16 17 -12 26 -20 -4 -14 -10 -11 -23 -17 27 -1 -25 -28
right_child=1 3 20 4 5 13 -8 8 14 23 11 -13 21 -15 15 25 -18 -19 19 -21 -22 24 -24 28 -26 -27 29 -29 -30 -31
leaf_value=-6.5524106832503271e-05 -0.0074572648637914775 0.0044633257036407799 -0.0047293466835637479 -0.012933198760548676 0.015135556276191552 0.0089015507411351769 -0.016064807199456715 0.017422275296011317 -0.0004155241890843774 -0.0052066398957346834 -0.0064723853887607109 0.026368684352444313 -0.013187763779537927 0.033419263358744983 0.019075416949790949 -0.014409396194403798 0.029451533496082732 0.02266277154821723 0.0064090726819551773 -0.01517625607454833 0.016211960696404768 -0.0035763478645990296 -0.020851716825322292 -0.026560725143368356 0.01422027874155448 0.0036563634823176109 -0.025645812240914792 -0.017123639687802169 -0.011192961511405749 -0.013341374021049976
leaf_weight=11.846342802047731 11.671522140502928 16.905420362949371 14.227653861045839 10.186088800430296 11.198334842920305 13.774506747722628 10.948523491621016 18.415279507637024 10.661697149276735 14.225654929876326 11.064115405082697 15.635226517915724 10.270604640245436 13.651808798313139 12.624323099851607 11.777525126934053 12.274775385856627 12.279067248106008 17.075058579444885 15.231018036603926 11.558987528085707 11.884294271469118 14.165641427040098 16.332783162593845 12.829474925994871 10.079845100641249 16.60078784823418 18.978752911090851 9.3510939478874189 11.382503896951674
leaf_count=39 37 53 46 32 35 42 35 58 34 45 35 48 32 41 39 38 38 38 55 50 36 37 45 53 40 32 57 64 30 38
internal_value=6.96045e-05 0.00336613 -0.0081291 0.000138533 0.00772186 0.0121378 -0.000316334 -0.00326193 0.00169539 -0.00995569 0.00970507 0.0120867 0.0085998 0.0218519 -0.00339568 0.00327733 0.0167628 0.0091548 -0.0118333 -0.00391766 0.00491248 5.40845e-05 -0.0124316 -0.0160233 0.00585602 -0.00628263 -0.0160435 -0.0107761 -0.0215947 -0.0212738
internal_weight=409.109 292.208 116.901 194.299 59.7593 49.5732 22.1469 134.539 77.7243 56.815 97.9091 86.2376 70.6023 27.4263 59.309 34.4817 35.618 23.3432 91.1145 32.3061 25.7866 34.9844 24.8273 39.9095 24.7138 21.8574 58.8084 30.8251 25.6839 27.9833
internal_count=1302 917 385 612 185 153 70 427 246 181 305 268 220 83 188 109 111 73 303 105 82 109 79 128 77 70 198 103 83 95
is_linear=0
shrinkage=0.03


Tree=22
num_leaves=31
num_cat=0
split_feature=49 9 45 33 50 50 26 15 34 55 61 24 57 22 64 57 52 37 33 58 27 39 61 5 26 47 6 52 47 58
split_gain=21.3887 11.6879 10.2379 10.2298 8.58873 8.20137 8.18244 8.17671 7.8705 6.77455 4.8608 4.4942 3.95787 4.10743 4.05985 3.94287 4.56688 3.20928 4.6038 5.11526 3.16231 4.16145 4.59001 3.08522 4.14293 5.52719 3.03626 2.8509 2.74054 2.21672
threshold=86.53507232666017 17.500000000000004 1605.7669677734377 0.035483926534652717 0.10294682905077936 -0.43456916511058802 0.12821996957063678 0.075584169477224364 0.033177675679326064 0.069144148379564299 0.0095285316929221171 0.17154976725578311 1.311174273490906 0.10557521507143976 0.017851281911134723 1.8090212941169741 -0.094277031719684587 37.81849670410157 -0.044085137546062463 0.0028414397966116671 0.059897743165493018 -15.230929851531981 0.032895097509026534 0.21965774893760684 0.14093180000782016 2385.0971679687505 0.31273855268955236 -0.33950942754745478 2394.736206054688 0.00035796333395410335
decision_type=2 10 2 2 2 2 2 2 2 2 2 2 2 2 2 2 2 2 2 2 2 10 2 8 2 2 8 2 2 2
left_child=2 5 7 4 -4 8 -5 26 -2 10 12 -11 -3 -14 -15 16 -16 27 19 -19 -12 22 -22 24 -20 -26 -1 -7 -13 -6
right_child=1 9 3 6 29 17 -8 -9 -10 11 20 28 13 14 15 -17 -18 18 23 -21 21 -23 -24 -25 25 -27 -28 -29 -30 -31
leaf_value=-0.0017405079096749353 0.022507052000452124 -0.0070555554050938203 0.03212136830641002 -0.016945169760341845 0.017893491581057158 -0.007942698567686703 0.013658448230500581 -0.015937974466533198 -0.011744541733796719 0.0065559212919312736 -0.011174348721002753 -0.0029620664992346985 -0.0044866862242489989 0.001303562390384817 0.03603534120050781 0.0050042378676065473 0.010270830849582127 0.0077695038336588152 -0.019934608553258189 -0.013801531208893688 -0.01834587452635264 0.013962381160408736 0.0072654941051728122 -0.023594813694734255 0.011213742419416835 -0.016677743619123334 0.019259009515058833 -0.028194038618008146 -0.022275850448134817 0.00031707966844599425
leaf_weight=11.230439454317095 11.686070650815966 10.697277694940565 34.82723668217659 12.173885911703112 11.403694689273836 10.451457411050798 18.515503525733948 19.770684599876404 10.643081545829771 10.598173171281813 21.075282454490662 10.473708868026735 10.685742497444151 13.690292358398436 16.448267310857769 11.524785608053206 11.252893209457403 21.090131133794785 18.968253612518311 16.946277409791946 11.14553675055504 16.63634791970253 12.251539915800093 23.898975819349289 13.256871849298479 10.602463126182554 12.418372750282286 19.617254316806793 18.688041865825653 13.548873066902159
leaf_count=31 32 30 94 34 31 30 51 55 30 30 59 30 30 38 45 32 31 59 54 48 31 46 34 68 37 30 34 57 54 37
internal_value=-0.000243827 -0.00432219 0.00983619 0.015532 0.0226618 -0.0102344 0.00136695 -0.00211405 0.00637757 0.00101027 0.00421159 -0.00972811 0.00931573 0.0121358 0.0155135 0.0203172 0.0262917 -0.0130122 -0.0103555 -0.00194835 -0.00204437 0.00291723 -0.00518675 -0.0150484 -0.00984972 -0.00135281 0.00962064 -0.0216372 -0.0156673 0.00872972
internal_weight=466.217 332.329 133.889 90.4692 59.7798 157.161 30.6894 43.4195 22.3292 175.168 135.408 39.7599 74.2993 63.602 52.9162 39.2259 27.7012 134.832 104.763 38.0364 61.1087 40.0334 23.3971 66.7266 42.8276 23.8593 23.6488 30.0687 29.1618 24.9526
internal_count=1302 935 367 247 162 445 85 120 62 490 376 114 206 176 146 108 76 383 296 107 170 111 65 189 121 67 65 87 84 68
is_linear=0
shrinkage=0.03


Tree=23
num_leaves=31
num_cat=0
split_feature=48 69 27 39 24 57 6 44 22 5 33 62 46 47 45 46 55 35 31 31 61 27 54 47 42 64 61 7 38 27
split_gain=9.54831 7.17043 7.29465 7.17013 6.32172 5.79133 8.1735 5.40235 5.1379 5.12627 4.94893 4.68221 4.37534 5.17296 5.46462 4.41532 3.95877 3.60718 3.15092 5.13999 4.44957 4.63844 4.13135 2.91978 2.33853 2.24668 2.04291 1.30877 1.23221 1.01332
threshold=0.14687774330377582 1.3272722363471987 0.11294110119342805 23.865217208862308 0.19489943981170657 1.8301421999931338 0.39895288646221166 3606.0617675781255 0.31590361893177038 0.29305949807167059 0.015155387111008169 -0.08411871641874312 4177.6860351562509 2394.736206054688 2519.7707519531255 1707.7801513671877 0.042046340182423599 0.02792172692716122 0.011423830874264242 -0.0058874676469713441 -0.010770684108138083 0.080918334424495711 0.0073294097092002639 2346.890991210938 1610.0759887695315 0.030843223445117477 0.0084384316578507441 0.53158244490623485 -52.396108627319329 0.083468437194824233
decision_type=2 2 2 10 2 2 10 2 2 10 2 2 2 2 2 2 2 2 2 2 2 2 2 2 2 2 2 10 2 2
left_child=3 4 23 10 5 9 -7 8 18 11 24 -2 13 14 15 -13 -5 -17 19 20 21 -6 -20 -3 -1 -19 -27 -24 -26 -15
right_child=1 2 -4 16 7 6 -8 -9 -10 -11 -12 12 -14 29 -16 17 -18 25 22 -21 -22 -23 27 -25 28 26 -28 -29 -30 -31
leaf_value=-0.0025969831188121838 0.016283931942134806 0.013091320134538471 -0.0065044529029779502 -0.0039817093820684957 -0.0089514840044669884 0.028736419016125149 -0.0022759827601896154 -0.01900365035806699 0.018059289787100391 0.019400987092779771 0.0013478545879407446 0.012454038740598427 0.015878941196952406 -0.0095610251262735271 0.019077523272733675 0.0053695449656884593 0.01861466007068141 -0.021020462636891425 0.0048315983150769301 0.017128539276777401 -0.019249959325689434 0.017296489571606552 -0.0081753368605969445 0.032948771804642625 -0.0095511469940938783 -0.014729630978921077 0.0039393247204227919 -0.024030021529575757 -0.021913900184753039 -0.023160124289896326
leaf_weight=9.5128221809864026 12.856139451265333 18.790517300367359 10.751620292663572 16.154986351728443 12.606786698102949 18.011143684387211 12.56694772839546 18.259327113628387 9.7321257591247541 12.565376073122023 18.084375381469727 11.249905377626417 9.746920704841612 13.293120533227922 10.214950472116469 13.130039662122725 10.924148499965666 15.196396857500075 9.7242743372917193 11.935326814651487 11.643945753574373 9.9613581597805005 9.3045354783535021 11.901000231504439 11.895009040832518 9.5351927280426043 9.9024738073348981 12.951416134834288 36.647416293621063 10.238944947719572
leaf_count=31 40 58 33 52 40 55 40 59 30 39 58 35 31 43 32 42 34 49 31 37 37 31 30 36 39 30 31 42 124 33
internal_value=0.000208085 0.00287055 0.0143184 -0.00763859 0.00103055 0.00481259 0.0163225 -0.00461079 -0.00143941 0.00195619 -0.012312 -9.428e-05 -0.00228585 -0.00434352 -0.000146673 -0.0037367 0.00547231 -0.0077273 -0.00406584 0.000974813 -0.00498702 0.00287643 -0.0111485 0.021588 -0.0165178 -0.0127038 -0.00549139 -0.0180382 -0.0191384 -0.016181
internal_weight=409.289 306.07 41.4431 103.219 264.627 158.508 30.5781 106.119 87.8598 127.929 76.1396 115.364 102.508 92.761 69.229 59.014 27.0791 47.7641 78.1276 46.1474 34.2121 22.5681 31.9802 30.6915 58.0552 34.6341 19.4377 22.256 48.5424 23.5321
internal_count=1302 964 127 338 837 500 95 337 278 405 252 366 326 295 219 187 86 152 248 145 108 71 103 94 194 110 61 72 163 76
is_linear=0
shrinkage=0.03


Tree=24
num_leaves=31
num_cat=0
split_feature=35 47 25 57 0 27 50 30 57 48 10 30 30 34 50 33 58 60 6 60 58 25 50 24 62 43 15 35 15 60
split_gain=11.6879 9.62781 6.11219 4.94951 4.85669 4.55863 4.44208 4.1772 7.04242 5.61599 4.38601 4.41227 4.16089 7.19579 4.71943 6.47543 4.21696 3.87276 3.65156 3.52621 3.32524 3.32448 3.02944 2.97595 2.02593 2.24645 3.63181 1.76035 1.58965 0.79019
threshold=0.033633846789598472 2828.831420898438 0.22359062731266025 1.5582717061042788 0.20214992016553882 0.050077581778168685 0.11320311948657037 0.011352804955095054 1.8001904487609866 0.2901324480772019 0.5166272670030595 0.0053337079007178554 -0.013295964337885378 0.042560175061225898 0.26135401427745825 -0.086578778922557817 0.00040578399784863001 -0.016356142237782475 0.1702898591756821 -0.0078487796708941442 0.0010375846759416165 0.12130750715732576 0.60868349671363842 0.2146398723125458 0.0051231575198471555 2495.9682617187505 0.14526797086000445 0.026905108243227008 0.15893207490444186 -0.0014243272598832844
decision_type=2 2 2 2 10 2 2 2 2 2 8 2 2 2 2 2 2 2 8 2 2 2 2 2 2 10 2 2 2 2
left_child=1 3 6 19 5 -5 20 10 9 23 -2 12 14 16 17 -16 -14 -12 -7 21 -3 -1 27 -9 -21 26 -26 29 -11 -20
right_child=7 2 -4 4 -6 18 -8 8 -10 28 11 -13 13 -15 15 -17 -18 -19 22 24 -22 -23 -24 -25 25 -27 -28 -29 -30 -31
leaf_value=-0.015850497854836183 0.02039990944622096 -0.020246419290380933 0.023237292551082839 0.0095612443410408865 0.011218445883076234 0.0045645961152488137 0.011778249994336916 0.00070454931564581011 -0.004085148513046288 0.017742825609266974 -0.017321087608363532 -0.017691287969401236 0.012476168715096894 0.029322330253521552 -0.0084683303024900656 0.02258911006620453 -0.013944578478712425 0.0014270478768679475 -0.012613693444735192 -0.023957826499027585 0.002801448964077918 0.0070763556944524455 0.0016992374286078345 0.020691292364779203 -0.017752463037071117 -0.022907153571852492 0.005915258465539662 -0.0075118256082037831 0.037434746845380278 -0.024499207354860084
leaf_weight=8.9711789488792437 9.7959220707416517 9.9238343536853808 13.849002033472059 13.134205043315886 16.392401456832886 13.667414754629133 16.490119874477386 18.029176950454715 18.222573220729828 10.422909408807756 19.905263036489483 9.9893440604209882 10.534124344587331 11.182301819324492 10.416407138109209 12.16394206881523 9.2849906384944898 18.596181869506839 12.665562242269511 23.931148171424866 11.196424603462217 12.344816058874128 11.020248085260389 9.7445986866950971 10.418518990278249 9.891721844673155 11.175180017948149 17.801393777132034 10.586024433374403 17.061431020498283
leaf_count=30 30 32 43 42 53 45 51 56 57 32 63 32 33 34 32 37 30 58 42 81 35 39 36 30 34 32 36 58 32 57
internal_value=6.86837e-05 -0.00439739 0.00693971 -0.00768664 -0.00329429 -0.00617925 0.000492151 0.00580216 0.0116696 0.0175186 0.00221552 0.000289372 0.00240905 0.0111775 -0.00214964 0.00851064 2.31433e-05 -0.00845886 -0.00913353 -0.0133933 -0.00845383 -0.00285067 -0.0123541 0.00819241 -0.0173262 -0.0117033 -0.00578425 -0.0155805 0.0289153 -0.0200105
internal_weight=408.808 229.935 51.4594 178.475 101.743 85.3503 37.6104 178.874 67.0053 48.7827 111.868 102.073 92.0832 31.0014 61.0818 22.5803 19.8191 38.5014 72.216 76.7326 21.1203 21.316 58.5486 27.7738 55.4166 31.4854 21.5937 47.5284 21.0089 29.727
internal_count=1302 746 161 585 333 280 118 556 207 150 349 319 287 97 190 69 63 121 238 252 67 69 193 86 183 102 70 157 64 99
is_linear=0
shrinkage=0.03


Tree=25
num_leaves=31
num_cat=0
split_feature=49 56 9 56 29 35 66 39 48 29 31 63 27 55 34 23 9 45 54 37 70 58 58 5 70 36 31 23 33 56
split_gain=20.1081 12.4228 11.174 9.78982 6.35965 5.45302 6.17704 6.97195 5.30576 7.14295 5.34534 5.15852 5.62848 4.93272 4.26691 4.2192 3.69574 3.25045 2.7787 3.2914 4.12865 3.86752 3.97182 4.04605 5.11261 2.69865 2.60845 2.91627 2.32595 1.85806
threshold=86.53507232666017 198305.71875000003 17.500000000000004 486266.46875000006 48.500000000000007 0.030554486438632015 -881.44845581054676 -17.67984580993652 0.14406552165746692 25.500000000000004 0.0091882301494479197 0.023305912502110008 0.063133247196674361 0.024782248772680763 0.023829705081880096 0.12537175416946414 23.500000000000004 3327.9384765625005 0.0055339466780424127 37.81849670410157 -0.26980388164520258 0.0031217272626236085 -0.00039844342973083252 0.21697510033845904 -0.089158296585082994 0.026685427874326709 -0.024451286531984803 0.1975030452013016 0.11572476103901864 442870.10937500006
decision_type=2 2 10 2 2 2 2 10 2 2 2 2 2 2 2 2 10 2 2 2 2 2 2 8 2 2 2 2 2 2
left_child=1 -1 13 5 8 6 -4 -8 10 28 15 12 -5 -2 -9 -3 -13 -14 -15 20 -20 22 23 24 -21 -11 -7 -28 -10 -23
right_child=2 4 3 11 -6 26 7 14 9 25 -12 16 17 18 -16 -17 -18 -19 19 21 -22 29 -24 -25 -26 -27 27 -29 -30 -31
leaf_value=0.028907791147233016 0.0061399480374856241 0.025295452857072038 0.018469853639270617 -0.012567358347766023 0.022671898620286589 0.026080117719639518 -0.023297531084225404 -0.0072876486002301979 -0.0017137651927480401 -0.02552720238808065 -0.0038825268941869392 -0.0022853474265446668 0.019667655830741419 -0.02522187582396309 0.015683208152390597 0.0019171714809002682 -0.021747007394742009 -0.0021296784461176067 -0.0025967068323933516 -0.01191770947481984 -0.025644001569509106 -0.0054288984789822416 0.012390986117851372 -0.021417490892492889 0.011304299222495862 -0.0058830860884986408 0.019075050957665755 0.0015749992487788503 0.016790242404575256 -0.018845704057701178
leaf_weight=23.42771977186203 14.805409610271452 18.503999531269077 12.049407988786696 16.091325521469116 15.053724527359007 12.406448185443876 12.0854414999485 15.122206658124925 12.252884238958361 11.42934510111809 17.032252192497253 14.062066227197645 12.586480021476747 12.000104874372481 12.329697370529173 11.063947528600691 23.584146589040756 10.935387104749678 10.428960978984831 16.876709580421441 21.875290632247925 15.612214237451552 12.184715837240217 10.804295539855948 15.329282313585294 14.370422393083571 15.305120229721068 18.482838749885559 10.879114270210264 26.620302110910416
leaf_count=63 41 50 33 46 41 34 34 42 34 32 47 40 35 34 34 30 68 31 30 48 64 44 34 31 43 40 42 51 30 76
internal_value=-0.000242399 0.00952223 -0.00420572 0.00100556 0.00519312 0.00727942 0.00052716 -0.00526179 0.00223252 -0.00462573 0.0093798 -0.00692633 0.000664879 -0.0100024 0.00321804 0.0168965 -0.0147247 0.00986041 -0.0117198 -0.0102875 -0.0185049 -0.00740256 -0.00209814 -0.00639116 -0.000857024 -0.0152133 0.0146489 0.00982255 0.00732392 -0.0141262
internal_weight=465.591 134.013 331.578 175.041 110.586 97.7812 51.5868 39.5373 95.532 48.9318 46.6002 77.2594 39.6132 156.537 27.4519 29.5679 37.6462 23.5219 141.732 129.732 32.3043 97.4275 55.195 43.0103 32.206 25.7998 46.1944 33.788 23.132 42.2325
internal_count=1302 367 935 490 304 270 143 110 263 136 127 220 112 445 76 80 108 66 404 370 94 276 156 122 91 72 127 93 64 120
is_linear=0
shrinkage=0.03


Tree=26
num_leaves=31
num_cat=0
split_feature=48 39 69 27 24 44 22 24 9 42 34 23 54 15 32 55 51 31 31 31 61 27 54 66 58 39 40 16 0 69
split_gain=9.06828 6.8988 6.82798 6.91724 6.07326 5.22241 4.90062 4.83754 5.72538 4.73629 4.09432 5.2133 4.63103 4.05195 4.03357 3.74875 3.35913 3.30787 3.05357 4.91758 4.30216 4.42557 4.01873 2.84805 2.76338 2.66973 2.63855 1.85318 1.29595 1.19419
threshold=0.14687774330377582 23.865217208862308 1.3272722363471987 0.11294110119342805 0.19489943981170657 3606.0617675781255 0.31590361893177038 0.18079707771539691 37.500000000000007 1616.9000244140627 0.022003042511641983 0.042228810489177711 0.011789597105234863 0.14679764211177829 -0.066004097461700426 0.042046340182423599 -0.47033207118511194 0.033282451331615455 0.011423830874264242 -0.0058874676469713441 -0.010770684108138083 0.080918334424495711 0.0073294097092002639 148.73555755615237 -0.0025927580427378412 -50.795967102050774 2.2997568845748906 0.33244207501411444 0.12548993527889254 0.085359435528516783
decision_type=2 10 2 2 2 2 2 2 8 2 2 2 2 2 2 2 2 2 2 2 2 2 2 2 2 8 10 10 10 2
left_child=1 9 4 23 7 6 18 8 10 -1 26 12 -12 14 -13 -3 -15 27 19 20 21 -6 -20 -4 -18 -11 -2 -16 -27 -24
right_child=2 15 3 -5 5 -7 -8 -9 -10 25 11 13 -14 16 17 -17 24 -19 22 -21 -22 -23 29 -25 -26 28 -28 -29 -30 -31
leaf_value=0.0011806205802305963 0.0046788211686592807 -0.0038697904397570755 0.030839655384904307 -0.0063922906399960953 -0.0088106372028059453 -0.018764503765125794 0.017534646438802756 0.020140214525022317 -0.013057071560678734 -0.0036269070650393732 0.00026960511954621046 0.018430589626968988 0.025308047336904938 0.0043199446895581511 -0.015025075571882466 0.018086538278147893 -0.002719391293253332 0.012602707286957601 0.0047238932871415742 0.016680563316765585 -0.01901222542747678 0.016801382046270401 -0.023676107814649117 0.011694619304970353 -0.024085309161753915 -0.022403717359944633 0.025360244758800218 0.0016589599399982021 -0.0089080204077495971 -0.0083918776810754485
leaf_weight=18.276567935943604 10.539104908704759 16.108145833015445 13.843064963817598 10.724659532308577 12.555311501026152 18.097248166799545 9.8061834275722486 15.409611970186232 16.81350040435791 12.469729304313658 12.225151777267458 12.22582948207855 13.630580425262449 10.747894346714018 12.019479006528856 11.009921252727507 9.3940613865852356 9.8296588957309705 9.7438608109951037 12.014137119054793 11.544123113155367 10.036098986864088 12.733837187290193 17.099207431077957 12.971152305603027 34.707209885120392 12.182500213384627 10.766875863075255 10.107985228300093 9.3651166558265668
leaf_count=59 33 52 42 33 40 59 30 48 55 41 38 38 41 34 38 34 30 31 31 37 37 31 42 52 42 118 38 34 34 30
internal_value=0.000207206 -0.00746537 0.00279502 0.0139328 0.000995627 -0.00454348 -0.00143391 0.00469573 0.00290743 -0.012082 0.00511453 0.00251851 0.0139202 -0.00139155 0.00445325 0.00537067 -0.00920511 -0.00117845 -0.00401065 0.000945547 -0.00490959 0.00279724 -0.0110037 0.0209571 -0.0156115 -0.0162611 0.0163691 -0.00740332 -0.0196207 -0.0178427
internal_weight=408.998 102.68 306.318 41.6669 264.651 105.896 87.7987 158.755 143.346 75.5615 126.532 103.811 25.8557 77.955 44.8418 27.1181 33.1131 32.616 77.9925 46.1497 34.1355 22.5914 31.8428 30.9423 22.3652 57.2849 22.7216 22.7864 44.8152 22.099
internal_count=1302 338 964 127 837 337 278 500 452 252 397 326 79 247 141 86 106 103 248 145 108 71 103 94 72 193 71 72 152 72
is_linear=0
shrinkage=0.03


Tree=27
num_leaves=31
num_cat=0
split_feature=49 29 52 49 15 51 69 22 34 40 31 23 58 51 50 7 54 44 48 62 37 61 34 62 55 36 60 66 5 50
split_gain=11.0817 6.20436 6.13007 5.17414 5.91959 6.2527 6.19328 4.75672 6.63626 5.0956 4.94999 4.31469 4.07853 4.02629 4.53701 5.74675 4.42329 3.84769 5.74006 3.20622 4.30284 3.14992 3.10744 2.83974 2.10291 1.81273 2.44329 1.0894 1.49168 1.0797
threshold=89.707229614257827 41.500000000000007 -0.012630084063857792 188.21125793457034 0.10557521507143976 -0.27160136401653284 -0.71979713439941395 0.19090297818183902 0.021266626194119457 17.539234161376957 -0.061243472620844834 -0.017684032209217545 0.0010375846759416165 -0.23986537009477613 -0.078430145978927598 0.64852941036224376 0.0098743676207959669 2567.7988281250005 0.18804364651441577 0.013524737209081652 55.779867172241218 0.0083166421391069906 0.023418176919221882 0.012165667023509743 0.047884972766041763 0.026916131377220157 -0.0015152105479501186 -345.12745666503901 0.1603069603443146 -0.053234824910759919
decision_type=2 2 2 2 2 2 2 2 2 10 2 2 2 2 2 8 2 2 2 2 2 2 2 2 2 2 2 2 8 2
left_child=2 11 19 7 -5 6 -6 9 -9 10 -3 -2 -7 16 -15 -16 21 23 -19 25 -21 -13 -4 -10 -20 -1 -27 28 -12 -18
right_child=1 3 22 4 5 12 -8 8 17 -11 27 13 -14 14 15 -17 29 18 24 20 -22 -23 -24 -25 -26 26 -28 -29 -30 -31
leaf_value=-0.020518019776016774 -0.0073875605894890024 0.0040350481497081082 -0.0043920876267669693 -0.012742025375760999 0.014510885017714548 0.0083379579136031289 -0.01586493166457234 0.016744536820896948 -0.0002843666211962594 0.0066928207493417175 -0.0052995671632462158 0.018388717557988137 0.031761714889205789 -0.012254434833500367 -0.0024977058238083547 0.02126715922308212 0.017479173640083594 0.018328645288280973 -0.015192989265338408 0.0065162349208893336 -0.014869629337814079 -0.0044107378955741414 0.015864880996632108 -0.020580331894074471 0.0028206110195103844 -0.0016172469553720422 -0.019817254353780296 -0.026236196210267831 -0.022167587962077587 0.034394924452903063
leaf_weight=31.178659588098526 11.64820811152458 9.7443222701549512 14.102141797542574 10.123967230319975 11.301376581192018 13.889743119478227 10.87094062566757 18.596293866634369 10.62492084503174 12.547557294368742 10.423441708087923 10.313195645809175 13.904940634965895 9.6285438835620862 16.997973203659058 18.387837737798691 10.455486476421358 12.753743439912794 10.61657300591469 17.034551620483398 15.062726676464079 9.9248105585575086 11.618151545524595 14.009006649255751 11.186175584793089 16.047866225242618 10.564755648374556 14.655752062797548 9.1062282323837227 11.161956846714018
leaf_count=109 37 30 46 32 35 42 35 58 34 40 33 32 41 30 53 56 32 39 35 55 50 31 36 45 35 53 36 48 30 34
internal_value=6.88809e-05 0.00317373 -0.00775643 5.42549e-05 0.00730037 0.0115316 -0.000424118 -0.0032188 0.00159804 -0.00976546 -0.0145107 0.00926541 0.0207523 0.011557 0.00515326 0.0100965 0.0181632 -0.00335978 0.00309281 -0.0114241 -0.00366584 0.00752654 0.00500951 -0.012179 -0.00623249 -0.0155975 -0.00929837 -0.0197615 -0.0138614 0.027348
internal_weight=408.482 292.873 115.609 194.355 60.091 49.967 22.1723 134.264 77.7867 56.4773 43.9297 98.518 27.7947 86.8698 45.0144 35.3858 41.8554 59.1904 34.5565 89.8886 32.0973 20.238 25.7203 24.6339 21.8027 57.7913 26.6126 34.1854 19.5297 21.6174
internal_count=1302 917 385 612 185 153 70 427 246 181 141 305 83 268 139 109 129 188 109 303 105 63 82 79 70 198 89 111 63 66
is_linear=0
shrinkage=0.03


Tree=28
num_leaves=31
num_cat=0
split_feature=49 56 9 56 50 29 35 66 39 63 27 48 29 31 63 23 9 37 33 58 49 50 24 70 36 63 33 5 26 47
split_gain=18.9561 11.8078 10.7034 9.28504 7.80167 6.0783 5.22036 5.74687 7.31413 4.97536 5.40332 4.96879 6.87639 5.06704 4.88354 4.02127 3.61103 3.5002 4.33637 4.92258 3.11966 3.012 3.76128 2.83526 2.61521 2.41757 2.22849 2.18863 4.04109 4.04294
threshold=86.53507232666017 198305.71875000003 17.500000000000004 486266.46875000006 -0.47315689921379084 48.500000000000007 0.030698586255311969 -881.44845581054676 -17.67984580993652 0.023305912502110008 0.063133247196674361 0.14406552165746692 25.500000000000004 0.0091882301494479197 0.018179278820753101 0.12537175416946414 23.500000000000004 37.81849670410157 -0.044085137546062463 0.0028414397966116671 184.51606750488284 -0.013327014166861771 0.19489943981170657 -0.2627634704113006 0.026685427874326709 0.027850859798491005 0.11572476103901864 0.21965774893760684 0.14093180000782016 2385.0971679687505
