tree
version=v4
num_class=3
num_tree_per_iteration=3
label_index=0
max_feature_idx=97
objective=multiclass num_class:3
feature_names=Column_0 Column_1 Column_2 Column_3 Column_4 Column_5 Column_6 Column_7 Column_8 Column_9 Column_10 Column_11 Column_12 Column_13 Column_14 Column_15 Column_16 Column_17 Column_18 Column_19 Column_20 Column_21 Column_22 Column_23 Column_24 Column_25 Column_26 Column_27 Column_28 Column_29 Column_30 Column_31 Column_32 Column_33 Column_34 Column_35 Column_36 Column_37 Column_38 Column_39 Column_40 Column_41 Column_42 Column_43 Column_44 Column_45 Column_46 Column_47 Column_48 Column_49 Column_50 Column_51 Column_52 Column_53 Column_54 Column_55 Column_56 Column_57 Column_58 Column_59 Column_60 Column_61 Column_62 Column_63 Column_64 Column_65 Column_66 Column_67 Column_68 Column_69 Column_70 Column_71 Column_72 Column_73 Column_74 Column_75 Column_76 Column_77 Column_78 Column_79 Column_80 Column_81 Column_82 Column_83 Column_84 Column_85 Column_86 Column_87 Column_88 Column_89 Column_90 Column_91 Column_92 Column_93 Column_94 Column_95 Column_96 Column_97
feature_infos=none none none none none [-0.97724586725234985:0.022014517337083817] [0:0] [0:1] [0:1] [1:7] [-0.99877631664276123:0.99948549270629883] [0:1] [0:1] [0:1] [1:10] [-0.99877631664276123:0.99948549270629883] [0:1] [0:1] [0:1] [0:15] [0:1] [0:16] [-0.99877631664276123:0.99948549270629883] [-0.99877631664276123:0.99948549270629883] [-0.99877631664276123:0.99948549270629883] [-0.49800887703895569:0.40348541736602783] [-0.21246185898780823:0.19970332086086273] [0:0.53031235933303833] [0:45] [0:25] [11.859999656677246:52.330001831054688] [-0.35753870010375977:0.74039065837860107] [-0.4833453893661499:1.4037666320800781] [-2.3986294269561768:2.4474601745605469] [-3.1182084083557129:4.8756499290466309] [11.859999656677246:52.330001831054688] [11.859999656677246:52.330001831054688] [11.859999656677246:52.330001831054688] [11.859999656677246:52.330001831054688] [114.177001953125:130.04130554199219] [-0.013113552704453468:0.011120045557618141] [-0.027071729302406311:0.027545707300305367] [-2.4297442436218262:2.4443871974945068] [-3.9001622200012207:3.5369713306427002] [114.177001953125:130.04130554199219] [114.177001953125:130.04130554199219] [114.177001953125:130.04130554199219] [114.177001953125:130.04130554199219] [-94.763969421386719:56.95343017578125] none [-4.7008504867553711:2889.839599609375] [-2.4494898319244385:2.4494898319244385] [-5.385164737701416:5.385164737701416] [-94.763969421386719:56.95343017578125] [-94.763969421386719:56.95343017578125] [-94.763969421386719:56.95343017578125] [-94.763969421386719:56.95343017578125] [-0.27705520391464233:0.28431373834609985] [-0.31396225094795227:0.48819562792778015] [-0.44369643926620483:0.62702804803848267] [-0.48734548687934875:0.83909285068511963] [0.0048763025552034378:0.15521822869777679] [0.012375025078654289:0.11851268261671066] [0.014544615522027016:0.090300880372524261] [19.142745971679688:83.179039001464844] [-2.5348243713378906:1.3564093112945557] [-2.211909294128418:1.2468479871749878] [-0.81211954355239868:0.68581271171569824] [1.761285662651062:28.534286499023438] [1.8370000123977661:27.726499557495117] [2.1709599494934082:27.62700080871582] [1.8134728670120239:28.521736145019531] [1.9316506385803223:28.788686752319336] [2.0220656394958496:31.971317291259766] [1.5716516971588135:23.725051879882812] [0.045362949371337891:0.94840788841247559] [0.11525637656450272:2.6684679985046387] [-0.76053124666213989:5.831146240234375] [-2.2019617557525635:15.109664916992188] [-0.54374015331268311:0] [-0.276877760887146:0.28412005305290222] [0.0014387399423867464:0.11655543744564056] [0.0084632514044642448:0.89788907766342163] [694952.5:60359356] [1.0150498151779175:2.0387935638427734] [-0.28793662786483765:0.096487194299697876] [0:1] [-0.15379838645458221:0.14485582709312439] [-0.2383464127779007:0.20691065490245819] [-0.33259490132331848:0.35951325297355652] [0.0031643849797546864:0.085850544273853302] [0.0087705496698617935:0.050428587943315506] [18.635524749755859:89.3983154296875] [-5907.96484375:7019.05517578125] [0:1] [0:1] [-2.3075559139251709:15.573112487792969] [-0.40345379710197449:0]
tree_sizes=3096 3293 3215 3200 3446 3450 3322 3456 3452 3325 3450 3340 3438 3458 3446 3425 3345 3329 3315 3467 3443 3418 3221 3452 3437 3448 3442

Tree=0
num_leaves=29
num_cat=0
split_feature=63 64 91 70 26 36 48 65 70 44 76 26 73 70 75 90 88 53 28 55 71 56 89 75 52 75 38 43
split_gain=33.2007 31.9232 14.8448 21.2302 14.053 19.2102 12.5204 10.5897 14.7922 10.9924 13.0611 8.24053 7.8993 6.97222 6.92206 6.67513 5.79121 5.52417 5.35761 11.0971 3.88427 6.80368 3.88045 2.7025 2.34607 1.87122 1.37714 1.1389
threshold=0.044847214594483382 40.000438690185554 0.028595061041414741 7.5470399856567392 0.073149535804986968 18.214999198913578 22.196431159973148 -0.20280916243791577 5.1638998985290536 121.45115280151369 0.2922107875347138 -0.0004207257588859647 6.6219778060913095 11.417899608612062 0.3087200820446015 0.032200211659073837 0.014083268120884897 -4.3829694986343375 11.500000000000002 -12.167432785034178 3.9675195217132573 2.8315673172473912 0.014748964458703996 0.24651931226253512 -2.1180340051650997 0.29689495265483862 16.045000076293949 1.2826166152954104
decision_type=2 2 2 8 2 2 2 2 10 2 2 2 2 10 2 2 2 2 2 2 2 2 2 2 10 2 2 2
left_child=4 11 14 17 6 -6 7 26 18 10 -10 13 -11 -2 23 -5 -16 -4 24 -20 -21 -22 -12 -3 -9 -13 -1 -26
right_child=1 2 3 15 5 -7 -8 8 9 12 22 25 -14 -15 16 -17 -18 -19 19 20 21 -23 -24 -25 27 -27 -28 -29
leaf_value=-1.2143917341805537 -1.2107674091226677 -1.1737337397264702 -1.1952513166418104 -1.1548057038203341 -1.1636609480430649 -1.2101388067056631 -1.1874876178024845 -1.2081551257749503 -1.1865519634013988 -1.2010886112322796 -1.2073737995119191 -1.2081551257749503 -1.1719981822155918 -1.1781931479549177 -1.1995497792628305 -1.1879866807111474 -1.1670551214239526 -1.2229942225338202 -1.1837234052003429 -1.2275375369831956 -1.1905149900526151 -1.2222554265296997 -1.2293818534790002 -1.1465713677063452 -1.2274290460471127 -1.2251065882643351 -1.2292176812797766 -1.213892023449697
leaf_weight=9.7739014327526075 12.296198576688768 9.4586142897605914 10.71976286172867 10.40447571873665 13.242060005664827 17.656080007553101 18.28665429353714 9.4586142897605878 14.503208577632902 17.025505721569061 12.926772862672808 9.4586142897605914 15.764357149600981 9.7739014327526075 9.4586142897605914 12.926772862672804 9.7739014327526075 13.872634291648863 11.035050004720686 16.079644292593002 10.089188575744631 12.611485719680784 17.025505721569061 13.557347148656843 40.987328588962555 19.232515722513199 32.474575728178024 9.4586142897605878
leaf_count=31 39 30 34 33 42 56 58 30 46 54 41 30 50 31 30 41 31 44 35 51 32 40 54 43 130 61 103 30
internal_value=-1.20242 -1.19061 -1.17998 -1.19175 -1.20842 -1.18963 -1.21081 -1.21273 -1.20959 -1.19955 -1.20922 -1.20955 -1.18662 -1.19592 -1.16718 -1.17184 -1.18211 -1.2111 -1.21662 -1.20915 -1.21667 -1.20824 -1.22035 -1.15608 -1.22262 -1.2199 -1.22614 -1.22516
internal_weight=419.332 140.933 90.1721 47.9236 278.399 30.8981 247.5 229.214 186.965 77.2454 44.4555 50.7612 32.7899 22.0701 42.2485 23.3312 19.2325 24.5924 109.72 49.8154 38.7803 22.7007 29.9523 23.016 59.9046 28.6911 42.2485 50.4459
internal_count=1330 447 286 152 883 98 785 727 593 245 141 161 104 70 134 74 61 78 348 158 123 72 95 73 190 91 134 160
is_linear=0
shrinkage=1


Tree=1
num_leaves=30
num_cat=0
split_feature=68 58 52 97 41 90 89 27 22 78 22 32 27 43 77 90 56 36 33 40 77 68 88 91 83 27 17 91 77
split_gain=24.6072 17.9811 12.4435 13.3734 10.8524 10.8097 9.14026 8.86636 7.82202 6.80953 8.83294 6.69034 6.65773 6.14292 5.74053 8.19548 5.12593 4.96504 4.91629 4.57874 5.74141 4.91473 7.01362 4.29549 3.34619 2.93897 2.68762 2.20722 1.85016
threshold=6.5547857284545907 0.026002513244748119 -0.73399633169174183 -0.02800677344202995 0.0007077062618918718 0.011846847366541626 0.10451218858361246 0.0026864126557484273 0.00040503365744370973 -0.33833216130733484 0.00014110144547885287 0.03001905977725983 0.052939835935831077 1.5727989077568056 -0.0095519018359482271 0.022072011604905132 20.513738632202152 21.154999732971195 0.041336543858051307 -0.0032909256406128402 0.73640850186347973 7.7377142906188974 -0.02175174746662378 0.028090563602745536 5053859.5000000009 0.023769262246787552 0.88194444775581371 0.040336161851882942 0.51504969596862804
decision_type=2 2 10 2 2 2 2 2 2 2 2 2 2 2 2 2 2 2 2 2 2 2 2 2 2 2 10 2 2
left_child=1 2 5 4 14 -1 9 -7 -5 10 -3 19 16 24 15 -4 -13 -14 -9 -2 21 22 -21 -24 -6 -11 -16 -23 -27
right_child=11 6 3 8 13 7 -8 18 -10 25 -12 12 17 -15 26 -17 -18 -19 -20 20 -22 27 23 -25 -26 28 -28 -29 -30
leaf_value=-0.89433243144844243 -0.91352760259214416 -0.89738314402368879 -0.92924398751752058 -0.90641094275501743 -0.87506730458457804 -0.90862323436491788 -0.90464991624576574 -0.92078451206380174 -0.93335708265474715 -0.92442691659053722 -0.93306720576584912 -0.92243218153348971 -0.9410775660096542 -0.90657168167916335 -0.88834689264666733 -0.8981034422554357 -0.90097035744031428 -0.91573817163284577 -0.94205103006509006 -0.91265444862441114 -0.91441986522696195 -0.94802011155352794 -0.94571311170916272 -0.92207237711954582 -0.89826215498443851 -0.94528831421271764 -0.90863815887600152 -0.93131358875472681 -0.92879305019984981
leaf_weight=12.589889913797377 10.791334211826323 11.151045352220537 17.625845879316334 20.143823862075806 25.179779827594757 21.222957283258438 16.187001317739487 18.345268160104752 16.906423598527908 16.546712458133698 11.870467633008955 19.424401581287384 15.827290177345278 12.949601054191588 13.669023334980011 11.870467633008955 19.064690440893173 11.510756492614744 20.503535002470016 15.107867896556849 11.870467633008955 30.215735793113708 18.70497930049897 11.151045352220534 10.791334211826323 21.94237956404686 12.230178773403168 12.230178773403166 10.791334211826323
leaf_count=35 30 31 49 56 70 59 45 51 47 46 33 54 44 36 38 33 53 32 57 42 33 84 52 31 30 61 34 34 30
internal_value=-0.918297 -0.913114 -0.908425 -0.903269 -0.897816 -0.918529 -0.924443 -0.923916 -0.918769 -0.929006 -0.915615 -0.927191 -0.919598 -0.887602 -0.907227 -0.916448 -0.911622 -0.930681 -0.932313 -0.931683 -0.933688 -0.936323 -0.929054 -0.937279 -0.881285 -0.935198 -0.897199 -0.943608 -0.940311
internal_weight=478.416 302.517 214.028 141.366 104.316 72.6617 88.4889 60.0718 37.0502 72.3019 23.0215 175.899 65.8271 48.9207 55.3955 29.4963 38.4891 27.338 38.8488 110.072 99.2803 87.4098 44.9639 29.856 35.9711 49.2804 25.8992 42.4459 32.7337
internal_count=1330 841 595 393 290 202 246 167 103 201 64 489 183 136 154 82 107 76 108 306 276 243 125 83 100 137 72 118 91
is_linear=0
shrinkage=1


Tree=2
num_leaves=30
num_cat=0
split_feature=92 90 55 79 32 63 38 26 44 62 97 82 74 71 75 73 52 38 63 97 36 52 27 57 39 25 85 96 74
split_gain=37.4318 13.5301 10.7657 10.9834 10.8445 11.4125 9.57967 9.28704 6.98898 10.3298 7.30069 6.55577 6.32128 7.55274 7.81705 8.6667 6.8302 26.7858 10.5813 8.53603 17.0339 5.22906 4.46115 4.05129 2.93683 0.844965 0.807483 0.164108 0.15937
threshold=70.155723571777358 0.0092630577273666876 -13.097381591796873 -0.25747525691986078 -0.17612250149250028 0.028065821155905727 16.340000152587894 -0.066613115370273576 120.4650001525879 0.032547032460570342 -0.13382105529308316 0.074716184288263335 3.0340473651885991 3.917014598846436 0.42778337001800543 11.025976181030275 -0.30029729008674616 26.605000495910648 0.043188182637095458 -0.11732437089085578 21.154999732971195 0.30029729008674627 0.0012992884730920198 -0.031716585159301751 119.45335006713869 0.010366722941398622 -0.0017669161898083983 0.46982713043689733 6.4896247386932382
decision_type=2 2 2 2 2 2 2 2 2 2 2 2 2 2 2 2 8 2 2 2 2 10 2 2 2 2 2 2 2
left_child=1 6 3 -3 -4 -6 -1 -7 9 22 -10 21 -9 -14 16 -16 17 18 -15 20 -18 -2 -5 -21 -22 28 -20 -12 -25
right_child=11 2 4 8 5 7 -8 12 10 -11 27 -13 13 14 15 -17 19 -19 26 23 24 -23 -24 25 -26 -27 -28 -29 -30
leaf_value=-1.2047860811789823 -1.1813383054945052 -1.1873585781578124 -1.1786174169822579 -1.2276596788051843 -1.1819233714633988 -1.184616880102366 -1.1663661366983693 -1.2271887126810883 -1.1995497792628305 -1.1876051816767133 -1.2295619920688585 -1.1901523656695345 -1.1823390862385903 -1.188075983913337 -1.1799869363686475 -1.2136360353812556 -1.1708652908890969 -1.1593914955396036 -1.2157295466906219 -1.2073441060943035 -1.205286676937577 -1.1495446114667922 -1.2039985571473528 -1.2299510532274074 -1.2283897179581957 -1.2166390791914086 -1.2290855121295088 -1.2211844968051666 -1.2211844968051666
leaf_weight=10.40447571873665 11.665624290704729 11.350337147712706 13.872634291648863 16.710218578577045 16.710218578577042 14.503208577632902 11.980911433696745 14.503208577632902 9.4586142897605878 14.187921434640883 40.672041445970535 17.340792864561081 9.4586142897605878 9.4586142897605878 15.449070006608965 11.035050004720686 9.4586142897605914 9.4586142897605878 10.719762861728666 15.449070006608954 9.4586142897605914 10.404475718736647 12.296198576688765 27.114694297313697 10.089188575744627 13.557347148656843 14.187921434640886 14.187921434640883 14.187921434640883
leaf_count=33 37 36 44 53 53 46 38 46 30 45 129 55 30 30 49 35 30 30 34 49 30 33 39 86 32 43 45 45 45
internal_value=-1.20278 -1.20569 -1.20712 -1.21446 -1.20344 -1.20507 -1.18356 -1.20701 -1.21743 -1.20792 -1.22364 -1.17532 -1.20877 -1.20715 -1.20865 -1.19391 -1.21141 -1.20155 -1.21404 -1.21573 -1.20202 -1.16471 -1.21802 -1.22131 -1.2179 -1.22509 -1.22407 -1.22777 -1.22746
internal_weight=419.332 379.921 357.536 118.863 238.672 224.8 22.3854 208.09 107.513 43.1943 64.3186 39.4109 193.586 179.083 169.624 26.4841 143.14 43.8249 34.3663 99.3155 29.0064 22.0701 29.0064 70.309 19.5478 54.86 24.9077 54.86 41.3026
internal_count=1330 1205 1134 377 757 713 71 660 341 137 204 125 614 568 538 84 454 139 109 315 92 70 92 223 62 174 79 174 131
is_linear=0
shrinkage=1


Tree=3
num_leaves=29
num_cat=0
split_feature=63 64 91 70 26 37 48 65 70 44 76 26 73 93 75 90 66 28 55 88 89 52 47 38 67 63 61 38
split_gain=31.2816 30.339 13.5764 19.6383 13.2771 20.1157 11.3916 10.694 14.2771 11.1813 12.7434 8.30639 7.79544 7.75862 6.61797 6.11687 5.51179 5.47832 11.083 5.4337 3.85996 3.79264 5.75805 2.32406 6.23904 1.71905 1.52691 1.28501
threshold=0.044985435903072364 40.000438690185554 0.028595061041414741 7.5470399856567392 0.073149535804986968 18.404999732971195 22.196431159973148 -0.20280916243791577 5.1638998985290536 121.45115280151369 0.2922107875347138 -0.0004207257588859647 6.6219778060913095 -1751.7056884765623 0.3087200820446015 0.032200211659073837 -0.051559930667281144 11.500000000000002 -12.167432785034178 0.014083268120884897 0.014748964458703996 1.1062943339347842 121.43014907836915 16.775000572204593 0.0010357414139434697 0.049080504104495055 0.046660900115966804 16.045000076293949
decision_type=2 2 2 8 2 2 2 2 10 2 2 2 2 2 2 2 10 2 2 2 2 8 2 2 8 2 2 2
left_child=4 11 14 16 6 -6 7 27 17 10 -10 13 -11 -2 25 -5 -4 23 -19 -16 -12 22 -20 24 -9 -3 -13 -1
right_child=1 2 3 15 5 -7 -8 8 9 12 20 26 -14 -15 19 -17 -18 18 21 -21 -22 -23 -24 -25 -26 -27 -28 -29
leaf_value=-0.012231819403037841 -0.008933061338117854 0.032015037264001033 0.0059030086983593126 0.045454671884973423 0.037144247088262201 -0.0099423436591782495 0.0138341698497639 -0.024840472534215084 0.015490610887090825 0.0013446837619769296 -0.0048497532663752526 -0.023469084571452949 0.0300334673672609 0.025469769734301366 0.0026531868766270432 0.013910570484897543 -0.02179178511035032 0.018144807777342408 0.006451436123551044 0.033973835271385831 -0.026781361253619605 -0.026416903194288292 -0.02139301701711396 -0.025599407156343446 0.003172948077013221 0.055720777845697629 -0.0080096820508840927 -0.026563866150167672
leaf_weight=10.01329520344734 12.634685456752779 12.241595178842546 11.995149940252306 10.652552247047426 14.415971606969835 16.667049914598465 18.709636181592941 15.588720381259916 14.581470757722853 17.005002707242966 12.880705147981645 16.881354749202732 16.292726457118988 9.5000964701175672 9.492701858282091 13.029942393302916 12.230072557926176 11.761981278657911 13.528779894113546 9.9438862204551679 17.135688573122025 13.423637062311167 11.572630673646925 31.434040814638138 12.224834293127062 10.655781298875807 10.656451344490049 32.065297961235046
leaf_count=32 40 38 38 33 45 53 59 50 46 54 41 54 51 30 30 41 39 37 43 31 55 43 37 101 39 33 34 103
internal_value=-4.21637e-05 0.0114885 0.0217694 0.0104939 -0.00583873 0.012373 -0.00815978 -0.010005 -0.00686291 0.0029396 -0.00683475 -0.00725023 0.0158486 0.00629509 0.0339928 0.0293661 -0.00838829 -0.0137975 -0.00633102 0.0195554 -0.0178298 -0.0140737 -0.00671362 -0.0199245 -0.012845 0.044917 -0.017977 -0.0235164
internal_weight=419.216 139.914 90.2417 47.9077 279.301 31.083 248.218 229.509 187.43 77.8956 44.5979 49.6726 33.2977 22.1348 42.334 23.6825 24.2252 109.535 50.287 19.4366 30.0164 38.525 25.1014 59.2476 27.8136 22.8974 27.5378 42.0786
internal_count=1330 441 283 151 889 98 791 732 597 247 142 158 105 70 132 74 77 350 160 61 96 123 80 190 89 71 88 135
is_linear=0
shrinkage=0.03


Tree=4
num_leaves=31
num_cat=0
split_feature=71 58 41 25 55 89 84 52 32 27 56 76 26 34 27 34 34 26 89 52 32 97 36 79 42 90 17 66 85 82
split_gain=22.9033 18.8499 11.0297 14.2189 10.9532 9.28095 7.87417 7.88416 7.17127 6.69048 6.57115 6.49988 6.28728 6.18702 6.51455 6.16114 5.95511 5.61851 5.7628 5.56664 5.03469 4.94383 4.74058 4.68524 4.10688 4.51137 4.10572 5.87948 3.29281 4.36506
threshold=6.5520200729370126 0.026002513244748119 0.0011651034001260998 0.00053561030654236685 2.8315673172473912 0.10451218858361246 1.8620823025703432 0.62883818149566661 0.03001905977725983 0.052939835935831077 20.513738632202152 0.32924397289752966 0.00015578085731249305 0.23303987830877307 0.17764834314584735 -0.6315854787826537 0.78254008293151867 -0.00043342947901692236 -0.015176777262240647 0.62883818149566661 -0.068432889878749834 -0.04088198579847812 21.154999732971195 -0.17645779997110364 -1.1747961640357969 0.032968642190098769 0.88194444775581371 -0.10263999551534651 0.007638422306627036 0.066956877708435072
decision_type=2 2 2 2 2 2 2 10 2 2 2 2 2 2 2 2 2 2 2 8 2 2 2 2 2 2 10 10 2 2
left_child=1 2 6 4 21 13 7 16 23 10 -10 12 -9 14 15 19 17 -1 -19 -3 -20 -4 -11 28 -25 -26 -5 -28 29 -2
right_child=8 5 3 26 -6 -7 -8 11 9 22 -12 -13 -14 -15 -16 -17 -18 18 20 -21 -22 -23 -24 24 25 -27 27 -29 -30 -31
leaf_value=-0.010683497635113904 -0.011496008088325158 0.014492430825463818 0.040267788803084584 -0.010571676610776255 0.0017776801322444784 0.01375032107972392 -0.012226112723087936 0.022248671049682339 -0.0050758394819156553 -0.021912077626301908 0.0188736017509432 0.03478618341988194 -0.0045723826306082677 0.0053514412338782989 -0.031002360401928282 -0.023387721108741238 -0.018094937553266119 0.028246783993731029 0.017246895145202442 -0.012359239626703105 -0.0082713106376460666 0.0149247532101496 0.0028764728002726105 -0.0025034087298795383 -0.027859973013027228 -0.0063644290658710816 0.025126748208209711 -0.0050998377847591278 -0.018084333579306635 0.0089821345621302704
leaf_weight=13.687588006258009 17.209901839494705 12.239749491214754 32.254895180463791 12.25914007425308 11.888716369867323 16.229888528585434 20.506676107645035 15.177211165428163 19.393600523471832 15.716948539018633 20.23075345158577 12.649711936712263 14.758640468120573 16.178572326898575 16.094592601060867 14.712963283061979 11.134162217378615 11.193812817335123 11.519785255193705 13.624074190855024 14.73965287208558 10.832337647676466 11.519474655389784 11.839051783084868 35.053348124027252 12.561749577522276 10.826249510049818 10.80033525824547 13.254406630992888 18.303409427404404
leaf_count=38 48 34 89 34 33 45 57 42 54 44 56 35 41 45 45 41 31 31 32 38 41 30 32 33 98 35 30 30 37 51
internal_value=0.00037887 0.0053609 0.0101699 0.0181992 0.0274869 -0.00618876 0.00437961 0.00771187 -0.0082333 -0.000487837 0.00731547 0.0174986 0.00930528 -0.0107569 -0.0153686 -0.00857105 0.000848584 0.00524083 0.011187 0.00041445 0.00314533 0.0343795 -0.0116973 -0.0129703 -0.0185744 -0.0224366 0.00277489 0.0104733 -0.00590216 -0.000984719
internal_weight=478.391 303.309 214.229 88.8617 54.9759 89.0798 125.367 104.861 175.083 66.8608 39.6244 42.5856 29.9359 72.85 56.6714 40.5768 62.275 51.1408 37.4533 25.8638 26.2594 43.0872 27.2364 108.222 59.4541 47.6151 33.8857 21.6266 48.7677 35.5133
internal_count=1330 842 594 246 152 248 348 291 488 186 110 118 83 203 158 113 173 142 104 72 73 119 76 302 166 133 94 60 136 99
is_linear=0
shrinkage=0.03


Tree=5
num_leaves=31
num_cat=0
split_feature=92 90 55 79 64 61 89 63 52 59 93 27 65 66 44 62 54 82 91 68 32 52 92 27 52 42 40 40 75 64
split_gain=35.1777 12.9483 10.3231 10.4857 10.2864 13.1788 12.4574 11.463 15.605 12.9668 11.1905 8.49619 8.06246 7.97187 6.83002 9.90176 7.21284 6.0894 6.06034 5.99323 7.01533 4.78711 4.34121 4.3393 4.22427 1.94377 1.84923 1.27657 0.482006 0.236095
threshold=70.155723571777358 0.0092630577273666876 -13.097381591796873 -0.25747525691986078 40.000438690185554 0.03201506286859513 -0.070255406200885759 0.044847214594483382 -0.36278280615806574 0.016200504265725616 1129.018249511719 0.024580682627856735 0.094217274338006987 -0.11289419978857039 120.4650001525879 0.032547032460570342 -64.233688354492173 0.074716184288263335 0.028496744111180309 3.9455714225769047 -0.076535865664482103 0.30029729008674627 43.776132583618171 0.0012992884730920198 -0.73399633169174183 0.24440302699804309 0.0012324906419962647 -1.0000000180025095e-35 0.27214583754539495 35.203332901000984
decision_type=2 2 2 2 2 2 2 2 8 2 2 2 2 8 2 2 2 2 2 2 2 10 2 2 10 2 2 2 2 2
left_child=1 13 3 -3 5 11 -7 8 9 -6 19 -4 26 -1 15 23 -16 21 -14 -10 -21 -2 -22 -5 -8 -24 -9 -26 -12 -18
right_child=17 2 4 14 7 6 24 12 10 -11 28 -13 18 -15 16 -17 29 -19 -20 20 22 -23 25 -25 27 -27 -28 -29 -30 -31
leaf_value=0.034323957137918262 0.02027676329705683 0.014501387256680083 0.0054230628945186616 -0.024966838373946559 0.046077709608730637 0.020312952839926967 0.0046073675241148958 -0.024454417635987182 0.022015651550994723 0.001683847768618432 -0.026495946476463108 0.040558182491909955 -0.014677969149446801 -0.00066153124995677948 0.00076705063015813425 0.014399165128293629 -0.016934189512020494 0.011772086410973404 0.016908900907545502 0.01839589980101906 0.0063791438635258189 0.050461509048515707 -0.0055674570662747188 -0.001562148850327147 -0.0086807594494078873 -0.024094167130372185 -0.0095134720555488644 -0.024335769681633351 -0.014241667735759966 -0.027031335013443285
leaf_weight=11.802394688129423 11.800888270139696 11.447922736406325 11.321133464574816 16.478676825761799 10.197898387908937 15.506237149238585 9.7889692783355695 36.294338345527649 10.190201967954634 12.734682142734526 13.47214722633362 13.687607884407042 9.735755532979967 10.743793040513994 11.269918620586393 14.274684399366377 9.355811804533003 17.473346889019012 10.147204220294951 9.8074170947074872 10.102449893951414 10.668421417474745 9.4079119861125964 12.279534488916395 9.4653139114379865 12.505844265222548 11.587796926498411 13.160089552402498 9.4152674973010999 43.021038591861725
leaf_count=37 37 36 36 53 32 49 31 116 32 40 43 43 31 34 36 45 30 55 32 31 32 33 30 39 30 40 37 42 30 138
internal_value=-0.000390126 -0.00323445 -0.00464526 -0.0118577 -0.00103882 0.00827921 -0.00103115 -0.00516751 0.00141606 0.0225258 -0.00525875 0.025473 -0.0145547 0.0183325 -0.0147947 -0.00538664 -0.020974 0.0260324 0.00148005 0.00250195 -0.00265558 0.0361479 -0.00946606 -0.0153615 -0.011544 -0.0167305 -0.0211072 -0.0184312 -0.0222621 -0.0255788
internal_weight=419.145 379.202 356.656 118.128 238.528 72.9294 47.9206 165.599 97.8338 22.9326 74.9012 25.0087 67.7651 22.5462 106.68 43.0329 63.6468 39.9427 19.883 52.0138 41.8236 22.4693 32.0162 28.7582 32.4144 21.9138 47.8821 22.6254 22.8874 52.3769
internal_count=1330 1205 1134 377 757 231 152 526 310 72 238 79 216 71 341 137 204 125 63 165 133 70 102 92 103 70 153 72 73 168
is_linear=0
shrinkage=0.03


Tree=6
num_leaves=30
num_cat=0
split_feature=63 64 26 37 91 70 48 65 70 54 39 52 93 26 93 75 66 28 55 88 52 47 38 10 48 63 61 52 28
split_gain=29.5628 28.2759 12.628 18.8453 12.4617 18.4526 10.8759 10.4474 14.7512 11.7663 13.2809 11.632 10.0621 8.06941 7.40769 6.13195 5.35491 5.31815 12.038 5.10501 3.80334 5.41039 3.3238 2.97758 2.22677 1.57784 1.49597 1.35948 1.04284
threshold=0.044985435903072364 40.000438690185554 0.073149535804986968 18.404999732971195 0.028595061041414741 7.5470399856567392 22.196431159973148 -0.17532858252525327 5.1638998985290536 -16.145400524139401 121.45115280151369 -0.73399633169174183 296.13687133789068 -0.0004207257588859647 -1751.7056884765623 0.3087200820446015 -0.051559930667281144 11.500000000000002 -12.167432785034178 0.014083268120884897 1.1062943339347842 121.43014907836915 16.444999694824222 0.0010643337154760959 -42.23014831542968 0.049080504104495055 0.046660900115966804 1.4708693623542788 4.5000000000000009
decision_type=2 2 2 2 2 8 2 2 10 2 2 10 2 2 2 2 10 2 2 2 8 2 2 8 2 2 2 10 2
left_child=2 13 6 -4 15 16 7 22 17 11 28 -10 -12 14 -2 25 -6 24 -19 -17 21 -20 -1 -7 -9 -3 -15 -26 -11
right_child=1 4 3 -5 5 23 -8 8 9 10 12 -13 -14 26 -16 19 -18 18 20 -21 -22 -23 -24 -25 27 -27 -28 -29 -30
leaf_value=-0.0079925009099249839 -0.0087210677368459843 0.030664075741932757 0.035661480071977884 -0.0097653139255775654 0.0057677103833485956 0.014392858129765713 0.013432952671993093 -0.0073148899747881241 0.034391320617580733 -0.011323429096324928 -0.009195619109890656 -0.0060432367430156521 0.02893364468544048 -0.023185046313085392 0.024861356908346607 0.0023618675437857609 -0.021569620856569036 0.021513512675063979 0.0062748872150609879 0.032530189820438413 -0.026165657622779323 -0.020947554196047283 -0.025927093632137525 0.037531253274394695 -0.025613424293671305 0.053121137364051919 -0.0078432146971758009 -0.010870449939099382 -0.026319038816936445
leaf_weight=13.680163919925688 12.56372916698456 12.450512766838076 14.67050075531006 16.586842834949493 12.026016563177111 10.677863717079161 18.830951571464539 11.795616358518599 16.544539183378223 9.4021638333797473 11.323088467121126 9.6688826382160169 11.911182910203932 16.677854597568516 9.5834158360958082 9.5496905148029345 12.121562242507933 10.266665846109388 13.573465079069143 10.126048535108565 13.256911337375636 11.139778137207029 38.557289600372314 13.342743545770647 34.453797876834869 10.933268964290617 10.608290940523146 9.2782470285892469 13.350374937057493
leaf_count=44 40 38 45 53 38 33 59 38 52 30 36 31 37 54 30 30 39 32 43 31 43 36 125 41 112 33 34 30 43
internal_value=-4.07168e-05 0.0111224 -0.00570269 0.0120001 0.0209448 0.0101383 -0.00798199 -0.00980003 -0.0062343 0.0041486 -0.00500624 0.0198029 0.0107389 -0.00706042 0.00625684 0.0325289 -0.00826707 -0.0134294 -0.00596114 0.0187103 -0.0137514 -0.00633338 -0.0214687 0.0282319 -0.0196969 0.042912 -0.0177086 -0.0227985 -0.0208599
internal_weight=418.951 140.661 278.29 31.2573 91.2277 48.1682 247.033 228.202 175.965 72.2002 45.9868 26.2134 23.2343 49.4333 22.1471 43.0595 24.1476 103.764 48.2368 19.6757 37.9702 24.7132 52.2375 24.0206 55.5277 23.3838 27.2861 43.732 22.7525
internal_count=1330 441 889 98 283 151 791 732 563 229 146 83 73 158 70 132 77 334 154 61 122 79 169 74 180 71 88 142 73
is_linear=0
shrinkage=0.03


Tree=7
num_leaves=31
num_cat=0
split_feature=68 58 52 97 90 41 89 27 74 52 32 27 91 53 97 30 32 66 56 36 42 64 34 25 85 74 42 57 24 27
split_gain=22.0274 16.1818 11.4678 12.1944 10.0943 9.74834 8.45528 8.0817 7.89088 7.55052 6.19044 6.06989 5.73197 5.52724 11.9884 7.33886 4.704 5.3835 4.58296 4.57576 4.3941 5.43744 4.37103 3.93393 3.61225 3.42161 3.09171 2.30046 2.02155 1.55417
threshold=6.5547857284545907 0.026002513244748119 -0.73399633169174183 -0.02800677344202995 0.011846847366541626 0.0007077062618918718 0.10451218858361246 0.0026864126557484273 4.4892184734344491 0.4736067950725556 0.03001905977725983 0.052939835935831077 0.017851281911134723 -18.375928878784176 -0.067935794591903673 16.444999694824222 0.061979686841368682 -0.10263999551534651 20.513738632202152 21.154999732971195 -1.5500385761260984 43.338356018066413 0.23303987830877307 0.00053561030654236685 -0.0062696745153516522 7.6240854263305673 1.0394979715347292 -0.012872715946286915 0.0013285953318700197 0.047773314639925964
decision_type=2 2 10 2 2 2 2 2 2 10 2 2 2 2 2 2 2 10 2 2 2 2 2 2 2 2 2 2 2 2
left_child=1 2 4 5 -1 13 8 -6 22 -5 20 18 -11 -4 15 -15 17 -9 -12 -13 -2 25 24 27 -3 -22 28 -7 -23 -26
right_child=10 6 3 9 7 23 -8 16 -10 12 11 19 -14 14 -16 -17 -18 -19 -20 -21 21 26 -24 -25 29 -27 -28 -29 -30 -31
leaf_value=0.023247415125720598 0.0053533952323076076 -0.0045618212599725779 0.025702041406931424 -0.017913462542212384 0.0092871707687865197 0.022258128554895906 0.013448506070949728 0.010348947903355251 0.0072098077487757154 -0.0036522328361609361 -0.003464490284007624 -0.021508435965068191 0.024805326027786002 -0.0015430622749907535 -0.018109269595858062 0.029083378081688316 -0.026642915411492409 -0.016828434965321392 0.016810494150882958 0.0028728934473560156 0.0045277405023400044 -0.025218699006218297 2.5094321619775808e-06 0.016239100565568178 -0.015037080802643009 -0.015704458759271022 -0.0063889855551721953 0.042335192170767297 -0.0094161552784243832 -0.030915572694410767
leaf_weight=12.703563898801802 10.767211079597471 10.728664994239805 15.204673826694487 12.933052182197569 21.370884925127029 12.37004968523979 16.272564709186554 10.779127180576323 17.607667207717896 13.292905211448671 19.361461997032166 15.615435838699343 10.854547709226607 12.261041462421415 12.964240044355394 15.242862790822981 13.931759655475615 13.974971830844881 19.21377095580101 11.519336462020872 18.260793328285221 43.140649199485779 12.597565829753874 17.040377497673035 12.528418362140657 11.42341288924217 14.990550875663756 20.115191429853439 10.691216558218001 18.485258430242538
leaf_count=35 30 30 42 36 59 34 45 30 49 37 54 44 30 34 36 42 39 39 53 32 51 121 35 47 35 32 42 55 30 52
internal_value=0.000365936 0.00525156 0.00967733 0.0146028 -2.16201e-05 0.0197744 -0.00552395 -0.00524376 -0.00994054 -0.000203104 -0.00808292 -0.000781651 0.00961747 0.0108614 0.00480013 0.0158552 -0.0133027 -0.00505177 0.00680379 -0.0114238 -0.0124265 -0.0144042 -0.0155276 0.0293805 -0.0201049 -0.00351631 -0.0189827 0.0355831 -0.0223092 -0.0251713
internal_weight=478.243 303.259 215.039 142.279 72.7603 105.198 88.2201 60.0567 71.9476 37.0805 174.984 65.71 24.1475 55.6728 40.4681 27.5039 38.6859 24.7541 38.5752 27.1348 109.274 98.5066 54.3399 49.5256 41.7423 29.6842 68.8224 32.4852 53.8319 31.0137
internal_count=1330 841 595 393 202 290 246 167 201 103 489 183 67 154 112 76 108 69 107 76 306 276 152 136 117 83 193 89 151 87
is_linear=0
shrinkage=0.03


Tree=8
num_leaves=31
num_cat=0
split_feature=92 75 37 26 50 34 65 74 89 47 79 65 43 52 62 34 79 89 60 88 47 19 88 41 92 67 60 37 76 42
split_gain=33.1317 10.7251 10.6034 9.1284 9.34258 12.5601 8.64888 14.4332 14.6563 10.1419 7.68835 6.84436 14.2364 7.05818 5.4199 5.33501 5.1029 5.06014 4.91767 4.70063 4.59567 3.77921 8.37652 2.80333 2.73908 2.17314 1.70202 2.15408 1.41819 0.0323394
threshold=70.155723571777358 0.1072966866195202 30.210000038146976 -0.066613115370273576 -0.38981042802333826 -0.44729378819465632 -0.24560946971178052 6.4226324558258066 -0.0040763323195278636 123.01989746093751 -0.14995429664850232 -0.014898332767188547 0.43409879505634313 -0.57734999060630787 0.043837087228894241 0.16633064299821856 -0.063625711947679506 -0.067445844411849962 0.0055555745493620643 0.024527333676815036 121.23214721679689 1.5000000000000002 -0.030091859400272366 -0.000973109621554613 61.221935272216804 -0.017773304134607312 -0.1019269898533821 16.614999771118168 1.2629285454750063 0.72690501809120189
decision_type=2 2 2 2 2 2 2 2 2 2 2 2 2 10 2 2 2 2 2 2 2 2 2 2 2 10 2 2 2 2
left_child=1 29 3 15 5 -5 7 8 9 -6 21 12 18 16 19 -3 -13 -9 -12 -2 -14 26 -23 -15 -25 -24 27 -8 -19 -1
right_child=14 2 -4 4 6 -7 10 17 -10 -11 11 13 20 23 -16 -17 -18 28 -20 -21 -22 22 25 24 -26 -27 -28 -29 -30 -31
leaf_value=-0.026178387043380016 0.015868838202082694 0.028445126061126095 0.019891862724613265 -0.010155635020942581 0.041560484888358604 0.02998335025009825 -0.0023458015438717751 0.0054528360486500223 -0.011383903841749912 0.0079214055744169821 0.0059192540016856096 0.018361241252151623 0.0026531557168788583 -0.023535086884196813 0.0055757943820195482 -0.0010078379257425641 -0.0079507998680576376 -0.026331015331990868 0.033829329132378738 0.041481869633422534 -0.023830500701311718 0.012740573458740001 -0.024536630667631114 -0.016244563557777775 0.0030276577050345503 -0.0055227240505366839 -0.026145133439699101 -0.020314293726727425 -0.010095836364499814 -0.016598353271306519
leaf_weight=12.700950592756273 12.951429694890978 11.525802314281465 18.089802712202072 11.951859503984453 14.726740419864653 14.747837394475935 9.3297444283962268 9.5005299746990186 14.715405136346815 17.776588499546051 11.086264073848726 10.445518314838411 10.566910088062288 23.404633432626724 10.25871893763542 9.7987407445907575 14.859231829643248 13.080427765846254 11.872850656509398 17.213477224111557 11.845168471336363 11.316174328327177 14.586839020252226 16.200834512710575 10.362470477819441 9.3907190859317797 27.495332360267639 17.443115741014481 10.340475052595137 9.2422464787960035
leaf_count=41 40 36 57 38 46 46 30 30 47 56 35 33 34 75 32 31 47 42 37 53 38 36 47 52 33 30 89 56 33 30
internal_value=-0.000376996 -0.00315752 -0.00187237 -0.00309111 -0.00438442 0.0122976 -0.00595541 0.00240891 0.0129295 0.0239483 -0.00914058 -0.00414094 0.00499456 -0.00964071 0.0250992 0.0154724 0.00319563 -0.012617 0.0211619 0.0313469 -0.0117639 -0.0157552 -0.00779524 -0.0160765 -0.0088893 -0.0176092 -0.0206973 -0.0143626 -0.01987 -0.0230427
internal_weight=418.827 378.403 356.46 338.37 317.046 26.6997 290.346 80.1402 47.2187 32.5033 210.206 120.644 45.3712 75.2727 40.4236 21.3245 25.3048 32.9214 22.9591 30.1649 22.4121 89.5619 35.2937 49.9679 26.5633 23.9776 54.2682 26.7729 23.4209 21.9432
internal_count=1330 1205 1134 1077 1010 84 926 254 149 102 672 384 144 240 125 67 80 105 72 93 72 288 113 160 85 77 175 86 75 71
is_linear=0
shrinkage=0.03


Tree=9
num_leaves=30
num_cat=0
split_feature=63 64 26 37 91 70 48 65 44 76 70 76 41 26 41 93 75 90 66 63 55 88 61 93 30 61 63 38 69
split_gain=28.0233 26.6192 12.0161 17.756 11.671 17.4303 10.3323 10.1288 13.488 8.81747 8.61335 14.1209 11.5712 7.8427 7.70239 7.08719 5.72199 5.4939 5.26209 5.16765 8.39073 4.81281 4.07494 2.25463 1.56645 1.46379 1.44575 1.27968 0.0586844
threshold=0.044985435903072364 40.000438690185554 0.073149535804986968 18.404999732971195 0.028595061041414741 7.5470399856567392 22.196431159973148 -0.20280916243791577 123.64739990234376 0.30195035040378576 5.1638998985290536 0.34772393107414251 -0.0010829690727405248 -0.0004207257588859647 0.0030643610516563062 -1751.7056884765623 0.3087200820446015 0.032200211659073837 -0.051559930667281144 0.031840492039918906 -16.145400524139401 0.014083268120884897 0.042864130809903152 -511.83183288574213 15.905000209808351 0.046660900115966804 0.049080504104495055 16.045000076293949 3.9890249967575078
decision_type=2 2 2 2 2 8 2 2 2 2 10 2 2 2 2 2 2 2 10 2 2 2 2 2 2 2 2 2 2
left_child=2 13 6 -4 16 18 7 27 10 -10 19 12 -12 15 24 -2 26 -7 -6 23 -21 -18 28 -9 -13 -15 -3 -1 -22
right_child=1 4 3 -5 5 17 -8 8 9 -11 11 14 -14 25 -16 -17 21 -19 -20 20 22 -23 -24 -25 -26 -27 -28 -29 -30
leaf_value=-0.011683137395249383 -0.008558416099354791 0.029593999694914157 0.034345389833954167 -0.0096222714703785052 0.0057026257840048621 0.042136858100859487 0.012977045612932949 -0.0075852757871166339 -0.0022651381839813032 0.031886680809460312 0.039439932430261164 -0.026493225590831049 -0.00096554589305923198 -0.022942157162228714 0.0091931109388823339 0.024248580909626016 0.0021887601249829759 0.012713457670561461 -0.021426020422174657 0.010894957824854858 -0.026114256243504642 0.03135219269476569 -0.00080788870784117704 -0.025094360725668494 -0.010309593129135094 -0.0077268335724783761 0.050987598164158099 -0.02601124426367182 -0.016415388786076818
leaf_weight=9.8458405137062055 12.508488029241564 12.614755004644396 14.895660400390627 16.521368980407715 12.039893895387651 11.041432887315752 18.967798352241516 9.1823137402534467 14.991370975971224 11.274403482675551 9.9435856342315692 16.590013474226001 15.181513160467146 16.497785329818729 9.9573009014129621 9.6665358543395978 9.5830395519733447 13.28471329808235 12.049619346857069 14.045669227838514 13.493694871664049 10.273722738027571 10.906136661767958 40.536874264478683 10.561321526765822 10.573402404785154 11.160193353891371 31.187147557735443 9.1782692074775678
leaf_count=32 40 38 45 53 38 33 59 30 48 35 31 54 48 54 31 30 30 41 39 44 44 31 35 133 34 34 33 103 30
internal_value=-3.84977e-05 0.010791 -0.00557621 0.0116404 0.0202403 0.00978954 -0.00781461 -0.0096022 -0.00655186 0.0130261 -0.00983538 -0.00108307 0.015923 -0.00692242 -0.0127131 0.00617204 0.0313578 0.0272049 -0.0081803 -0.015363 -0.00804687 0.0180574 -0.0160561 -0.022074 -0.020788 -0.0174864 0.0412891 -0.022933 -0.0230472
internal_weight=418.554 141.294 277.26 31.417 92.0474 48.4157 245.843 226.875 185.842 26.2658 159.577 62.2337 25.1251 49.2462 37.1086 22.175 43.6317 24.3261 24.0895 97.343 47.6238 19.8568 33.5781 49.7192 27.1513 27.0712 23.7749 41.033 22.672
internal_count=1330 441 889 98 283 151 791 732 597 83 514 198 79 158 119 70 132 74 77 316 153 61 109 163 88 88 71 135 74
is_linear=0
shrinkage=0.03


Tree=10
num_leaves=31
num_cat=0
split_feature=68 58 52 97 90 43 89 26 33 74 52 42 64 93 28 33 91 34 74 25 41 36 34 34 5 85 61 26 88 42
split_gain=20.8163 15.3461 10.8254 11.548 9.66443 9.65366 8.18067 7.79442 10.0054 7.60478 7.23448 5.96995 7.32982 6.86367 6.34109 5.65322 5.44929 5.40315 5.49289 4.6852 5.01673 5.08294 4.43425 4.18483 3.81088 3.50724 2.75472 2.53908 1.96799 1.72297
threshold=6.5547857284545907 0.026002513244748119 -0.73399633169174183 -0.02800677344202995 0.011846847366541626 -1.7034941315650938 0.10451218858361246 -0.0004207257588859647 0.056994637474417693 4.4892184734344491 0.4736067950725556 -1.7350450158119199 43.338356018066413 211.20989990234378 7.5000000000000009 -1.0713812112808225 0.017851281911134723 0.42592164874076849 6.4447343349456796 0.0044544071424752483 0.0007077062618918718 16.564999580383304 0.050976224243640907 0.23303987830877307 -4.3664302211254828e-05 -0.0062696745153516522 0.018752174451947216 0.024562757462263111 -0.033131044358015053 0.89130437374115001
decision_type=2 2 10 2 2 2 2 2 2 2 10 2 2 2 2 2 2 2 2 2 2 2 2 2 10 2 2 2 2 2
left_child=1 2 4 5 -1 -4 9 -6 15 23 -5 -2 13 14 22 -9 -12 24 -19 20 21 -7 -13 25 29 -3 -22 -10 -16 -14
right_child=11 6 3 10 7 19 -8 8 27 -11 16 12 17 -15 28 -17 -18 18 -20 -21 26 -23 -24 -25 -26 -27 -28 -29 -30 -31
leaf_value=0.022680750551044054 0.012926948621620186 -0.0044602328875458751 -0.0036918689159120572 -0.017627021709608101 -0.025648020828351881 0.0039537303710407883 0.013228238954204182 -0.0016046281946627693 -0.0028121370114553425 0.0070481366793142576 -0.003615831056755343 -0.0083980776313149815 -0.026207098596776078 0.018957000014214662 -0.0053991134563990892 0.026142876268896786 0.024095546651918157 0.0082455469569974234 -0.016228789653410139 0.0058271727994720886 0.018128577470126132 0.026607521789500939 0.015179581326139932 -8.6910213218149686e-05 -0.0040893933440517248 -0.024791535603167342 0.037670095149672699 -0.022879907651038797 -0.02220903448345711 -0.013048219149744642
leaf_weight=12.758121043443678 10.772543787956236 10.71259096264839 14.100690484046934 12.88071173429489 12.112617164850233 16.623284459114075 16.301951378583908 12.267974197864531 10.823320776224138 17.632017016410828 13.282206624746324 12.526140153408052 38.233857065439224 11.132966786622999 11.082548081874849 13.053243279457094 10.915344834327696 15.76169189810753 15.357642233371733 13.42801648378372 12.099781632423399 19.289715498685837 14.446704447269438 12.607437491416929 12.787198781967161 30.808040022850037 30.068177580833435 11.713545888662336 16.378624498844147 15.999922692775725
leaf_count=35 30 30 39 36 34 46 45 34 30 49 37 35 108 31 31 36 30 44 43 37 33 53 40 35 36 87 82 33 46 45
internal_value=0.000356157 0.00509846 0.00939933 0.0141729 -3.11911e-05 0.0191885 -0.00540969 -0.00515566 0.000449639 -0.00976734 -0.000241894 -0.00787435 -0.00931333 -0.00150693 -0.00595873 0.0131492 0.00934475 -0.0144609 -0.00396196 0.022716 0.02551 0.0165128 0.00432137 -0.0152734 -0.0192059 -0.0197742 0.0326127 -0.0137713 -0.0158531 -0.0226315
internal_weight=477.959 303.479 215.417 142.688 72.7288 105.61 88.062 59.9707 47.8581 71.7601 37.0783 174.48 163.707 65.567 54.434 25.3212 24.1976 98.1403 31.1193 91.509 78.081 35.913 26.9728 54.1281 67.021 41.5206 42.168 22.5369 27.4612 54.2338
internal_count=1330 841 595 393 202 290 246 167 133 201 103 489 459 183 152 70 67 276 87 251 214 99 75 152 189 117 115 63 77 153
is_linear=0
shrinkage=0.03


Tree=11
num_leaves=30
num_cat=0
split_feature=92 90 27 10 41 65 53 38 52 32 61 68 67 60 24 82 79 45 76 41 27 32 47 67 52 84 67 75 85
split_gain=31.1204 12.1254 9.62249 9.86464 8.42511 8.7944 14.261 8.28547 8.03912 8.40333 9.53675 7.02178 6.48101 6.08009 5.91725 5.45166 5.37564 5.63253 5.03548 5.03527 5.16322 4.87068 5.81431 4.5688 4.47784 2.86468 2.20068 1.67028 1.19467
threshold=70.155723571777358 0.0092630577273666876 0.066835347563028349 0.00014866019046166914 -0.0083044855855405313 -0.29745247960090632 39.809385299682624 16.340000152587894 -1.1841443181037901 0.01633341517299414 0.041343277320265777 4.1034286022186288 0.0071817892603576192 -0.023006106726825234 0.0057154686655849227 0.074716184288263335 -0.05463579669594764 120.22454833984376 0.3974312841892243 0.0038389379624277358 0.13710370659828189 0.007781622465699912 121.45115280151369 -0.13278366625308988 0.30029729008674627 1.856186628341675 0.02507827524095774 0.24523200839757922 0.0066561247222125539
decision_type=2 2 2 10 2 2 2 2 8 2 2 2 8 2 2 2 2 2 2 2 2 2 2 10 10 2 8 2 2
left_child=1 7 4 8 12 6 -6 -1 -4 10 26 -5 -3 23 19 24 17 -15 -11 20 -13 22 -19 -7 -2 28 -10 -18 -25
right_child=15 2 3 11 5 13 -8 -9 9 18 -12 14 -14 16 -16 -17 27 21 -20 -21 -22 -23 -24 25 -26 -27 -28 -29 -30
leaf_value=-0.0022472803956414106 0.018555332018505184 0.022999189063132558 0.02920821634698775 0.013027304414303503 0.02199646601229965 -0.0014784202276530301 -0.019325765258212078 0.033283444727479003 0.036261445539104278 -0.023315138502639648 -0.0090965688291797814 0.015019033479000609 -0.0063319026611408733 0.015693376989932957 -0.026384376676093859 0.01078212832764896 -0.026075993039290153 -0.011469443942253335 0.0055544974540337909 -0.017137829092123632 -0.0085613480765908013 -0.021451892924896521 0.017711717434413899 -0.026311280684241337 0.047095358390453965 -0.0080958181438869972 0.013877321681771145 -0.0088234765277735716 -0.014451369958345971
leaf_weight=10.357322931289675 12.102375090122225 11.725663602352141 14.434256762266157 14.010503679513929 16.637099385261536 12.383121252059935 12.134476631879808 12.388032525777815 9.5729206800460833 10.835178256034853 9.7277764379978162 14.679317623376848 13.803024381399156 12.538198471069334 13.949223995208738 17.757993638515472 11.517548561096193 13.089228540658953 9.4762230813503248 17.477736085653305 16.946262538433075 12.280387431383131 9.9049992561340314 49.103080153465271 11.043623030185698 13.861768633127211 9.5181766748428362 11.041223853826521 14.17896920442581
leaf_count=33 37 37 45 44 52 40 39 38 30 35 31 46 44 40 45 55 37 42 30 56 54 40 31 160 33 45 30 35 46
internal_value=-0.000368156 -0.00308264 -0.00446026 0.0016319 -0.00844893 -0.010635 0.00450497 0.0176909 0.0102971 0.00426925 0.0144797 -0.00555582 0.00749938 -0.0133703 -0.00982397 0.024164 -0.00663474 -0.000837459 -0.0102175 -0.0046868 0.00250858 -0.00698391 0.00131493 -0.018533 0.0335591 -0.0212167 0.0263477 -0.0183648 -0.0239201
internal_weight=418.476 377.572 354.826 140.628 214.199 188.67 28.7716 22.7454 63.5645 49.1303 28.8189 77.063 25.5287 159.899 63.0525 40.904 70.3716 47.8128 20.3114 49.1033 31.6256 35.2746 22.9942 89.5269 23.146 77.1438 19.0911 22.5588 63.282
internal_count=1330 1205 1134 446 688 607 91 71 201 156 91 245 81 516 201 125 225 153 65 156 100 113 73 291 70 251 60 72 206
is_linear=0
shrinkage=0.03


Tree=12
num_leaves=31
num_cat=0
split_feature=74 47 64 48 69 73 67 47 26 22 70 70 97 64 32 62 60 70 58 33 52 38 93 91 42 41 19 65 90 88
split_gain=26.7765 19.4701 16.1123 13.0157 15.3104 13.0604 12.7583 8.6006 8.36032 11.7005 8.9097 11.8287 15.205 8.14981 8.14752 7.99043 7.31317 6.59827 6.16251 5.32852 4.82369 4.33326 4.82308 3.79569 3.50116 2.50923 2.46153 1.6282 0.876121 0.418712
threshold=6.6514341831207284 115.57054901123048 33.301439285278327 -22.080080032348629 3.2037500143051152 7.3948307037353525 -0.1501614302396774 122.5067481994629 0.073149535804986968 0.00088180683087557565 5.2506802082061776 6.2698800563812265 -0.067095231264829622 40.669040679931648 -0.068432889878749834 0.027939888648688797 0.098594814538955702 7.9273900985717782 -0.0038889991119503971 -0.80862218141555775 0.30029729008674627 17.250000000000004 1237.7841796875002 0.019948264583945278 0.4178119450807572 0.0049684571567922839 1.0000000180025095e-35 -0.10148201137781142 0.027695269323885444 0.0087263509631156939
decision_type=2 2 2 2 2 2 8 2 2 2 10 10 2 2 2 2 2 10 2 2 8 2 2 2 2 2 2 2 2 2
left_child=2 20 -1 5 -5 7 -3 18 10 -10 21 12 -12 -8 -9 -14 17 25 -4 -15 -2 22 26 -16 -20 28 -6 -23 -13 -28
right_child=1 6 3 4 8 -7 13 14 9 -11 11 16 15 19 23 -17 -18 -19 24 -21 -22 27 -24 -25 -26 -27 29 -29 -30 -31
leaf_value=-0.024883269337424969 0.0054687907373843058 0.0027297561060508459 -0.023837325165052908 0.023048492147736049 -0.0020054020437626518 0.031497382528867079 0.010239044440670987 -0.0051609281075333177 -0.012222590291652404 0.031758523219535643 -0.011557041806335131 -0.026107917761973302 0.04534727595603142 0.021393724806402163 0.03724463842147048 0.0071097863704191232 0.011743537629847192 0.0044343886254334082 -0.0095540506352933263 0.050892201260956046 -0.023119989549121721 -0.011537881065548834 0.0079409108618549544 0.010016901882713812 0.014652740042707266 -0.0068639511039477411 -0.025621063541717837 -0.026103983109227631 -0.013624534542081184 -0.013490803695272757
leaf_weight=28.506193310022354 9.4783946275711042 17.760620474815369 12.846473664045332 14.977885812520979 9.2433757483959216 16.569166630506516 11.205564737319945 13.104091316461561 9.7981551885604876 10.209804296493528 15.113424658775328 26.569101244211197 9.8153786957263964 10.762731999158861 9.784187465906145 9.8299617171287519 10.775052309036253 13.212384819984434 10.175092220306398 19.000962316989899 10.241460859775545 11.610448032617567 10.539439916610716 9.8037430346012098 9.3950120210647565 12.78556829690933 10.432191520929338 34.350621700286865 10.962864547967909 9.1803025603294355
leaf_count=94 30 55 42 46 30 50 35 42 31 31 49 86 30 33 30 31 34 41 33 57 33 38 34 31 30 41 34 114 35 30
internal_value=-3.61297e-05 0.0156467 -0.00369438 -0.00167922 -0.00533844 0.00853858 0.0242044 0.00230784 -0.00741906 0.0106638 -0.00932504 -0.00358753 0.010661 0.0332271 0.0129729 0.0274855 -0.0103058 -0.0141696 -0.00851418 0.0412675 -0.00977798 -0.0165297 -0.00889098 0.0247656 0.00221428 -0.0190458 -0.0150988 -0.0227484 -0.0229098 -0.020873
internal_weight=418.04 78.4497 339.59 311.084 229.406 81.6778 58.7299 65.1086 214.428 20.008 194.42 109.064 34.7588 40.9693 32.692 19.6453 74.305 63.5299 32.4166 29.7637 19.7199 85.3564 39.3953 19.5879 19.5701 50.3175 28.8559 45.9611 37.532 19.6125
internal_count=1330 243 1087 993 735 258 180 208 689 62 627 347 110 125 103 61 237 203 105 90 63 280 128 61 63 162 94 152 121 64
is_linear=0
shrinkage=0.03


Tree=13
num_leaves=31
num_cat=0
split_feature=68 58 52 97 90 89 27 74 52 54 61 30 40 32 62 40 77 91 69 63 32 44 81 81 61 64 59 15 90 97
split_gain=19.7944 14.5741 10.262 10.8838 9.25564 7.88644 7.39161 7.31876 6.94904 6.76796 6.4858 6.48279 5.81172 6.28184 6.21422 5.53214 5.47199 5.23236 5.02909 6.22819 4.50426 5.51365 3.89588 3.66732 3.31733 3.24601 4.32903 3.16604 3.04276 1.65379
threshold=6.5547857284545907 0.026002513244748119 -0.73399633169174183 -0.02800677344202995 0.011846847366541626 0.10451218858361246 0.0026864126557484273 4.4892184734344491 0.4736067950725556 -13.097381591796873 0.030419762246310714 20.900000572204593 -0.0038344380445778366 0.019624381326138977 0.050970479846000678 -1.0000000180025095e-35 0.73640850186347973 0.017851281911134723 7.2181248664855966 0.043100509792566306 0.061979686841368682 121.62535095214845 0.022241800092160705 0.010181963443756105 0.022147797048091892 43.338356018066413 -0.052629567682743066 0.0016680188709869983 0.040172224864363677 -0.097924102097749696
decision_type=2 2 10 2 2 2 2 2 10 2 2 2 2 2 2 2 2 2 2 2 2 2 2 2 2 2 2 2 2 2
left_child=1 2 4 9 -1 7 -6 23 -5 24 11 -11 -2 16 18 -12 25 -10 -15 -20 21 -8 -16 -3 -4 26 -14 -25 -27 -17
right_child=12 5 3 8 6 -7 20 -9 17 10 15 -13 13 14 22 29 -18 -19 19 -21 -22 -23 -24 27 -26 28 -28 -29 -30 -31
leaf_value=0.02213619714467582 0.012816750761818665 -0.0027532238853660274 0.017190788905077341 -0.017314771282306095 0.0087754219860826464 0.012983225075189458 -0.019719443452729284 0.0068915391899371384 -0.0035700236918273578 -0.014205513979160056 0.0016501470168764276 0.015397090833584962 -0.018031821787187069 0.021041598734949395 -0.026886895992461468 0.036109984355529187 0.0048371105922009223 0.023563432082340761 -0.017384679319053669 0.0085946056246550551 -0.025974511693756256 0.0077709956448670688 -0.0021834160946979202 -0.025657184678149043 0.034925296301712046 -0.023598920778105169 0.0062608801213785313 -0.0063058818087835256 -0.0057771010392530025 0.017910204716600299
leaf_weight=12.805884867906569 10.77967783808708 16.039126932621002 20.907893359661102 12.820220381021498 21.454320460557938 16.333708882331848 10.981700807809831 17.653929740190506 13.267292827367784 13.004833340644838 10.886751323938368 11.691883265972136 13.51958402991295 11.160218089818953 10.57935479283333 11.345798671245573 11.790057390928267 10.958848059177397 12.538750469684599 20.50610139966011 13.761896967887877 13.670308262109755 11.787683844566343 26.163256227970123 24.66041824221611 48.578769505023956 11.387780547142027 11.691956549882887 11.380762308835982 13.466380983591081
leaf_count=35 30 45 57 36 59 45 31 49 37 36 30 32 38 31 30 31 33 30 35 57 39 38 33 74 67 138 32 33 32 37
internal_value=0.000345158 0.00496457 0.00914841 0.0137863 -4.13539e-05 -0.00529103 -0.0050709 -0.00958431 -0.000221756 0.0186399 0.0117433 -0.000137285 -0.00769594 -0.00912039 -0.00198179 0.0197422 -0.0139664 0.0091515 0.00454241 -0.00148423 -0.0128306 -0.00476647 -0.0145185 -0.0150085 0.0273321 -0.0166046 -0.00711211 -0.0199965 -0.0203665 0.0273089
internal_weight=477.575 303.566 215.684 143.01 72.6741 87.882 59.8682 71.5483 37.0464 105.964 60.3956 24.6967 174.009 163.229 66.5721 35.6989 96.657 24.2261 44.2051 33.0449 38.4139 24.652 22.367 53.8943 45.5683 84.8669 24.9074 37.8552 59.9595 24.8122
internal_count=1330 841 595 393 202 246 167 201 103 290 166 68 489 459 186 98 273 67 123 92 108 69 63 152 124 240 70 107 170 68
is_linear=0
shrinkage=0.03


Tree=14
num_leaves=31
num_cat=0
split_feature=75 90 50 75 27 27 37 61 52 91 79 88 83 69 37 15 56 10 91 39 27 26 56 47 29 43 97 52 41 89
split_gain=13.0526 13.3121 11.0661 10.2933 12.7393 11.2435 9.14353 8.08868 12.9485 11.9477 11.3306 7.02304 5.46194 5.06354 5.06255 5.99027 5.93679 5.96356 4.94999 4.58991 3.09964 4.97244 3.40507 2.77439 2.59666 2.47341 2.19252 1.2462 0.480099 0.154589
threshold=0.1072966866195202 0.0094578773714602011 -1.1853675246238706 0.51285913586616527 0.37735882401466375 0.094103731215000166 30.210000038146976 0.032545024529099471 -1.034522473812103 0.016343017108738426 -0.25029604136943812 0.049949632957577712 3500011.1250000005 4.3892250061035165 12.644999980926515 1.0000000180025095e-35 47.350072860717781 -0.010204611346125601 0.016510037705302242 119.36040115356447 0.1307812035083771 0.035169184207916267 -13.097381591796873 121.75514984130861 3.5000000000000004 0.99550080299377453 -0.043420098721981042 0.226478286087513 0.0046182130463421353 -0.018050294369459149
decision_type=2 2 2 2 2 2 2 2 8 2 2 2 2 2 2 2 2 10 2 2 2 2 2 2 2 2 2 8 2 2
left_child=-1 18 -3 4 6 -5 7 8 12 -10 -11 13 -4 23 -9 16 17 19 -2 -16 21 22 -17 -12 25 -21 28 -15 -24 -22
right_child=1 2 3 5 -6 -7 -8 14 9 10 11 -13 -14 27 15 20 -18 -19 -20 24 29 -23 26 -25 -26 -27 -28 -29 -30 -31
leaf_value=-0.022586865624034873 0.0083288932702282499 0.024293847925754126 0.0052068201787988681 -0.0058689993250105391 0.027185763822114708 0.034044526053682238 0.01830002292240104 0.011309842502018323 0.020212357395897353 0.015407568973700632 -0.013392587723348639 0.010378331104377178 0.033823077082079926 -0.012771169110027156 0.0061965965495614653 -0.0024670036932402648 0.016238092657393021 0.011394061845375879 0.037722885739561916 -0.0267436209482943 -0.016514615284956805 0.0044026180663559265 -0.026827796582272658 0.0077769933623825635 -0.0045774988577852675 -0.0078615449263780696 -0.0066423647127844552 -0.025154177909485754 -0.015560976767623904 -0.0267704181254621
leaf_weight=21.499297469854355 10.960092663764955 14.620483189821242 12.140343695878984 10.75810492038727 11.241120398044584 13.659735739231108 14.798256874084471 9.4681970477104169 14.776795774698256 14.577448874711989 10.888777017593386 9.6158432960510236 11.771358668804167 14.107875436544422 10.121999889612196 13.848232775926581 10.246793031692503 11.679974794387816 10.14480412006378 19.373580068349842 9.2059198319911975 13.503892213106154 20.894091337919232 9.5832134783267957 14.026013463735579 10.595410525798796 9.9547063410282259 31.521338999271386 10.774636149406431 17.670330882072449
leaf_count=71 34 45 38 34 35 42 46 30 46 46 35 30 36 45 32 44 32 37 31 63 30 43 68 30 45 34 32 104 35 57
internal_value=-0.000358076 0.000900926 -0.000430057 -0.0014963 -0.00287932 0.0169202 -0.00399891 -0.00511755 0.000627382 -0.00394864 -0.0080807 -0.0127447 0.0200864 -0.016213 -0.0091843 -0.010372 -0.00400787 -0.00735674 0.0235255 -0.011537 -0.0153275 -0.0116632 -0.0155829 -0.00358215 -0.015664 -0.0205374 -0.0197863 -0.0216815 -0.0235882 -0.0239759
internal_weight=418.029 396.529 375.424 360.804 336.386 24.4178 325.145 310.347 128.983 105.071 90.2945 75.717 23.9117 66.1012 181.364 171.896 76.0438 65.797 21.1049 54.117 95.8518 68.9756 55.4717 20.472 43.995 29.969 41.6234 45.6292 31.6687 26.8763
internal_count=1330 1259 1194 1149 1073 76 1038 992 410 336 290 244 74 214 582 552 243 211 65 174 309 222 179 65 142 97 135 149 103 87
is_linear=0
shrinkage=0.03


Tree=15
num_leaves=31
num_cat=0
split_feature=74 64 92 79 91 59 43 76 25 91 55 71 97 45 62 46 32 64 60 31 32 61 90 36 30 67 42 29 38 62
split_gain=24.5523 14.771 13.9561 12.6721 15.9544 12.1308 12.8594 16.4633 10.0035 9.00176 8.07164 6.62974 13.3453 6.56533 6.17926 9.88776 7.85134 5.36057 5.44951 5.25446 5.10713 4.94788 3.93234 3.27402 4.24814 2.46261 2.47481 2.36982 1.8524 0.671151
threshold=6.6514341831207284 35.898519515991218 72.245456695556655 -0.22191645950078961 0.040336161851882942 0.050371775403618819 -1.1344445347785947 0.23739574849605563 0.002648356719873846 0.028893520124256614 24.619791030883793 4.0954587459564218 -0.093495205044746385 119.45335006713869 0.048427328467369087 121.65639877319337 -0.11876719817519187 55.648427963256843 -0.057035962119698518 -0.04906282760202884 0.19275290518999103 0.034404123201966293 0.021167847327888015 17.105000495910648 15.654999732971193 0.044550232589244849 1.0988973379135134 3.5000000000000004 16.404999732971195 0.02370658423751593
decision_type=2 2 2 2 2 2 2 2 2 2 2 2 2 2 2 2 2 2 2 2 2 2 2 2 2 10 2 2 2 2
left_child=1 23 5 10 17 8 22 -8 14 27 -2 -10 -13 -12 16 -16 -3 18 -5 -18 25 -14 -7 24 -1 26 29 -9 -28 -21
right_child=3 2 -4 4 -6 6 7 9 11 -11 13 12 21 -15 15 -17 19 -19 -20 20 -22 -23 -24 -25 -26 -27 28 -29 -30 -31
leaf_value=-0.020926356637896784 -0.020472834907007319 0.0097683396171128131 -0.02120250471765325 0.021578836069518902 -0.0088300682272467179 0.0047219987918004922 -0.013919665233593009 0.023266864586989823 -0.011631479199268491 0.00636249066259324 -0.0030761581651409971 -0.007018870826573354 0.014411148044481153 0.027660731046603219 0.022675850294116062 -0.013799769891291022 0.0076492862521650735 0.013638747503376979 0.052654853406039294 -0.015109558236429609 0.0038100901354225134 0.044645980438629766 -0.019978839699201369 -0.025596906333439595 0.0050126800336695839 -0.0030015821571444086 -0.00023303788854795278 0.04600394152317773 -0.018035171956835957 -0.025820729844838953
leaf_weight=11.546603530645372 10.014940142631529 15.366716027259825 26.587146818637848 10.617622733116148 9.470882982015608 11.568632632493975 9.4738861024379712 10.378539830446245 9.8140500187873823 11.74881875514984 14.021233648061754 14.16812857985496 11.431384474039083 10.039699018001555 13.94667434692383 11.207144290208815 9.6006796061992628 10.098415732383726 15.228192657232286 12.621218919754027 10.97162953019142 9.8762995600700361 10.050969392061232 26.969760209321976 9.8071442246437055 9.454264283180235 9.4647153317928332 16.324986577033997 10.91822364926338 35.757383912801743
leaf_count=38 32 49 89 32 30 37 31 32 32 37 44 45 36 31 43 36 30 31 45 41 35 30 33 90 32 30 30 49 36 116
internal_value=2.44525e-05 -0.0035986 -0.00093498 0.0148805 0.0250801 0.00126008 0.0118454 0.0203793 -0.00277019 0.0289685 0.000959389 0.00934302 0.0153052 0.0103411 -0.00674676 0.00651808 -0.00970087 0.0340122 0.041168 -0.0127969 -0.0150583 0.0297984 -0.00713702 -0.01874 -0.00932201 -0.0177197 -0.0196713 0.0383258 -0.0101663 -0.0233889
internal_weight=408.546 329.055 280.731 79.491 45.4151 254.144 69.5458 47.9262 184.599 38.4523 34.0759 45.2899 35.4758 24.0609 139.309 25.1538 114.155 35.9442 25.8458 98.7881 89.1874 21.3077 21.6196 48.3235 21.3537 78.2158 68.7615 26.7035 20.3829 48.3786
internal_count=1302 1057 897 245 138 808 219 149 589 118 107 143 111 75 446 79 367 108 77 318 288 66 70 160 70 253 223 81 66 157
is_linear=0
shrinkage=0.03


Tree=16
num_leaves=30
num_cat=0
split_feature=68 46 52 29 73 88 46 91 40 27 60 71 71 84 24 24 87 36 27 36 41 43 85 76 55 32 59 91 74
split_gain=21.9365 12.9793 13.1586 11.9139 12.3411 6.37112 8.35464 8.42041 6.22476 5.79513 5.7825 5.16439 5.9284 5.43236 4.91919 4.65307 5.03939 4.9179 4.60086 4.56694 4.518 5.87098 5.67624 4.06104 3.89404 3.18178 5.21451 2.13588 1.05494
threshold=6.5547857284545907 119.13840103149415 -1.3642355203628538 2.5000000000000004 4.2245302200317392 -0.018871253356337544 120.44530105590822 0.017247272655367855 -0.0040824420284479848 0.13975901156663897 -1.0000000180025095e-35 3.9675195217132573 6.0456409454345712 1.856186628341675 -4.2004248825833195e-05 0.00097168423235416423 -0.029647962190210816 20.795000076293949 0.078369457274675383 13.889999866485597 0.006124430801719428 0.19614519923925403 -0.0029535429785028096 0.28054735064506536 -1.0000000180025095e-35 0.044422650709748275 -0.054181495681405061 0.040783995762467391 6.1923105716705331
decision_type=2 2 8 2 2 2 2 2 2 2 2 2 2 2 2 2 2 2 2 2 2 2 2 2 2 2 2 2 2
left_child=1 -1 9 5 -5 -4 -7 -8 -2 23 -9 -6 13 20 18 16 -16 19 -10 -17 21 22 -13 -3 -24 27 -27 28 -18
right_child=8 2 3 4 11 6 7 10 14 -11 -12 12 -14 -15 15 17 25 -19 -20 -21 -22 -23 24 -25 -26 26 -28 -29 -30
leaf_value=0.027661710424708372 0.01244113236336473 0.0058719725257199429 0.030428112931844147 -0.020282731589253276 0.017679343439070485 -0.0065594355009724447 -0.0012859127642817175 0.034488440850605255 0.015286760497834692 -0.029356790960401422 0.0068784538691451505 0.016363833013297052 0.016084613841038712 -0.015992695567066572 0.0011904745436741306 0.0034516846421051343 -0.016680126375479887 0.0091902449061502973 -0.0099450200594983114 -0.021348036219865869 0.018812820303214538 -0.016614146086438197 -0.01427012502339077 -0.016899799160703836 0.0077104765337797426 -0.020397498779477125 0.0054744261178186621 -0.0095891820925600862 -0.028990387162346622
leaf_weight=19.502960741519928 10.818519085645674 14.366829365491869 17.298793703317642 20.949450969696045 19.946035325527191 18.821386128664017 15.601439416408537 20.572808653116226 11.458511561155321 12.215316355228422 10.857264131307604 18.783518791198727 19.295404881238937 18.286451458930969 13.184670209884642 10.673667639493944 14.477622598409651 15.396137237548826 12.640073716640471 15.838884651660917 10.917453914880751 15.696714192628859 15.295816898345945 12.167793631553648 12.210064023733144 15.757113099098207 11.461921125650404 10.960096627473829 31.489187866449356
leaf_count=53 30 40 47 59 55 52 43 56 32 35 30 52 53 51 37 30 41 43 36 45 30 44 43 34 34 44 32 31 90
internal_value=-0.000378746 0.00463215 0.00289377 0.00557872 0.000544456 0.0146284 0.0100849 0.0167437 -0.00878123 -0.0130883 0.025457 0.00401852 0.00141586 -0.00182879 -0.010254 -0.0124068 -0.015981 -0.00392692 0.00218337 -0.0116014 0.00189228 -0.00133926 0.00408224 -0.00480484 -0.00458458 -0.018654 -0.00969492 -0.0226964 -0.0255509
internal_weight=466.942 292.786 273.283 234.533 151.381 83.1517 65.8529 47.0315 174.156 38.7499 31.4301 130.431 110.485 91.19 163.338 139.239 97.3306 41.9087 24.0986 26.5126 72.9036 61.9861 46.2894 26.5346 27.5059 84.1459 27.219 56.9269 45.9668
internal_count=1302 811 758 649 421 228 181 129 491 109 86 362 307 254 461 393 275 118 68 75 203 173 129 74 77 238 76 162 131
is_linear=0
shrinkage=0.03


Tree=17
num_leaves=30
num_cat=0
split_feature=92 64 90 66 27 55 37 74 52 38 27 35 62 52 92 26 63 42 48 67 46 27 32 96 79 78 34 27 37
split_gain=28.9229 11.6375 11.4089 11.0806 7.15293 7.07547 7.47759 8.73185 9.34252 11.4495 12.1483 6.6773 6.60278 6.45795 6.06303 5.87515 5.21036 5.14009 4.81863 4.39005 4.15453 11.2665 3.05656 2.90407 2.8391 1.90274 1.67732 1.66856 1.58659
threshold=70.155723571777358 35.737585067749031 0.0092630577273666876 -0.19205620139837262 0.058636751025915153 -12.167432785034178 30.210000038146976 6.7305738925933847 0.30029729008674627 26.605000495910648 0.078369457274675383 16.880000114440922 0.043837087228894241 1.4708693623542788 40.329263687133796 -1.0000000180025095e-35 0.044752366840839393 0.37284523248672491 -64.233688354492173 -0.2310409992933273 119.7097511291504 0.0012992884730920198 0.0087083862163126486 -0.10334669426083563 -0.22421013563871381 0.1951958239078522 -1.139225125312805 0.12372711673378946 24.244999885559086
decision_type=2 2 2 10 2 2 2 2 10 2 2 2 2 10 2 2 2 2 2 8 2 2 2 2 2 2 2 2 2
left_child=1 3 -3 17 23 18 7 8 9 10 15 -12 22 14 -10 -7 -17 -1 -4 -9 21 -20 27 -5 -22 -16 -26 -2 -21
right_child=12 2 5 4 -6 6 -8 19 13 -11 11 -13 -14 -15 25 16 -18 -19 20 28 24 -23 -24 -25 26 -27 -28 -29 -30
leaf_value=0.032176568218730016 0.04731952562484551 0.018510963206439898 0.0032815688397295137 -0.025044385688263816 0.016262335864793677 -0.023944767095816447 0.018646017826072853 0.002666821697287363 0.0058471194767856496 0.034700703063836352 0.031813170193171821 0.00068740954127521632 0.0027918528522219961 0.0059148897299217216 -0.024842607945768386 0.01118829632720288 -0.0144066954183684 0.0073099661676729114 -0.020519014018319987 -0.023737598739519299 -0.0056070041598683135 0.019291310753976741 0.01538048422734785 -0.0017912833692169338 -0.012051139352411037 -0.007877692227605898 -0.026870006903727203 0.024583588844240039 -0.009240448720860675
leaf_weight=17.515661299228672 10.1735110282898 17.154985278844833 14.062192529439924 9.5915583074092901 9.5809732079505903 13.15745666623115 12.708514064550398 9.609197258949278 9.4165555834770185 10.182969450950621 13.145360976457598 11.127914071083067 10.133139461278914 18.111665517091751 25.55098631978035 15.25232076644898 11.792417496442793 13.801274746656416 15.327513545751573 26.587750107049942 10.830571144819258 9.5626479089260084 10.258986771106718 9.1967339217662811 11.793952852487562 9.2506700158119184 33.020108163356781 9.9806567132472974 11.488674044609068
leaf_count=54 30 53 45 32 30 43 39 31 30 31 40 35 31 58 83 47 38 43 51 87 35 30 31 30 38 30 110 30 37
internal_value=0.00040748 -0.00225975 -0.00460516 0.00976358 -0.00379488 -0.00602187 -0.00276142 -0.00432709 -0.000445344 0.00667401 0.00178522 0.0181356 0.0241398 -0.0089436 -0.0150258 -0.00828737 -8.77413e-05 0.0217832 -0.0127249 -0.0152401 -0.0155258 -0.00506977 0.0309373 -0.0143279 -0.0200308 -0.0206791 -0.0233182 0.0377547 -0.0197118
internal_weight=409.367 368.821 309.134 59.6862 28.3693 291.979 197.382 184.674 136.988 74.6584 64.4755 24.2733 40.5463 62.3299 44.2182 40.2022 27.0447 31.3169 94.597 47.6856 80.5348 24.8902 30.4132 18.7883 55.6446 34.8017 44.8141 20.1542 38.0764
internal_count=1302 1180 991 189 92 938 629 590 435 234 203 75 122 201 143 128 85 97 309 155 264 81 91 62 183 113 148 60 124
is_linear=0
shrinkage=0.03


Tree=18
num_leaves=30
num_cat=0
split_feature=63 64 91 70 26 37 60 53 39 36 52 55 26 64 69 37 76 70 38 34 45 71 29 45 84 81 79 52 61
split_gain=23.3736 24.5372 13.4674 14.3465 13.2256 16.2375 8.64085 14.4257 10.6329 9.02641 12.4539 7.50555 7.21344 6.71042 6.6147 11.4208 13.9465 5.9648 5.88489 9.51014 8.52318 5.79978 5.08918 2.6869 1.68531 1.40044 0.617222 0.296793 0.196626
threshold=0.044985435903072364 39.229028701782234 0.028595061041414741 8.9090399742126483 0.073149535804986968 18.404999732971195 -0.13922830671072003 22.196431159973148 123.78725051879884 26.095000267028812 0.62883818149566661 -16.145400524139401 -0.0041049905121326438 48.175630569458015 4.5827250480651864 15.525000095367433 0.29985982179641729 10.446199893951418 17.250000000000004 -0.99406272172927845 121.86620330810548 6.8268234729766855 2.5000000000000004 125.83964920043947 1.5965896248817446 0.023472266271710399 -0.035789165645837777 -1.592918813228607 0.027975960634648803
decision_type=2 2 2 8 2 2 2 2 2 2 8 2 2 2 2 2 2 10 2 2 2 2 2 2 2 2 2 10 2
left_child=4 12 13 22 6 -6 28 8 11 10 -10 14 17 21 24 -16 -17 -2 19 -13 26 -3 -4 -24 -8 -14 -21 -20 -1
right_child=1 2 3 -5 5 -7 7 -9 9 -11 -12 18 25 -15 15 16 -18 -19 27 20 -22 -23 23 -25 -26 -27 -28 -29 -30
leaf_value=-0.015816566633709887 -0.010016634411108736 0.034382698425224713 0.011660690317068286 0.027988929394234793 0.03399971594366899 -0.0084655654375155927 -0.0053585166279616356 0.023116550278051189 -0.0033418353246088533 -0.014378668497794117 0.04183971100072293 0.016682175522607878 -0.022961375969927537 0.043979760438119353 -0.015192072784164597 0.034259906257184183 -0.008761839052227223 0.02133619788397368 -0.015974852807097466 -0.025715329066623788 0.0042299263279430583 0.0060560791929553234 -0.021819827317906226 -0.00087770166756894993 -0.021694221239408951 -0.0074070871585467535 -0.01372690512660981 -0.02660139280889498 -0.02625548381864368
leaf_weight=8.95177870988846 10.30163422226906 11.479734838008882 10.802570194005964 18.491342931985855 15.255831420421602 15.524780720472334 10.738574534654619 13.773415774106978 10.7224457859993 9.7814292013645154 9.9666303396224993 9.5087614655494672 17.203923195600513 18.563804626464844 15.777290493249891 15.064482539892198 11.157133430242537 9.6766618788242322 8.9992726445198041 24.692915290594097 14.44106352329254 14.697168618440626 11.713173478841783 9.8905068039894086 13.518776267766951 9.1269491016864759 9.413702458143236 31.095184445381165 17.674613386392593
leaf_count=30 33 34 34 55 45 50 35 42 34 32 31 30 57 54 53 47 36 30 30 81 46 44 37 32 45 30 31 105 59
internal_value=1.99581e-05 0.00981038 0.0184272 0.00763446 -0.00522061 0.0129891 -0.00764782 -0.00552963 -0.00766195 0.00840926 0.0193492 -0.0106733 -0.00799852 0.0302698 -0.00280878 0.00439469 0.016305 0.00546255 -0.0159004 -0.00953369 -0.0149015 0.0192866 -0.00447017 -0.0126952 -0.014961 -0.0180381 -0.0228917 -0.024663 -0.0234455
internal_weight=408.006 141.947 95.6383 50.8976 266.058 30.7806 235.277 208.651 194.878 30.4705 20.6891 164.407 46.3092 44.7407 66.2563 41.9989 26.2216 19.9783 98.1509 58.0564 48.5477 26.1769 32.4063 21.6037 24.2574 26.3309 34.1066 40.0945 26.6264
internal_count=1302 440 290 158 862 95 767 678 636 97 65 539 150 132 216 136 83 63 323 188 158 78 103 69 80 87 112 135 89
is_linear=0
shrinkage=0.03


Tree=19
num_leaves=31
num_cat=0
split_feature=68 46 52 29 73 38 40 88 46 91 71 71 59 32 24 34 24 87 57 27 43 47 59 22 52 22 32 90 58 67
split_gain=20.6996 12.3801 12.5716 11.1831 11.8717 6.35366 6.02045 6.01142 7.99824 8.03787 4.93914 5.64474 4.8469 5.2184 4.73773 4.58207 4.47182 4.84635 4.43858 4.35741 4.00152 3.97474 3.85004 3.6198 3.10638 2.01612 1.86209 1.29126 1.16214 0.280692
threshold=6.5547857284545907 119.13840103149415 -1.3642355203628538 2.5000000000000004 4.2245302200317392 21.755000114440922 -0.0040824420284479848 -0.018871253356337544 120.44530105590822 0.017247272655367855 3.9675195217132573 6.0456409454345712 -0.087475482374429689 -0.058984676375985139 -4.2004248825833195e-05 -0.88445380330085743 0.00097168423235416423 -0.029647962190210816 0.014555836096405985 0.078369457274675383 -0.13098128885030744 120.70380020141603 0.015634954441338781 0.00014110144547885287 -2.3927888870239253 0.0013335393159650268 0.050311530008912093 0.036329133436083801 -0.026141948066651818 -0.019896532408893105
decision_type=2 2 8 2 2 2 2 2 2 2 2 2 2 2 2 2 2 2 2 2 2 2 2 2 10 2 2 2 2 8
left_child=1 -1 5 7 -5 28 -2 -4 -9 -10 -6 12 -12 15 19 -14 17 -16 20 -8 -18 -15 -11 -23 -19 -25 27 29 -3 -26
right_child=6 2 3 4 10 -7 14 8 9 22 11 -13 13 21 16 -17 18 24 -20 -21 -22 23 -24 25 26 -27 -28 -29 -30 -31
leaf_value=0.026944154491534488 0.012303050041867948 -0.012179959266229367 0.029469290124201731 -0.019958320850979865 0.01726392012189315 0.0055490726699903969 0.014906413380749224 -0.0065408342662528589 -0.0013624414279494305 0.032143776117812876 0.014418176352540913 0.015667174394295172 -0.0055937899003477669 0.0048990465349633555 0.0011892264218335512 0.017178212622688531 0.0019114544370671146 -0.0042752514657113817 0.0089435478826586992 -0.0096552947453296765 -0.020869448969939565 -0.00062952413761402143 0.0091432853417553316 -0.029850856601215458 -0.018501725699572064 -0.011943182877136147 -0.012271751311628035 -0.013663915915975339 -0.026349892330452814 -0.029347188770054072
leaf_weight=19.572595179080963 10.831041038036345 12.387635052204132 17.385621964931488 20.837983191013336 20.009162306785583 11.451876997947691 11.497929096221926 18.812107920646667 15.609334796667097 20.674518406391147 13.123400151729582 19.352972656488419 16.473513245582584 10.805431276559828 13.181247085332869 13.751940339803694 12.076347947120667 12.787838667631148 14.913071960210798 12.580263435840605 14.8362897336483 10.833563208580015 10.876276910305021 12.354173481464388 10.455815583467482 13.757570177316664 21.007349491119385 12.265521466732023 14.765265107154846 27.094539910554886
leaf_count=53 30 35 47 59 55 32 32 52 43 56 36 53 46 30 37 38 34 36 42 36 42 30 30 35 30 39 59 35 42 78
internal_value=-0.000367934 0.00449349 0.00279307 0.00541213 0.000528741 -0.0128615 -0.00855054 0.0141645 0.00975139 0.0162512 0.00392796 0.00137885 -0.00179368 -0.00467016 -0.0100055 0.00498532 -0.0121262 -0.0156439 -0.00381034 0.00220023 -0.0109449 -0.0107588 0.0247395 -0.0153467 -0.0182804 -0.0212043 -0.0207144 -0.0239631 -0.0205476 -0.0268856
internal_weight=466.362 292.835 273.262 234.658 151.3 38.6048 173.527 83.3579 65.9722 47.1601 130.462 110.453 91.0996 77.9762 162.696 30.2255 138.618 96.7923 41.8257 24.0782 26.9126 47.7507 31.5508 36.9453 83.6111 26.1117 70.8232 49.8159 27.1529 37.5504
internal_count=1302 811 758 649 421 109 491 228 181 129 362 307 254 218 461 84 393 275 118 68 76 134 86 104 238 74 202 143 77 108
is_linear=0
shrinkage=0.03


Tree=20
num_leaves=31
num_cat=0
split_feature=92 64 90 66 55 37 74 52 38 27 27 35 52 62 92 26 63 22 48 67 46 27 41 88 96 79 78 34 37 36
split_gain=27.2144 11.0213 10.9021 10.4572 6.82706 7.15499 8.43035 8.86226 10.6913 11.5026 6.81697 6.31301 6.20964 6.17099 5.90146 5.71222 4.97606 4.74394 4.64523 4.2673 4.04011 10.8242 3.90092 3.15199 2.84462 2.77377 1.86799 1.67849 1.54919 0.00839166
threshold=70.155723571777358 35.737585067749031 0.0092630577273666876 -0.19205620139837262 -12.167432785034178 30.210000038146976 6.7305738925933847 0.30029729008674627 26.605000495910648 0.078369457274675383 0.058636751025915153 16.880000114440922 1.4708693623542788 0.043837087228894241 40.329263687133796 -1.0000000180025095e-35 0.044752366840839393 0.0005296939634718002 -64.233688354492173 -0.2310409992933273 119.7097511291504 0.0012992884730920198 -0.00041485886322334403 0.024527333676815036 -0.10334669426083563 -0.22421013563871381 0.1951958239078522 -1.139225125312805 24.244999885559086 16.935000419616703
decision_type=2 2 2 10 2 2 2 10 2 2 2 2 10 2 2 2 2 2 2 8 2 2 2 2 2 2 2 2 2 2
left_child=1 3 -3 17 18 6 7 8 9 15 24 -11 14 23 -9 -6 -17 22 -4 -8 21 -20 -1 -2 -5 -22 -16 -27 29 -21
right_child=13 2 4 10 5 -7 19 12 -10 11 -12 -13 -14 -15 26 16 -18 -19 20 28 25 -23 -24 -25 -26 27 -28 -29 -30 -31
leaf_value=0.041878620350883196 0.016644749618018654 0.01802187226417273 0.0031860194183732033 -0.02481905485407989 -0.023684212005963871 0.018179216102714901 0.0026248390032334733 0.0058075475889734903 0.033347064620981789 0.030729783167185335 0.015705379013613852 0.00057143745738898709 0.0057937600150130292 0.0026629942119621363 -0.024549618707638915 0.010892008995072927 -0.014152109325619543 0.0048568276906820577 -0.020270952696886894 -0.017345467360030689 -0.0054985466514102287 0.018741122994943498 0.0140015971918067 0.038102487617445051 -0.0017367393128916318 -0.011771911621212262 -0.0076981743407244629 -0.026620314859437316 -0.0091006367038340575 -0.026240812709924649
leaf_weight=10.280269086360935 13.06631049513817 17.26886186003685 14.088160187005995 9.4665344059467351 12.993037730455393 12.792656093835829 9.6170129179954511 9.4210758507251722 10.346067070960997 13.315888822078707 9.6631741523742658 11.151536405086516 18.1499944627285 10.15619572997093 25.200994729995728 15.322104305028921 11.693019181489943 11.295738846063612 15.156826466321947 10.447058141231539 10.79942214488983 9.6433207988738996 10.044082313776016 17.72161790728569 9.182447761297226 11.693183511495588 9.2034690082073194 32.531523078680038 11.443234860897062 15.804587662219999
leaf_count=31 39 53 45 32 43 39 31 30 31 40 30 35 58 31 83 47 38 35 51 35 35 30 31 52 30 38 30 110 37 52
internal_value=0.00039954 -0.0022042 -0.00449767 0.00946577 -0.00589208 -0.00269071 -0.00423121 -0.000423388 0.00648838 0.00173502 -0.00375218 0.0175467 -0.00873833 0.0232972 -0.0147517 -0.00812684 -6.61246e-05 0.0210531 -0.0125052 -0.0150045 -0.0152797 -0.00496301 0.0294047 0.029806 -0.0141205 -0.019758 -0.0203865 -0.0230414 -0.0194538 -0.0234672
internal_weight=408.959 368.015 308.083 59.9322 290.814 196.902 184.109 136.797 74.8217 64.4756 28.3122 24.4674 61.9755 40.9441 43.8255 40.0082 27.0151 31.6201 93.9124 47.3119 79.8243 24.8001 20.3244 30.7879 18.649 55.0241 34.4045 44.2247 37.6949 26.2516
internal_count=1302 1180 991 189 938 629 590 435 234 203 92 75 201 122 143 128 85 97 309 155 264 81 62 91 62 183 113 148 124 87
is_linear=0
shrinkage=0.03


Tree=21
num_leaves=31
num_cat=0
split_feature=74 47 64 92 59 43 76 67 91 26 37 37 44 32 30 64 52 39 44 89 88 67 90 36 30 29 28 55 70 47
split_gain=22.1909 14.8904 13.7628 13.1106 11.2687 11.7051 14.9541 10.0684 7.9006 7.14051 6.56701 11.0138 8.48163 6.82139 7.50506 6.28029 6.02432 4.74275 6.03338 7.21184 4.96415 3.75628 3.73315 3.23502 4.0881 1.97011 1.35044 0.97487 0.522373 0.164322
threshold=6.6514341831207284 115.75539779663087 35.898519515991218 72.245456695556655 0.050371775403618819 -1.1344445347785947 0.23739574849605563 -0.1501614302396774 0.028893520124256614 -0.0011984292650595305 23.409999847412113 15.775000095367433 123.64739990234376 0.14588916301727298 15.364999771118166 52.199569702148445 -0.30029729008674616 120.14720153808595 121.60560226440431 -0.01122373156249523 0.0064144120551645764 0.015318687073886396 0.021167847327888015 17.105000495910648 15.654999732971193 3.5000000000000004 5.5000000000000009 11.409516334533693 4.2557599544525155 119.96800231933595
decision_type=2 2 2 2 2 2 2 8 2 2 2 2 2 2 2 2 8 2 2 2 2 10 2 2 2 2 2 2 10 2
left_child=2 16 23 4 10 22 -7 -3 25 -9 11 12 15 14 -13 27 -2 -16 20 -20 -19 -11 -6 24 -1 -8 -12 29 -5 -4
right_child=1 7 3 28 5 6 8 9 -10 21 26 13 -14 -15 17 -17 -18 18 19 -21 -22 -23 -24 -25 -26 -27 -28 -29 -30 -31
leaf_value=-0.020432201381425669 0.010727972676486123 0.0027460004310578914 -0.015561800684184323 -0.012359611744460342 0.004632225693573298 -0.013558176998670896 0.022201746080129914 0.0067493217063411435 0.0062126768911934006 0.047561317889588596 -0.0081631327704365965 0.024376946040782454 0.015018774632356064 0.025050918912059007 -0.013963260652062603 0.0026960920240577456 -0.019609686590290099 0.027091814179537821 -0.025422136349184332 0.0059328525430791187 -0.0011514660252304105 0.023593873071208298 -0.019541279779877085 -0.025157169906876137 0.0051470992137559275 0.043017466213779262 -0.022044799105791404 -0.010815074501443592 -0.024153195588917188 -0.025455285735016559
leaf_weight=11.279234707355501 9.5239016413688642 17.593321979045868 8.8645246028900164 8.7960728108882922 11.570941090583803 9.3458057343959791 10.520127415657045 9.7426777184009534 11.77737310528755 15.665207713842394 13.839694291353227 11.26003524661064 9.7528091073036176 13.871995598077772 17.814586281776428 14.302867621183394 12.622571349143984 12.1505264043808 9.4869013130664808 17.062957853078846 9.619248688220976 15.085796624422072 9.8611374497413617 26.284905076026917 9.7717757523059827 16.786253988742828 14.376384079456328 10.659828692674635 17.225315064191818 20.803832441568375
leaf_count=38 30 54 30 30 37 31 32 30 37 45 45 35 30 43 58 46 41 37 31 54 30 45 33 90 32 49 48 34 59 68
internal_value=1.38472e-05 0.0140518 -0.00346197 -0.000904583 0.00120644 0.0113741 0.0194215 0.0219288 0.0274492 0.0299962 -0.00269749 -0.000246197 -0.0096642 0.00643047 0.002816 -0.0142614 -0.0066634 -0.0011634 0.00374312 -0.00578713 0.0151097 0.0369168 -0.00686557 -0.0182444 -0.00886347 0.0360656 -0.0157484 -0.0201953 -0.0207715 -0.023103
internal_weight=407.319 80.2335 327.085 279.749 253.728 69.8616 48.4296 58.087 39.0838 40.4937 183.866 155.65 64.3839 91.2663 77.3943 54.6311 22.1465 66.1342 48.3196 26.5499 21.7698 30.751 21.4321 47.3359 21.051 27.3064 28.2161 40.3282 26.0214 29.6684
internal_count=1302 245 1057 897 808 219 149 174 118 120 589 496 208 288 245 178 71 210 152 85 67 90 70 160 70 81 93 132 89 98
is_linear=0
shrinkage=0.03


Tree=22
num_leaves=29
num_cat=0
split_feature=68 46 52 29 73 38 26 62 46 40 58 41 91 32 43 26 46 91 46 62 30 84 46 35 46 67 58 42
split_gain=19.665 11.7442 12.0191 10.5876 11.4076 6.13643 6.11575 10.3533 6.24359 5.76293 4.82709 4.60149 4.65015 5.49849 7.62403 7.09447 4.48112 4.2098 3.84686 4.5056 4.18027 5.14979 3.82545 3.6069 2.88011 2.02625 1.11572 0.998671
threshold=6.5547857284545907 119.13840103149415 -1.3642355203628538 2.5000000000000004 4.2245302200317392 21.755000114440922 0.00014490917965304109 0.028280774131417278 120.44530105590822 -0.0040824420284479848 -0.057956378906965249 -0.0066294532734900704 0.040336161851882942 0.026675174012780193 1.6871904730796816 0.00019587641872931275 121.35214996337892 0.015236350707709791 120.33320236206056 0.024086666293442253 20.240000724792484 1.8251679539680483 122.72415161132814 15.22499990463257 122.12389755249025 -0.021879031322896477 -0.026141948066651818 0.44412218034267431
decision_type=2 2 8 2 2 2 2 2 2 2 2 2 2 2 2 2 2 2 2 2 2 2 2 2 2 10 2 2
left_child=1 -1 5 6 -5 26 8 -8 -4 -2 25 -11 13 16 15 -15 27 -12 -19 -20 21 23 -18 -21 -10 -6 -3 -13
right_child=9 2 3 4 10 -7 7 -9 24 11 17 12 -14 14 -16 -17 22 18 19 20 -22 -23 -24 -25 -26 -27 -28 -29
leaf_value=0.026211245947943135 0.012027244242738577 -0.011999508139626412 0.0037987657181726112 -0.019628035090578581 0.024855317119289094 0.0054495240158897633 -0.017665907374245584 0.019933806185917689 0.032808683228616915 -0.024517860777855869 -0.012786366951808069 -0.027229799963086235 0.0054223720598986823 -0.0088378625976289951 -0.019188633974857674 0.01585050603181443 0.0054206968986506366 0.01827929624195283 -0.015822603400796782 0.014981783180071954 0.014784194459726521 -0.017998116766161556 -0.015295800380909613 -0.0036752137232778912 0.015554711504802544 0.0065003453026413012 -0.025935259901765661 -0.015077871382501799
leaf_weight=19.632284104824066 10.856379240751265 12.350504457950592 17.827232182025909 20.715688049793243 11.036470949649813 11.458193600177763 12.263938635587694 12.104067623615263 21.758028894662857 16.305439889431 15.608614444732664 21.707199215888977 19.543430477380753 19.192372560501099 17.317950904369354 20.885755777359009 12.643295258283617 12.72568619251251 11.125918149948118 15.578243523836134 21.068153291940689 11.092321902513502 19.165843933820724 20.622332572937012 19.526743412017822 11.589723467826841 14.63837805390358 15.320999741554258
leaf_count=53 30 35 49 59 30 32 34 33 59 47 44 63 55 54 49 58 36 35 31 43 58 31 55 58 53 32 42 44
internal_value=-0.000355748 0.00437908 0.00271967 0.00527632 0.000518955 -0.0126218 0.0137827 0.00106017 0.0189225 -0.00834919 0.00384338 -0.0097794 -0.00797506 -0.0100756 -0.00313469 0.00410055 -0.0157351 0.00114127 0.00361065 0.0010643 0.00400118 -0.00100914 -0.00714729 0.00454039 0.0252088 0.0161265 -0.0202146 -0.0227305
internal_weight=465.661 292.723 273.09 234.643 151.163 38.4471 83.48 24.368 59.112 172.939 130.447 162.082 145.777 126.233 57.3961 40.0781 68.8373 107.821 92.2127 79.487 68.3611 47.2929 31.8091 36.2006 41.2848 22.6262 26.9889 37.0282
internal_count=1302 811 758 649 421 109 228 67 161 491 362 461 414 359 161 112 198 300 256 221 190 132 91 101 112 62 77 107
is_linear=0
shrinkage=0.03


Tree=23
num_leaves=31
num_cat=0
split_feature=75 90 93 32 59 76 71 79 91 63 52 33 97 38 76 41 90 24 38 28 97 79 79 78 97 5 33 55 91 66
split_gain=11.449 11.1309 10.2532 9.04645 9.28757 8.79366 13.6343 20.8217 10.6486 9.06613 8.45384 12.0154 7.19052 13.3011 7.94473 7.35425 6.74651 6.18777 5.31785 4.74675 6.74832 4.12525 3.10999 2.84774 2.2892 1.21173 0.581313 0.3245 0.106906 0.0731625
threshold=0.1072966866195202 0.0092630577273666876 4397.0131835937509 -0.22335263341665265 -0.18580319732427594 0.23667414486408236 4.1081461906433114 -0.21853215247392652 0.021709104068577293 0.026127873919904235 -1.034522473812103 0.18001446872949603 -0.11667905002832411 15.464999675750734 1.2629285454750063 -0.0068219699896872035 0.025248822756111625 0.00067808901076205086 16.564999580383304 5.5000000000000009 -0.039413699880242341 -0.14862889051437375 -0.23657854646444318 0.096803694963455214 -0.1276455149054527 0.00061381098930723976 1.222226679325104 -4.3829694986343375 0.037389812991023071 -0.11289419978857039
decision_type=2 2 2 2 2 2 2 2 2 2 8 2 2 2 2 2 2 2 2 2 2 2 2 2 2 10 2 2 2 10
left_child=29 18 3 -3 -5 6 7 -6 23 -7 11 21 13 -12 22 16 -14 -13 -2 20 -17 24 -15 -8 -11 26 28 -9 -21 -1
right_child=1 2 -4 4 5 9 8 27 -10 10 12 17 15 14 -16 19 -18 -19 -20 25 -22 -23 -24 -25 -26 -27 -28 -29 -30 -31
leaf_value=-0.015211903207139339 0.0058227592089736555 0.022862480284242707 0.02762686483656393 0.021150936981587393 -0.014016336950780117 0.020609941497803031 -0.024127664765768331 0.027599778442632512 0.017215363718087507 -0.0032792267939336316 0.025060284422543183 0.027695047816295875 -0.011607114383356371 -0.0051554697630105499 0.0093556298230487046 -0.022661395465071461 0.018748325437690415 -0.0014803814465769556 0.036322475542207987 -0.025735084633913864 0.0065902012281630305 0.0044232198991421348 -0.024650887820142468 -0.0029695396134743163 -0.022361840418265579 -0.011165543158884982 -0.014540765397398103 0.044943021411422236 -0.016622077847321278 -0.025008365994327819
leaf_weight=8.744150787591936 10.054831594228746 13.199962615966795 10.962430119514464 14.477795183658598 9.4855929911136645 10.865005195140837 14.986474782228472 9.9291187226772326 11.78155133128166 9.50262603163719 12.823683947324751 17.872776031494144 14.90995240211487 13.096496015787123 14.635950624942778 11.397536963224413 10.251137137413023 9.8648093342781049 10.607422739267347 40.689041912555695 15.8308889567852 14.910273790359495 17.980642646551136 9.407440632581709 14.576438248157503 12.919453829526899 12.354201287031172 10.507862389087675 9.2035698890686017 10.606081664562224
leaf_count=30 31 40 33 45 31 33 50 30 36 30 40 55 48 42 46 39 32 31 31 135 50 46 60 30 48 42 41 31 30 36
internal_value=0.000391661 0.00153514 0.000305493 -0.00060712 -0.00157063 -0.00262905 0.00708347 0.0217275 -0.00528796 -0.00508126 -0.0062622 0.00286761 -0.0095337 -0.000803774 -0.00844045 -0.0135025 0.00100421 0.0176284 0.0224344 -0.0170425 -0.00602324 -0.00781167 -0.016852 -0.0164064 -0.0152621 -0.0209026 -0.0227151 0.0381975 -0.0244137 -0.0215465
internal_weight=408.435 389.085 368.423 357.46 344.26 329.783 66.098 29.9226 36.1755 263.684 252.819 66.7269 186.093 58.5368 45.7131 127.556 25.1611 27.7376 20.6623 102.395 27.2284 38.9893 31.0771 24.3939 24.0791 75.1663 62.2468 20.437 49.8926 19.3502
internal_count=1302 1236 1174 1141 1101 1056 208 92 116 848 815 210 605 188 148 417 80 86 62 337 89 124 102 80 78 248 206 61 165 66
is_linear=0
shrinkage=0.03


Tree=24
num_leaves=31
num_cat=0
split_feature=63 64 91 70 22 65 84 64 70 65 37 30 44 70 29 53 37 17 89 61 90 57 53 92 44 32 87 83 70 65
split_gain=21.1707 22.3995 11.9524 12.8609 10.6789 8.80626 7.08621 6.14138 6.0485 8.01708 9.80282 7.79268 11.8731 5.58153 4.87814 4.79751 4.00451 5.93389 3.84709 3.52144 5.56973 5.59648 3.56145 3.49397 2.92457 2.19574 1.78369 0.877121 0.567311 0.169347
threshold=0.044985435903072364 39.229028701782234 0.028595061041414741 8.9090399742126483 0.00085660390323027979 0.072797823697328581 1.8251679539680483 42.215387344360359 5.1531500816345224 -0.1653916388750076 14.275000095367433 18.500000000000004 121.3009490966797 11.417899608612062 2.5000000000000004 9.2868566513061541 19.085000038146976 0.88194444775581371 0.036646487191319473 0.032703120261430747 0.025034305639564994 0.006599205546081067 -42.23014831542968 42.791883468627937 125.98554992675783 0.047409361228346832 0.0034408324863761668 2132225.1250000005 5.4740200042724618 -0.25253933668136591
decision_type=2 2 2 8 2 2 2 2 10 2 2 2 2 10 2 2 2 10 2 2 2 2 2 2 2 2 2 2 8 2
left_child=4 13 7 14 8 6 16 -3 19 15 26 -12 -13 23 -4 29 17 -6 -7 22 21 -21 -1 28 -16 -9 -11 -24 -2 -10
right_child=1 2 3 -5 5 18 -8 25 9 10 11 12 -14 -15 24 -17 -18 -19 -20 20 -22 -23 27 -25 -26 -27 -28 -29 -30 -31
leaf_value=-0.0042969691049257585 -0.013049105989666116 0.0084254325338188815 0.011426110350139278 0.026279754092486465 0.017287245811597574 0.032677275836257041 0.016036846118038382 0.040765742074389724 -0.015375844264690313 -0.022739528894398786 0.026664811993259013 -0.015713003254813326 0.022892092917263254 0.0069734934780119251 -0.021733724442945399 -0.0017853098247155379 -0.019313182602994829 -0.011744368576963584 0.0068102100432659947 -0.011872251329400559 -0.022391702341489152 0.018820827449980131 -0.012572010754893788 0.00052415667661011517 0.00016839428187289724 0.02134885900957488 -0.0046727840553604785 -0.02568850231559807 -0.025758850503314706 -0.025723833589267379
leaf_weight=11.829484552145002 9.1837808787822777 11.376910001039503 10.831925123929976 18.820079118013382 9.3840316832065582 10.382001698017122 13.630250960588453 22.073787212371826 8.7584537267684954 9.7864285409450549 16.004402041435242 15.823116838932039 11.496667861938475 14.882740825414656 11.908302277326586 16.937433362007141 16.241480350494385 15.256974935531616 10.711764514446257 9.8400913476944023 10.990123599767683 9.5975180864334089 8.8695847392082197 9.3240422904491407 9.5172153115272504 12.078585982322691 10.241898745298384 33.428667396306992 12.638226062059401 14.77865147590637
leaf_count=40 31 34 34 55 30 31 43 63 30 32 49 52 35 47 38 55 54 50 34 32 38 30 30 30 31 35 33 114 42 50
internal_value=8.14939e-06 0.00928304 0.0174312 0.00724469 -0.00501927 0.00446321 -0.00197759 0.0284576 -0.0088285 -0.00391705 0.00275581 0.0107199 0.000767421 -0.00782552 -0.00431728 -0.0141763 -0.00822311 -0.000445248 0.0204443 -0.0147431 -0.00629131 0.00346214 -0.0192939 -0.014894 -0.0124311 0.0347013 -0.0141623 -0.023292 -0.0212161 -0.0226568
internal_weight=406.625 142.636 96.6068 51.0775 263.989 75.6065 54.5127 45.5293 188.383 103.827 63.3525 43.3242 27.3198 46.0288 32.2574 40.4745 40.8825 24.641 21.0938 84.5555 30.4277 19.4376 54.1277 31.146 21.4255 34.1524 20.0283 42.2983 21.822 23.5371
internal_count=1302 440 290 158 862 242 177 132 620 336 201 136 87 150 103 135 134 80 65 284 100 62 184 103 69 98 65 144 73 80
is_linear=0
shrinkage=0.03


Tree=25
num_leaves=31
num_cat=0
split_feature=68 46 92 90 29 51 73 82 27 48 60 40 67 60 70 84 97 24 84 97 85 27 66 24 57 87 27 32 78 35
split_gain=18.6638 11.0855 8.77427 8.87391 8.4355 9.27212 9.21314 6.82035 6.26752 6.9558 6.77729 5.54061 5.11169 5.88127 8.65564 4.81049 5.23587 4.5321 4.543 4.36004 4.25896 4.10405 3.89939 3.67989 8.09085 4.48661 2.10988 2.13278 1.72507 1.64733
threshold=6.5547857284545907 119.13840103149415 70.155723571777358 0.0088781868107616919 2.5000000000000004 -1.0000000180025095e-35 4.2245302200317392 0.087411053478717818 0.13975901156663897 8.4234158992767352 -0.11588681861758231 -0.0040824420284479848 0.008610828313976528 -0.11264287680387496 5.0516099929809579 1.8251679539680483 -0.02800677344202995 -4.2004248825833195e-05 1.9458655118942263 -0.11667905002832411 -0.0012277106870897112 0.078369457274675383 0.36129777133464819 0.00097168423235416423 0.014555836096405985 -0.029647962190210816 0.0021215530578047041 0.017354096285998825 -0.22971750795841214 16.444999694824222
decision_type=2 2 2 2 2 8 2 2 2 2 2 2 10 2 10 2 2 2 2 2 2 2 8 2 2 2 2 2 2 2
left_child=1 -1 3 -3 5 -5 -6 -4 10 20 -8 -2 13 28 -15 16 19 21 22 -12 -10 -13 23 25 -25 -19 27 -27 -7 -21
right_child=11 2 7 4 6 12 8 -9 9 -11 15 17 -14 14 -16 -17 -18 18 -20 29 -22 -23 -24 24 -26 26 -28 -29 -30 -31
leaf_value=0.025445542513807918 0.011808925270479881 -0.015797528003147255 -0.022763032494554934 -0.011697827367583792 -0.018521041905286341 0.030296858403820539 -0.0054610780427068063 0.0060131025006418997 -0.00079363701258598047 0.012722592963891766 0.0086513804133573433 0.014672387856052625 0.028426323728492294 0.019329891812437831 -0.014852607830873268 -0.00073576121584955051 0.0030877979621281352 0.0034900847347005318 0.0058846349325563556 0.020462415129733007 -0.024257042282720739 -0.0092020560159791313 -0.024054251241064532 -0.013044402048860605 0.018240631959781838 -0.016975132122161913 -0.02227502296972167 6.5660285181924453e-05 0.012433539231943314 0.040451763741436823
leaf_weight=19.686116129159927 10.874698549509047 16.932133257389069 19.160755276679996 10.599354177713392 16.828217715024948 11.138908773660662 21.251872301101685 11.173158019781111 12.855461031198502 12.375029951333998 11.614157795906062 11.518113374710085 24.705398559570312 11.451467186212545 13.355745762586592 15.492881178855894 14.721347928047178 10.653236359357832 11.618036299943922 10.990261435508733 14.37070831656456 12.476499646902083 24.109918624162674 19.359480917453769 10.730884015560148 16.110509574413303 34.115235656499863 10.758762508630751 12.126306086778635 11.747494786977766
leaf_count=53 30 48 55 30 48 30 59 31 36 34 32 32 67 31 37 43 41 30 33 30 41 36 70 55 30 47 98 30 33 32
internal_value=-0.000344881 0.00426458 0.00264928 0.00456294 0.00615387 0.0136703 0.00168347 -0.01231 0.00451948 -0.00526288 0.00904223 -0.00815035 0.0174734 0.01138 0.00106425 0.0138265 0.0183468 -0.00955915 -0.0116466 0.0246136 -0.0135989 0.00238688 -0.0132989 -0.0105405 -0.00165963 -0.0141965 -0.0172926 -0.0103943 0.0218822 0.032059
internal_weight=464.902 292.577 272.891 242.557 225.625 83.3772 142.247 30.3339 125.419 39.6012 85.818 172.325 72.7778 48.0724 24.8072 64.5661 49.0733 161.451 137.456 34.3519 27.2262 23.9946 125.838 101.728 30.0904 71.6377 60.9845 26.8693 23.2652 22.7378
internal_count=1302 811 758 672 624 228 396 86 348 111 237 491 198 131 68 178 135 461 393 94 77 68 360 290 85 205 175 77 63 62
is_linear=0
shrinkage=0.03


Tree=26
num_leaves=31
num_cat=0
split_feature=92 64 90 66 27 55 88 55 92 62 62 48 30 40 59 79 42 48 46 27 63 30 88 48 96 79 70 34 46 34
split_gain=24.644 10.1805 10.0735 9.49749 6.42019 6.40757 6.90316 7.49159 7.35454 10.4225 5.76194 5.3965 9.36794 5.79084 6.15554 5.34003 4.52569 4.39516 3.8596 10.1215 3.83004 3.30743 2.85892 2.79894 2.78086 2.71376 2.49511 1.63476 1.59564 1.07154
threshold=70.155723571777358 35.737585067749031 0.0092630577273666876 -0.19205620139837262 0.058636751025915153 -12.167432785034178 0.042298143729567535 -2.7309087514877315 57.980377197265632 0.055848769843578346 0.043837087228894241 39.809385299682624 21.134999275207523 0.00042726025276351726 0.016200504265725616 -0.18128556758165357 0.37284523248672491 -64.233688354492173 119.7097511291504 0.0012992884730920198 0.037050101906061179 15.295000076293947 0.024527333676815036 7.5522706508636483 -0.10334669426083563 -0.22421013563871381 7.3671898841857919 -1.139225125312805 121.05440139770509 -0.65435689687728871
decision_type=2 2 2 10 2 2 2 2 2 2 2 2 2 2 2 2 2 2 2 2 2 2 2 2 2 2 10 2 2 2
left_child=1 3 -3 16 24 17 7 -7 9 11 22 12 13 14 21 -14 -1 -4 19 -19 -8 -9 -2 -10 -5 -20 -11 -27 -15 -22
right_child=10 2 5 4 -6 6 20 8 23 26 -12 -13 15 28 -16 -17 -18 18 25 -21 29 -23 -24 -25 -26 27 -28 -29 -30 -31
leaf_value=0.029544041572869714 0.015763391195906654 0.017196856437412592 0.0030822122481719066 -0.024516876340628168 0.015134611631377514 0.017748754869170616 0.0011314942508865546 0.023210084865146998 -0.0041685818507144904 -0.025395840432197541 0.0021737489750142925 -0.013361077631587386 0.0092838876239228919 -0.0024286712212355172 -0.010716104832135443 0.037349447888285453 0.006486033085926146 -0.019869957131821596 -0.0052066096919278493 0.017866233867079813 -0.011109689026158338 0.0023590629217151932 0.036030472419175223 -0.024119774187349882 -0.0015865193757703144 -0.011485206810959582 -0.0052841195964222929 -0.026218233505054048 -0.01965339355057184 -0.026024770984701087
leaf_weight=18.057212948799133 13.215085864067079 17.438384264707565 14.108239769935606 9.279275923967365 9.7366828918457013 17.944422781467438 9.7369210422039014 16.786071747541431 11.06858614087105 12.403657406568529 10.241338342428206 11.230183839797972 13.785320430994036 9.3036326766014117 10.794874727725981 11.401573061943052 13.988084912300108 14.858707189559938 10.709066629409788 9.7654795050621015 9.3037039041519165 11.535123735666273 18.075667023658752 15.494653433561323 9.1403304040431976 11.579633623361582 10.594110071659086 31.692807614803318 9.8706423640251142 14.748385339975357
leaf_count=54 39 53 45 32 30 55 30 53 35 42 31 37 43 30 35 34 43 51 35 30 30 37 52 52 30 38 34 110 33 49
internal_value=0.000384846 -0.00211909 -0.00434014 0.00906238 -0.00362214 -0.00569584 -0.0025958 4.86324e-06 -0.00230915 0.000949495 0.0220027 0.00537442 0.00802323 0.00130414 0.00787695 0.0229297 0.0199799 -0.0121519 -0.0148905 -0.0047913 -0.0147222 0.0150876 0.0282243 -0.0162592 -0.0138058 -0.0193264 -0.0167375 -0.0226242 -0.0118304 -0.0209292
internal_weight=407.888 366.356 306.154 60.2016 28.1563 288.716 196.002 162.213 144.268 117.705 41.5321 94.7074 83.4772 58.2903 39.1161 25.1869 32.0453 92.7139 78.6057 24.6242 33.789 28.3212 31.2908 26.5632 18.4196 53.9815 22.9978 43.2724 19.1743 24.0521
internal_count=1302 1180 991 189 92 938 629 520 465 378 122 302 265 188 125 77 97 309 264 81 109 90 91 87 62 183 76 148 63 79
is_linear=0
shrinkage=0.03


end of trees

feature_importances:
Column_52=37
Column_27=32
Column_90=25
Column_91=25
Column_26=23
Column_32=23
Column_64=22
Column_70=21
Column_63=18
Column_37=17
Column_38=17
Column_97=17
Column_46=16
Column_55=16
Column_79=16
Column_88=16
Column_92=16
Column_34=15
Column_41=15
Column_67=14
Column_74=14
Column_89=14
Column_61=13
Column_62=13
Column_75=13
Column_76=13
Column_36=12
Column_42=12
Column_48=12
Column_65=12
Column_47=11
Column_66=11
Column_68=11
Column_30=10
Column_40=10
Column_43=10
Column_44=10
Column_71=10
Column_24=9
Column_29=9
Column_58=9
Column_59=9
Column_60=9
Column_93=9
Column_73=8
Column_84=8
Column_22=7
Column_28=7
Column_85=7
Column_33=6
Column_53=6
Column_56=6
Column_25=5
Column_39=5
Column_57=5
Column_69=5
Column_78=5
Column_82=5
Column_35=4
Column_45=4
Column_77=4
Column_87=4
Column_96=4
Column_10=3
Column_17=3
Column_54=3
Column_81=3
Column_83=3
Column_5=2
Column_15=2
Column_19=2
Column_50=2
Column_31=1
Column_51=1

parameters:
[boosting: gbdt]
[objective: multiclass]
[metric: multi_logloss]
[tree_learner: serial]
[device_type: cpu]
[data_sample_strategy: bagging]
[data: ]
[valid: ]
[num_iterations: 600]
[learning_rate: 0.03]
[num_leaves: 31]
[num_threads: 0]
[seed: 0]
[deterministic: 0]
[force_col_wise: 0]
[force_row_wise: 0]
[histogram_pool_size: -1]
[max_depth: -1]
[min_data_in_leaf: 30]
[min_sum_hessian_in_leaf: 0.001]
[bagging_fraction: 0.9]
[pos_bagging_fraction: 1]
[neg_bagging_fraction: 1]
[bagging_freq: 5]
[bagging_seed: 3]
[bagging_by_query: 0]
[feature_fraction: 0.9]
[feature_fraction_bynode: 1]
[feature_fraction_seed: 2]
[extra_trees: 0]
[extra_seed: 6]
[early_stopping_round: 0]
[early_stopping_min_delta: 0]
[first_metric_only: 0]
[max_delta_step: 0]
[lambda_l1: 0]
[lambda_l2: 1]
[linear_lambda: 0]
[min_gain_to_split: 0]
[drop_rate: 0.1]
[max_drop: 50]
[skip_drop: 0.5]
[xgboost_dart_mode: 0]
[uniform_drop: 0]
[drop_seed: 4]
[top_rate: 0.2]
[other_rate: 0.1]
[min_data_per_group: 100]
[max_cat_threshold: 32]
[cat_l2: 10]
[cat_smooth: 10]
[max_cat_to_onehot: 4]
[top_k: 20]
[monotone_constraints: ]
[monotone_constraints_method: basic]
[monotone_penalty: 0]
[feature_contri: ]
[forcedsplits_filename: ]
[refit_decay_rate: 0.9]
[cegb_tradeoff: 1]
[cegb_penalty_split: 0]
[cegb_penalty_feature_lazy: ]
[cegb_penalty_feature_coupled: ]
[path_smooth: 0]
[interaction_constraints: ]
[verbosity: -1]
[saved_feature_importance_type: 0]
[use_quantized_grad: 0]
[num_grad_quant_bins: 4]
[quant_train_renew_leaf: 0]
[stochastic_rounding: 1]
[linear_tree: 0]
[max_bin: 255]
[max_bin_by_feature: ]
[min_data_in_bin: 3]
[bin_construct_sample_cnt: 200000]
[data_random_seed: 1]
[is_enable_sparse: 1]
[enable_bundle: 1]
[use_missing: 1]
[zero_as_missing: 0]
[feature_pre_filter: 1]
[pre_partition: 0]
[two_round: 0]
[header: 0]
[label_column: ]
[weight_column: ]
[group_column: ]
[ignore_column: ]
[categorical_feature: ]
[forcedbins_filename: ]
[precise_float_parser: 0]
[parser_config_file: ]
[objective_seed: 5]
[num_class: 3]
[is_unbalance: 0]
[scale_pos_weight: 1]
[sigmoid: 1]
[boost_from_average: 1]
[reg_sqrt: 0]
[alpha: 0.9]
[fair_c: 1]
[poisson_max_delta_step: 0.7]
[tweedie_variance_power: 1.5]
[lambdarank_truncation_level: 30]
[lambdarank_norm: 1]
[label_gain: ]
[lambdarank_position_bias_regularization: 0]
[eval_at: ]
[multi_error_top_k: 1]
[auc_mu_weights: ]
[num_machines: 1]
[local_listen_port: 12400]
[time_out: 120]
[machine_list_filename: ]
[machines: ]
[gpu_platform_id: -1]
[gpu_device_id: -1]
[gpu_use_dp: 0]
[num_gpu: 1]

end of parameters

pandas_categorical:null
