tree
version=v4
num_class=3
num_tree_per_iteration=3
label_index=0
max_feature_idx=70
objective=multiclass num_class:3
feature_names=Column_0 Column_1 Column_2 Column_3 Column_4 Column_5 Column_6 Column_7 Column_8 Column_9 Column_10 Column_11 Column_12 Column_13 Column_14 Column_15 Column_16 Column_17 Column_18 Column_19 Column_20 Column_21 Column_22 Column_23 Column_24 Column_25 Column_26 Column_27 Column_28 Column_29 Column_30 Column_31 Column_32 Column_33 Column_34 Column_35 Column_36 Column_37 Column_38 Column_39 Column_40 Column_41 Column_42 Column_43 Column_44 Column_45 Column_46 Column_47 Column_48 Column_49 Column_50 Column_51 Column_52 Column_53 Column_54 Column_55 Column_56 Column_57 Column_58 Column_59 Column_60 Column_61 Column_62 Column_63 Column_64 Column_65 Column_66 Column_67 Column_68 Column_69 Column_70
feature_infos=none none none none none [-0.61752235889434814:0.5790870189666748] [0:1] [0:1] [0:1] [1:10] [-0.94015973806381226:0.66346222162246704] [0:1] [0:1] [0:1] [1:10] [-0.92514830827713013:0.58138704299926758] [0:1] [0:1] [0:1] [0:16] [0:1] [0:11] [-0.92514830827713013:0.58138704299926758] [-0.92514830827713013:0.58138704299926758] [-0.92514830827713013:0.58138704299926758] [-0.30572786927223206:0.42111945152282715] [-0.08645687997341156:0.32596859335899353] [0:0.420991450548172] [0:52] [0:28] [-0.27705520391464233:0.28431373834609985] [-0.31396225094795227:0.48819562792778015] [-0.44369643926620483:0.62702804803848267] [-0.48734548687934875:0.83909285068511963] [0.0048763025552034378:0.15521822869777679] [0.012375025078654289:0.11851268261671066] [0.014544615522027016:0.090300880372524261] [19.142745971679688:83.179039001464844] [-2.5348243713378906:1.3564093112945557] [-2.211909294128418:1.2468479871749878] [-0.81211954355239868:0.68581271171569824] [1.761285662651062:28.534286499023438] [1.8370000123977661:27.726499557495117] [2.1709599494934082:27.62700080871582] [1.8134728670120239:28.521736145019531] [1.9316506385803223:28.788686752319336] [2.0220656394958496:31.971317291259766] [1.5716516971588135:23.725051879882812] [0.045362949371337891:0.94840788841247559] [0.11525637656450272:2.6684679985046387] [-0.76053124666213989:5.831146240234375] [-2.2019617557525635:15.109664916992188] [-0.54374015331268311:0] [-0.276877760887146:0.28412005305290222] [0.0014387399423867464:0.11655543744564056] [0.0084632514044642448:0.89788907766342163] [694952.5:60359356] [1.0150498151779175:2.0387935638427734] [-0.28793662786483765:0.096487194299697876] [0:1] [-0.15379838645458221:0.14485582709312439] [-0.2383464127779007:0.20691065490245819] [-0.33259490132331848:0.35951325297355652] [0.0031643849797546864:0.085850544273853302] [0.0087705496698617935:0.050428587943315506] [18.635524749755859:89.3983154296875] [-5907.96484375:7019.05517578125] [0:1] [0:1] [-2.3075559139251709:15.573112487792969] [-0.40345379710197449:0]
tree_sizes=3112 3365 3307

Tree=0
num_leaves=29
num_cat=0
split_feature=47 33 64 26 49 49 61 65 37 42 39 47 45 44 40 64 68 38 41 37 25 37 51 40 62 15 49 56
split_gain=36.9423 23.1133 29.526 17.7534 11.8034 10.9501 10.619 11.7927 17.5805 10.2519 11.2459 13.0163 10.947 10.8187 9.92572 9.01882 13.3851 7.55536 6.95031 6.85029 6.33922 5.93359 5.03646 4.55685 3.13069 1.07062 0.79506 0.0690059
threshold=6.6514341831207284 -0.14479572325944898 0.039686707779765136 0.16146536171436313 0.63755369186401378 0.20778619498014453 0.0064144120551645764 69.124404907226577 51.180109024047859 3.2037500143051152 -0.14576537907123563 4.9993343353271493 6.7970347404479989 6.4402742385864267 0.055706836283206947 0.027312710881233219 1.0000000180025095e-35 -0.057711021974682801 4.4256427288055429 46.52984809875489 0.2173285707831383 41.314109802246101 0.42983770370483404 -0.21348862349987027 -0.028489356860518452 0.19339182972908023 0.19778240472078326 7020375.0000000009
decision_type=2 2 2 2 2 2 2 2 2 2 10 2 2 2 10 2 10 2 2 2 2 2 2 8 2 2 2 2
left_child=3 23 22 4 9 -5 15 8 18 -1 14 19 13 17 26 16 -7 -13 -8 21 -18 -12 24 -2 -3 27 -11 -21
right_child=1 2 -4 5 -6 6 7 -9 -10 10 11 12 -14 -15 -16 -17 20 -19 -20 25 -22 -23 -24 -25 -26 -27 -28 -29
leaf_value=-1.1887030546076129 -1.2216047770315055 -1.172213307836897 -1.2087418992762229 -1.2189765132522912 -1.1836920012214078 -1.2146878371359568 -1.2094523540054054 -1.2110235746123237 -1.1473187134473661 -1.2167604722870704 -1.2175362610979827 -1.1836660384925553 -1.2218321957403386 -1.1653278885274179 -1.1994703744741531 -1.2213834627839897 -1.1955061970010552 -1.2127387698044587 -1.1762452476551148 -1.2297286850253313 -1.1654968267925871 -1.1878096523450736 -1.1823390862385903 -1.1949001877513652 -1.1461967073592623 -1.213892023449697 -1.2290208333171306 -1.2202737048355712
leaf_weight=13.872634291648863 11.665624290704725 10.719762861728666 15.133782863616942 16.394931435585022 12.296198576688765 17.340792864561081 10.089188575744631 9.4586142897605878 12.611485719680784 9.4586142897605878 12.296198576688768 13.557347148656843 11.980911433696745 10.404475718736647 13.242060005664824 14.503208577632902 14.187921434640886 17.025505721569065 11.035050004720686 22.070100009441376 11.350337147712706 10.089188575744627 9.4586142897605878 9.773901432752611 19.863090008497242 9.4586142897605878 59.904557168483734 10.089188575744627
leaf_count=44 37 34 48 52 39 55 32 30 40 30 39 43 38 33 42 46 45 54 35 70 36 32 30 31 63 30 190 32
internal_value=-1.20214 -1.18344 -1.17332 -1.20636 -1.21126 -1.1969 -1.19318 -1.18212 -1.17401 -1.21293 -1.21467 -1.2086 -1.19764 -1.19027 -1.22309 -1.2017 -1.19476 -1.19967 -1.19171 -1.21761 -1.18128 -1.20409 -1.1601 -1.20964 -1.15407 -1.22467 -1.22758 -1.22739
internal_weight=419.332 76.6148 55.1753 342.717 225.746 116.972 100.577 43.1943 33.7357 213.449 199.577 116.972 52.9682 40.9873 82.6052 57.3823 42.8791 30.5829 21.1242 64.0033 25.5383 22.3854 40.0415 21.4395 30.5829 41.6179 69.3632 32.1593
internal_count=1330 243 175 1087 716 371 319 137 107 677 633 371 168 130 262 182 136 97 67 203 81 71 127 68 97 132 220 102
is_linear=0
shrinkage=1


Tree=1
num_leaves=31
num_cat=0
split_feature=56 65 10 41 46 37 37 58 66 41 27 42 49 42 51 37 28 42 60 66 42 64 64 38 25 39 26 36 69 61
split_gain=23.2364 19.8565 12.7296 7.40311 11.9305 9.94974 7.94163 6.76731 6.03022 5.49457 5.94944 5.05738 5.01128 4.98969 4.91897 4.77351 4.50066 4.25449 5.97072 4.63736 3.73691 3.60597 5.05813 7.07778 3.41191 2.95254 2.69608 2.59354 2.41162 2.80737
threshold=2864369.7500000005 59.434591293334968 0.18511608988046649 6.8400714397430429 4.2005639076232919 43.094366073608406 40.585296630859382 -0.0079349223524332029 -109.51755905151366 6.1087143421173105 0.14470285177230838 7.2527999877929696 0.22768291831016543 6.2424750328063974 -1.0481698513031004 37.33808898925782 20.500000000000004 3.9559500217437749 -0.021467307582497593 -744.81350708007801 7.9981999397277841 0.018469606526196006 0.021976534277200702 0.12579090893268588 0.032185362651944167 0.18524368852376941 0.083267576992511763 0.03965278901159764 -0.44131606817245478 0.023006930947303775
decision_type=2 2 10 2 2 2 2 2 2 2 2 2 2 2 2 2 2 2 2 2 2 2 2 2 2 10 2 2 2 2
left_child=1 7 3 4 6 15 -2 -1 9 10 16 -7 -10 21 26 -5 -6 -4 -19 -20 -17 -14 -23 -24 -16 -13 -9 28 -21 -30
right_child=2 -3 17 5 8 11 -8 14 12 -11 -12 25 13 -15 24 20 -18 18 19 27 -22 22 23 -25 -26 -27 -28 -29 29 -31
leaf_value=-0.91997587381536416 -0.91544078783961913 -0.94151425653960452 -0.91352760259214416 -0.92665557714397684 -0.89039201851638983 -0.91949451905299717 -0.94775879475423552 -0.8981034422554357 -0.93008911271063033 -0.89058802616105548 -0.9238693099808778 -0.94414517128479869 -0.92100747272861616 -0.92836207372128332 -0.90123188354765404 -0.92116032639599699 -0.91573817163284577 -0.91420014146419837 -0.92146656586124553 -0.94429268690581714 -0.89947519362533768 -0.88877977198599212 -0.90003937820997959 -0.9280776724163794 -0.88232073400783728 -0.92763332246100128 -0.91813610809045643 -0.94669433766369337 -0.9160718438600951 -0.93688591697706003
leaf_weight=12.230178773403166 12.23017877340317 10.791334211826323 10.791334211826323 16.906423598527908 13.669023334980013 19.424401581287384 14.02873447537422 11.870467633008959 18.345268160104752 17.62584587931633 17.266134738922119 26.25891324877739 16.546712458133698 14.388445615768431 17.985557019710541 10.791334211826326 11.510756492614744 12.589889913797377 15.827290177345274 11.151045352220526 19.064690440893173 11.870467633008955 18.704979300498966 12.949601054191588 24.460357546806335 17.62584587931633 11.510756492614744 28.057468950748444 10.791334211826333 11.151045352220534
leaf_count=34 34 30 30 47 38 54 39 33 51 49 48 73 46 40 50 30 32 35 44 31 53 33 52 36 68 49 32 78 30 31
internal_value=-0.918609 -0.904854 -0.921774 -0.918568 -0.914813 -0.92466 -0.93314 -0.899561 -0.911591 -0.904267 -0.910463 -0.932326 -0.916435 -0.912965 -0.895805 -0.914214 -0.901424 -0.930923 -0.933052 -0.936154 -0.907139 -0.909179 -0.904731 -0.911446 -0.889748 -0.93786 -0.907538 -0.939849 -0.933395 -0.926982
internal_weight=478.416 88.8487 389.567 289.208 179.136 110.072 26.2589 78.0573 152.877 60.0718 42.4459 63.3092 92.8055 74.4602 65.8271 46.7624 25.1798 100.359 89.5681 76.9782 29.856 60.0718 43.525 31.6546 42.4459 43.8848 23.3812 61.1509 33.0934 21.9424
internal_count=1330 247 1083 804 498 306 73 217 425 167 118 176 258 207 183 130 70 279 249 214 83 167 121 88 118 122 65 170 92 61
is_linear=0
shrinkage=1


Tree=2
num_leaves=31
num_cat=0
split_feature=65 63 39 37 39 43 47 51 47 36 34 64 36 49 45 38 32 39 62 27 39 28 43 46 63 66 27 42 58 62
split_gain=45.2195 13.7245 12.3057 11.8718 17.337 12.8143 12.0699 15.1745 10.0927 8.66231 8.53417 8.0449 7.91482 12.8409 22.814 7.417 7.00733 5.61948 4.23836 3.61689 5.3683 4.05095 6.693 3.2061 2.60946 5.08902 4.40053 1.52969 1.47221 1.37377
threshold=70.418407440185561 0.0092630577273666876 -0.085612315684556947 38.584123611450202 -0.20545918494462964 5.2891099452972421 3.794465303421021 -0.84892612695693959 3.4928472042083745 0.031745545566082008 0.037116967141628272 0.0193927800282836 0.044847214594483382 0.51036408543586742 18.435485839843754 -0.21418892592191693 -0.013940566219389437 0.1609364524483681 -0.057275813072919839 0.15784082561731341 -0.036746067926287644 14.500000000000002 6.3233399391174325 4.2926869392395028 0.028879101388156418 -922.24395751953114 0.14005127549171451 5.2258751392364511 -0.0088334525935351831 0.02926936931908131
decision_type=2 2 8 2 10 10 2 2 2 2 2 2 2 2 2 2 2 10 2 2 10 2 10 2 2 2 2 2 2 2
left_child=1 2 -1 4 5 -3 7 -5 -2 -10 -7 -6 13 17 -15 -13 -9 19 -12 20 21 22 -8 -18 28 -26 -27 -22 -14 -25
right_child=8 3 -4 6 11 10 12 16 9 -11 18 15 24 14 -16 -17 23 -19 -20 -21 27 -23 -24 29 25 26 -28 -29 -30 -31
leaf_value=-1.1640550509049539 -1.1472295867319517 -1.1559170948929878 -1.2074166273557534 -1.1651283932143501 -1.1920068283829066 -1.1742324575762111 -1.2263420089770349 -1.1871659088391078 -1.1678339482036721 -1.2009114265783285 -1.1916333502951275 -1.1979186173038583 -1.2155782128868913 -1.1617439651115384 -1.2189366634631378 -1.2263905497592518 -1.1995497792628305 -1.193694281927314 -1.2168675450859761 -1.2242288786015152 -1.2110235746123237 -1.188075983913337 -1.1977599944973714 -1.2110235746123237 -1.228817681056841 -1.194754437182826 -1.2199607474460363 -1.2274730203916644 -1.2285492894308954 -1.2282342676365638
leaf_weight=11.980911433696745 10.089188575744627 9.7739014327526075 10.40447571873665 9.4586142897605878 15.133782863616942 11.665624290704725 11.665624290704729 11.980911433696745 15.133782863616945 12.926772862672804 10.404475718736647 11.665624290704722 14.503208577632902 11.980911433696749 11.350337147712706 24.907684296369556 9.4586142897605914 11.035050004720686 11.665624290704729 29.952278584241867 9.4586142897605914 9.4586142897605878 17.025505721569061 9.4586142897605914 12.296198576688765 13.872634291648867 9.7739014327526075 15.764357149600981 35.627447158098221 9.4586142897605878
leaf_count=38 32 31 33 30 48 37 37 38 48 41 33 37 46 38 36 79 30 35 37 95 30 30 54 30 39 44 31 50 113 30
internal_value=-1.20271 -1.20585 -1.18356 -1.20729 -1.19824 -1.18449 -1.21056 -1.19734 -1.172 -1.1825 -1.19387 -1.20993 -1.21365 -1.20883 -1.1891 -1.21743 -1.20561 -1.21333 -1.20502 -1.21572 -1.21142 -1.20418 -1.2098 -1.21365 -1.22065 -1.21395 -1.20546 -1.22187 -1.22513 -1.2205
internal_weight=419.332 381.182 22.3854 358.797 95.2167 43.5096 263.58 49.8154 38.1497 28.0606 33.7357 51.7071 213.765 127.691 23.3312 36.5733 40.3568 104.36 22.0701 93.325 63.3727 38.1497 28.6911 28.3758 86.0734 35.9427 23.6465 25.223 50.1307 18.9172
internal_count=1330 1209 71 1138 302 138 836 158 121 89 107 164 678 405 74 116 128 331 70 296 201 121 91 90 273 114 75 80 159 60
is_linear=0
shrinkage=1


end of trees

feature_importances:
Column_37=7
Column_39=6
Column_42=6
Column_49=5
Column_64=5
Column_47=4
Column_27=3
Column_36=3
Column_38=3
Column_41=3
Column_51=3
Column_62=3
Column_65=3
Column_66=3
Column_25=2
Column_26=2
Column_28=2
Column_40=2
Column_43=2
Column_45=2
Column_46=2
Column_56=2
Column_58=2
Column_61=2
Column_63=2
Column_10=1
Column_15=1
Column_32=1
Column_33=1
Column_34=1
Column_44=1
Column_60=1
Column_68=1
Column_69=1

parameters:
[boosting: gbdt]
[objective: multiclass]
[metric: multi_logloss]
[tree_learner: serial]
[device_type: cpu]
[data_sample_strategy: bagging]
[data: ]
[valid: ]
[num_iterations: 600]
[learning_rate: 0.03]
[num_leaves: 31]
[num_threads: 0]
[seed: 0]
[deterministic: 0]
[force_col_wise: 0]
[force_row_wise: 0]
[histogram_pool_size: -1]
[max_depth: -1]
[min_data_in_leaf: 30]
[min_sum_hessian_in_leaf: 0.001]
[bagging_fraction: 0.9]
[pos_bagging_fraction: 1]
[neg_bagging_fraction: 1]
[bagging_freq: 5]
[bagging_seed: 3]
[bagging_by_query: 0]
[feature_fraction: 0.9]
[feature_fraction_bynode: 1]
[feature_fraction_seed: 2]
[extra_trees: 0]
[extra_seed: 6]
[early_stopping_round: 0]
[early_stopping_min_delta: 0]
[first_metric_only: 0]
[max_delta_step: 0]
[lambda_l1: 0]
[lambda_l2: 1]
[linear_lambda: 0]
[min_gain_to_split: 0]
[drop_rate: 0.1]
[max_drop: 50]
[skip_drop: 0.5]
[xgboost_dart_mode: 0]
[uniform_drop: 0]
[drop_seed: 4]
[top_rate: 0.2]
[other_rate: 0.1]
[min_data_per_group: 100]
[max_cat_threshold: 32]
[cat_l2: 10]
[cat_smooth: 10]
[max_cat_to_onehot: 4]
[top_k: 20]
[monotone_constraints: ]
[monotone_constraints_method: basic]
[monotone_penalty: 0]
[feature_contri: ]
[forcedsplits_filename: ]
[refit_decay_rate: 0.9]
[cegb_tradeoff: 1]
[cegb_penalty_split: 0]
[cegb_penalty_feature_lazy: ]
[cegb_penalty_feature_coupled: ]
[path_smooth: 0]
[interaction_constraints: ]
[verbosity: -1]
[saved_feature_importance_type: 0]
[use_quantized_grad: 0]
[num_grad_quant_bins: 4]
[quant_train_renew_leaf: 0]
[stochastic_rounding: 1]
[linear_tree: 0]
[max_bin: 255]
[max_bin_by_feature: ]
[min_data_in_bin: 3]
[bin_construct_sample_cnt: 200000]
[data_random_seed: 1]
[is_enable_sparse: 1]
[enable_bundle: 1]
[use_missing: 1]
[zero_as_missing: 0]
[feature_pre_filter: 1]
[pre_partition: 0]
[two_round: 0]
[header: 0]
[label_column: ]
[weight_column: ]
[group_column: ]
[ignore_column: ]
[categorical_feature: ]
[forcedbins_filename: ]
[precise_float_parser: 0]
[parser_config_file: ]
[objective_seed: 5]
[num_class: 3]
[is_unbalance: 0]
[scale_pos_weight: 1]
[sigmoid: 1]
[boost_from_average: 1]
[reg_sqrt: 0]
[alpha: 0.9]
[fair_c: 1]
[poisson_max_delta_step: 0.7]
[tweedie_variance_power: 1.5]
[lambdarank_truncation_level: 30]
[lambdarank_norm: 1]
[label_gain: ]
[lambdarank_position_bias_regularization: 0]
[eval_at: ]
[multi_error_top_k: 1]
[auc_mu_weights: ]
[num_machines: 1]
[local_listen_port: 12400]
[time_out: 120]
[machine_list_filename: ]
[machines: ]
[gpu_platform_id: -1]
[gpu_device_id: -1]
[gpu_use_dp: 0]
[num_gpu: 1]

end of parameters

pandas_categorical:null
